1316 100
اين 0.15314345 -0.053285476 0.10798037 -0.21750318 -0.035841145 -0.13770717 0.57841384 -0.38178957 -0.060398728 0.062930055 0.035023257 0.1265983 -0.037070554 0.1886741 -0.69119114 -0.4095502 0.40901935 0.124562144 0.08652232 -0.46859467 0.24559964 -0.0049797012 0.23574449 0.05430405 0.25844827 -0.10280275 -0.09577323 -0.14283192 0.341945 -0.105684586 -0.3043447 -0.41180158 0.042887907 0.58347416 -0.10407066 0.21347627 0.12168068 0.12179352 0.14627029 -0.047586128 -0.387884 -0.033434223 0.23669656 0.10740114 0.32751703 -0.43165016 0.29837182 -0.30897886 0.38092914 0.1617277 -0.18011028 -0.31374815 -0.01805306 0.056066174 -0.25664723 -0.12198029 0.47551042 -0.71993697 -0.02882273 0.29559305 -0.14996329 0.084915 -0.09429507 0.4924114 0.18082987 -0.49687394 -0.430516 -0.034251675 0.08470517 -0.03685845 0.33291915 0.1590658 -0.19171672 -0.15344551 -0.13657892 0.22988382 0.37782997 0.21978971 -0.0413734 -0.4692327 -0.05751617 0.1737552 -0.26229736 -0.30503172 -0.030576361 0.34222192 0.0644818 0.15951245 0.34760895 -0.33155146 0.015072853 -0.2834135 0.020327639 -0.054244712 -0.028984273 0.0025732948 -0.019199125 0.097147495 0.59169036 0.24341208
گوشي 0.14639477 -0.050767615 0.097193316 -0.22369178 -0.023169817 -0.14290118 0.5806947 -0.38076046 -0.04519237 0.05802696 0.025866592 0.113177955 -0.04343082 0.1821913 -0.6970917 -0.40519315 0.41873592 0.120543025 0.09321444 -0.49200374 0.24850042 0.0050877305 0.22684787 0.065625116 0.26242587 -0.11545089 -0.108231224 -0.1466043 0.33814678 -0.11841218 -0.31766012 -0.42784625 0.04365109 0.594298 -0.114316605 0.22392772 0.13199405 0.124519736 0.14073752 -0.053612694 -0.39750674 -0.02878281 0.22798587 0.12350351 0.32663393 -0.43311447 0.29417464 -0.29621485 0.38860196 0.16643894 -0.18514897 -0.3111363 -0.031540997 0.056204204 -0.26564026 -0.10496943 0.47437114 -0.7212306 -0.03165571 0.294471 -0.15126234 0.09257137 -0.11640382 0.4810713 0.18831633 -0.492293 -0.42637596 -0.05600319 0.07031877 -0.039276622 0.34675482 0.14810942 -0.18843949 -0.15402669 -0.13559918 0.22953334 0.38157555 0.22231713 -0.045668494 -0.48636436 -0.06264418 0.17673494 -0.27191547 -0.3137692 -0.025767194 0.3363386 0.06692255 0.15789403 0.35755682 -0.33143046 0.029936709 -0.27879697 0.012616372 -0.05356253 -0.027025202 0.0104293125 -0.02235154 0.0978036 0.6010379 0.24764764
دوربین 0.12044171 -0.0073511302 0.05326902 -0.16175638 0.20183769 -0.15175003 0.6173948 -0.37987962 -0.047406767 -0.06490891 -0.03681117 0.036482327 -0.043896873 0.23009332 -0.75784373 -0.4250188 0.45558277 0.0049951347 0.12955925 -0.5917055 0.1679317 0.0414497 0.17926635 0.1318178 0.27926114 -0.19058073 -0.19457088 -0.16731468 0.344257 -0.24825259 -0.34138823 -0.486368 0.0052377153 0.6197469 -0.2621415 0.20411326 0.076563105 0.15710093 0.17112698 -0.037124276 -0.4563894 -0.0650964 0.24890758 0.19524267 0.23812768 -0.46738252 0.3548656 -0.23127031 0.42094153 0.1011606 -0.21435817 -0.3344726 0.00559402 0.08809365 -0.27132705 -0.13818465 0.55775607 -0.7374185 -0.08967758 0.30901334 -0.24990004 0.16249813 -0.12243908 0.52865237 0.1597476 -0.46645373 -0.4544538 -0.17314044 0.010332352 -0.0907808 0.48453483 0.10649006 -0.24432084 -0.085351236 -0.17006586 0.093606554 0.41543758 0.18165329 -0.101521164 -0.6409236 -0.034156404 0.109057724 -0.25533745 -0.3066311 -0.07653746 0.4300629 0.14482522 0.1622739 0.41553137 -0.40986654 0.14893584 -0.24451014 -0.16953877 0.054977678 -0.04049863 0.01803319 -0.09944524 0.103480324 0.6886129 0.20126016
صفحه 0.11061963 -0.004373069 0.07784339 -0.17066722 0.16913831 -0.13790858 0.6000467 -0.35118523 -0.014562623 -0.07008978 -0.039352328 0.053725544 -0.018344468 0.2295104 -0.726359 -0.42458555 0.41101715 0.044680137 0.08490812 -0.5200776 0.18210842 0.019712737 0.16032726 0.10249185 0.2549202 -0.14587969 -0.18257384 -0.15477523 0.30257028 -0.17768227 -0.30950874 -0.44456154 0.033211038 0.5971528 -0.24082701 0.20696032 0.07083747 0.13163033 0.15688647 -0.030283563 -0.43289757 -0.059656106 0.2681815 0.15914726 0.25725043 -0.42617562 0.34212798 -0.2271189 0.37970316 0.10543497 -0.20400539 -0.3206264 -0.041782565 0.04098289 -0.27963522 -0.16120055 0.48234248 -0.69766974 -0.09375564 0.30197924 -0.21727979 0.14152648 -0.062935345 0.50426346 0.16152309 -0.45371276 -0.38244355 -0.11985333 0.046713136 -0.115659125 0.4231436 0.13165806 -0.2045049 -0.071979746 -0.1392306 0.1384809 0.414894 0.16307548 -0.099068075 -0.57700235 -0.013960186 0.110063694 -0.24697015 -0.28331533 -0.068953805 0.39670566 0.089673355 0.1600208 0.3716785 -0.3901216 0.10307225 -0.25553876 -0.07789216 0.054730542 -0.073075496 0.02629601 -0.09599946 0.068179496 0.6168302 0.20747964
هاي 0.14978842 -0.045124542 0.100258864 -0.19778377 0.026637198 -0.13740079 0.6079143 -0.3738825 -0.0558227 0.039351795 0.0023791322 0.11476223 -0.044233203 0.20472509 -0.7131836 -0.41225806 0.43505743 0.089938745 0.097032435 -0.51465523 0.23413713 0.013969993 0.23478083 0.069965266 0.2705346 -0.13345702 -0.117209725 -0.15742818 0.34478167 -0.14625779 -0.32576084 -0.43824798 0.023481976 0.6068145 -0.15067582 0.22834024 0.12202473 0.13084283 0.15984537 -0.052199036 -0.40471038 -0.02741123 0.23621774 0.13463391 0.31388578 -0.44153714 0.30189374 -0.30571136 0.40286458 0.15784751 -0.18342687 -0.3320198 -0.02032611 0.06981402 -0.25985017 -0.10627467 0.5010363 -0.72658753 -0.057386413 0.29477218 -0.18234427 0.12124207 -0.116061345 0.5103022 0.17713192 -0.4935045 -0.44688502 -0.084457844 0.05302034 -0.041222338 0.39265907 0.1485832 -0.1846932 -0.13246343 -0.13729186 0.20025006 0.4006392 0.21665812 -0.05920032 -0.5145732 -0.063762 0.15048443 -0.27227187 -0.32190225 -0.033361737 0.36597922 0.07781182 0.17551714 0.36860353 -0.36035755 0.04930891 -0.2637976 -0.03682155 -0.028328309 -0.028792055 -0.0010298063 -0.027144633 0.10681029 0.6110196 0.24055852
مي 0.14540216 -0.043671623 0.09747875 -0.21482338 0.03547299 -0.1552933 0.63067716 -0.393539 -0.05553146 0.025525333 0.007162066 0.1098041 -0.04689733 0.21609518 -0.74981654 -0.43262136 0.45339432 0.093990825 0.10697558 -0.54010475 0.24257648 0.007606232 0.22911248 0.07592289 0.29000217 -0.13569024 -0.12755932 -0.1656888 0.36354938 -0.15168512 -0.33405474 -0.45877203 0.030939199 0.63236254 -0.16695966 0.23551853 0.12021355 0.14108048 0.16134703 -0.045761522 -0.4237285 -0.031218676 0.25054994 0.14095208 0.32736492 -0.46270242 0.32067588 -0.30850965 0.41915384 0.15571406 -0.19380839 -0.3462741 -0.014234061 0.07805069 -0.28069556 -0.11662969 0.5159054 -0.76278746 -0.060988773 0.30358866 -0.19464853 0.12968929 -0.112389095 0.5287244 0.1838676 -0.5020298 -0.45539618 -0.09002508 0.06055985 -0.052212432 0.40514746 0.1477175 -0.20169541 -0.1452791 -0.14977956 0.2019563 0.40917924 0.22532026 -0.07145183 -0.5500158 -0.06156869 0.15583125 -0.28345305 -0.32289934 -0.039005466 0.38139063 0.095201164 0.17792656 0.37695137 -0.37651372 0.0631289 -0.28013724 -0.040054142 -0.017715096 -0.028813705 0.011161323 -0.03811798 0.111566566 0.65207654 0.24115476
تبلت 0.12119442 -0.023779871 0.07394977 -0.18199497 0.11440076 -0.15319192 0.593477 -0.36428928 -0.04329091 -0.024149776 -0.020244189 0.066540815 -0.042556923 0.20809558 -0.7287278 -0.41225585 0.42685583 0.04971748 0.10980499 -0.54800195 0.18790606 0.021967292 0.20486419 0.10378433 0.26090854 -0.14651856 -0.15291828 -0.1641557 0.33403927 -0.19351482 -0.33171195 -0.4526195 0.013551593 0.6108098 -0.2043606 0.21081214 0.095947266 0.14133765 0.16028187 -0.042176697 -0.41958097 -0.051327325 0.22837642 0.1621713 0.262336 -0.45010516 0.3204431 -0.26132745 0.40181524 0.13301378 -0.19583157 -0.32144296 -0.0031063736 0.06302778 -0.26989394 -0.12081144 0.51916945 -0.7215127 -0.07165844 0.2942096 -0.20686148 0.14514238 -0.10624069 0.4998326 0.17723376 -0.4700195 -0.44594878 -0.115486965 0.025209038 -0.06750984 0.43524083 0.12172599 -0.21206282 -0.11633545 -0.15152173 0.1476955 0.40120396 0.19403209 -0.09155455 -0.5636854 -0.04604849 0.13115919 -0.25909698 -0.30449083 -0.05518055 0.37964058 0.11124391 0.16315079 0.37556395 -0.37264928 0.097692005 -0.24174374 -0.097454846 0.018127242 -0.032684457 0.009813775 -0.072854176 0.0874321 0.6494085 0.22618224
خيلي 0.14607435 -0.04238182 0.10048394 -0.21762258 0.0013283761 -0.15052521 0.5952418 -0.38724077 -0.04866676 0.033344235 0.021071754 0.110818 -0.04172109 0.20791385 -0.71564615 -0.42084363 0.41579586 0.10473548 0.09382554 -0.489324 0.23715262 0.0012145214 0.21207511 0.07059433 0.26698607 -0.11352194 -0.11910715 -0.14474729 0.3412037 -0.13568759 -0.3230024 -0.42914248 0.025526512 0.6145971 -0.148332 0.21695393 0.11156276 0.1352541 0.15466832 -0.043097682 -0.40012637 -0.03941677 0.24584244 0.124564014 0.31898314 -0.4409024 0.3070404 -0.295119 0.39478898 0.14327857 -0.19154316 -0.33054063 -0.029769836 0.06405876 -0.2712819 -0.12763871 0.4787487 -0.7287497 -0.047193304 0.29043806 -0.16459166 0.11244374 -0.11490306 0.50048363 0.1852342 -0.48562282 -0.43164432 -0.059220783 0.07963094 -0.05078438 0.36422136 0.15759419 -0.19368526 -0.14289942 -0.13003959 0.2107215 0.39049616 0.21439086 -0.05865353 -0.4977011 -0.06600429 0.16403031 -0.25732386 -0.3177111 -0.04074023 0.35397816 0.08089717 0.16757551 0.36752468 -0.34058484 0.054210994 -0.27511945 -0.003271761 -0.033295795 -0.021968024 0.0031071429 -0.036573008 0.10988315 0.6133748 0.23465984
نظر 0.13446955 -0.034380957 0.09314922 -0.19914976 0.0531736 -0.14209707 0.6106048 -0.38447762 -0.050886422 0.011064298 0.0025475181 0.09364209 -0.043639883 0.20647575 -0.7196359 -0.41473204 0.4331754 0.074691 0.098975524 -0.5246525 0.21308495 0.016026331 0.2170318 0.092117235 0.26565757 -0.13638271 -0.1313941 -0.15332414 0.3446423 -0.1687417 -0.3240696 -0.45211527 0.02017564 0.6165133 -0.17089361 0.2198438 0.10280127 0.1391914 0.16146512 -0.050693333 -0.41020742 -0.044262297 0.23811404 0.14839448 0.29924625 -0.4430961 0.31484196 -0.28579152 0.39903313 0.14366601 -0.19439755 -0.33013278 -0.012715503 0.07132595 -0.2686037 -0.12687407 0.5088184 -0.72466135 -0.0643481 0.28911114 -0.1912379 0.123065405 -0.11283723 0.5086644 0.17713822 -0.48337534 -0.44381425 -0.088916816 0.049131665 -0.054567818 0.40457004 0.13536718 -0.2042302 -0.12763941 -0.14703843 0.17688824 0.40012604 0.2126717 -0.07445376 -0.5378255 -0.058516335 0.14272647 -0.2685026 -0.3137466 -0.041843273 0.36986485 0.09092011 0.1625131 0.37988037 -0.36663008 0.07079247 -0.2699349 -0.056872718 -0.012007119 -0.029381907 0.00587344 -0.051034957 0.10360218 0.6417786 0.23335654
داره 0.14875555 -0.033680223 0.09666111 -0.2061373 0.014141347 -0.13958262 0.60076845 -0.38083276 -0.041630063 0.026512144 0.014954937 0.104778334 -0.03467298 0.20346348 -0.7148243 -0.42089412 0.42618245 0.09511202 0.09069269 -0.5047662 0.23091953 0.0032265806 0.22163692 0.070231795 0.26837495 -0.12974335 -0.12838121 -0.15343681 0.3432926 -0.14297256 -0.31972513 -0.42694062 0.031869415 0.6189959 -0.14870106 0.21993847 0.118296176 0.13393061 0.1497691 -0.04461248 -0.40311202 -0.031705786 0.24644709 0.1367707 0.32331076 -0.4338019 0.30729365 -0.2886398 0.40342095 0.14610933 -0.18108815 -0.33244976 -0.025189871 0.07206568 -0.2674143 -0.11574833 0.49194402 -0.7245584 -0.051955286 0.29119608 -0.16717388 0.11632469 -0.11504669 0.49822432 0.18107826 -0.48651972 -0.42283362 -0.07091733 0.065945424 -0.053071503 0.37434155 0.15574995 -0.18852635 -0.1384015 -0.13036741 0.20879625 0.39364344 0.21208745 -0.0703262 -0.507615 -0.064440355 0.15097389 -0.26210317 -0.31767172 -0.04630852 0.35362834 0.08253443 0.17059726 0.37025082 -0.34065226 0.055869643 -0.27530384 -0.014561445 -0.02395758 -0.027621794 0.005633476 -0.027350992 0.107803896 0.61552316 0.23667504
براي 0.14863233 -0.041465588 0.092936836 -0.2173893 0.040698454 -0.15623187 0.6361844 -0.4001592 -0.060934685 0.027704684 0.0075980374 0.11115957 -0.034139033 0.21121763 -0.75039417 -0.4334509 0.45634136 0.08530457 0.101376496 -0.5395179 0.23704855 0.018894423 0.23976874 0.08239557 0.2825689 -0.14217405 -0.13747758 -0.1655416 0.3605344 -0.15530285 -0.3467585 -0.46258017 0.03594033 0.6344315 -0.16809033 0.23286185 0.12764996 0.14201634 0.16455139 -0.05476307 -0.42685828 -0.035935886 0.25045925 0.14527968 0.32681802 -0.45545033 0.319356 -0.30549705 0.4246461 0.1597602 -0.2049133 -0.33910176 -0.022153659 0.073437944 -0.2820875 -0.12402354 0.52502114 -0.7604584 -0.056095783 0.30754203 -0.18928286 0.12570223 -0.12098209 0.5284379 0.18532026 -0.5176519 -0.46623123 -0.09197223 0.050146062 -0.056849163 0.41725296 0.15112583 -0.20502672 -0.1442913 -0.15336671 0.19420795 0.40838626 0.21924879 -0.067590885 -0.5492912 -0.06732185 0.16364297 -0.2858507 -0.32640564 -0.044574436 0.38551313 0.09037286 0.17944513 0.380571 -0.3786838 0.06464056 -0.28682697 -0.047335085 -0.021610657 -0.032333 0.0153261 -0.037625317 0.10275076 0.64782333 0.24164708
گوشی 0.11663794 -0.0069832373 0.06752977 -0.14053236 0.18892843 -0.1474263 0.58677256 -0.3564543 -0.03941117 -0.07492921 -0.04393506 0.04055434 -0.044988737 0.2203792 -0.7186137 -0.40034676 0.41459337 0.0066630053 0.11460297 -0.570317 0.14840378 0.039005466 0.1796659 0.1284638 0.25151154 -0.17316793 -0.1855932 -0.15782963 0.3224263 -0.24265948 -0.32982466 -0.46115768 -0.0072572706 0.59783304 -0.248608 0.21018127 0.07146919 0.14243412 0.16546138 -0.036811702 -0.42496893 -0.06068463 0.22646527 0.18399999 0.21430151 -0.436872 0.3264098 -0.21779974 0.39640388 0.111954555 -0.20033886 -0.30487686 0.0051151398 0.06766398 -0.2734549 -0.12768537 0.5318278 -0.7022191 -0.08570706 0.28084984 -0.23800346 0.16032158 -0.10221721 0.4944804 0.15492825 -0.44917473 -0.44161466 -0.16627054 0.0017188383 -0.09373067 0.46944255 0.09907165 -0.21884409 -0.08757297 -0.15642323 0.08835557 0.3938476 0.17609175 -0.10436398 -0.6030604 -0.04893605 0.10345015 -0.24508892 -0.28512552 -0.07248212 0.38647816 0.13695002 0.15579194 0.37943003 -0.39099926 0.13482523 -0.23165916 -0.16249593 0.055666942 -0.044677995 0.023562603 -0.1025435 0.07877523 0.6561472 0.19767344
دوربين 0.13285375 -0.028099323 0.091412894 -0.20530336 0.0049208794 -0.14340766 0.5579864 -0.36035085 -0.04154687 0.035765186 0.026401768 0.09552893 -0.036787182 0.19429669 -0.68708247 -0.39914078 0.401394 0.09564379 0.082583405 -0.4769693 0.22525111 0.0040292116 0.20411853 0.068963535 0.25629368 -0.10896001 -0.12069417 -0.13964964 0.31819436 -0.12932822 -0.3047522 -0.4192421 0.03559306 0.56706995 -0.12903833 0.20821947 0.113174476 0.12517947 0.14423417 -0.03705103 -0.38350812 -0.03359598 0.22537804 0.13242106 0.3082511 -0.4200768 0.2985705 -0.27978668 0.38270906 0.14363027 -0.18272291 -0.31483772 -0.032043383 0.05366516 -0.2592218 -0.11781398 0.4608529 -0.6967564 -0.045621183 0.2780487 -0.16342884 0.103745446 -0.109904096 0.474887 0.18072663 -0.46056703 -0.408018 -0.062092084 0.069904745 -0.050406836 0.3510038 0.13809116 -0.18569803 -0.13706614 -0.12284851 0.20534885 0.3756226 0.20492639 -0.050105844 -0.47799328 -0.048616186 0.16096686 -0.24832693 -0.29883784 -0.038897064 0.3483969 0.07242624 0.14775522 0.34855065 -0.32724804 0.04597382 -0.25853872 -0.0071460255 -0.025786621 -0.02800143 0.005495938 -0.035180297 0.10858288 0.58669215 0.22557355
ولي 0.14757644 -0.03590661 0.09399502 -0.20676239 0.021271879 -0.14147489 0.6052934 -0.378671 -0.04288787 0.03198331 0.010864872 0.11164305 -0.034209404 0.20862155 -0.71798843 -0.4230642 0.42389506 0.091840394 0.09225599 -0.50875473 0.22876541 0.011403706 0.2220823 0.07740444 0.26747286 -0.1307642 -0.1229306 -0.15826182 0.33544198 -0.14140698 -0.31803015 -0.4299069 0.031105734 0.62387234 -0.15659665 0.21606097 0.11949106 0.1345833 0.1494852 -0.040796224 -0.40567917 -0.03424659 0.24786687 0.12878773 0.31173578 -0.43693495 0.3085295 -0.29007345 0.40162274 0.14528343 -0.18296385 -0.32208663 -0.031469934 0.0724463 -0.26568347 -0.11284503 0.496398 -0.7366821 -0.0543064 0.2967289 -0.17121015 0.11134417 -0.112641215 0.5084278 0.18444437 -0.4913166 -0.44112152 -0.076961905 0.06522506 -0.052149378 0.38803026 0.1545038 -0.1910453 -0.12731346 -0.12817459 0.19702497 0.39626622 0.21505281 -0.06884054 -0.5148912 -0.0585702 0.15173765 -0.26700312 -0.31566176 -0.045773696 0.35354477 0.086353 0.17267196 0.3726355 -0.34069502 0.05546854 -0.27481732 -0.020881364 -0.023410067 -0.025622688 0.0015527707 -0.03091227 0.106906794 0.61927176 0.2334612
يک 0.14702429 -0.04104596 0.10105236 -0.2151116 0.04416526 -0.15024537 0.63694 -0.40171316 -0.062183578 0.021359144 0.008554552 0.10851701 -0.03999981 0.21765186 -0.7650126 -0.43589506 0.4528268 0.089440875 0.1043754 -0.55392945 0.23818378 0.0125149395 0.23069708 0.08160322 0.2817924 -0.13458699 -0.13587351 -0.16642608 0.37143776 -0.16617966 -0.3506148 -0.46797875 0.027759127 0.64363194 -0.17127639 0.23059888 0.12411434 0.13730766 0.16627106 -0.052997816 -0.4415876 -0.0403337 0.24692439 0.15516713 0.31591904 -0.4728047 0.33488336 -0.29704028 0.4202337 0.16071206 -0.20275661 -0.34390736 -0.018674165 0.07344088 -0.28529453 -0.13207053 0.53136605 -0.775733 -0.05571383 0.31444556 -0.19472043 0.12818663 -0.10963149 0.53019917 0.1924428 -0.5215569 -0.46808633 -0.08999313 0.052221816 -0.051574267 0.42666292 0.14243086 -0.20900974 -0.13767035 -0.14697908 0.19109546 0.4123713 0.21406168 -0.06515551 -0.5633639 -0.06063709 0.15492679 -0.28222442 -0.32803595 -0.042360567 0.38348395 0.10156692 0.17585193 0.3931877 -0.39057028 0.060636953 -0.28329784 -0.052350264 -0.024547547 -0.02816331 0.010487546 -0.045331795 0.10181973 0.6681004 0.24846485
کيفيت 0.14396495 -0.022911787 0.09338456 -0.20029578 0.05143581 -0.14342014 0.60659206 -0.37978753 -0.048548367 0.009029328 0.0072341324 0.09018361 -0.033740856 0.20846356 -0.73693436 -0.42391336 0.43223482 0.09260696 0.08574096 -0.51220226 0.23115438 0.00079704565 0.21238965 0.07826875 0.2747421 -0.1316811 -0.1399761 -0.15363292 0.34208134 -0.14532244 -0.32340324 -0.44144303 0.020027697 0.6228069 -0.16378687 0.2126947 0.10890695 0.1432282 0.16903684 -0.033049036 -0.4226135 -0.03751323 0.26493496 0.14620697 0.32714877 -0.4545274 0.32668784 -0.28424576 0.41693023 0.13757741 -0.19676451 -0.34688863 -0.03631343 0.07050978 -0.2761428 -0.13915364 0.50191516 -0.74817896 -0.060904875 0.30851582 -0.18325913 0.120913036 -0.105192676 0.5188316 0.18913239 -0.49987695 -0.42276502 -0.07967478 0.06503829 -0.066711955 0.38382548 0.14482954 -0.20084779 -0.1264935 -0.14083523 0.19766179 0.40640867 0.22071975 -0.06879312 -0.5317939 -0.05196698 0.15590619 -0.25928512 -0.32019553 -0.051766317 0.37259072 0.09018414 0.17143133 0.37216496 -0.35218257 0.075548604 -0.26734492 -0.023470625 -0.013129336 -0.036934745 0.010462527 -0.04422733 0.11483315 0.64790434 0.23949426
کار 0.14201501 -0.028392136 0.09013132 -0.19406354 0.081743956 -0.15147315 0.6243878 -0.38581368 -0.040935535 -0.0064234845 -0.011960411 0.08681574 -0.04578318 0.21532072 -0.74216545 -0.43285158 0.44713467 0.06603413 0.10160156 -0.5526918 0.22045653 0.023941422 0.2210231 0.09103565 0.28141737 -0.14719076 -0.14964464 -0.15870012 0.35145116 -0.19069746 -0.34269243 -0.46996534 0.023545777 0.63542205 -0.19628653 0.22373267 0.1051466 0.14298618 0.17112516 -0.04750699 -0.42525706 -0.04196228 0.25158313 0.1614877 0.30107185 -0.46519318 0.3387522 -0.2841361 0.41152084 0.14280273 -0.20322374 -0.33170763 -0.013775797 0.07604799 -0.28281072 -0.12497851 0.52124786 -0.75965923 -0.058610592 0.30648467 -0.20039277 0.1364665 -0.1125754 0.5319764 0.18067235 -0.49744838 -0.45299938 -0.1128942 0.047655318 -0.07221818 0.42289633 0.13276134 -0.21595374 -0.12118677 -0.14325705 0.1750164 0.41680282 0.20740204 -0.07206027 -0.57478935 -0.055074908 0.14719906 -0.27746177 -0.31568334 -0.04647365 0.39581075 0.106722325 0.16732992 0.38720757 -0.38973847 0.07491216 -0.27406487 -0.07277975 0.002192898 -0.02665827 0.020426502 -0.062839456 0.09515596 0.6599836 0.2300779
! 0.13085175 -0.028867098 0.082605146 -0.18673575 0.06381998 -0.13650215 0.5837855 -0.35984257 -0.050860208 0.0044219345 -0.00052226475 0.08953657 -0.03380613 0.197155 -0.6934215 -0.40630752 0.4130685 0.06488582 0.09567504 -0.50942904 0.19959302 0.017901294 0.20453213 0.08041738 0.2630902 -0.13767573 -0.13964526 -0.1531476 0.3280444 -0.15986253 -0.30927175 -0.43347803 0.026285179 0.5860276 -0.1711294 0.20865472 0.099463165 0.13362561 0.15430775 -0.048319124 -0.39575478 -0.042918783 0.2247458 0.14641763 0.27932048 -0.42277768 0.3042482 -0.26154464 0.3900608 0.12952787 -0.18250097 -0.31754252 -0.015150147 0.06574209 -0.25516784 -0.11532658 0.48795134 -0.7019744 -0.06101979 0.28120357 -0.18514141 0.12177348 -0.09939871 0.48651114 0.1665986 -0.45815307 -0.42164424 -0.09373597 0.044257544 -0.05953211 0.4004633 0.12663898 -0.19376795 -0.11328388 -0.133816 0.16855124 0.38517192 0.19367664 -0.07068815 -0.52750194 -0.052535105 0.1403948 -0.25588816 -0.3019656 -0.04918097 0.35904345 0.091976464 0.16056897 0.35617316 -0.35490596 0.06850597 -0.25031063 -0.06101378 -0.0035855917 -0.027532015 0.016356451 -0.052505877 0.094647035 0.6081251 0.22022963
قرار 0.14128534 -0.010913753 0.077729 -0.18226434 0.16552646 -0.16395752 0.67908925 -0.4218177 -0.051677708 -0.048372447 -0.03510215 0.06328182 -0.050927434 0.24803904 -0.8164507 -0.46717653 0.48227486 0.032828797 0.12506649 -0.6284207 0.19468051 0.041558255 0.21529302 0.13184607 0.29779488 -0.17956991 -0.1829965 -0.18322068 0.37156737 -0.24720335 -0.36819744 -0.5118747 0.0029347348 0.67574984 -0.24740443 0.23456386 0.09689295 0.16031744 0.17878366 -0.045271818 -0.47992572 -0.05005844 0.2632651 0.20687407 0.2721154 -0.4962565 0.366141 -0.27141294 0.45547017 0.13806733 -0.22790816 -0.36774057 0.00091099826 0.08452263 -0.30018675 -0.14777926 0.59094554 -0.80973554 -0.08765905 0.32021347 -0.2555355 0.16962072 -0.116810285 0.5672712 0.18498099 -0.5234031 -0.4969271 -0.15957431 0.022705758 -0.091223374 0.509939 0.120355725 -0.24726264 -0.109404646 -0.16918586 0.13422254 0.4545779 0.20811476 -0.10011957 -0.66227174 -0.054719917 0.13755502 -0.28451768 -0.33840403 -0.07046546 0.4414472 0.14027232 0.17381644 0.42770627 -0.4415953 0.12092192 -0.2799965 -0.14618008 0.039536253 -0.045698673 0.017719941 -0.09588906 0.10596397 0.73681563 0.23820771
مدل 0.1265157 -0.023393879 0.06989629 -0.19602922 0.1073081 -0.1551863 0.62059 -0.3883453 -0.055000942 -0.016519748 -0.0112842955 0.08255945 -0.031251002 0.22697839 -0.75838053 -0.43331325 0.45263878 0.059289556 0.11561374 -0.567305 0.19787294 0.022118203 0.21529111 0.10520715 0.2834045 -0.15907896 -0.15006611 -0.16966382 0.345864 -0.19860467 -0.34516934 -0.4688138 0.01917961 0.632113 -0.20186159 0.21838692 0.103776194 0.13305771 0.15943697 -0.05341127 -0.4338711 -0.049167033 0.23669757 0.17412692 0.27766708 -0.46645778 0.3399378 -0.277711 0.4147629 0.13213612 -0.21034254 -0.33423707 -0.0048414026 0.067854665 -0.2824032 -0.12790105 0.5432447 -0.7531454 -0.07048152 0.29809988 -0.22135252 0.13693197 -0.12320482 0.5193397 0.17551765 -0.48807704 -0.47260222 -0.119483404 0.02122928 -0.062568046 0.4532052 0.13230753 -0.2117861 -0.12274842 -0.15908557 0.16070706 0.41879767 0.196946 -0.091365986 -0.5908544 -0.05931125 0.13799077 -0.27605787 -0.32219282 -0.0452029 0.3915507 0.11449793 0.16452454 0.39857626 -0.38975284 0.09529887 -0.26721296 -0.098754026 0.012413157 -0.028856644 0.013489916 -0.066168316 0.09871519 0.6700275 0.23385996
يه 0.154171 -0.04621264 0.098259516 -0.22068456 0.05049695 -0.15838668 0.66178554 -0.41449398 -0.053707916 0.014843218 -0.0007778284 0.11026689 -0.039746746 0.23198411 -0.79278755 -0.46541232 0.4682359 0.08552781 0.105786555 -0.56136906 0.24176061 0.01339725 0.23123407 0.09045254 0.2940513 -0.14178862 -0.1446319 -0.17151223 0.3802285 -0.16586632 -0.35790986 -0.4824655 0.026627276 0.67687154 -0.18178676 0.23840111 0.11595513 0.15006499 0.16818772 -0.055571996 -0.45270383 -0.039492868 0.2720471 0.15645677 0.33941194 -0.481073 0.34027585 -0.31158468 0.440165 0.15503725 -0.20643993 -0.36286515 -0.019335832 0.07870373 -0.30082723 -0.12854372 0.5477935 -0.808971 -0.06673717 0.33011663 -0.20375562 0.13494742 -0.11708707 0.5625533 0.19890195 -0.5337087 -0.4854049 -0.08929984 0.06210282 -0.05772699 0.43635604 0.16223465 -0.21250987 -0.13907515 -0.15760303 0.20810774 0.4302678 0.22762774 -0.07488765 -0.5861785 -0.0584103 0.16373155 -0.29520643 -0.34803474 -0.04627137 0.39729273 0.10720979 0.18281981 0.4130629 -0.39119357 0.06935361 -0.2960758 -0.039259285 -0.010013473 -0.031687345 0.011947166 -0.045472376 0.11130897 0.6865184 0.25739676
نسبت 0.13930775 -0.030328304 0.085132666 -0.1988414 0.0870987 -0.15718037 0.62162155 -0.38584328 -0.04129474 -0.0012046448 -0.0017945059 0.084960714 -0.047579866 0.2115435 -0.7485428 -0.4236575 0.43915617 0.07498414 0.10072885 -0.5413563 0.21774347 0.009960909 0.21236427 0.09956759 0.2785766 -0.14517248 -0.13993739 -0.16723073 0.34855494 -0.1823123 -0.34054023 -0.4594616 0.008887065 0.627148 -0.19884875 0.2258944 0.11072692 0.13412455 0.16224056 -0.04960959 -0.4233071 -0.045141377 0.23749116 0.15108262 0.28643498 -0.4611901 0.3382385 -0.2785077 0.4128909 0.14156455 -0.20747453 -0.34190163 -0.006433559 0.07270599 -0.2840533 -0.13948606 0.51860625 -0.74094564 -0.07159576 0.29797572 -0.19647694 0.14101428 -0.107883744 0.5265916 0.17518482 -0.49178058 -0.45474094 -0.11218862 0.051745437 -0.06995354 0.43160322 0.13128558 -0.21500221 -0.12314747 -0.14449278 0.16415533 0.40737143 0.20632236 -0.08229618 -0.565246 -0.04840034 0.1454747 -0.26654854 -0.31790474 -0.04432134 0.38524452 0.10170997 0.16887356 0.38914257 -0.37255815 0.07567711 -0.27653283 -0.07927431 0.010430233 -0.036632027 0.0014370738 -0.05621097 0.10080572 0.6586055 0.23376273
ميشه 0.14977302 -0.03909001 0.09560208 -0.21261434 0.052492518 -0.15983404 0.6361459 -0.40538922 -0.049455997 0.00869508 0.00434662 0.10292234 -0.03790062 0.22265533 -0.7714807 -0.44185916 0.45810166 0.088672124 0.10638774 -0.5471795 0.23847641 0.012278105 0.22921948 0.08894543 0.2900718 -0.14452474 -0.14112134 -0.1628331 0.37182248 -0.17384501 -0.34960604 -0.46925077 0.024320561 0.6523736 -0.17614147 0.22301832 0.117328815 0.14177053 0.16649263 -0.04766476 -0.43951908 -0.043273106 0.26311815 0.15216129 0.32152733 -0.47112373 0.34395617 -0.29379097 0.42246288 0.15241675 -0.2089801 -0.3483731 -0.019972198 0.064648576 -0.28425992 -0.126553 0.5374819 -0.77468693 -0.054905508 0.3150008 -0.19399326 0.1299945 -0.11938215 0.54095197 0.18716657 -0.5194408 -0.4655884 -0.0913824 0.04847659 -0.064848356 0.42341042 0.14863744 -0.20854466 -0.13837788 -0.15406567 0.19480473 0.42332187 0.21701357 -0.0788239 -0.56409264 -0.053677596 0.15168965 -0.2829397 -0.3267456 -0.05122118 0.38931832 0.10465983 0.17174521 0.39819363 -0.37912202 0.070019536 -0.28973103 -0.05003426 -0.0113901235 -0.0345585 0.011742146 -0.054163765 0.10070101 0.67130196 0.24027441
بازي 0.15089126 -0.041979067 0.09154475 -0.2103708 0.04367987 -0.15126306 0.6257454 -0.39281866 -0.056260746 0.03562986 -0.0022073265 0.10315353 -0.037619725 0.21691354 -0.74966186 -0.42490783 0.45939165 0.08152599 0.116909005 -0.5546024 0.2391146 0.017485075 0.23188867 0.07794153 0.2871467 -0.14638312 -0.12812026 -0.16681218 0.36544487 -0.17509754 -0.33691093 -0.45699257 0.032264873 0.6392452 -0.1685327 0.23567839 0.13198993 0.13791235 0.17102146 -0.05805216 -0.41710603 -0.027113084 0.24598694 0.15099375 0.32876447 -0.46099758 0.323119 -0.30539432 0.42871645 0.15850857 -0.20072216 -0.33705476 -0.011955621 0.06941684 -0.274013 -0.11657071 0.51706845 -0.76642215 -0.051474534 0.31368244 -0.19822906 0.129663 -0.112225376 0.5267948 0.18186079 -0.50370073 -0.4682023 -0.108213246 0.041644607 -0.04250226 0.42469704 0.1515652 -0.20541327 -0.13680398 -0.144903 0.19314912 0.41333482 0.22896367 -0.06477305 -0.55843705 -0.067194596 0.15318206 -0.28110966 -0.3321639 -0.042431716 0.3900628 0.08531675 0.18950818 0.37879363 -0.38404068 0.061242968 -0.28715676 -0.05120766 -0.023004964 -0.028679099 0.016976472 -0.03776933 0.10198391 0.636075 0.23533376
اي 0.15022941 -0.042895056 0.09070086 -0.19002858 0.026925184 -0.12167237 0.56650376 -0.3487113 -0.047457974 0.0135334665 -0.0019210979 0.10706243 -0.029941278 0.2011117 -0.68506706 -0.40675128 0.38946238 0.089808956 0.109777465 -0.49210563 0.21396291 0.01303898 0.2209339 0.07929945 0.2587362 -0.118049584 -0.11865449 -0.14192997 0.31571087 -0.13377295 -0.31485257 -0.42352596 0.03275148 0.597801 -0.15774123 0.20369823 0.12878953 0.11890016 0.14454913 -0.03914825 -0.38098153 -0.03271349 0.23458442 0.12309051 0.2920999 -0.41336277 0.3024585 -0.28608972 0.37266448 0.14855447 -0.17942423 -0.29079682 -0.029633641 0.056878388 -0.27098814 -0.10977884 0.49022377 -0.71328545 -0.050906736 0.2983346 -0.17555635 0.121161416 -0.104080364 0.47383207 0.1873186 -0.4663764 -0.42002597 -0.0794736 0.04660512 -0.04849239 0.3719431 0.13824749 -0.17224318 -0.12650669 -0.12591913 0.18908772 0.36231807 0.19832945 -0.0725369 -0.50220877 -0.038877316 0.12855701 -0.27267516 -0.31767628 -0.046956513 0.3443278 0.08062902 0.18003042 0.356822 -0.35523322 0.03760702 -0.26549083 -0.025952036 -0.03379479 -0.02983895 0.011993178 -0.0265956 0.08638135 0.59058946 0.23313254
نمایش 0.088969365 0.010160992 0.065070696 -0.14990373 0.2223021 -0.14114793 0.5624824 -0.35445523 -0.018748118 -0.09914515 -0.035853893 0.011212798 -0.021226559 0.20192471 -0.71128225 -0.40069 0.37844706 -0.00067530805 0.091560386 -0.50070244 0.14058672 0.027239176 0.1482735 0.12770802 0.22660144 -0.16209097 -0.2020856 -0.15785198 0.32542497 -0.21142009 -0.2969284 -0.44427234 0.010328994 0.59274745 -0.2557191 0.18901506 0.067635275 0.12740347 0.16492024 -0.030137947 -0.41663364 -0.08190479 0.26667747 0.15865466 0.2212761 -0.4238801 0.33183727 -0.19105303 0.37729293 0.06862441 -0.20361248 -0.3120928 -0.02021117 0.048835147 -0.2749214 -0.14177787 0.48473546 -0.71117145 -0.08038815 0.29938656 -0.22469036 0.13903314 -0.062615566 0.49328053 0.17280117 -0.43321553 -0.3778648 -0.15352356 -0.0023568994 -0.12158483 0.41798717 0.09940295 -0.21874867 -0.07188608 -0.15333825 0.11223161 0.38688743 0.18914013 -0.1149869 -0.5633057 -0.04177173 0.109114185 -0.2058143 -0.2640922 -0.054484226 0.39397573 0.12916413 0.15344255 0.37399536 -0.3801374 0.1350773 -0.2057067 -0.12037627 0.05454704 -0.047935884 0.048497677 -0.116449416 0.07127331 0.6391431 0.19509955
بسيار 0.14810564 -0.026739694 0.09786086 -0.20357089 0.03790357 -0.15280528 0.618834 -0.38042897 -0.05081411 0.0068004867 0.007292284 0.094277464 -0.044119485 0.2115527 -0.7407979 -0.43186787 0.42896417 0.09100964 0.09074157 -0.5236229 0.23672023 0.013827958 0.21480738 0.08947289 0.2754151 -0.13100144 -0.14306961 -0.15837759 0.3495987 -0.16175902 -0.32802847 -0.45592043 0.028728154 0.626053 -0.16545013 0.2210383 0.10891513 0.14074866 0.16795962 -0.04052232 -0.42741036 -0.04590938 0.2525349 0.15008922 0.3193646 -0.45709404 0.33012918 -0.2820834 0.41216013 0.14164762 -0.20015392 -0.34032303 -0.02984587 0.06083069 -0.27530855 -0.12749244 0.5104614 -0.7429467 -0.06387626 0.2961151 -0.18548629 0.12042989 -0.112851426 0.51824754 0.18836755 -0.50433 -0.43190762 -0.08784039 0.05783857 -0.06093677 0.4023914 0.14657505 -0.20626368 -0.13344951 -0.14241695 0.19378993 0.40337604 0.21966395 -0.06503882 -0.5354454 -0.058938917 0.14427973 -0.26125157 -0.3209609 -0.045891266 0.3718472 0.089395575 0.16070807 0.36907825 -0.36472505 0.06031758 -0.27821532 -0.033452034 -0.009834266 -0.030721586 0.011972613 -0.047374833 0.09959245 0.645445 0.24160494
دستگاه 0.13299924 -0.029725706 0.07854156 -0.19717577 0.12851728 -0.1590386 0.6485583 -0.40255046 -0.0542287 -0.02767892 -0.021750508 0.0726449 -0.037466124 0.22937363 -0.7959601 -0.44112143 0.46710023 0.044193693 0.12023368 -0.5880977 0.20948982 0.018754214 0.2155623 0.108482264 0.29435518 -0.15814522 -0.1653928 -0.17058288 0.36505914 -0.21800831 -0.35537407 -0.49272034 0.012302766 0.6595976 -0.22646378 0.22890322 0.106894284 0.15355618 0.17427342 -0.05258668 -0.45926285 -0.050236613 0.25737387 0.18697105 0.28466764 -0.48331815 0.3600847 -0.2804693 0.43890724 0.14237645 -0.21372503 -0.3532989 -0.0064690295 0.07856597 -0.2975526 -0.1341301 0.5576291 -0.7870324 -0.06782981 0.31691092 -0.23092847 0.15536545 -0.11336093 0.5468174 0.1815405 -0.5080674 -0.48042133 -0.13048166 0.033953667 -0.07443268 0.47349834 0.1330778 -0.23166499 -0.119017616 -0.1600628 0.15064962 0.43089455 0.21072403 -0.09578368 -0.6194484 -0.05536324 0.14244246 -0.28143844 -0.32972375 -0.059295483 0.4193853 0.12749109 0.17450662 0.41468355 -0.41464198 0.102413714 -0.28117242 -0.11161877 0.015423279 -0.0306917 0.02396597 -0.074382775 0.10932566 0.7031892 0.24262209
کیفیت 0.12753917 -0.0052205697 0.06950729 -0.16751042 0.19017476 -0.16121566 0.6336982 -0.37885723 -0.04287939 -0.06580282 -0.04232931 0.039811287 -0.04083499 0.22278094 -0.7629215 -0.42551595 0.44804132 0.015223632 0.11437395 -0.58529824 0.17610998 0.033639744 0.18780108 0.12701744 0.28270018 -0.17159708 -0.17620164 -0.17004508 0.34416926 -0.24113663 -0.33969197 -0.48746744 -0.0031647333 0.62296057 -0.2516048 0.21621549 0.08415387 0.15496244 0.17178167 -0.0390193 -0.44643745 -0.06433837 0.2579538 0.194258 0.25494713 -0.4707028 0.34976763 -0.2475314 0.41765448 0.10457547 -0.215142 -0.33980915 -0.008397307 0.08372529 -0.28658825 -0.14667061 0.55038774 -0.7445747 -0.099216454 0.3040834 -0.23377353 0.1588401 -0.11162617 0.52772295 0.17076585 -0.48216203 -0.4491995 -0.15312916 0.02381233 -0.09283874 0.47030187 0.105196945 -0.22633438 -0.09058532 -0.1657726 0.120571256 0.42189792 0.17936718 -0.10920334 -0.6256557 -0.035941817 0.11955459 -0.26192153 -0.31267166 -0.06582395 0.42909995 0.13804914 0.15494539 0.4108734 -0.40710053 0.1355606 -0.24738032 -0.15709776 0.047331017 -0.04054672 0.016211046 -0.10248339 0.10321955 0.696295 0.20863605
نيست 0.13839205 -0.03310834 0.092934564 -0.20236398 0.048871543 -0.13983946 0.6016586 -0.3758316 -0.051532242 0.015191868 0.0034183396 0.09337305 -0.039778836 0.20847514 -0.7171091 -0.41267058 0.43025166 0.08251582 0.1033977 -0.50900453 0.21642879 0.010428783 0.2095152 0.077854834 0.2715496 -0.13789026 -0.13746165 -0.16071168 0.3348978 -0.15418293 -0.31921297 -0.43598527 0.021621741 0.61761993 -0.16838415 0.2197089 0.10847075 0.1337013 0.15978551 -0.03983101 -0.4032161 -0.029730726 0.24717265 0.14459142 0.29769996 -0.4371296 0.31828383 -0.28614807 0.40140113 0.13906506 -0.19115281 -0.331172 -0.020683791 0.072235845 -0.26711956 -0.12419358 0.49466264 -0.7249897 -0.05395555 0.2973451 -0.18594097 0.12920497 -0.112273626 0.5024542 0.17968316 -0.48425472 -0.4389068 -0.08741801 0.058309376 -0.055828743 0.39917234 0.14608382 -0.19608839 -0.12203518 -0.13892975 0.18699504 0.39835095 0.20958135 -0.07248306 -0.5357525 -0.06144618 0.15277027 -0.25906858 -0.31598285 -0.047260072 0.37048772 0.09355454 0.16916941 0.3697307 -0.3531499 0.06086273 -0.27058166 -0.04018268 -0.007127 -0.03297111 0.013112497 -0.047177963 0.099150926 0.6303924 0.23467849
سرعت 0.13352707 -0.014788039 0.07929186 -0.17282617 0.10695585 -0.14095576 0.59584785 -0.3651333 -0.0403288 -0.014329451 -0.0068995776 0.07327325 -0.032715954 0.21618465 -0.7099126 -0.4110452 0.42536587 0.055740256 0.11237529 -0.5236695 0.1943924 0.014982913 0.1992776 0.099143684 0.26983425 -0.14698812 -0.15458584 -0.15099448 0.3328627 -0.1869172 -0.31468144 -0.44504783 0.01964458 0.5922772 -0.20072663 0.20720944 0.09284432 0.13030136 0.16140072 -0.044742335 -0.41277903 -0.04226002 0.24485199 0.15974078 0.27091938 -0.44560632 0.32326394 -0.2529326 0.39998287 0.116782874 -0.19608606 -0.31891373 -0.011500314 0.06936569 -0.26959875 -0.12323361 0.5061444 -0.7061263 -0.072713576 0.28658733 -0.20073614 0.14003074 -0.10434361 0.5033385 0.1740272 -0.4728847 -0.4223305 -0.11964424 0.029698847 -0.075646795 0.41264942 0.12158531 -0.20125647 -0.10899964 -0.14042266 0.15113029 0.38918713 0.1955464 -0.0888991 -0.5567124 -0.043863162 0.13278961 -0.2584369 -0.30903783 -0.056977704 0.38220227 0.12211615 0.1648377 0.3767658 -0.36109403 0.0969952 -0.24489053 -0.0937627 0.0112205185 -0.03045032 0.009480972 -0.06966377 0.09485399 0.63907117 0.2094097
اپل 0.14263095 -0.039185513 0.097611785 -0.19010152 0.09120894 -0.15992169 0.6350249 -0.3932178 -0.055857178 0.006962249 0.00012227388 0.10060158 -0.050015002 0.2093098 -0.75489813 -0.44022033 0.45224345 0.07307714 0.11048633 -0.562566 0.22797212 0.019384895 0.22819866 0.09541059 0.2810365 -0.15103965 -0.15088877 -0.17376946 0.3514063 -0.1954867 -0.3456271 -0.4766309 0.019650484 0.6417685 -0.19406974 0.22454315 0.116263844 0.14433022 0.15922327 -0.0497528 -0.44138312 -0.03973817 0.23207289 0.160856 0.2953503 -0.46921915 0.33312076 -0.29522714 0.41584578 0.14670697 -0.19552664 -0.33138743 -0.008908796 0.07081964 -0.29050204 -0.12261069 0.54403555 -0.7624975 -0.06807919 0.30547202 -0.21895458 0.13976936 -0.110354304 0.5286821 0.18514097 -0.51375055 -0.46146435 -0.121311925 0.029408704 -0.05864085 0.4435269 0.13601947 -0.20384616 -0.1277911 -0.15563135 0.17716452 0.41525614 0.20760795 -0.07870618 -0.5826465 -0.055121686 0.13859984 -0.28380933 -0.33114472 -0.055726215 0.39192012 0.10705208 0.18009716 0.39542046 -0.39575708 0.074709356 -0.27272123 -0.08976565 -0.0046146554 -0.02425492 0.01592961 -0.0520133 0.097438894 0.6654083 0.24606654
عکس 0.13563544 -0.017203804 0.079681106 -0.18712896 0.10222646 -0.14921321 0.6035508 -0.37961763 -0.042524897 -0.01174567 -0.009482593 0.07047977 -0.041750602 0.2182857 -0.71788234 -0.41832486 0.43618277 0.052241392 0.10010193 -0.5260721 0.1981064 0.016106669 0.19999184 0.09785782 0.27263972 -0.14917322 -0.15705103 -0.14863 0.33591804 -0.18006966 -0.32552692 -0.45371822 0.014896023 0.6044099 -0.20315245 0.21594137 0.08889354 0.1384847 0.16368733 -0.037806194 -0.4187562 -0.04168561 0.25191343 0.16365373 0.2851852 -0.4462549 0.32783577 -0.262335 0.40762112 0.1189036 -0.19770798 -0.33386716 -0.019058961 0.070060834 -0.27199382 -0.1280317 0.50888795 -0.7292738 -0.07067928 0.2980868 -0.19974738 0.13707656 -0.105550244 0.5062873 0.16981155 -0.46747205 -0.4271529 -0.11282047 0.04586171 -0.06874057 0.41514724 0.12916727 -0.2068101 -0.11089074 -0.13933353 0.16012861 0.40019488 0.18999512 -0.072601594 -0.56264323 -0.048057627 0.13932641 -0.25616089 -0.31307662 -0.058897078 0.39001298 0.11522734 0.16404721 0.38377556 -0.37097782 0.08865669 -0.25845805 -0.08399312 0.016430832 -0.0351499 0.008637142 -0.06578242 0.1103576 0.6402833 0.21011806
قيمت 0.13915142 -0.03441703 0.09652903 -0.19938327 0.019090006 -0.14955774 0.5754589 -0.37510455 -0.050584584 0.035058115 0.010056285 0.0939217 -0.0366357 0.18582737 -0.692033 -0.4001432 0.41924003 0.09561496 0.09591694 -0.49933422 0.21785751 0.009364061 0.21399562 0.076001786 0.2567175 -0.119792484 -0.12173083 -0.14661707 0.3369317 -0.13860236 -0.30939123 -0.42436826 0.03338238 0.5890428 -0.13884689 0.21885785 0.114105925 0.12203206 0.14990564 -0.05003571 -0.39251578 -0.03716971 0.23051699 0.14072366 0.30873966 -0.43127728 0.2998244 -0.2835442 0.3818491 0.14465563 -0.18795678 -0.31554517 -0.023486525 0.055176463 -0.254661 -0.108115286 0.48264986 -0.7116648 -0.04458207 0.28296942 -0.17535895 0.10389417 -0.10708456 0.47844538 0.17922562 -0.48077795 -0.4176898 -0.07689397 0.064476825 -0.048751984 0.362249 0.13630103 -0.19877583 -0.13095626 -0.13995323 0.18846883 0.37527528 0.21116021 -0.06362995 -0.49936748 -0.061894417 0.16311558 -0.26141757 -0.30603364 -0.0442492 0.35112837 0.08554215 0.15357895 0.35495093 -0.33763465 0.04662368 -0.26445016 -0.022058606 -0.032748487 -0.023630928 0.012722481 -0.037679635 0.098273166 0.60326236 0.23797347
نداره 0.1360393 -0.03850834 0.089709975 -0.20222723 0.028450675 -0.13055553 0.5847215 -0.3807027 -0.038858406 0.024912601 0.015074609 0.10106683 -0.03607957 0.21160172 -0.70281327 -0.408073 0.42280897 0.08036867 0.09406282 -0.5002021 0.21889797 0.017807337 0.20792879 0.07802955 0.2561268 -0.12358575 -0.12394405 -0.15536377 0.33353838 -0.15097369 -0.31631067 -0.43796515 0.0279271 0.6096806 -0.15301836 0.2230986 0.100270145 0.12308049 0.1553885 -0.050225455 -0.3943242 -0.03125532 0.24554577 0.13029058 0.29558864 -0.4409777 0.30810377 -0.2721887 0.39706635 0.1414639 -0.17867094 -0.3129453 -0.029636685 0.06163676 -0.2645728 -0.12894702 0.482356 -0.70394516 -0.047724295 0.28909767 -0.16616546 0.112048976 -0.10469088 0.50630414 0.18413118 -0.47286662 -0.42160103 -0.06919354 0.068088755 -0.05933353 0.3799145 0.14250162 -0.19274038 -0.11845437 -0.13428739 0.18007217 0.3845236 0.2093582 -0.072324306 -0.5171477 -0.057455435 0.15711893 -0.2638757 -0.30572855 -0.04878976 0.36374208 0.08829321 0.16689007 0.36053857 -0.33480084 0.06549852 -0.2650327 -0.03404194 -0.024144735 -0.029872376 0.007290045 -0.039896354 0.09366599 0.6161762 0.23061386
بايد 0.14892304 -0.036557466 0.0965538 -0.20919058 0.041936733 -0.1504243 0.61500365 -0.3842203 -0.050248764 0.023841582 0.014838472 0.09703206 -0.04168098 0.2086382 -0.73298293 -0.4225463 0.43286553 0.0905663 0.10359135 -0.5303271 0.23799302 0.012092793 0.222902 0.08517298 0.27795935 -0.12893608 -0.12969294 -0.15889816 0.3545916 -0.15541051 -0.32630295 -0.45588198 0.0299691 0.6115319 -0.15887035 0.22538294 0.11951488 0.13083562 0.1557231 -0.046952453 -0.42518502 -0.038039465 0.24091262 0.14116153 0.30770928 -0.45610806 0.32683194 -0.28967407 0.4034545 0.15617248 -0.20120324 -0.33268756 -0.010121855 0.06804487 -0.27954414 -0.12249365 0.5162966 -0.74092764 -0.056312934 0.29731476 -0.17973743 0.1208034 -0.1038384 0.5183341 0.18468823 -0.50268096 -0.45038864 -0.09006156 0.0508977 -0.051629685 0.40503982 0.13601477 -0.21040931 -0.13887173 -0.1439665 0.18742017 0.39531505 0.21204947 -0.06687165 -0.5348606 -0.061970815 0.15468393 -0.27273887 -0.31318417 -0.03721498 0.375566 0.091491014 0.16389364 0.37571988 -0.37633067 0.060457777 -0.27841985 -0.04081816 -0.020878362 -0.027462602 0.017200895 -0.049741637 0.10050787 0.63583386 0.24521331
2 0.154182 -0.039299265 0.08445956 -0.20069402 0.09427905 -0.15673694 0.6476424 -0.41071692 -0.059588693 -0.018205576 -0.0119398255 0.09743583 -0.034397043 0.23635915 -0.7833501 -0.4507246 0.45891422 0.06786082 0.122265264 -0.5723746 0.22212373 0.023413079 0.23050433 0.0985008 0.2936714 -0.16113292 -0.15087782 -0.17340152 0.3654915 -0.1937749 -0.35107702 -0.49124837 0.018622564 0.66062 -0.2016968 0.23397705 0.11550072 0.14979172 0.17163001 -0.055775225 -0.45162064 -0.045538694 0.24798419 0.1657033 0.298522 -0.47494718 0.3530546 -0.2940678 0.42582566 0.1436861 -0.21489628 -0.35057065 -0.009760642 0.07492304 -0.29093203 -0.12857659 0.5584093 -0.7871169 -0.0737317 0.32162684 -0.21574357 0.13666022 -0.11432827 0.54870224 0.19422947 -0.51465386 -0.47305873 -0.11607575 0.038299307 -0.06720697 0.44712645 0.13206759 -0.21510278 -0.13298008 -0.15131733 0.17946889 0.4298027 0.21479486 -0.08009264 -0.6003448 -0.05865797 0.14552182 -0.2920666 -0.34069258 -0.05518196 0.40568268 0.11161543 0.1848992 0.4099953 -0.4111219 0.09070602 -0.2828092 -0.08305506 -0.0049765673 -0.036370743 0.011705745 -0.06788093 0.09471519 0.69003135 0.24796548
می‌باشد 0.13684987 -0.008159485 0.07313177 -0.1730732 0.16239195 -0.1607519 0.64557284 -0.39668766 -0.043149926 -0.050590415 -0.03128707 0.0517952 -0.03542783 0.22728871 -0.7780408 -0.44299495 0.4570615 0.026223142 0.12662208 -0.5952888 0.19265707 0.03753502 0.20374632 0.12679511 0.2820006 -0.17050374 -0.18376529 -0.17159292 0.356592 -0.23754855 -0.35194498 -0.49686608 0.00913004 0.6420369 -0.2431164 0.2176083 0.09038805 0.14651531 0.16985708 -0.04155558 -0.45849556 -0.048378345 0.24720259 0.18933353 0.26489556 -0.47630247 0.35680944 -0.25551727 0.42584407 0.1165171 -0.22200318 -0.34858674 -0.004492512 0.08062203 -0.29198948 -0.13577196 0.558045 -0.76230377 -0.08448899 0.30632153 -0.23261647 0.1588875 -0.11093495 0.5428461 0.17408183 -0.49316534 -0.46862814 -0.150305 0.017429858 -0.090173945 0.47635496 0.110541336 -0.23386228 -0.10083911 -0.16217783 0.13069123 0.42302787 0.19889276 -0.10084059 -0.6234285 -0.0520858 0.12567073 -0.27163905 -0.32094133 -0.061416734 0.42132846 0.1378675 0.16568172 0.40520117 -0.42173594 0.11799631 -0.26637203 -0.14178336 0.03884732 -0.042265125 0.0177817 -0.095856704 0.103294395 0.69535995 0.2272855
عامل 0.17330016 -0.02464401 0.09998703 -0.15119205 0.11141434 -0.1880321 0.61059034 -0.36022288 -0.083213516 -0.017785948 0.0076230103 0.13364951 -0.03751636 0.20373873 -0.7036257 -0.4040613 0.44929582 0.07537421 0.11093167 -0.6003114 0.27475503 0.019745408 0.28017396 0.08083018 0.27970237 -0.15437548 -0.17162107 -0.1675077 0.38788489 -0.27289402 -0.37683198 -0.50871444 0.019192142 0.67375135 -0.19382745 0.2406895 0.16717206 0.13557482 0.1356972 -0.023324475 -0.44987193 -0.031271074 0.1552229 0.16217694 0.31235474 -0.48160973 0.345655 -0.3037598 0.39681107 0.09738839 -0.19416447 -0.25876504 -0.022076553 0.04587435 -0.30569932 -0.06939135 0.51125324 -0.7253622 -0.10467381 0.30500802 -0.24851108 0.16559269 -0.11006813 0.55699563 0.16352403 -0.55025125 -0.43594265 -0.15749447 -0.04442014 -0.0558414 0.5049533 0.10025979 -0.18274266 -0.15768062 -0.14379512 0.12896551 0.36431187 0.15440209 -0.10352407 -0.5507754 -0.06834698 0.11920991 -0.3111972 -0.30999023 -0.06938082 0.3086707 0.12067326 0.20738007 0.3458327 -0.39504984 0.060563028 -0.23967034 -0.15500066 -0.01595429 -0.0011126327 -0.0060209776 -0.023829646 0.06523939 0.6344243 0.2632132
دست 0.1418714 -0.019102534 0.08621501 -0.18900496 0.10142715 -0.15841407 0.61660045 -0.3867997 -0.03881026 -0.0075071873 -0.01683733 0.08101964 -0.04592171 0.21126871 -0.736183 -0.432966 0.43825263 0.06247586 0.10522435 -0.54756814 0.204159 0.017449921 0.20271957 0.099681616 0.27889395 -0.14618947 -0.14985895 -0.15825415 0.34319967 -0.18760838 -0.33186638 -0.45546576 0.010175963 0.6255542 -0.2023222 0.22274016 0.10010932 0.14651811 0.16947961 -0.043040086 -0.43399492 -0.051751643 0.24700515 0.16033909 0.28495276 -0.45866826 0.332785 -0.26701713 0.4120917 0.13235934 -0.20276648 -0.33721355 -0.0147644 0.07415327 -0.28199703 -0.12937933 0.52222043 -0.74415153 -0.067704156 0.30490014 -0.20638545 0.14345227 -0.10525824 0.52352864 0.17590843 -0.48864874 -0.4505064 -0.121537276 0.039309558 -0.067009486 0.4338345 0.130555 -0.21458848 -0.11349643 -0.1434775 0.16120227 0.41216856 0.2003408 -0.08446871 -0.5743598 -0.050304323 0.13309205 -0.26565412 -0.30976057 -0.057609174 0.39461195 0.11341144 0.16199361 0.38424256 -0.37807614 0.0876235 -0.2684297 -0.08551295 0.0074044787 -0.031643953 0.019744802 -0.06533058 0.10169843 0.65882605 0.22899614
پردازنده 0.14792998 -0.033540584 0.08307473 -0.16700715 0.11813612 -0.12695415 0.614808 -0.3591155 -0.05011485 -0.03733502 -0.03118619 0.09508184 -0.034981504 0.22845903 -0.7565715 -0.43209955 0.41900098 0.051315118 0.13011037 -0.5682245 0.20270018 0.028790746 0.22561267 0.10979964 0.27142048 -0.14970614 -0.14631322 -0.16732423 0.3280648 -0.18522017 -0.34904405 -0.47645634 0.014698613 0.6427288 -0.20927517 0.21660402 0.12796022 0.13482964 0.15548314 -0.041212413 -0.42899242 -0.044709753 0.24298272 0.1663928 0.27911514 -0.4569628 0.3428582 -0.2874604 0.41926315 0.14104564 -0.19982444 -0.31103104 -0.023061147 0.06160429 -0.2990183 -0.11163008 0.5497402 -0.7562142 -0.078404516 0.31722444 -0.20675303 0.14540717 -0.10647387 0.525555 0.19500396 -0.4786937 -0.4612578 -0.12527268 0.009602287 -0.06166216 0.45197347 0.119279414 -0.19514711 -0.11619729 -0.14818603 0.1716291 0.4003529 0.18202822 -0.10422507 -0.58949304 -0.037024934 0.11702862 -0.2822535 -0.33716276 -0.05359417 0.38905904 0.121294565 0.18683547 0.38959616 -0.4052082 0.082514584 -0.2638932 -0.09215828 0.00784285 -0.028010296 0.02448877 -0.059877668 0.08979211 0.6459378 0.2286296
خوبي 0.13875249 -0.024458589 0.094017655 -0.19258192 0.031071695 -0.14119492 0.5696467 -0.3624395 -0.046478767 0.013025336 0.005967883 0.09344957 -0.04069225 0.1911645 -0.6661613 -0.39941877 0.40022534 0.08530758 0.09308107 -0.47255352 0.20952655 0.0003223517 0.19883235 0.071862265 0.26065347 -0.11848022 -0.11818614 -0.14426355 0.32276073 -0.13508491 -0.29487613 -0.41189373 0.018880144 0.5796567 -0.1560211 0.20118923 0.09754669 0.12878895 0.15606119 -0.033535123 -0.37428826 -0.03633626 0.23578078 0.13208936 0.2945943 -0.41049337 0.2876904 -0.26415616 0.37764883 0.13090964 -0.1806319 -0.31324956 -0.028532289 0.06707249 -0.2534486 -0.11619659 0.4564717 -0.6910328 -0.054259263 0.2807381 -0.16636255 0.10975268 -0.10268462 0.47627315 0.16866583 -0.46281672 -0.4041291 -0.06826234 0.054221466 -0.05667464 0.3645271 0.14182207 -0.18992633 -0.11299353 -0.11848674 0.17462547 0.37056687 0.20572504 -0.05959472 -0.4988233 -0.05356108 0.14036486 -0.253062 -0.3026083 -0.042701863 0.34040225 0.094128065 0.16057298 0.34851894 -0.32002792 0.06481324 -0.25827023 -0.027933013 -0.010134518 -0.030824976 0.003718238 -0.03836584 0.10747136 0.5924299 0.21104051
ي 0.143087 -0.02962973 0.09341704 -0.19328304 0.073157854 -0.13688037 0.5994359 -0.36747074 -0.05193332 -0.002610158 -0.0013157972 0.09570067 -0.03192089 0.20950621 -0.7288032 -0.42611897 0.41325152 0.07563256 0.10262226 -0.5243718 0.21196152 0.015965104 0.21062908 0.08842312 0.26296115 -0.1399798 -0.14144032 -0.16164316 0.3411465 -0.16534291 -0.31766522 -0.43937874 0.021932187 0.61796206 -0.18042602 0.21199723 0.1182639 0.13075018 0.15436244 -0.043839224 -0.41372064 -0.048390694 0.24917652 0.13965191 0.29738453 -0.43442363 0.32705122 -0.2768974 0.40590933 0.14397278 -0.18838418 -0.32605538 -0.02263741 0.059637498 -0.27826312 -0.120192625 0.5043072 -0.73786575 -0.060909502 0.30526337 -0.18890323 0.12661426 -0.09723543 0.5104053 0.18405336 -0.48619696 -0.4249235 -0.09649387 0.039350167 -0.06789381 0.40828237 0.13950242 -0.19951339 -0.12738165 -0.13294934 0.18920085 0.39445522 0.20173624 -0.08306675 -0.5292542 -0.043628834 0.14119738 -0.26627046 -0.31374878 -0.046640538 0.36412996 0.0999369 0.17494558 0.37227887 -0.3703602 0.06771424 -0.26888505 -0.05142137 -0.015014913 -0.03677378 0.01851416 -0.042750712 0.10013871 0.6348445 0.22844125
عالي 0.13489945 -0.02738232 0.078780845 -0.18670073 0.041485813 -0.13243869 0.5542226 -0.34714904 -0.044039633 -0.00060040975 0.008094723 0.084348276 -0.03148861 0.18868104 -0.6682412 -0.38798544 0.39326882 0.07118753 0.089538425 -0.46900874 0.21531351 -2.9037435e-06 0.18849379 0.07411142 0.25566873 -0.121634655 -0.13428104 -0.14255767 0.31780785 -0.14387262 -0.29652694 -0.41343963 0.018703664 0.5667467 -0.14768915 0.19185133 0.1011578 0.12593876 0.14984569 -0.03739435 -0.38769707 -0.045932103 0.23216887 0.13311234 0.28836298 -0.40906566 0.2945362 -0.24865901 0.36657032 0.12454664 -0.174283 -0.31281784 -0.027491013 0.054547507 -0.2499319 -0.113628544 0.46367475 -0.667836 -0.055965308 0.26922855 -0.16966772 0.115521014 -0.09519314 0.46214324 0.17011775 -0.4495563 -0.39603764 -0.07863645 0.0469669 -0.057501417 0.35578907 0.12648137 -0.18634014 -0.11916003 -0.11877236 0.17639966 0.3625945 0.18894859 -0.0648154 -0.4881776 -0.046128664 0.13989988 -0.23790725 -0.28804246 -0.048008963 0.3365729 0.08669747 0.1537115 0.33851543 -0.33620745 0.060720485 -0.25394595 -0.042934068 -0.013601509 -0.030935284 0.0077302237 -0.03849157 0.09714458 0.57830966 0.20806846
خريدم 0.11924394 -0.042835794 0.08818442 -0.20847382 -0.024785187 -0.15433104 0.52649343 -0.35545042 -0.05163064 0.04098181 0.042886738 0.08944822 -0.043764107 0.17198947 -0.6669012 -0.38796428 0.36210012 0.11087601 0.067402765 -0.4438237 0.2254567 -0.005741952 0.18860626 0.070496716 0.24531992 -0.09250405 -0.10964589 -0.12280968 0.31892896 -0.11988223 -0.29299617 -0.40895313 0.035183724 0.5318067 -0.10711613 0.18970995 0.10986909 0.09959711 0.14570849 -0.03758897 -0.3813688 -0.06066126 0.21168283 0.115564704 0.28574038 -0.40621147 0.28797078 -0.26033324 0.349118 0.14861904 -0.18572035 -0.2939475 -0.018551132 0.04820818 -0.2502913 -0.13118085 0.44291434 -0.65855354 -0.017916907 0.26561818 -0.12673211 0.080190815 -0.09070636 0.4384472 0.17454419 -0.46464914 -0.3800053 -0.036556788 0.08237832 -0.0515695 0.30139711 0.1223584 -0.1953149 -0.14363374 -0.12923627 0.20527858 0.34720033 0.1999464 -0.034073625 -0.4280351 -0.045409173 0.15884693 -0.2250523 -0.25902718 -0.03530079 0.33875763 0.05643006 0.12161718 0.32990053 -0.31816357 0.020443406 -0.2580648 0.014379433 -0.057932366 -0.029363541 0.025594778 -0.04628654 0.08126779 0.5582851 0.2299689
عاليه 0.12344767 -0.03178967 0.088480234 -0.17974775 0.03550739 -0.13350563 0.5435232 -0.3424178 -0.036928102 0.01000865 0.012938163 0.08309154 -0.04000708 0.18531828 -0.6527524 -0.37862477 0.3802908 0.07177678 0.0863689 -0.46563566 0.20200089 0.011425203 0.187103 0.07866559 0.24672164 -0.11519343 -0.12252313 -0.13297035 0.30933377 -0.14501235 -0.28599647 -0.3957834 0.023459565 0.5549512 -0.15134616 0.19188823 0.099183895 0.11926291 0.13774368 -0.03612367 -0.37323233 -0.039851785 0.21953219 0.13136387 0.26960447 -0.4059612 0.2831772 -0.24617091 0.3606784 0.13266748 -0.17575912 -0.29659554 -0.021796491 0.062367223 -0.24137583 -0.114367865 0.4449603 -0.64958054 -0.051150337 0.2629379 -0.1684404 0.106923744 -0.10088755 0.45629138 0.1614809 -0.44096133 -0.39087597 -0.07385012 0.057850204 -0.04788096 0.3574433 0.12892795 -0.1818049 -0.111921586 -0.12609886 0.17034194 0.35961565 0.18725853 -0.058790807 -0.47040984 -0.05133586 0.13733867 -0.23051469 -0.27983445 -0.03742702 0.33256504 0.08672605 0.14178032 0.33466497 -0.32457918 0.060310517 -0.24192402 -0.03974261 -0.014791024 -0.024916524 0.0059990208 -0.04834649 0.085750125 0.56910396 0.2101145
برنامه 0.12762694 -0.028035464 0.080872916 -0.17101929 0.09406579 -0.1346424 0.57567555 -0.34732494 -0.049899768 -0.008513248 -0.017034197 0.08425385 -0.041689087 0.2034588 -0.6819045 -0.39217076 0.40869036 0.054244366 0.106565416 -0.51237345 0.19702303 0.027296657 0.20988213 0.083655104 0.26038876 -0.14018884 -0.14364466 -0.15518701 0.3246129 -0.17960927 -0.31090575 -0.42749566 0.020423917 0.5802615 -0.18314278 0.21581674 0.10631791 0.12743391 0.14811723 -0.04317778 -0.39245403 -0.039343093 0.209429 0.14713378 0.27027985 -0.4270724 0.29851553 -0.2599992 0.38264826 0.12847492 -0.18938446 -0.30123118 -0.006431386 0.067698896 -0.25361937 -0.11040296 0.49128792 -0.68229866 -0.0710638 0.27084965 -0.1985125 0.13401915 -0.10252015 0.4839925 0.16063124 -0.4553625 -0.42066514 -0.117914826 0.016394254 -0.06058985 0.41539243 0.114074975 -0.18533705 -0.1073346 -0.13017781 0.14230205 0.37961733 0.18054605 -0.077209525 -0.5286377 -0.056110606 0.12457599 -0.25720295 -0.2984811 -0.041780617 0.34940955 0.10768103 0.16168295 0.35228977 -0.35758755 0.07669972 -0.24326299 -0.09325514 0.0014809689 -0.026661552 0.0047502997 -0.05139496 0.09395312 0.59920794 0.21003905
حافظه 0.117947586 -0.017243925 0.07011854 -0.1841792 0.13342424 -0.13976797 0.5975879 -0.3739362 -0.0628276 -0.04037849 -0.033404313 0.07160787 -0.026295083 0.24392785 -0.7586226 -0.4353884 0.4387976 0.017985538 0.1302523 -0.56211287 0.18792148 0.033103157 0.21598111 0.10881373 0.27121207 -0.15399824 -0.17150542 -0.1585006 0.34003967 -0.20560397 -0.36017615 -0.47861466 0.005536257 0.6284322 -0.22601324 0.23411727 0.09947252 0.12732647 0.16883528 -0.051090196 -0.4330194 -0.028555717 0.23926225 0.19028068 0.2564516 -0.43047756 0.34897768 -0.26309443 0.41076663 0.13231489 -0.20405446 -0.33677694 -0.01069 0.061009858 -0.28131554 -0.10541896 0.5469766 -0.73637855 -0.056226484 0.29277092 -0.21021391 0.16181906 -0.12854287 0.52035326 0.15476033 -0.461955 -0.4788522 -0.13358201 0.020645546 -0.06626215 0.45470953 0.122376285 -0.20259364 -0.123068355 -0.15077083 0.11379127 0.3950115 0.18976434 -0.093104236 -0.60550493 -0.0498019 0.14099865 -0.26668233 -0.3308694 -0.06200581 0.3916927 0.13898507 0.15644878 0.39197 -0.3826728 0.107800215 -0.25684807 -0.11909348 0.001219267 -0.030973606 0.022244021 -0.06596149 0.10500715 0.6796508 0.2297732
يا 0.16907349 -0.046103097 0.0992674 -0.21483007 0.0684631 -0.16482174 0.6854233 -0.42627093 -0.06169914 0.009771459 -0.0063103787 0.107197136 -0.04599622 0.23662576 -0.8183525 -0.47269958 0.4789186 0.077608004 0.1149316 -0.5929922 0.24947904 0.020440392 0.2389202 0.09577853 0.30734882 -0.15795322 -0.14715794 -0.17241076 0.3827865 -0.19104469 -0.36184877 -0.49928242 0.025557555 0.69472563 -0.20133868 0.24421221 0.12865971 0.15516013 0.17286061 -0.054476175 -0.45883048 -0.040636256 0.26673055 0.16500139 0.33964837 -0.49563748 0.3608153 -0.32121956 0.45538506 0.15606923 -0.21580288 -0.36642447 -0.022962293 0.081019774 -0.30797464 -0.1394559 0.5680457 -0.8301746 -0.067768306 0.33816406 -0.22245063 0.13874936 -0.12303929 0.5738963 0.20404775 -0.5426238 -0.49547854 -0.1155238 0.053764604 -0.06327231 0.46480602 0.15218472 -0.22167662 -0.14740312 -0.161536 0.20303667 0.4536104 0.22669528 -0.0761806 -0.6078429 -0.057990365 0.16569373 -0.29539722 -0.34890854 -0.05568542 0.41927645 0.10885761 0.19627997 0.42996183 -0.42132065 0.071381144 -0.2992566 -0.068849266 -0.008423694 -0.026282322 0.013992176 -0.05730978 0.108756356 0.7061218 0.25107405
کنيد 0.15843016 -0.04515628 0.10163631 -0.21737339 0.06635295 -0.15960814 0.6694339 -0.41591972 -0.055747975 0.021952868 -0.0010580026 0.10188254 -0.044531707 0.2313911 -0.79288703 -0.4616588 0.48135963 0.09159974 0.114036165 -0.57363635 0.24005102 0.022021754 0.23595788 0.09294092 0.29977924 -0.15393464 -0.14277062 -0.17380151 0.37973878 -0.18394993 -0.3543972 -0.48835307 0.023902772 0.6699918 -0.18234295 0.23465188 0.12583143 0.14863876 0.16839734 -0.05844033 -0.44996578 -0.039849013 0.25628155 0.15922189 0.33382088 -0.4932891 0.34839922 -0.31040287 0.44303498 0.1640943 -0.20814703 -0.3599781 -0.017438143 0.07217594 -0.29094595 -0.13414113 0.5543904 -0.80317575 -0.07038856 0.31709298 -0.21086678 0.13920523 -0.118695945 0.56049305 0.19855952 -0.5376612 -0.49021417 -0.10689719 0.051290523 -0.05871267 0.44176018 0.15477292 -0.22341195 -0.13753426 -0.16272438 0.20167656 0.4382495 0.23333022 -0.076611884 -0.5963502 -0.067338824 0.15882638 -0.29148865 -0.3358254 -0.042694535 0.41311032 0.106443785 0.17714848 0.4137547 -0.39988127 0.07314564 -0.28859815 -0.06477241 -0.0138683515 -0.026616544 0.011527433 -0.0483829 0.110447615 0.6909221 0.252814
افزار 0.13619706 -0.041636754 0.09909211 -0.16969784 0.091307424 -0.14851443 0.6022024 -0.36924922 -0.040389597 -0.004665159 -0.006184177 0.103263475 -0.046919934 0.19604635 -0.7112256 -0.41250283 0.41559938 0.0738335 0.11309136 -0.5388389 0.23488066 0.016368985 0.23849875 0.087629244 0.24540259 -0.12817049 -0.13430361 -0.15391822 0.3345562 -0.19105412 -0.32055593 -0.45659783 0.013777436 0.6252622 -0.18117556 0.21243502 0.11860088 0.12613092 0.15927412 -0.04836496 -0.4160891 -0.05102049 0.20210496 0.16462861 0.28066373 -0.43689272 0.31583428 -0.2802404 0.39453855 0.13355659 -0.20496097 -0.2941026 0.006455641 0.050200008 -0.27860045 -0.11177588 0.51389176 -0.71341276 -0.08779473 0.2644607 -0.22177038 0.13554472 -0.11602948 0.50754255 0.17250745 -0.49837154 -0.44184017 -0.098603696 0.016306138 -0.036997553 0.4155752 0.13208641 -0.1992856 -0.12708253 -0.1310375 0.15871798 0.3739129 0.20626459 -0.07687988 -0.54674417 -0.05997744 0.12270613 -0.28522208 -0.31494355 -0.043440014 0.35000005 0.117362715 0.1803681 0.35429358 -0.39928862 0.0812182 -0.25270325 -0.10973643 -0.00093348726 -0.008186871 0.005025633 -0.04372882 0.07349844 0.63798755 0.23421957
5 0.13289703 -0.030401638 0.09120248 -0.17771034 0.106459 -0.15343782 0.6051196 -0.38133085 -0.044274714 -0.013249286 -0.0043356773 0.08102096 -0.03404468 0.22428748 -0.7416294 -0.43692636 0.42912877 0.06625389 0.110643156 -0.547808 0.21062505 0.016592832 0.20292808 0.099320695 0.26668018 -0.14978811 -0.15211052 -0.15417281 0.3475694 -0.19465186 -0.33505952 -0.46110374 0.022434518 0.6265497 -0.2059259 0.22209522 0.09931572 0.13716452 0.16330072 -0.036650278 -0.43281072 -0.053516086 0.23667687 0.16482352 0.28682992 -0.46328807 0.34284407 -0.2676628 0.41203338 0.13763973 -0.2078755 -0.33057916 -0.0067543555 0.07025327 -0.28090057 -0.13509215 0.5218774 -0.73888034 -0.06962082 0.3083985 -0.2014892 0.14011432 -0.10316407 0.51429296 0.16779426 -0.4914184 -0.45177642 -0.11613533 0.03396227 -0.074833855 0.43662685 0.12545335 -0.21888582 -0.1251963 -0.14810172 0.16033424 0.40375945 0.2039753 -0.07561713 -0.56452 -0.04089915 0.13375671 -0.26139686 -0.31952024 -0.052402675 0.3908802 0.10434108 0.1680905 0.3857938 -0.38558534 0.08270787 -0.26484892 -0.08028009 -0.0002994654 -0.038803354 0.009238219 -0.0654727 0.09227072 0.65093446 0.23034972
نمايش 0.12118724 -0.020040914 0.08338583 -0.17371021 0.10323754 -0.13511637 0.5562301 -0.34999537 -0.0376176 -0.026498798 -0.0048998967 0.063664764 -0.021493481 0.19699301 -0.6813438 -0.40264544 0.38197187 0.06244674 0.08307984 -0.45647267 0.1929585 0.0024649166 0.1803985 0.09263112 0.23244792 -0.1338348 -0.15967251 -0.14653157 0.3287413 -0.15587726 -0.2976946 -0.41329932 0.021324718 0.5875559 -0.17651325 0.18946038 0.089158826 0.13201849 0.16327609 -0.036223482 -0.38813594 -0.053034782 0.2668655 0.11705439 0.29169747 -0.4162521 0.31432486 -0.23527966 0.3789527 0.10806913 -0.19247262 -0.32392937 -0.044272073 0.050252493 -0.26464447 -0.12817955 0.45533514 -0.7149058 -0.055196982 0.29766375 -0.17973386 0.11287997 -0.08368793 0.4926564 0.177505 -0.46200708 -0.3686078 -0.091875 0.031321052 -0.08391955 0.36483946 0.12145065 -0.19037178 -0.10794611 -0.11958216 0.18315716 0.36731446 0.21231697 -0.0782033 -0.49119806 -0.05309881 0.13527726 -0.2192333 -0.27981907 -0.04208641 0.3518429 0.102866486 0.16220061 0.34545085 -0.33702698 0.08853093 -0.23078217 -0.038039878 0.0031219088 -0.03268829 0.036620263 -0.058420733 0.08536469 0.599968 0.20970102
مناسب 0.12917906 -0.02468507 0.07712117 -0.16739783 0.107389614 -0.15121467 0.59616214 -0.36425245 -0.039066017 -0.028307628 -0.016072 0.06359912 -0.04182238 0.20789151 -0.7040049 -0.4061617 0.4166722 0.04690183 0.10376987 -0.5358845 0.19343184 0.020989519 0.20162983 0.10145565 0.26326784 -0.15114397 -0.1522858 -0.15509854 0.32559195 -0.19183354 -0.32230535 -0.44665357 0.0077446117 0.5996602 -0.19498192 0.2067469 0.09618258 0.13967772 0.151589 -0.041429363 -0.41389877 -0.0477552 0.23322664 0.16485143 0.27143863 -0.4325971 0.32381785 -0.25147587 0.39446154 0.12150936 -0.19732833 -0.32442996 -0.005147574 0.06505824 -0.26589447 -0.1185015 0.50725603 -0.7020239 -0.0721806 0.28082055 -0.20986103 0.13230927 -0.10200574 0.496081 0.17267784 -0.46159407 -0.43073604 -0.12086018 0.03078214 -0.06473472 0.42258963 0.11492333 -0.21029626 -0.10215179 -0.14856651 0.14184584 0.38702187 0.1924195 -0.08356635 -0.5533857 -0.0467107 0.1307087 -0.2572683 -0.29611975 -0.05967853 0.36905348 0.11581212 0.1619944 0.36864674 -0.36987665 0.09440821 -0.24808377 -0.094954886 0.014571404 -0.02787478 0.017762385 -0.07160398 0.09333927 0.63097006 0.21359378
روي 0.14433882 -0.039091635 0.0895543 -0.20794612 0.06470058 -0.14837748 0.62634456 -0.4009646 -0.055687375 0.02425638 -0.0029268002 0.0969942 -0.036085814 0.21895558 -0.7524627 -0.4391029 0.45214617 0.084840074 0.112129174 -0.549685 0.23623197 0.014470394 0.22444364 0.08548632 0.28686333 -0.14311728 -0.14604971 -0.16492824 0.3582777 -0.17053677 -0.341529 -0.45774907 0.028459188 0.64339805 -0.1833844 0.22965562 0.11604958 0.14199486 0.16527031 -0.054715306 -0.42310277 -0.035780646 0.24774277 0.15118173 0.31897354 -0.46603948 0.33525777 -0.29133052 0.42878088 0.15246418 -0.20177285 -0.3452115 -0.022871837 0.06872076 -0.27990887 -0.13118184 0.5243353 -0.772251 -0.056715317 0.31088713 -0.20192781 0.13272704 -0.10848608 0.53384346 0.18636149 -0.5041375 -0.45727417 -0.101383455 0.04151782 -0.055828247 0.4197935 0.14536445 -0.2118552 -0.13083068 -0.14712897 0.18378884 0.41459623 0.22075213 -0.068127945 -0.56635815 -0.06530214 0.15820116 -0.2818385 -0.33003363 -0.042880747 0.39049453 0.10016642 0.17149521 0.39017668 -0.37834883 0.07044622 -0.2831612 -0.05531823 -0.020196812 -0.036205612 0.014747669 -0.04172176 0.10113172 0.65068835 0.24419564
مشکل 0.13492265 -0.03181237 0.08886141 -0.19250114 0.05285814 -0.14269039 0.58598006 -0.36197096 -0.045439485 0.017281936 0.0016097416 0.094601296 -0.03978003 0.20103638 -0.70212597 -0.39717236 0.42285702 0.07087347 0.092345916 -0.5037901 0.21501578 0.011560655 0.20288604 0.07885062 0.26780507 -0.13276696 -0.13413332 -0.15674856 0.32440892 -0.16034819 -0.31827655 -0.4236485 0.022725388 0.59389836 -0.16769485 0.20526296 0.10058005 0.13061902 0.14570804 -0.04466373 -0.39665756 -0.030517219 0.2411101 0.14598048 0.28710705 -0.42665136 0.30361933 -0.26906264 0.39417163 0.14062552 -0.19008787 -0.31715834 -0.022419551 0.059362646 -0.2632693 -0.11369946 0.49115932 -0.7122693 -0.049652744 0.2859838 -0.1821153 0.122702144 -0.11044619 0.48989886 0.17619264 -0.4715405 -0.42899594 -0.08571574 0.047644254 -0.057324734 0.3941542 0.1292166 -0.1940992 -0.1199046 -0.13524067 0.16994177 0.38735467 0.20243227 -0.07156945 -0.52574575 -0.05893136 0.14225279 -0.24992067 -0.29633906 -0.04515928 0.35262507 0.097181216 0.15428193 0.3590228 -0.34490356 0.06437645 -0.25971657 -0.054398634 -0.012804735 -0.034516804 0.017881103 -0.0501516 0.089294784 0.6146274 0.22427285
کارت 0.12498766 -0.012793362 0.06459058 -0.20490512 0.1374122 -0.14092706 0.64950866 -0.40479055 -0.048536666 -0.03089564 -0.029917836 0.07795572 -0.04027154 0.24659708 -0.82186145 -0.46278584 0.48588887 0.028662974 0.121552326 -0.6098251 0.22289638 0.039054327 0.23150311 0.110958755 0.27612308 -0.16370897 -0.17097463 -0.1620978 0.36593923 -0.2201196 -0.36899713 -0.5056377 0.003878625 0.6619064 -0.23122212 0.25439334 0.10110713 0.14807762 0.18771198 -0.07177684 -0.45590374 -0.048030738 0.25733903 0.1952654 0.2732232 -0.46699288 0.34897628 -0.2925034 0.45617014 0.15403624 -0.23511782 -0.35610944 -0.002252827 0.064806774 -0.31560007 -0.110081166 0.5736986 -0.78409666 -0.053521995 0.32506543 -0.22232795 0.17004052 -0.1252994 0.5672041 0.16405493 -0.5122588 -0.5019552 -0.13417876 0.0070086066 -0.070976995 0.490706 0.15134984 -0.23569281 -0.11810219 -0.17707594 0.13206758 0.4285785 0.21432576 -0.10069421 -0.64109683 -0.061248407 0.1446989 -0.28305364 -0.33316106 -0.06942593 0.40729934 0.14336725 0.1780372 0.40138674 -0.42247632 0.115578845 -0.29265687 -0.11839399 0.009305111 -0.048444808 0.035151776 -0.08541814 0.10112934 0.7225407 0.24014995
سامسونگ 0.13288328 -0.03342436 0.07898276 -0.18358696 0.09550822 -0.15257625 0.60589087 -0.37053406 -0.046820108 -0.01760548 -0.011723733 0.07159343 -0.03775657 0.20589615 -0.7241958 -0.4152003 0.42442504 0.06495621 0.1041969 -0.5366989 0.2038749 0.027826857 0.21373485 0.097801276 0.26302573 -0.14483692 -0.14122833 -0.16428065 0.34063977 -0.19347377 -0.3227877 -0.45725453 0.012341309 0.60535437 -0.19674669 0.2138277 0.1018605 0.13510197 0.1606409 -0.042701576 -0.4223812 -0.04728543 0.22261457 0.15690073 0.27831015 -0.44858244 0.3168496 -0.27404344 0.39988536 0.12578706 -0.19055164 -0.32163787 -0.0034226605 0.06418563 -0.27450722 -0.12486908 0.51090693 -0.71828634 -0.07486957 0.29099312 -0.20738606 0.13493168 -0.10045362 0.50309914 0.17795135 -0.47773442 -0.4349899 -0.1185027 0.024682224 -0.065594025 0.43317246 0.122556046 -0.20111099 -0.11363105 -0.15281862 0.14784823 0.39998376 0.19646654 -0.087728955 -0.55942327 -0.048056908 0.13525054 -0.2643577 -0.30816823 -0.05244227 0.36773738 0.10364786 0.1614681 0.3712309 -0.3733281 0.08406934 -0.24724418 -0.09115853 0.0060129417 -0.026013456 0.010056594 -0.06509473 0.08736192 0.645869 0.22456801
کالا 0.15330184 -0.03282739 0.09422161 -0.2829669 -0.05747494 -0.19307996 0.60835296 -0.45315823 -0.055179313 0.014621895 0.11718725 0.11003349 -0.066966 0.19168128 -0.7990334 -0.4873169 0.39184335 0.14898908 0.08358471 -0.5406776 0.33953372 -0.0390344 0.2371231 0.112576425 0.30052733 -0.1020164 -0.14993341 -0.10563267 0.43455482 -0.1338223 -0.35205698 -0.5042999 0.045122836 0.598419 -0.10250867 0.23137748 0.16629858 0.06873382 0.1487077 -0.04127205 -0.49801257 -0.11709626 0.27366498 0.12393753 0.2831816 -0.51146966 0.3946973 -0.28170627 0.37352484 0.21265727 -0.2380334 -0.32302144 0.016693348 0.010899317 -0.3419497 -0.19648904 0.5276072 -0.8265837 0.03365219 0.35848686 -0.11298303 0.06068585 -0.09549086 0.49268797 0.22409146 -0.6171045 -0.410588 -0.03905234 0.08167879 -0.07504471 0.31919774 0.12307065 -0.27425367 -0.22872637 -0.14823532 0.27614427 0.3757808 0.2757358 -0.03134195 -0.50994134 0.0020331508 0.16777074 -0.23921646 -0.2660132 -0.02556297 0.4596884 0.057855926 0.10569053 0.35364676 -0.39403057 0.004070419 -0.33498958 0.03139544 -0.0798946 -0.032751795 0.06476757 -0.09964236 0.06793058 0.70996046 0.28515112
رزولوشن 0.13497524 -0.016876843 0.068915285 -0.18258084 0.14649588 -0.15395986 0.6305451 -0.3950871 -0.03956445 -0.04186979 -0.02108464 0.050515812 -0.03357803 0.22435158 -0.76806873 -0.43899447 0.44475192 0.035128295 0.119385 -0.5654192 0.19073354 0.019747678 0.1884211 0.11316022 0.2876416 -0.16933523 -0.17445032 -0.16894735 0.34701648 -0.20674391 -0.33422512 -0.47782934 0.016807906 0.6313185 -0.23229806 0.22044578 0.09383349 0.14081523 0.1689555 -0.03709574 -0.45356098 -0.05013084 0.26556584 0.17150487 0.27818492 -0.4622515 0.35602862 -0.24980478 0.42412588 0.11110479 -0.21004722 -0.34996018 -0.009327807 0.07194929 -0.27626926 -0.14841974 0.5436205 -0.7609857 -0.07831653 0.30644172 -0.22434416 0.14148827 -0.11173957 0.5247341 0.17491072 -0.48874074 -0.44057944 -0.13269219 0.04191654 -0.08506535 0.45057952 0.12498089 -0.22687902 -0.10568108 -0.15737802 0.143537 0.4159267 0.19956198 -0.0911023 -0.6036452 -0.04319506 0.13275647 -0.25973845 -0.31624183 -0.06461289 0.42317384 0.121288665 0.15969789 0.39974937 -0.40151945 0.11302621 -0.260588 -0.10837272 0.024052821 -0.040960766 0.022189036 -0.08670702 0.09482207 0.67570627 0.21945012
طراحی 0.12846346 -0.025986694 0.06962103 -0.17376834 0.15985692 -0.16569313 0.62386584 -0.38055626 -0.049301866 -0.043830935 -0.032193914 0.05508615 -0.039956592 0.2212457 -0.75471026 -0.42039585 0.44263342 0.031128546 0.11765367 -0.58849454 0.1877457 0.040010843 0.19971961 0.115623794 0.26746887 -0.17178401 -0.16530108 -0.1692046 0.34365714 -0.22539817 -0.3361091 -0.48643363 -0.0017945861 0.6253164 -0.2269523 0.22144394 0.08390359 0.15540473 0.16976102 -0.037530884 -0.4446715 -0.06413029 0.23765421 0.18382567 0.2648764 -0.47760752 0.3404931 -0.2560081 0.42412636 0.124711886 -0.20836788 -0.34336594 0.0014184017 0.08008827 -0.289573 -0.13848327 0.55353135 -0.7335535 -0.092125185 0.2995521 -0.23168135 0.15381894 -0.10505159 0.5214517 0.16987143 -0.4924743 -0.46651077 -0.15006705 0.018289119 -0.075821675 0.47342077 0.10792461 -0.2169401 -0.10788133 -0.16405788 0.13569674 0.42153373 0.1907869 -0.10033005 -0.6211139 -0.046718106 0.11999437 -0.27211156 -0.30569413 -0.073766544 0.4062707 0.12018423 0.15703438 0.39910746 -0.39703792 0.11358539 -0.25202343 -0.13931301 0.030341284 -0.026835408 0.014886274 -0.08104465 0.09763408 0.6919724 0.22683765
ديگه 0.1400961 -0.037616245 0.08588251 -0.19599834 0.036928367 -0.14289868 0.5877826 -0.37051627 -0.049984068 0.025489282 0.0014994103 0.1041291 -0.043240774 0.2012611 -0.7059492 -0.41165113 0.4233858 0.07699823 0.102658965 -0.50658673 0.22278123 0.016568946 0.2132241 0.078428075 0.26915202 -0.13552682 -0.12632683 -0.15560932 0.33370996 -0.14347368 -0.30976537 -0.4340971 0.027480945 0.6064353 -0.1627023 0.21453285 0.116251044 0.12685397 0.15689857 -0.042522553 -0.39992228 -0.03966794 0.23802301 0.13479309 0.29968357 -0.43203443 0.3117638 -0.28222632 0.38976374 0.14372836 -0.1798371 -0.31433144 -0.02273473 0.07474679 -0.26910114 -0.11067059 0.49226782 -0.7155525 -0.05087525 0.29830194 -0.1780801 0.11957896 -0.10954268 0.5050527 0.18239047 -0.47275513 -0.43815085 -0.08834116 0.053914715 -0.055622842 0.39233774 0.14385688 -0.18735677 -0.13131617 -0.13325602 0.18895635 0.3944825 0.21104106 -0.06528129 -0.51985407 -0.06034809 0.14708094 -0.26128775 -0.312129 -0.038687963 0.35967353 0.09334452 0.16596763 0.36899158 -0.35224304 0.061042294 -0.27438694 -0.04301895 -0.018612204 -0.028201679 0.015584499 -0.045256693 0.09326003 0.60859233 0.2281918
4 0.1385554 -0.034712903 0.077145495 -0.16600685 0.09743223 -0.13198914 0.56877345 -0.338086 -0.043403648 -0.017282337 -0.011252138 0.089653395 -0.028645867 0.20511599 -0.68191105 -0.39521447 0.38994548 0.057340436 0.11058179 -0.50451267 0.19498007 0.019762574 0.20622902 0.087561674 0.25205326 -0.14168677 -0.13346392 -0.15295988 0.30736712 -0.17685279 -0.31637028 -0.42769262 0.024261039 0.58656245 -0.18275827 0.1970348 0.10524196 0.119406596 0.14680806 -0.040659975 -0.39345336 -0.041904308 0.22258152 0.13880417 0.26372635 -0.41142324 0.31299964 -0.25719926 0.37427115 0.12016891 -0.1818113 -0.2858492 -0.02266372 0.052912615 -0.2734953 -0.10984246 0.49142942 -0.6896911 -0.068303764 0.28275138 -0.18883447 0.12807815 -0.09013528 0.4866296 0.17326166 -0.4524292 -0.40477479 -0.10215281 0.017152851 -0.0656859 0.39759055 0.11145009 -0.17777337 -0.11361896 -0.12835817 0.16171089 0.362748 0.17477134 -0.08783537 -0.514762 -0.03471736 0.12000985 -0.24974737 -0.29289734 -0.046591297 0.3423511 0.10892785 0.16925088 0.36020634 -0.35752064 0.06351295 -0.24902399 -0.073941834 -0.008446265 -0.02706304 0.01435115 -0.04758997 0.08396445 0.5871618 0.20755166
بهترين 0.13635767 -0.037849575 0.08535762 -0.18760395 0.043666318 -0.13579111 0.5471489 -0.34496307 -0.046473607 0.01443949 0.008601224 0.089279465 -0.042180173 0.18400615 -0.6621957 -0.38480663 0.39556274 0.078265905 0.09017333 -0.47369465 0.20849544 0.0068207113 0.20258878 0.06864732 0.2407621 -0.118242145 -0.12772879 -0.13771774 0.31512153 -0.14478871 -0.2922188 -0.41099614 0.018808471 0.561219 -0.15017456 0.19592023 0.10139203 0.12169827 0.14522108 -0.052024726 -0.3828763 -0.0421891 0.21232998 0.13538513 0.2802487 -0.41321447 0.28855166 -0.26799375 0.36335886 0.13854353 -0.17487828 -0.30435655 -0.01129757 0.063299015 -0.24729848 -0.10913243 0.46386334 -0.67393243 -0.05723602 0.27115545 -0.1719447 0.107501276 -0.09354313 0.46984434 0.16658084 -0.4527511 -0.4058066 -0.07951297 0.037599936 -0.048605878 0.36212352 0.122164585 -0.17921191 -0.12061838 -0.1385754 0.16065529 0.36472923 0.19208537 -0.06382894 -0.48141372 -0.054884218 0.14675462 -0.24895619 -0.27954426 -0.039877545 0.33625662 0.07690593 0.14569722 0.3322717 -0.3390454 0.051572688 -0.23933594 -0.04194031 -0.020492638 -0.029892232 0.003955726 -0.039207157 0.091370046 0.5779194 0.21635863
بازار 0.13843353 -0.034203425 0.08771464 -0.18417163 0.109677665 -0.16057383 0.6277259 -0.3911836 -0.05410284 -0.019382514 -0.021498434 0.07467235 -0.041147795 0.21683949 -0.76673657 -0.44009992 0.4578794 0.053221703 0.122637294 -0.5736344 0.20654985 0.02068437 0.2187931 0.10934647 0.28130332 -0.16314691 -0.15874068 -0.16770197 0.35987166 -0.19683515 -0.34750602 -0.4803065 0.013021328 0.643495 -0.20353954 0.22709998 0.106326155 0.14791064 0.16282135 -0.05500293 -0.43635374 -0.054683656 0.24385923 0.16744055 0.2815467 -0.46648848 0.34362218 -0.2764842 0.4273678 0.14413711 -0.20947091 -0.34025812 -0.005509376 0.07023515 -0.28655657 -0.13466103 0.55194557 -0.7624434 -0.07933035 0.3117766 -0.22115101 0.14976397 -0.1132278 0.52817327 0.17782038 -0.49344835 -0.4680677 -0.13502419 0.023960596 -0.061282087 0.46019387 0.124331094 -0.22196062 -0.11353105 -0.15369342 0.15491967 0.421854 0.20701203 -0.08482343 -0.59936464 -0.050150357 0.14681801 -0.27393958 -0.32251388 -0.051265255 0.40450138 0.11012941 0.17948349 0.39820597 -0.39798442 0.09347701 -0.2726341 -0.10838552 0.006234469 -0.032418333 0.008386047 -0.067048565 0.094898455 0.6695657 0.23582341
سيستم 0.13518734 -0.064318396 0.077813044 -0.16677696 0.06926528 -0.14675336 0.5976732 -0.3449525 -0.059987806 0.042871624 0.0069841575 0.107181765 -0.07517547 0.15873367 -0.68961793 -0.3790186 0.40129685 0.09232516 0.113625675 -0.51135886 0.24201986 0.04044875 0.24939907 0.08287923 0.24513303 -0.14159086 -0.13810623 -0.14347127 0.34198084 -0.19946349 -0.3254159 -0.4429086 0.02462683 0.5879129 -0.1934587 0.23818505 0.1190768 0.13754408 0.14542001 -0.039821975 -0.4085516 0.004345838 0.15514807 0.13642417 0.25839472 -0.44132727 0.2722076 -0.2749661 0.3633038 0.13694705 -0.1589571 -0.27979562 0.008511342 0.041908454 -0.2772613 -0.10215078 0.4809654 -0.645675 -0.07485009 0.25517994 -0.1952656 0.12596065 -0.081844315 0.5173602 0.14814083 -0.49193496 -0.41584843 -0.11180085 0.018759824 -0.019804966 0.4027186 0.117825836 -0.16159287 -0.14643362 -0.13614772 0.17618994 0.37068206 0.18312047 -0.04570734 -0.51040184 -0.08110276 0.13182509 -0.26359755 -0.3080263 -0.01961156 0.29173118 0.10260652 0.18089455 0.32080272 -0.375863 0.04303425 -0.21723604 -0.09109919 -0.020457178 -0.026427096 0.01810632 -0.04641261 0.0784992 0.576676 0.22194947
هسته 0.14802033 -0.034234244 0.08109665 -0.14912026 0.102740996 -0.11746204 0.5687773 -0.32082498 -0.03478241 -0.032859076 -0.019002672 0.09303855 -0.012416036 0.2136919 -0.68264633 -0.40062055 0.3776828 0.055412024 0.10787308 -0.5248018 0.18970232 0.014576906 0.20748349 0.08038046 0.2405138 -0.1388814 -0.13998592 -0.15789858 0.29339963 -0.1604268 -0.2973853 -0.4197014 0.0144748455 0.600664 -0.19672926 0.19242711 0.13105175 0.13097994 0.13001992 -0.044811103 -0.39885503 -0.050926875 0.20830137 0.14143592 0.25526094 -0.40760568 0.30952308 -0.2663564 0.3824102 0.13519683 -0.16765626 -0.28672406 -0.021059686 0.070546545 -0.28010187 -0.09671369 0.4960617 -0.6943851 -0.05828967 0.291581 -0.19025068 0.1340954 -0.10238458 0.480946 0.19291157 -0.4370891 -0.41766343 -0.12341838 0.01776688 -0.06775513 0.41005865 0.10917489 -0.1630408 -0.10613633 -0.12705487 0.16973417 0.35670817 0.16499798 -0.10377823 -0.52462953 -0.022818586 0.10746974 -0.26862177 -0.3115156 -0.036839206 0.35551298 0.1099281 0.18373078 0.3697203 -0.3556594 0.05503071 -0.24285194 -0.09143924 -0.0036665644 -0.024310114 0.02649626 -0.035251733 0.08468182 0.59030414 0.22417773
کنسول 0.13215816 -0.04868928 0.09348697 -0.21153483 0.08037712 -0.1491559 0.6473619 -0.41298053 -0.06266819 0.026660675 -0.0018506873 0.096373595 -0.024245977 0.23687464 -0.7841477 -0.42952493 0.4735384 0.069169536 0.12154439 -0.57227165 0.22530164 0.015532581 0.22858775 0.095247075 0.29178202 -0.14784548 -0.14102219 -0.1725484 0.37637305 -0.19710758 -0.35969678 -0.48166606 0.032520555 0.6363476 -0.18072417 0.2315732 0.12914056 0.13667627 0.16445713 -0.06479327 -0.44165272 -0.039522145 0.25293702 0.16838044 0.3070806 -0.4675083 0.33928296 -0.29295316 0.44376072 0.16838491 -0.21456064 -0.35600826 -0.0072878115 0.07175585 -0.28264707 -0.1255738 0.5433806 -0.785995 -0.045838524 0.31918013 -0.20990822 0.13771154 -0.118324324 0.54167235 0.18496455 -0.5132519 -0.4825383 -0.11609886 0.03413317 -0.059468154 0.44695017 0.14262278 -0.22708389 -0.13104181 -0.1681969 0.17895079 0.42477044 0.2141826 -0.0730221 -0.5869725 -0.0662972 0.15587898 -0.27759674 -0.32214013 -0.037637893 0.41657794 0.09244887 0.18002287 0.39005193 -0.40428418 0.07545876 -0.2907104 -0.07534213 -0.014110669 -0.01715143 0.019967096 -0.049838316 0.10112958 0.6597868 0.23991655
هيچ 0.14393727 -0.042295072 0.091321886 -0.20747574 0.059590723 -0.15351589 0.6346012 -0.4016365 -0.052332107 0.010481224 0.0034902154 0.10558661 -0.041936506 0.21611194 -0.7569385 -0.43753043 0.44535413 0.0856617 0.10239802 -0.5433055 0.23269926 0.0180508 0.2244107 0.079814784 0.28966135 -0.14381327 -0.14586018 -0.16156092 0.35508224 -0.16908652 -0.34372053 -0.46846488 0.03377543 0.65037996 -0.18440683 0.22442657 0.10857508 0.14740646 0.16001871 -0.050603896 -0.43694255 -0.04602198 0.2518192 0.15033866 0.32109606 -0.4663046 0.3329324 -0.29127625 0.41911012 0.14182177 -0.19940752 -0.33896625 -0.020985093 0.070796154 -0.2907991 -0.1312316 0.52877957 -0.7698651 -0.05872448 0.3146927 -0.1911233 0.13184622 -0.11236444 0.54173815 0.18825346 -0.5153551 -0.46726656 -0.094763 0.06007936 -0.06815095 0.41758215 0.1509373 -0.21538575 -0.13262255 -0.14490731 0.19752744 0.4108889 0.22137424 -0.07348046 -0.56951576 -0.059527233 0.15615189 -0.27290288 -0.3318595 -0.049797136 0.39326316 0.09897707 0.17674251 0.39940745 -0.37787586 0.06520713 -0.28896493 -0.04905758 -0.01719432 -0.035458475 0.014781929 -0.05002431 0.107257284 0.6606841 0.2451446
نرم 0.13073671 -0.054180052 0.09175706 -0.17900652 0.08229856 -0.1615834 0.6195394 -0.3610525 -0.032272454 -0.009388925 -0.021287255 0.1020318 -0.051053397 0.20916042 -0.72475845 -0.39998987 0.42778465 0.069283985 0.097017154 -0.56319314 0.23537065 0.033317342 0.24630633 0.095663115 0.24724323 -0.13595396 -0.13305409 -0.17039157 0.340604 -0.19239981 -0.3263377 -0.45495597 0.023474634 0.6170738 -0.19984032 0.23219109 0.10622926 0.1507054 0.13850057 -0.050071012 -0.41743642 -0.054951053 0.22381721 0.14612746 0.30058044 -0.4582723 0.30329192 -0.29193375 0.41880372 0.13496767 -0.1957577 -0.32637393 0.001878337 0.039670307 -0.2754173 -0.11212558 0.53176945 -0.72983 -0.090599 0.2670829 -0.21230718 0.13828571 -0.088539675 0.5281777 0.18626198 -0.5082919 -0.4608447 -0.12263242 0.03516593 -0.0443449 0.44445053 0.11520274 -0.20111322 -0.13078026 -0.15226784 0.15889981 0.3920288 0.21589911 -0.078784935 -0.5691441 -0.07632693 0.12339177 -0.27596855 -0.3099862 -0.050472863 0.36106238 0.09536826 0.17026816 0.3702144 -0.4025555 0.07636238 -0.24078946 -0.0993903 -0.0058523994 -0.030402113 0.004970476 -0.0689686 0.08259684 0.6524555 0.2406325
HD 0.14501938 -0.019005531 0.06897091 -0.19334343 0.14084807 -0.15050763 0.6591337 -0.3995399 -0.04495839 -0.031363383 -0.022357311 0.068394646 -0.0403215 0.23752272 -0.7790435 -0.45579484 0.48044547 0.053498756 0.13008268 -0.58347493 0.20400852 0.024817878 0.20410866 0.11305794 0.30133003 -0.1802787 -0.17336404 -0.18406777 0.35925803 -0.2116718 -0.3556705 -0.49626666 0.0049133203 0.64594775 -0.23386236 0.22917515 0.095325924 0.15692396 0.17475992 -0.03884659 -0.4593718 -0.053998098 0.2711452 0.18242258 0.29759347 -0.49049222 0.3521894 -0.28040284 0.43994066 0.12339392 -0.22067694 -0.36049643 -0.0041812975 0.08122521 -0.29360992 -0.13306695 0.5625774 -0.7887203 -0.08752974 0.31515893 -0.22806762 0.15853187 -0.120058306 0.5442546 0.19128807 -0.50407636 -0.4696007 -0.14312322 0.027101258 -0.08613869 0.4595366 0.12575434 -0.21854241 -0.109687775 -0.16842872 0.15807526 0.43030116 0.20350224 -0.10761762 -0.6262918 -0.052068915 0.13778354 -0.28111064 -0.33803657 -0.065220915 0.42876098 0.13152036 0.17417464 0.4209437 -0.4123574 0.12053166 -0.2694592 -0.10356422 0.013831703 -0.039104 0.011960594 -0.07637218 0.12221004 0.706891 0.23153666
توجه 0.14106989 -0.02873372 0.08813857 -0.20403361 0.08161535 -0.15055168 0.6319575 -0.39293313 -0.048010904 0.0026776532 0.00061591266 0.086334586 -0.041947484 0.21623465 -0.7609413 -0.4358017 0.44367743 0.076369554 0.106956065 -0.5523976 0.22510752 0.021828448 0.21435407 0.10123143 0.28317913 -0.1431387 -0.15163109 -0.16787413 0.3570577 -0.18169354 -0.34001872 -0.4712608 0.017737262 0.6323287 -0.19326149 0.22805834 0.11011714 0.13616502 0.16374561 -0.05123735 -0.4398063 -0.047383316 0.24855085 0.15915844 0.29824764 -0.46547014 0.33827183 -0.28212738 0.42185715 0.1441347 -0.20152558 -0.34349746 -0.016445095 0.067433305 -0.27999076 -0.13034812 0.5298445 -0.7583789 -0.062282898 0.31159756 -0.19718118 0.12897469 -0.10786135 0.52609557 0.18873268 -0.4996609 -0.46595192 -0.1034451 0.04370914 -0.0612211 0.42955053 0.13729332 -0.22018756 -0.13264363 -0.15982902 0.1700201 0.41554785 0.20676222 -0.07805509 -0.5734271 -0.058355603 0.15666996 -0.27821204 -0.3255301 -0.051859044 0.39669767 0.103417315 0.16527772 0.386178 -0.3893924 0.07930015 -0.27200383 -0.07323006 -0.0041058185 -0.032624055 0.009201873 -0.058558095 0.100574814 0.6705927 0.24037215
موجود 0.126794 -0.025227342 0.06852312 -0.1532966 0.11696277 -0.14400145 0.5528464 -0.33803895 -0.039469108 -0.018478837 -0.02054825 0.059765007 -0.042833142 0.19924581 -0.67331016 -0.37849388 0.39472347 0.04382024 0.09722632 -0.51859355 0.17748713 0.031058554 0.19484001 0.09930941 0.23744325 -0.14716077 -0.15124543 -0.15043575 0.31899983 -0.19042233 -0.31617686 -0.4242349 0.0076061506 0.56874806 -0.19244021 0.19577378 0.08853902 0.13258581 0.143398 -0.04515508 -0.39460674 -0.044004012 0.21443544 0.15792651 0.24244751 -0.41697395 0.30547494 -0.23620607 0.3719675 0.11719537 -0.17811331 -0.29011232 -0.003258386 0.065017074 -0.25891143 -0.106765985 0.48582605 -0.6698454 -0.069522046 0.2745408 -0.20401058 0.13209064 -0.09959942 0.469717 0.1502773 -0.43367603 -0.4179508 -0.12583591 0.008414754 -0.06797949 0.41360092 0.10996792 -0.19974738 -0.09554023 -0.14055182 0.120271474 0.3622985 0.17297006 -0.08185806 -0.5279188 -0.057120834 0.12014977 -0.23989885 -0.27808318 -0.04999181 0.35318175 0.10297232 0.15021907 0.34735182 -0.35541025 0.086061195 -0.23607297 -0.104939595 0.011988494 -0.03540341 0.013164189 -0.061168842 0.08207867 0.5889495 0.20433931
العاده 0.13035157 -0.02254931 0.083630614 -0.17149557 0.0716517 -0.13351907 0.54855996 -0.3426861 -0.044772316 -0.0070134425 -0.004751924 0.071716644 -0.031134455 0.19034542 -0.6603332 -0.38031033 0.3917131 0.06209481 0.08580336 -0.48094362 0.1945552 0.012006861 0.1914959 0.084211245 0.24047503 -0.12620163 -0.13026781 -0.14216015 0.30226868 -0.15168856 -0.2929564 -0.40443763 0.015944306 0.5541931 -0.16042489 0.19445744 0.08990191 0.12475439 0.1458578 -0.03733344 -0.37831143 -0.037774134 0.2246442 0.1393788 0.26193464 -0.40395933 0.29009792 -0.2446406 0.36133543 0.12544468 -0.18226069 -0.2985598 -0.01883222 0.057247814 -0.2494714 -0.114013016 0.4652288 -0.66896296 -0.054714464 0.27123532 -0.17237309 0.12005719 -0.09981456 0.46636903 0.1699437 -0.4381518 -0.39633948 -0.08481921 0.043415096 -0.061248664 0.36501113 0.12515567 -0.18108019 -0.10334777 -0.12782797 0.15663493 0.36572018 0.1807353 -0.06793298 -0.49486378 -0.050937306 0.12986992 -0.23315118 -0.27634907 -0.047805488 0.3368969 0.095522635 0.1479351 0.3381144 -0.33200395 0.06460895 -0.2414214 -0.057702582 0.00069103955 -0.02460946 0.012390849 -0.05274492 0.09034141 0.58298063 0.207474
همراه 0.15036137 -0.019631358 0.08276289 -0.18735178 0.14368135 -0.1593124 0.67947406 -0.41936433 -0.051419694 -0.042365093 -0.02329702 0.072578125 -0.046554085 0.25421757 -0.83213085 -0.4707318 0.485545 0.039184142 0.13465998 -0.62879986 0.21414697 0.039277725 0.22182925 0.12019388 0.2998237 -0.17226022 -0.17818743 -0.17447735 0.37822372 -0.23635937 -0.37665504 -0.5201851 0.0033055092 0.69143194 -0.24010591 0.24743707 0.10047633 0.15694718 0.18089914 -0.047373377 -0.48602152 -0.04849737 0.25992298 0.20241381 0.29384816 -0.50202376 0.3684092 -0.2836413 0.45661375 0.13987435 -0.22429222 -0.36608467 0.0009883948 0.08202916 -0.31586522 -0.14236215 0.59331614 -0.81224835 -0.08397169 0.33217397 -0.24890059 0.16523536 -0.123372115 0.58293253 0.19008115 -0.5251524 -0.5090918 -0.14638646 0.025733763 -0.08708358 0.500529 0.1275585 -0.24623543 -0.1232932 -0.17232114 0.14728263 0.45442873 0.21028833 -0.105794154 -0.6574273 -0.05650935 0.13917072 -0.2951556 -0.34860936 -0.072692454 0.4353428 0.14059512 0.17871457 0.42582697 -0.43386155 0.118193306 -0.29124197 -0.1263601 0.018304767 -0.045864668 0.018451063 -0.08173968 0.10273685 0.730346 0.244572
ساخت 0.10479592 -0.009905303 0.06536356 -0.1499751 0.10215739 -0.13723567 0.5360146 -0.3319588 -0.038406037 -0.021110496 -0.02018647 0.05621879 -0.042338725 0.18560863 -0.6426473 -0.3743657 0.3910304 0.04532283 0.08925277 -0.49379462 0.16295277 0.02932125 0.17719233 0.09134721 0.24012312 -0.14129937 -0.13919762 -0.1529135 0.29941356 -0.18744275 -0.2978532 -0.41040975 0.0059380154 0.5429388 -0.19005693 0.18145055 0.07686533 0.13288513 0.1487339 -0.026594052 -0.3805066 -0.04072134 0.21287139 0.1436461 0.23833784 -0.40734515 0.28265655 -0.2353991 0.3659255 0.10237412 -0.17173319 -0.29973376 -0.009611818 0.06295656 -0.25679854 -0.12697756 0.46992695 -0.6380262 -0.06512865 0.2566992 -0.20015328 0.128237 -0.09923239 0.44607046 0.1589368 -0.42537007 -0.3971364 -0.109502725 0.018328305 -0.057750367 0.39406103 0.09978008 -0.18699123 -0.102747545 -0.1326064 0.1348134 0.36350635 0.17558248 -0.07798717 -0.52488494 -0.054936863 0.112641476 -0.2380582 -0.2699447 -0.06256664 0.35345104 0.10014507 0.14065033 0.33976817 -0.3452895 0.08594216 -0.21973671 -0.09987082 0.018623397 -0.018048476 0.009402142 -0.065914035 0.092662774 0.5984544 0.20690563
امکانات 0.12493159 -0.027891457 0.08090042 -0.18297282 0.075776 -0.13760947 0.5690375 -0.35969007 -0.04537503 -0.007942761 -0.005754074 0.08083844 -0.041682374 0.19651169 -0.68426937 -0.39168832 0.41121173 0.05913929 0.093788125 -0.51347566 0.19454496 0.02003473 0.20200782 0.08288462 0.26030228 -0.13590257 -0.13108994 -0.1529564 0.3263952 -0.16533503 -0.31158596 -0.42935744 0.017726777 0.5780237 -0.17684932 0.21135627 0.0940444 0.13528301 0.14995943 -0.03808112 -0.40027145 -0.038289692 0.22116199 0.14681703 0.26892743 -0.42867172 0.30354917 -0.25842285 0.38457134 0.13238452 -0.18804592 -0.31527424 -0.007823621 0.06700044 -0.2553073 -0.10978696 0.49379486 -0.6906279 -0.06237372 0.2734021 -0.18580233 0.12904745 -0.0992513 0.48567683 0.166577 -0.45570838 -0.419596 -0.1022709 0.03929452 -0.056293238 0.39200196 0.12664813 -0.20050798 -0.10839591 -0.13342422 0.15825893 0.3772312 0.19468328 -0.071092404 -0.524806 -0.05023042 0.13468023 -0.25742424 -0.29563215 -0.04832144 0.3525555 0.09708934 0.15986283 0.35259917 -0.3502434 0.07422694 -0.2500969 -0.07935168 0.00081940467 -0.024503402 0.0035811986 -0.052730925 0.096530125 0.6104291 0.21794955
ديجي 0.10806529 -0.046834365 0.091490485 -0.2365983 -0.057104453 -0.2111098 0.57482606 -0.33974323 -0.07582032 0.067884736 0.119456224 0.049044866 -0.036909938 0.14638282 -0.7508986 -0.3956564 0.37044162 0.13751508 0.044876073 -0.43411162 0.20444755 0.046941176 0.16372326 0.04436915 0.29340905 -0.039914396 -0.12261967 -0.11358893 0.33726835 -0.15857114 -0.32076362 -0.45234007 0.06758377 0.5026337 -0.06278903 0.20697975 0.077512294 0.07377163 0.16987643 -0.053792536 -0.43898073 -0.1076338 0.16285089 0.1489906 0.32082522 -0.46082976 0.31910184 -0.24852769 0.4145915 0.1648671 -0.22216378 -0.34661618 -0.014352846 0.039022204 -0.26860905 -0.18577227 0.476841 -0.65648764 0.016522279 0.27353123 -0.11460759 0.108621195 -0.07840209 0.42352584 0.187992 -0.50169516 -0.35620627 -0.005741747 0.1284477 -0.087172434 0.27696833 0.09345802 -0.26363626 -0.20857881 -0.16789548 0.24016131 0.35948902 0.22953668 -0.017472945 -0.38669306 -0.07180931 0.20684634 -0.23435481 -0.2328763 -0.06580423 0.38480848 0.043125674 0.06991402 0.38398725 -0.37407255 -0.011135295 -0.2690111 0.035046805 -0.119953856 -0.04595015 0.062428087 -0.07387876 0.103864394 0.58708644 0.28101888
بدنه 0.14239784 -0.029193226 0.08492891 -0.20078547 0.10453719 -0.16642754 0.66912645 -0.41491854 -0.050890848 -0.016077299 -0.011493157 0.08435544 -0.045358635 0.23393652 -0.79314184 -0.46407825 0.471076 0.061660714 0.11507717 -0.58663124 0.22034621 0.021653391 0.21484406 0.109074585 0.30054802 -0.15564771 -0.16914009 -0.17275031 0.36680156 -0.20050773 -0.35977092 -0.5006936 0.014152613 0.6751556 -0.21111642 0.22880405 0.10263991 0.15016644 0.17574425 -0.04667723 -0.457261 -0.046490125 0.26087087 0.17142197 0.30593204 -0.48956996 0.3541166 -0.28643453 0.44810587 0.13911791 -0.21159905 -0.3627377 -0.010485651 0.07662147 -0.30373815 -0.14284593 0.56351966 -0.7939074 -0.07663352 0.3231659 -0.22278012 0.15625024 -0.1200523 0.56049925 0.18765524 -0.523657 -0.4816112 -0.11833903 0.04572429 -0.06972503 0.46683463 0.1380938 -0.23340245 -0.12404621 -0.15357108 0.17601897 0.4406603 0.21385467 -0.09444036 -0.6172968 -0.057880096 0.14567241 -0.27856553 -0.3402186 -0.06471901 0.41568595 0.1120395 0.1732182 0.41504154 -0.40725854 0.104666114 -0.2812816 -0.096936606 0.017119145 -0.031403195 0.018205628 -0.06917248 0.11017534 0.7111647 0.23986101
3 0.15038449 -0.035063993 0.07885879 -0.19469015 0.10613848 -0.15764105 0.65818536 -0.40742308 -0.0468657 -0.027782708 -0.011543795 0.07895971 -0.030445635 0.24009316 -0.79912305 -0.44815746 0.45939976 0.05713773 0.12729391 -0.5961207 0.21606447 0.016190313 0.22854361 0.112511046 0.29212105 -0.16502567 -0.16996501 -0.16782682 0.3589621 -0.19875987 -0.35297778 -0.4956734 0.013352804 0.67364293 -0.21431202 0.22826977 0.114475384 0.14755622 0.17687024 -0.05081546 -0.46531877 -0.054960866 0.26073265 0.17821956 0.29329345 -0.4894387 0.36561853 -0.29675502 0.44374028 0.14429137 -0.21383932 -0.3563629 -0.006750211 0.07721384 -0.30131164 -0.13205895 0.56891686 -0.79186743 -0.07217363 0.3279498 -0.22945727 0.14635547 -0.12109894 0.5577435 0.19717121 -0.509358 -0.47357368 -0.12617858 0.0426267 -0.07550731 0.46755722 0.13200492 -0.2336445 -0.12399124 -0.15796427 0.16926357 0.43140694 0.2102248 -0.091511466 -0.61553305 -0.05368105 0.14449127 -0.29240322 -0.34412497 -0.058754094 0.42505577 0.119275935 0.1838072 0.41853958 -0.4213658 0.09925987 -0.27880213 -0.09331113 0.005769132 -0.030239025 0.016043201 -0.07245814 0.09471741 0.7010976 0.24539125
خريد 0.11655014 -0.029531015 0.08416784 -0.18527539 0.020077167 -0.13737935 0.53048277 -0.3343651 -0.051138546 0.0291607 0.019365309 0.08007982 -0.03844975 0.1763014 -0.6386253 -0.36489928 0.3803845 0.0807155 0.07959746 -0.45779806 0.19953483 0.0030198826 0.1955035 0.06915248 0.24370436 -0.111295044 -0.11179929 -0.13253091 0.3034655 -0.13419633 -0.28047726 -0.38722244 0.026284846 0.5263615 -0.13162614 0.18972771 0.0964054 0.107734084 0.13053069 -0.04741309 -0.36928082 -0.035418794 0.20529671 0.13009053 0.26559138 -0.39379552 0.27512583 -0.25647315 0.35256577 0.1394539 -0.17773105 -0.28742594 -0.012965033 0.048647694 -0.24028824 -0.114334054 0.4463476 -0.6431422 -0.035374008 0.25568864 -0.14449263 0.09864407 -0.099077895 0.4367338 0.15974042 -0.43124434 -0.37672362 -0.06947465 0.05628125 -0.051401444 0.33342472 0.11640336 -0.18261825 -0.122672 -0.12419378 0.17696226 0.34580073 0.19304414 -0.054453526 -0.4484156 -0.04930939 0.13763063 -0.22769837 -0.26725832 -0.040025365 0.32686058 0.077571094 0.13018912 0.3229179 -0.31337655 0.040715273 -0.23720479 -0.023766007 -0.023839513 -0.023672543 0.011742035 -0.036319118 0.08903454 0.55770373 0.21503995
يکي 0.13960652 -0.03281117 0.08936459 -0.19132428 0.051316712 -0.14682792 0.5801613 -0.36982813 -0.044067115 0.016219968 0.0065309294 0.09526451 -0.04465891 0.18890758 -0.6879646 -0.40009284 0.41209498 0.082591325 0.10122888 -0.50806427 0.21162182 0.015100311 0.20776916 0.08481517 0.25700673 -0.12803452 -0.123644926 -0.15714411 0.3334232 -0.15592921 -0.31464326 -0.42503685 0.022251938 0.58190084 -0.16450821 0.20616056 0.10448948 0.13183044 0.15650043 -0.050036825 -0.39562845 -0.03935057 0.22323701 0.14800702 0.2906519 -0.42317078 0.2972586 -0.27389613 0.38703766 0.1332077 -0.18636459 -0.31183675 -0.0150957005 0.069092065 -0.25859344 -0.11846277 0.48819536 -0.697274 -0.051523786 0.2804875 -0.18642725 0.120781995 -0.10346824 0.48620766 0.16630773 -0.46471468 -0.4198983 -0.08798456 0.045398902 -0.05364318 0.38783884 0.13738514 -0.19480304 -0.124242686 -0.14261793 0.16645499 0.38183668 0.19790605 -0.06210533 -0.51986563 -0.054472104 0.14852409 -0.25038445 -0.30364707 -0.043074932 0.35243732 0.093074165 0.16185156 0.35478485 -0.35179788 0.06574284 -0.25687307 -0.04917818 -0.0117155155 -0.02972012 0.0052566845 -0.049317922 0.08950099 0.6006456 0.22383644
امکان 0.1404577 -0.022145856 0.08895547 -0.19545865 0.12655394 -0.16384041 0.6775436 -0.42661932 -0.050310116 -0.02267078 -0.017962152 0.08279498 -0.037834108 0.23782358 -0.8102284 -0.467898 0.48034695 0.054141678 0.1258153 -0.6141546 0.22015344 0.0333251 0.2225836 0.11730651 0.30300835 -0.16744332 -0.1730742 -0.18039024 0.37588888 -0.22449002 -0.3736378 -0.51005167 0.009424364 0.6812114 -0.22719015 0.24458255 0.10765427 0.15090625 0.17236552 -0.052481785 -0.46679512 -0.05437159 0.26390806 0.18859968 0.29584783 -0.4937279 0.36614594 -0.28320205 0.4559134 0.1487272 -0.22251794 -0.36938855 -0.00047816557 0.07775401 -0.3057144 -0.13469401 0.5829126 -0.811402 -0.07676864 0.3277462 -0.2346287 0.15563387 -0.11999396 0.5638685 0.18738885 -0.5287953 -0.49528465 -0.13158372 0.030902456 -0.078959376 0.4900675 0.13918701 -0.23596765 -0.12509786 -0.16747747 0.1519365 0.44319713 0.21896462 -0.08701041 -0.64096874 -0.06074438 0.14274728 -0.28345343 -0.34519354 -0.054899376 0.43495 0.1234793 0.18042123 0.42090026 -0.42879006 0.10181457 -0.28989637 -0.11749324 0.01248108 -0.040349957 0.023607496 -0.076844685 0.10763813 0.72625524 0.23900935
باتری 0.099327 -0.009744104 0.055502225 -0.14966995 0.15058014 -0.13867112 0.5453448 -0.33414876 -0.04142645 -0.0458671 -0.011509101 0.03781985 -0.02857431 0.21239433 -0.6492324 -0.36754164 0.39050347 0.029794907 0.099392325 -0.5177838 0.15008064 0.02054287 0.172524 0.11366902 0.23932584 -0.15798536 -0.16423716 -0.134174 0.3053341 -0.21401249 -0.31064808 -0.4222414 -0.0044425568 0.5411216 -0.20982581 0.18987997 0.06721985 0.120417334 0.14791855 -0.052777193 -0.3989381 -0.053343356 0.21028957 0.18078993 0.20349528 -0.4162244 0.3039076 -0.20804107 0.37366313 0.1152569 -0.19054163 -0.28266114 0.011420025 0.06903287 -0.2514551 -0.116793685 0.48894674 -0.65844446 -0.06755473 0.26368952 -0.20239589 0.1450251 -0.10801831 0.45547822 0.13516441 -0.40301657 -0.42249164 -0.13741945 0.0051973793 -0.07194501 0.4131275 0.1038843 -0.21467578 -0.09682865 -0.1356835 0.09306943 0.36035645 0.17084974 -0.08124921 -0.5386654 -0.049565516 0.10075712 -0.23965313 -0.2635493 -0.053077165 0.3551074 0.11598243 0.1412568 0.33944863 -0.35307023 0.122524716 -0.22361873 -0.12398074 0.03789244 -0.041859083 0.014098704 -0.09338412 0.07381556 0.6037769 0.17678462
عکاسی 0.13257313 -0.012862456 0.061549995 -0.17614506 0.15952848 -0.15976453 0.63000923 -0.39763573 -0.04622155 -0.030809816 -0.026738286 0.05935275 -0.04727422 0.22600384 -0.7716402 -0.43362445 0.45960996 0.034409534 0.11922 -0.5914751 0.18162207 0.027962921 0.1954888 0.114083804 0.28401986 -0.17459631 -0.18259272 -0.16047627 0.35233697 -0.23299874 -0.35333598 -0.49077743 0.013956609 0.6324482 -0.24422641 0.21354844 0.07972236 0.14895085 0.17040971 -0.04385005 -0.45176527 -0.057160467 0.25487489 0.18201235 0.2597344 -0.48091778 0.35791472 -0.24320367 0.41885006 0.11044872 -0.2161985 -0.34066957 0.0013280069 0.07561123 -0.2721414 -0.1307774 0.5499018 -0.7536204 -0.08841511 0.3117018 -0.23139365 0.1517748 -0.1246232 0.5351444 0.16828685 -0.48641625 -0.45852342 -0.15877232 0.027343638 -0.08595188 0.4642312 0.11555113 -0.23568779 -0.10000824 -0.16062894 0.11826203 0.41632992 0.18823689 -0.08685918 -0.62977606 -0.044755943 0.11835696 -0.26464865 -0.32029805 -0.06895874 0.4299532 0.1380841 0.16481683 0.41583982 -0.4168315 0.11566724 -0.25655818 -0.13466024 0.037246924 -0.040396012 0.020564051 -0.08274063 0.10352856 0.6814278 0.2202195
8 0.13054302 -0.022429103 0.07423445 -0.18446217 0.12639874 -0.158905 0.63026094 -0.39548138 -0.059647124 -0.024339184 -0.01150146 0.07217587 -0.038898025 0.23301706 -0.7664963 -0.43968445 0.45945048 0.046542265 0.118346214 -0.58304816 0.20767584 0.027165523 0.21928138 0.113140784 0.27592564 -0.1688596 -0.17053038 -0.16025455 0.35785067 -0.2236974 -0.35751125 -0.48787704 0.012202942 0.64535326 -0.22895734 0.23484182 0.10133055 0.14452094 0.16928749 -0.05078805 -0.44767424 -0.04615376 0.24652791 0.1762345 0.27661714 -0.47258836 0.35670757 -0.2674567 0.42773962 0.13291326 -0.20974852 -0.33453557 -0.00961741 0.07217764 -0.29548964 -0.1344558 0.56076026 -0.7622353 -0.082716934 0.31049055 -0.22847608 0.15172337 -0.10488262 0.54491854 0.168323 -0.4922112 -0.4727662 -0.12696531 0.02287075 -0.0704668 0.46697524 0.1268621 -0.21720824 -0.11594415 -0.15283547 0.14372051 0.42302856 0.19092236 -0.084456906 -0.6051336 -0.052732654 0.13403068 -0.2710125 -0.3286626 -0.06378892 0.39803216 0.11909406 0.1671636 0.40816277 -0.4136595 0.10683077 -0.266012 -0.12296677 0.010367864 -0.032205444 0.013760763 -0.074054435 0.093134515 0.6876988 0.22938393
