1332 100
اين -0.57018256 -0.14084876 0.16140105 0.008336483 -0.3245556 0.23471537 0.28652555 -0.4205463 0.5229491 0.11372615 0.12053852 0.19166148 -0.12013288 0.32245988 0.46480113 0.20978127 0.36662787 0.014493377 0.6151091 -0.20016962 -0.02666924 -0.40321746 0.175141 -0.14846456 0.25057885 0.0063276854 0.026930485 0.31916302 -0.093383655 -0.30716744 0.018116191 -0.15340997 -0.28280863 -0.11055169 0.1558041 -0.0039224043 -0.26207384 0.33337152 0.06631401 -0.080984876 0.02330224 0.342933 -0.2150237 -0.091198504 -0.0031694854 -0.23163086 0.56069374 -0.1561247 0.038547177 -0.050678693 0.027675992 -0.28205815 0.3732116 -0.13247894 -0.05061021 -0.17526706 0.29512402 -0.2807641 0.22980045 0.056461148 0.23634529 -0.15269469 -0.029575475 0.077159 0.23726587 0.1205276 0.1196381 0.5020489 0.09689512 -0.011821272 0.0654583 -0.3996952 -0.3014223 0.110979795 0.05505192 -0.0663602 -0.26497138 0.4706004 0.15901786 -0.09595451 0.58085877 0.29216644 -0.14811073 0.012185364 -0.41502655 -0.017765049 -0.8778767 0.26068255 0.030005682 0.04944817 0.43773758 -0.3866401 -0.039510507 0.36058882 -0.0066586626 -0.18182145 0.05091198 0.16375868 0.3920146 0.16664946
گوشي -0.56129 -0.12529533 0.1526234 0.00988583 -0.32477266 0.23368631 0.2910286 -0.41943747 0.50351804 0.115552306 0.10966055 0.20363575 -0.123265736 0.3303942 0.47097808 0.19439761 0.3734184 0.0060735065 0.6228605 -0.21443948 -0.026584534 -0.40389588 0.1667213 -0.1468157 0.2455753 -0.012920348 0.03571304 0.32732594 -0.103122346 -0.301025 0.026780626 -0.161838 -0.27126583 -0.11741038 0.15932415 0.01133205 -0.26414248 0.34154847 0.07131542 -0.08584856 0.0066116457 0.34888098 -0.22278787 -0.07577602 -0.002841818 -0.22533481 0.58023256 -0.1585901 0.039410304 -0.054448757 0.0055441707 -0.28150123 0.38185415 -0.119158156 -0.047831472 -0.17625846 0.3099686 -0.27788004 0.24144907 0.058360077 0.26023954 -0.1520432 -0.040481605 0.072625816 0.24158138 0.10654369 0.11163519 0.52210337 0.084344044 -0.00019122133 0.07381142 -0.4015609 -0.3143513 0.10636512 0.04578864 -0.063310936 -0.2645249 0.46977994 0.16473335 -0.09653661 0.58799106 0.29403216 -0.13725641 0.0030710406 -0.41689903 -0.007223865 -0.8854949 0.26465666 0.013077838 0.04958054 0.4394931 -0.3860593 -0.04564041 0.3712162 -0.008537077 -0.1969706 0.054483846 0.17193647 0.41104946 0.16240105
صفحه -0.58937156 -0.09244494 0.1037751 0.028825747 -0.31917584 0.25405967 0.28291348 -0.53976923 0.46409053 0.14478181 0.054136585 0.27177528 -0.21625571 0.43168384 0.536106 0.18830931 0.44542795 -0.048696753 0.66590583 -0.30601835 -0.039026853 -0.41864905 0.08611578 -0.111351416 0.11477772 -0.0833567 0.166834 0.3356896 -0.12758495 -0.34161073 0.07296229 -0.0934973 -0.2839312 -0.088087805 0.2340885 0.08421407 -0.26331797 0.25817668 0.17365335 -0.05945642 -0.08413552 0.36893362 -0.23436296 -0.044841066 0.003971485 -0.23330069 0.63232195 -0.2450648 0.08286405 -0.061032012 -0.0061126067 -0.28047556 0.3895892 -0.15152803 -0.06661191 -0.1837747 0.31796098 -0.21451475 0.29165363 0.04658156 0.35103306 -0.23665597 0.003262668 0.04941808 0.2192191 -0.009792311 0.0831141 0.52008444 0.046971433 0.05549741 0.17794143 -0.34990945 -0.32059228 0.062466502 -0.018655598 -0.03711401 -0.2021611 0.43692175 0.19682407 -0.14885 0.5695391 0.34730896 -0.11939526 0.060536955 -0.42054522 0.053490408 -0.8436329 0.34087902 -0.06794327 0.11149865 0.435399 -0.44430187 -0.065711126 0.36406285 0.031726662 -0.21010047 -0.018091394 0.12579565 0.40284646 0.086031586
دوربین -0.5934695 -0.04256674 0.074986495 0.038837124 -0.33151987 0.23961797 0.26794443 -0.5256511 0.47568214 0.12536034 0.040429555 0.27505586 -0.20878337 0.4422171 0.5462647 0.16457482 0.49399936 -0.080028325 0.64869994 -0.34931666 0.028612388 -0.47157118 0.031949222 -0.14663601 0.10085411 -0.069224 0.17629185 0.3428385 -0.08425522 -0.37140417 0.052758034 -0.08196678 -0.23615704 -0.11435968 0.22636609 0.110302895 -0.21000385 0.20276806 0.16772766 -0.07757883 -0.07927436 0.38641706 -0.1872598 -0.042476583 -0.012455708 -0.24988121 0.6821893 -0.25072253 0.11858721 -0.029330289 -0.011754524 -0.27051264 0.41184032 -0.15585425 -0.06634733 -0.15872745 0.3069479 -0.26261717 0.31911752 0.03721541 0.35200527 -0.2654964 0.032460257 0.10066613 0.24852942 -0.074194066 0.027650813 0.49564973 0.07565781 0.06447912 0.21363933 -0.36669633 -0.32131386 0.05538618 -0.012737112 -0.048913226 -0.24383374 0.41757077 0.21668756 -0.13836102 0.58863294 0.32711536 -0.06722071 0.073934585 -0.40777573 0.06502511 -0.8935183 0.3912753 -0.13505979 0.11819841 0.4648334 -0.4533284 -0.08522255 0.40606108 0.03797192 -0.26702034 -0.006115168 0.14176211 0.40257958 0.024114124
خيلي -0.56305546 -0.12612458 0.15688202 0.015182729 -0.322626 0.23556931 0.287077 -0.4136265 0.49117142 0.10689367 0.096382715 0.2036023 -0.14134608 0.32185876 0.46979305 0.20984696 0.3722234 0.003896023 0.6043599 -0.21945807 -0.03206262 -0.39343596 0.16733663 -0.14614505 0.22830896 -0.0086456565 0.04734866 0.3237881 -0.11605001 -0.30040842 0.022203103 -0.14445536 -0.27163142 -0.11009168 0.14821017 0.021586515 -0.253096 0.3260558 0.0959004 -0.08609982 0.00741958 0.33343774 -0.21070352 -0.0700773 -0.013933824 -0.22258092 0.5675332 -0.17935444 0.043679204 -0.062248435 0.0090092225 -0.2895319 0.3591177 -0.12736823 -0.04724145 -0.16177526 0.3117246 -0.26247808 0.2316882 0.047654096 0.26645207 -0.16328403 -0.03435656 0.06177745 0.23552506 0.092554286 0.113682084 0.5008799 0.084887326 -0.0036521826 0.07441771 -0.3896302 -0.30275095 0.09223452 0.049892057 -0.061928324 -0.25301078 0.44717723 0.17550553 -0.0998184 0.5728601 0.284536 -0.1349647 0.006167412 -0.40420187 0.0007787238 -0.8674805 0.26158273 0.008035574 0.05209835 0.43161055 -0.38714606 -0.0490348 0.35623842 -0.008579036 -0.20551877 0.039623067 0.17265119 0.40891218 0.14636853
هاي -0.5756624 -0.11477297 0.1565699 0.008814747 -0.3172315 0.24725865 0.29007858 -0.45137054 0.4992987 0.12122137 0.09529713 0.20198725 -0.1443634 0.35965058 0.48433515 0.19816537 0.38969865 -0.0057975072 0.6222058 -0.24406758 -0.012678287 -0.41936326 0.15008646 -0.1499152 0.22946027 -0.014948132 0.06692446 0.326137 -0.087231524 -0.31905657 0.04037677 -0.13886176 -0.28378776 -0.097149074 0.15868199 0.029607762 -0.26537386 0.33126742 0.07673033 -0.07475498 -0.0034816898 0.3497082 -0.20809613 -0.068966076 -0.014211337 -0.22332734 0.6020172 -0.1856909 0.06505494 -0.050302472 0.012142398 -0.2994226 0.37902787 -0.13583924 -0.058910936 -0.17584263 0.30889297 -0.27572688 0.25556073 0.048526954 0.2756087 -0.17187043 -0.022912467 0.069784604 0.24519871 0.07137731 0.11271576 0.5097188 0.08584695 0.008752784 0.10530328 -0.38797534 -0.31793213 0.09722511 0.033420466 -0.056515235 -0.2557236 0.46483108 0.17620516 -0.109509625 0.59586906 0.30240035 -0.13835378 0.02601533 -0.41171843 0.007388492 -0.89732313 0.29998764 -0.024829367 0.055136297 0.44232857 -0.389154 -0.042330135 0.37179965 0.0138328625 -0.19245632 0.045743987 0.16473874 0.4066911 0.13337713
تبلت -0.5707498 -0.08868347 0.112918586 0.013341825 -0.31129414 0.23708045 0.2734586 -0.4752326 0.47886604 0.10928255 0.06586733 0.23855768 -0.16369669 0.38631853 0.50536007 0.17954928 0.41872543 -0.039040577 0.63260716 -0.28678563 0.0021611922 -0.4350688 0.08070572 -0.13592611 0.15950596 -0.049374986 0.11547707 0.32891592 -0.0881334 -0.3383687 0.04460988 -0.11221475 -0.25150025 -0.09594257 0.19244273 0.0644289 -0.24622361 0.26795107 0.12891904 -0.08089373 -0.045471516 0.36188745 -0.21047273 -0.054142173 -0.0049936506 -0.22721922 0.62508774 -0.20792526 0.087483115 -0.039979395 -0.0016598757 -0.28217295 0.39187512 -0.14327861 -0.06129557 -0.17924541 0.30602136 -0.25809065 0.27003375 0.04386956 0.30540735 -0.20383632 -0.0055370075 0.07637184 0.24719809 -0.0004603131 0.07523672 0.5063868 0.07462759 0.03283802 0.15396103 -0.38028547 -0.313393 0.078899026 -0.0021341727 -0.049485445 -0.24285945 0.44425166 0.19641025 -0.12142436 0.59495217 0.3152296 -0.10485054 0.04331417 -0.40811527 0.03565876 -0.8714343 0.32791725 -0.072134465 0.08294136 0.44971895 -0.4198731 -0.06456319 0.37758136 0.019021682 -0.21914752 0.008752877 0.14076956 0.39431208 0.092354126
مي -0.6140297 -0.120774426 0.15188369 0.016708845 -0.34045833 0.25711745 0.3079252 -0.4796013 0.5266961 0.12354114 0.08928059 0.22941144 -0.15930492 0.37720537 0.5193137 0.20961046 0.42935857 -0.0062098964 0.6631633 -0.26124543 -0.01714682 -0.447908 0.1448276 -0.16389073 0.23430988 -0.01994119 0.07701145 0.3519917 -0.09802273 -0.3402643 0.038867082 -0.15400037 -0.28608927 -0.11703295 0.16901892 0.04131424 -0.27865496 0.34231263 0.09024695 -0.09077802 -0.014185262 0.37632668 -0.23021497 -0.07685354 -0.016871052 -0.24247207 0.63620895 -0.19448681 0.06301553 -0.047539677 0.0027322825 -0.317864 0.41870773 -0.14249904 -0.06492483 -0.18811817 0.32702583 -0.29636323 0.27271724 0.052027263 0.30318427 -0.18888602 -0.029183254 0.073375195 0.26295224 0.07475166 0.107210085 0.5552793 0.08814376 0.003511072 0.11340009 -0.42276326 -0.3330698 0.09355319 0.028580569 -0.061864804 -0.2784225 0.48941422 0.18383363 -0.11940054 0.630983 0.32456788 -0.14230616 0.019620474 -0.44256052 0.0048693237 -0.95795554 0.32201475 -0.028512836 0.069635324 0.46953362 -0.43280238 -0.050793547 0.39861128 0.007656349 -0.22776075 0.04666979 0.17875256 0.4361908 0.13492075
نظر -0.5662432 -0.10346178 0.1319166 0.008365996 -0.31167954 0.2398803 0.28541192 -0.45552364 0.4898342 0.115315355 0.0827968 0.2223404 -0.14986722 0.35810885 0.48161265 0.18911873 0.39752385 -0.026238462 0.6180748 -0.2593725 0.0025610786 -0.41241452 0.12221702 -0.14270146 0.19238316 -0.033287566 0.082109354 0.33174047 -0.09253901 -0.32112297 0.039960753 -0.13225324 -0.26831108 -0.10420133 0.16868398 0.04534161 -0.25284848 0.29056162 0.10785971 -0.07523319 -0.021040354 0.35344785 -0.20932592 -0.06805147 -0.012522554 -0.22288537 0.6037402 -0.19615367 0.0709881 -0.046382137 0.0017876314 -0.28372216 0.38116866 -0.1369036 -0.06265353 -0.16960712 0.30495286 -0.25801873 0.2510913 0.047337312 0.2870131 -0.18097453 -0.022735253 0.0743141 0.23954846 0.040784143 0.08732783 0.49837428 0.07571588 0.021180201 0.1137726 -0.38434565 -0.30806816 0.09233808 0.022013877 -0.05296589 -0.24883103 0.44478714 0.18234709 -0.10618382 0.58552283 0.30479786 -0.11600194 0.027445126 -0.4016629 0.01561778 -0.87212837 0.3086449 -0.03430304 0.06169496 0.43376267 -0.39626744 -0.050401807 0.37353018 0.011881627 -0.20802502 0.025737464 0.1582749 0.39254037 0.11367595
داره -0.58362955 -0.124793775 0.15255587 0.020107847 -0.32167873 0.25484002 0.29353237 -0.45749643 0.50567454 0.11488537 0.07894577 0.22992726 -0.14808615 0.35831022 0.495618 0.20847552 0.3987101 -0.007997661 0.6423427 -0.24788415 -0.025614413 -0.4206496 0.1444839 -0.155727 0.22566877 -0.026784256 0.08154953 0.33509648 -0.10057457 -0.32862067 0.036813926 -0.14281254 -0.28366375 -0.10800731 0.1658516 0.04276201 -0.27030703 0.3317161 0.10470092 -0.07933109 -0.0045807324 0.36431155 -0.21878876 -0.07291328 -0.010376763 -0.23007077 0.6107447 -0.20088238 0.060618546 -0.05983088 0.0051598316 -0.2998717 0.38700292 -0.13216697 -0.058994386 -0.16943777 0.32714373 -0.2695459 0.2599451 0.04604008 0.29145378 -0.17703795 -0.030724937 0.065593444 0.2438872 0.06517769 0.112910666 0.5308761 0.08342226 0.013442758 0.10133058 -0.39916793 -0.33002138 0.10059288 0.03490035 -0.057926953 -0.26328066 0.46664983 0.18173568 -0.11116771 0.61112607 0.31028485 -0.14587435 0.01824587 -0.4170447 0.01895212 -0.9121157 0.30360544 -0.020274114 0.07541636 0.45114148 -0.41374195 -0.05395392 0.37563825 0.012207248 -0.21804734 0.03702244 0.18459184 0.4264226 0.12530316
براي -0.6014814 -0.122060984 0.15364558 0.019625874 -0.33133206 0.24780789 0.30326372 -0.47742 0.52426064 0.12363486 0.08822664 0.22267023 -0.15051356 0.37026632 0.50713116 0.20415948 0.41962212 -0.017650893 0.66608244 -0.25685275 -0.007246586 -0.44842663 0.1503171 -0.15088932 0.23418897 -0.020745214 0.07690357 0.34490848 -0.106787555 -0.33344245 0.038903557 -0.13939747 -0.28153995 -0.11614429 0.17445593 0.03504984 -0.26534978 0.3376812 0.089306 -0.08711768 -0.005501537 0.37529042 -0.2298432 -0.068532564 -0.004997919 -0.22968015 0.6369263 -0.1948045 0.066654295 -0.041194018 0.012807396 -0.30850685 0.4092205 -0.14603914 -0.07329273 -0.18563999 0.32402435 -0.28464016 0.2652198 0.060138926 0.28735012 -0.18763977 -0.027861828 0.07815424 0.26391554 0.067342274 0.11300238 0.5467613 0.087186895 0.010334693 0.11795119 -0.41253158 -0.3269669 0.09524193 0.025401302 -0.064084865 -0.2701589 0.48218045 0.17985581 -0.11920846 0.6284625 0.31824324 -0.139081 0.017752586 -0.4357027 0.009667865 -0.94388306 0.31193995 -0.028416846 0.07306541 0.47157148 -0.4204068 -0.05236763 0.39045182 0.016850738 -0.21806002 0.048447832 0.17843607 0.4315074 0.13004585
گوشی -0.59118646 -0.05310318 0.08249534 0.021471571 -0.31794274 0.23812309 0.2667429 -0.5332326 0.46749237 0.12494397 0.038401168 0.27159458 -0.20294882 0.43236676 0.53148913 0.16956265 0.46845207 -0.066956 0.6495437 -0.34389773 0.031171149 -0.47212744 0.032454245 -0.14487329 0.10725798 -0.08048786 0.16938284 0.34584913 -0.079698786 -0.3733397 0.059504386 -0.09160507 -0.24320251 -0.09519617 0.21611777 0.09839474 -0.22789139 0.22023249 0.1720193 -0.085186124 -0.08177159 0.3850287 -0.19940825 -0.03920741 -0.012674285 -0.23377182 0.67023987 -0.24361373 0.120504156 -0.028018665 -0.010683664 -0.26854387 0.42435992 -0.14442815 -0.072355255 -0.17458168 0.3065174 -0.2553692 0.30555025 0.034921132 0.34476045 -0.24462366 0.012870937 0.082046956 0.25049576 -0.059088375 0.04731273 0.50756615 0.069068536 0.056391396 0.2035663 -0.36339152 -0.31875652 0.059733618 -0.024540534 -0.042127956 -0.23406675 0.42239597 0.22507712 -0.14261787 0.6027998 0.3405199 -0.091543116 0.07572272 -0.41043454 0.07135431 -0.8820216 0.38372415 -0.12956199 0.09736325 0.45348316 -0.4439971 -0.070918 0.39124185 0.032122575 -0.24640301 -0.017032113 0.11880965 0.39546767 0.034979925
ولي -0.5913946 -0.12821357 0.15289335 0.018223729 -0.32658264 0.25248343 0.30128 -0.45221615 0.5141085 0.11875413 0.08721428 0.22512817 -0.1519408 0.36576515 0.50110096 0.21343832 0.39989588 -0.013474633 0.6481138 -0.2420612 -0.02254232 -0.4303959 0.15788607 -0.15864569 0.23510174 -0.01915398 0.064783104 0.33900568 -0.10428472 -0.3294893 0.030633539 -0.15352227 -0.28210926 -0.11025531 0.1600974 0.026921635 -0.27532214 0.3390865 0.10292227 -0.0822147 -0.0016241475 0.3611895 -0.212076 -0.07835913 -0.009802786 -0.22774282 0.6097188 -0.19047244 0.063356854 -0.056102604 0.0024666854 -0.30705854 0.3950153 -0.13759597 -0.05631874 -0.17413558 0.31850824 -0.2760426 0.25051633 0.05519054 0.28895873 -0.18120635 -0.039080173 0.07742717 0.25656343 0.07500664 0.11271836 0.5332901 0.08173416 0.0023576724 0.09641944 -0.40319893 -0.32670146 0.10333507 0.037956838 -0.05895041 -0.2707863 0.47576696 0.18556291 -0.11974051 0.61989766 0.31243846 -0.14736913 0.020878207 -0.41932786 0.01328109 -0.9200056 0.29858965 -0.020665584 0.067136176 0.4562058 -0.41669232 -0.056332547 0.38407323 0.0077625215 -0.21156317 0.04016704 0.1832629 0.42093593 0.14183787
دوربين -0.56714004 -0.11772221 0.14184125 0.021045003 -0.32870945 0.2389041 0.29677528 -0.44266295 0.5079824 0.11258552 0.092384666 0.22185457 -0.14072062 0.35534108 0.48295572 0.20492291 0.39949775 -0.01232225 0.6231603 -0.23622118 -0.033653367 -0.4012739 0.14822918 -0.15206046 0.2223706 -0.020708473 0.06717738 0.32360318 -0.10588583 -0.31554303 0.030105148 -0.14829099 -0.263884 -0.11094537 0.16493839 0.030259527 -0.25092986 0.31588948 0.09136466 -0.082767196 -0.00061019295 0.34654787 -0.21010557 -0.07214252 -0.0055059255 -0.23568879 0.6009325 -0.18307966 0.05454931 -0.054115552 0.0052737296 -0.29130706 0.38740575 -0.12901816 -0.046714164 -0.17064463 0.31251097 -0.27078918 0.25171238 0.04324574 0.27128348 -0.17027216 -0.020785075 0.06712926 0.23153687 0.077851534 0.096787184 0.51018 0.08144286 0.0008868922 0.10190167 -0.38340607 -0.31631508 0.09112209 0.04032918 -0.064701095 -0.2533102 0.46047336 0.17656294 -0.104614794 0.5974828 0.29979816 -0.13344234 0.010757974 -0.40575692 0.0029773135 -0.8895371 0.2881695 -0.010877864 0.07520689 0.44235379 -0.3982925 -0.047800217 0.37936038 -0.00019107357 -0.21082294 0.04116396 0.17644802 0.41541442 0.13755813
يک -0.62275046 -0.12379883 0.15021732 0.020577336 -0.34472537 0.26023036 0.31320536 -0.4948076 0.5409637 0.13041684 0.09343028 0.23876311 -0.16300155 0.3895879 0.5270233 0.20515624 0.42749 -0.014866911 0.6840211 -0.2739428 -0.011656071 -0.4548662 0.14126825 -0.1556657 0.22774665 -0.028464707 0.0866431 0.3490417 -0.1053971 -0.3495207 0.04421519 -0.1520895 -0.2914052 -0.11078896 0.18456456 0.037518755 -0.26916853 0.33422616 0.10107395 -0.08947239 -0.008537392 0.37999842 -0.22666034 -0.07279251 -0.0069491505 -0.24644522 0.6549472 -0.20253836 0.07485003 -0.049619574 0.0051383567 -0.3166359 0.41767627 -0.14361186 -0.065707505 -0.18557738 0.33400986 -0.29218277 0.2810973 0.055132344 0.29626784 -0.19229914 -0.015484295 0.08337878 0.2663637 0.06817079 0.10301353 0.5507165 0.08717127 0.013321613 0.11758945 -0.4263479 -0.33492076 0.10464064 0.031213095 -0.070551194 -0.27564794 0.4885137 0.18908192 -0.11910022 0.6421091 0.32626727 -0.13517147 0.030402536 -0.44752404 0.014349606 -0.9634191 0.33093923 -0.0284172 0.07796893 0.484603 -0.43771666 -0.054393202 0.41015917 0.009078649 -0.22266978 0.03135378 0.17427078 0.43938622 0.12664549
کيفيت -0.58223283 -0.11821462 0.1429042 0.025200736 -0.32700968 0.24739914 0.2966771 -0.4555082 0.4965798 0.12172732 0.085034624 0.22478822 -0.15996453 0.3586772 0.49714 0.21055941 0.4066249 -0.0076219146 0.6331083 -0.24946883 -0.039649636 -0.4045037 0.15126854 -0.14334163 0.21284784 -0.02058292 0.08542182 0.3352767 -0.106885195 -0.3278062 0.032333788 -0.13847308 -0.2788512 -0.1045799 0.17377478 0.035852764 -0.26595703 0.32155007 0.112314746 -0.07739486 -0.012408985 0.3511243 -0.21818753 -0.06087981 -0.015371245 -0.21992043 0.6005631 -0.20646624 0.052228082 -0.0632341 0.010233265 -0.30359745 0.38250828 -0.13697924 -0.05106995 -0.16959828 0.32358605 -0.2644765 0.2429255 0.049631737 0.2899393 -0.17356795 -0.035563584 0.052440237 0.22741196 0.07360347 0.11154801 0.51802415 0.08405999 0.015667595 0.110390626 -0.38242397 -0.3222073 0.088431396 0.03725538 -0.052499812 -0.24192874 0.44958586 0.18517749 -0.10356368 0.5869701 0.3082986 -0.13697278 0.023957005 -0.40352705 0.0018293981 -0.88571894 0.2889654 -0.015392311 0.07420837 0.44569165 -0.40004733 -0.056299906 0.3626487 0.014460251 -0.2217425 0.038408287 0.17296492 0.4150447 0.13761064
کار -0.5735913 -0.0895392 0.13460618 0.023160394 -0.3202705 0.24332999 0.2763746 -0.47439343 0.48714775 0.112882905 0.07424915 0.22902411 -0.16552201 0.3741315 0.49310175 0.18963403 0.41508263 -0.024839865 0.63308096 -0.2798341 0.0020798119 -0.43002042 0.10687649 -0.14368981 0.18198512 -0.045143582 0.10059576 0.33720684 -0.09901932 -0.3313982 0.039776895 -0.12650704 -0.2602276 -0.098153226 0.18165551 0.05442574 -0.2529662 0.29094225 0.11738682 -0.08426793 -0.029880745 0.36258474 -0.21279475 -0.05636087 -0.0037957605 -0.23008984 0.62267274 -0.20063974 0.08645936 -0.03652471 -0.0038803285 -0.28733274 0.39606187 -0.14307947 -0.07200762 -0.17710638 0.31504658 -0.2666853 0.26407954 0.04518161 0.3049106 -0.19918366 -0.017900005 0.081318244 0.24444956 0.026713561 0.07954185 0.5179164 0.08161334 0.025781075 0.13022289 -0.37673023 -0.31642604 0.077553354 0.0016150845 -0.055701733 -0.25209147 0.44569492 0.19060531 -0.11706229 0.5877124 0.3191784 -0.11656678 0.040628698 -0.4140675 0.037800264 -0.8788648 0.3304709 -0.062428053 0.073499344 0.4457877 -0.41584158 -0.05188371 0.38071433 0.015018209 -0.22079866 0.020655716 0.15536435 0.4040472 0.098857515
! -0.55805176 -0.10468965 0.13172309 0.01268401 -0.3070681 0.23205967 0.27360225 -0.44938022 0.46733516 0.119088076 0.07118161 0.21922013 -0.15147159 0.35339645 0.47381812 0.18477246 0.39779812 -0.014327397 0.60735244 -0.25013807 -0.013715269 -0.4134861 0.119143546 -0.13886699 0.19072248 -0.035268333 0.085391134 0.3215528 -0.093676925 -0.3227247 0.038776234 -0.12356521 -0.26415056 -0.10251358 0.16441657 0.040502153 -0.24283639 0.29348707 0.10405759 -0.080430515 -0.023840833 0.34614623 -0.20589612 -0.060259983 -0.0029039164 -0.2203162 0.58715296 -0.18999736 0.07280914 -0.04654947 0.006157393 -0.27555567 0.38019124 -0.13305204 -0.057868302 -0.16335148 0.29916307 -0.26331 0.25874013 0.050726265 0.28640017 -0.18113367 -0.020993136 0.07137882 0.24078235 0.035529304 0.08474477 0.49984524 0.0790947 0.017292123 0.11658183 -0.3714913 -0.3008142 0.08632405 0.012125878 -0.056299478 -0.24952425 0.43037447 0.1764752 -0.11394027 0.57592916 0.2950441 -0.123315126 0.028554428 -0.40105343 0.026614694 -0.8612473 0.29823843 -0.038858663 0.06916424 0.43265554 -0.39409235 -0.05191296 0.36202234 0.016306417 -0.2092527 0.025738992 0.15522839 0.39059585 0.10859548
قرار -0.651491 -0.0759348 0.10440141 0.023009526 -0.35302642 0.2641693 0.31119478 -0.56732285 0.5252661 0.13499661 0.06156602 0.28070527 -0.2069142 0.4533594 0.58063155 0.19670759 0.5057383 -0.056949086 0.7138108 -0.3535162 0.011807282 -0.50277776 0.07134579 -0.15345469 0.1468873 -0.06904264 0.15386166 0.37525836 -0.09262343 -0.38797715 0.05349092 -0.120949864 -0.2817863 -0.1142167 0.22741076 0.08922845 -0.26335916 0.2712803 0.15818135 -0.09331428 -0.073657356 0.42013934 -0.22106358 -0.047808126 -0.007727277 -0.26245502 0.7202797 -0.25143018 0.1145562 -0.034901254 -0.003849113 -0.30204168 0.4465726 -0.16239445 -0.07237423 -0.19072779 0.34584823 -0.29035133 0.31904235 0.049794897 0.36146244 -0.2521379 0.0074046156 0.0915162 0.27643555 -0.02628321 0.06128711 0.56422424 0.082892254 0.048492614 0.19067557 -0.41461 -0.35368097 0.07810742 -0.0057582892 -0.057047684 -0.2758413 0.4722824 0.23006707 -0.14083903 0.6654648 0.3582742 -0.1051395 0.059369754 -0.45473334 0.050878663 -0.983232 0.40383005 -0.1071862 0.099719554 0.50329083 -0.48008332 -0.07144545 0.43904218 0.032330375 -0.2639808 -0.0025251277 0.15318012 0.44090748 0.065195456
مدل -0.61239266 -0.0850779 0.12256929 0.011625423 -0.34505036 0.25957042 0.28806058 -0.51407015 0.5063561 0.1261509 0.070659555 0.2404426 -0.1825711 0.42361042 0.53207356 0.19080862 0.45914507 -0.041847456 0.67004174 -0.299321 0.017258003 -0.477286 0.08727599 -0.15182239 0.16711748 -0.044552185 0.11265786 0.34053046 -0.09808449 -0.36347383 0.048236858 -0.12655276 -0.27353925 -0.10088986 0.19691257 0.07116304 -0.25874823 0.28972197 0.1277379 -0.08703272 -0.053272933 0.38831556 -0.20774703 -0.053955313 -0.016682092 -0.24807446 0.66696733 -0.21470846 0.0874843 -0.042436477 0.007458757 -0.29326195 0.4194348 -0.14623699 -0.06339477 -0.17829216 0.31832406 -0.28503284 0.29546353 0.04677725 0.31385872 -0.22520928 -0.005207376 0.09053813 0.2593196 0.0014584133 0.07773113 0.5392298 0.07322153 0.03140584 0.15748154 -0.40591407 -0.34324428 0.0881265 0.012673326 -0.06044707 -0.25302404 0.46879977 0.19440179 -0.12745175 0.6318824 0.3288898 -0.11728828 0.040649533 -0.43016532 0.045726717 -0.93688136 0.36077803 -0.07666862 0.07789087 0.47856537 -0.44593307 -0.06752006 0.41149285 0.010908259 -0.23942575 0.02052771 0.15692097 0.42613772 0.08521351
يه -0.6112521 -0.12000573 0.15486817 0.01809865 -0.34168035 0.25488725 0.31088775 -0.48306972 0.5349478 0.12777257 0.096725464 0.23143284 -0.15688886 0.3843734 0.5252378 0.20715988 0.42516318 -0.008293996 0.67167944 -0.26753852 -0.010726463 -0.44804084 0.15056303 -0.16314548 0.23556484 -0.023966517 0.07584832 0.3480865 -0.09880986 -0.34079558 0.035232995 -0.14751783 -0.2942695 -0.113497965 0.18144576 0.04198209 -0.269426 0.3412243 0.11207345 -0.08566054 -0.013394229 0.38035077 -0.22390029 -0.07822999 -0.011123079 -0.23968577 0.64434576 -0.20089279 0.06492964 -0.054587867 0.0012737847 -0.30540177 0.4137752 -0.15050295 -0.06296933 -0.17817491 0.33397973 -0.29187554 0.2672692 0.04917538 0.30153412 -0.1934411 -0.031810306 0.078765064 0.26232052 0.064627565 0.11387507 0.5532076 0.08539881 0.011145042 0.11897487 -0.41175026 -0.33478454 0.096015275 0.034063008 -0.06179787 -0.2763923 0.48571765 0.18862765 -0.11703822 0.635879 0.3216677 -0.13946275 0.023865517 -0.441023 0.013407302 -0.9492921 0.32477516 -0.028312208 0.071699366 0.47919312 -0.4312836 -0.05482924 0.4035179 0.009260876 -0.22429642 0.0387419 0.17961219 0.43767023 0.13550617
نسبت -0.6119292 -0.099328615 0.1258718 0.01408941 -0.34579995 0.2490915 0.28608784 -0.49406257 0.5085298 0.115497425 0.0701816 0.25108775 -0.16430193 0.40227547 0.52558196 0.20792766 0.44559813 -0.039573666 0.65778446 -0.28440145 0.002705395 -0.46594992 0.10944244 -0.14981528 0.18492337 -0.032325197 0.10479673 0.34012264 -0.09552638 -0.35683703 0.04201364 -0.119218275 -0.2815091 -0.10040821 0.19163083 0.05738268 -0.2653281 0.29038146 0.12694801 -0.078986816 -0.038161896 0.38672546 -0.20560746 -0.058801517 -0.013432819 -0.24699764 0.64696467 -0.21721804 0.076360784 -0.047520176 0.009782094 -0.30263057 0.42276523 -0.14729282 -0.07234986 -0.17803678 0.32748374 -0.26450822 0.28353035 0.04624294 0.31125692 -0.22146878 -0.008760003 0.08360892 0.25909084 0.022521993 0.08333571 0.52420735 0.07885704 0.034437608 0.14554301 -0.40447176 -0.33182624 0.09639681 0.012153297 -0.060034342 -0.2619896 0.46884763 0.20179993 -0.13566871 0.631231 0.32390723 -0.12735613 0.040058672 -0.42928958 0.040146306 -0.9236344 0.34654805 -0.054287672 0.077986985 0.47184774 -0.4343497 -0.060800426 0.39824432 0.010158237 -0.23270544 0.02392944 0.16763699 0.42351025 0.10129034
ميشه -0.612097 -0.12301705 0.15643255 0.011899077 -0.33636597 0.25726518 0.2990017 -0.47751582 0.5291479 0.12572256 0.09417669 0.23117402 -0.1531283 0.3745629 0.5136428 0.216813 0.42856172 -0.007814219 0.67084575 -0.25751096 -0.019297672 -0.44725627 0.14466459 -0.1589439 0.21951953 -0.028597048 0.08495018 0.35605145 -0.1060679 -0.34131068 0.036895424 -0.1475983 -0.2884859 -0.11097443 0.17497782 0.035208803 -0.27612182 0.33002013 0.10483483 -0.08385147 -0.009471537 0.37916416 -0.22790807 -0.06983845 -0.007382393 -0.24042259 0.64432305 -0.1950653 0.07016063 -0.05662965 0.0019962566 -0.3071281 0.41087535 -0.14085113 -0.063478574 -0.17998816 0.32514483 -0.29004624 0.27231193 0.050801795 0.29511157 -0.18942733 -0.03161219 0.07386816 0.2639484 0.059425794 0.113932975 0.5397099 0.08760321 0.00611691 0.11657234 -0.4132671 -0.33650658 0.0972329 0.029722612 -0.06341458 -0.27943498 0.4860345 0.19095285 -0.1250439 0.6340348 0.3260935 -0.13961689 0.030917631 -0.44673565 0.019252783 -0.94257647 0.3201609 -0.033025924 0.07567338 0.4717897 -0.42965466 -0.057914913 0.39920855 0.0035478214 -0.22476684 0.036722388 0.18097523 0.43598777 0.13137944
نمایش -0.5534741 -0.03889827 0.057414167 0.02664415 -0.26089433 0.2223803 0.23590076 -0.5212364 0.41331682 0.12718211 0.022557138 0.2677415 -0.22198051 0.42899215 0.4802767 0.160203 0.4255628 -0.0691317 0.6085857 -0.32397738 -0.0081983255 -0.39897668 0.023063466 -0.12743379 0.07509607 -0.08303804 0.16740997 0.29418167 -0.10817642 -0.33160672 0.07725123 -0.07221438 -0.23898552 -0.06890415 0.22946125 0.08927729 -0.23010354 0.20056595 0.1967986 -0.0854704 -0.106144644 0.34065682 -0.19587763 -0.0014380061 -0.036868453 -0.21548773 0.60817796 -0.25596806 0.1090662 -0.05241239 -0.016350713 -0.24642707 0.39364913 -0.13745664 -0.060519673 -0.16934265 0.2929889 -0.18298922 0.28941324 0.02877134 0.33724746 -0.21909238 0.01372262 0.048789803 0.20585395 -0.059674174 0.03630821 0.46689993 0.05483462 0.080498524 0.18390796 -0.3124357 -0.29337564 0.049929112 -0.035170212 -0.011317146 -0.17885233 0.38047725 0.20630361 -0.13896048 0.5158741 0.32488883 -0.10138638 0.08823928 -0.38327605 0.051852863 -0.75865275 0.34009507 -0.12595898 0.105994575 0.41948062 -0.40005818 -0.06321702 0.34605035 0.06146657 -0.21287267 -0.036632836 0.07242841 0.3408378 0.023362104
اي -0.61287856 -0.11745086 0.13654539 0.01538156 -0.32435754 0.26499972 0.29925716 -0.4752701 0.5259251 0.12429455 0.07705477 0.22565958 -0.1611598 0.39442298 0.50921863 0.19269459 0.42987123 -0.006749222 0.66413665 -0.27374887 -0.01078199 -0.42471322 0.124593444 -0.14432928 0.21929681 -0.018885212 0.082214184 0.33865005 -0.095447786 -0.35567454 0.04015235 -0.14379442 -0.2857434 -0.11113562 0.17169438 0.053949393 -0.27037585 0.33093086 0.106154405 -0.08540553 -0.022911785 0.38018563 -0.22584124 -0.079649836 -0.012155935 -0.26147807 0.6457058 -0.19610113 0.06432346 -0.05857748 8.3555205e-05 -0.30691913 0.41899642 -0.14573917 -0.064102076 -0.1798867 0.331566 -0.2753122 0.28012088 0.04793417 0.2933519 -0.19335394 -0.00663487 0.0874584 0.27295 0.068195276 0.09062095 0.5565631 0.07245142 0.0060598 0.117424466 -0.4160535 -0.3302841 0.099443406 0.015721872 -0.072582334 -0.27302667 0.5041021 0.18141088 -0.13033472 0.63383687 0.32408378 -0.1430217 0.049367953 -0.4332238 0.017171763 -0.95133364 0.32389042 -0.044630826 0.08646485 0.48968163 -0.43226987 -0.062035006 0.4034267 0.00871164 -0.19427939 0.03626145 0.18506193 0.4394144 0.12870891
کیفیت -0.615729 -0.05736055 0.087726764 0.031962346 -0.32593343 0.24640025 0.28247204 -0.5426589 0.49592838 0.11784711 0.05312347 0.27144942 -0.20252882 0.44309428 0.5556556 0.17970724 0.48472205 -0.061522312 0.66932154 -0.3523262 0.0056712413 -0.46626443 0.05078978 -0.13837063 0.12057716 -0.0706516 0.16846034 0.35734722 -0.093377344 -0.3842689 0.060184605 -0.102529176 -0.25708658 -0.10816216 0.22657728 0.09642821 -0.23236755 0.22858226 0.16996476 -0.081140526 -0.0752066 0.39558294 -0.21554056 -0.045568004 -0.019001467 -0.25306374 0.6891954 -0.24393709 0.11763854 -0.03840906 -0.011707013 -0.27945977 0.4319525 -0.1456032 -0.06661428 -0.1758286 0.32627872 -0.25708 0.30419558 0.050363 0.35151368 -0.25199395 0.01616681 0.0803609 0.24577425 -0.045504104 0.04170968 0.5267929 0.07996968 0.059377253 0.18964623 -0.3696859 -0.3236625 0.05718343 -0.012719168 -0.044999614 -0.24152982 0.4347881 0.22579242 -0.1364695 0.6011248 0.341418 -0.086621806 0.065017544 -0.41372943 0.060066003 -0.91354024 0.38100696 -0.123103164 0.112295225 0.47792897 -0.4599528 -0.06777041 0.40628234 0.04226684 -0.2510231 -0.0057127145 0.14772281 0.41784063 0.052199308
نيست -0.5687224 -0.10914926 0.14581595 0.01632743 -0.31074658 0.2359638 0.28253844 -0.4533265 0.48894235 0.113647014 0.081337094 0.21459964 -0.15562607 0.3538015 0.48429763 0.19289988 0.39499083 -0.012610406 0.6154609 -0.2522636 -0.01300757 -0.40775484 0.132973 -0.14480378 0.20909259 -0.02460083 0.08420982 0.32654685 -0.10487805 -0.31660885 0.040917575 -0.14009523 -0.2688846 -0.10128989 0.1635054 0.04020229 -0.25129974 0.30615008 0.1046144 -0.08362656 -0.015052416 0.3472918 -0.20664513 -0.05868487 -0.014809491 -0.21674109 0.5911292 -0.1868438 0.06865939 -0.048170254 0.0012504953 -0.29159957 0.3784197 -0.12741718 -0.054132003 -0.17077188 0.30972055 -0.26654446 0.2507865 0.04861175 0.28746712 -0.17257749 -0.032186892 0.065554105 0.23674944 0.051683433 0.09507392 0.509768 0.084228165 0.009577036 0.1092504 -0.3847389 -0.31414074 0.0878835 0.03171977 -0.05002253 -0.25445879 0.45188558 0.1828542 -0.1122101 0.58609587 0.30370617 -0.13122173 0.023246141 -0.40306056 0.010608476 -0.8758904 0.2985681 -0.03314019 0.07111274 0.4381858 -0.39778933 -0.048982054 0.370632 0.00859329 -0.21319932 0.037901394 0.1599337 0.39997864 0.119550325
اپل -0.5722881 -0.09405082 0.13321145 0.013369575 -0.32455906 0.25076374 0.28808162 -0.47708908 0.4863631 0.11291767 0.076975234 0.22828686 -0.14887886 0.38397285 0.49752736 0.18725534 0.40621203 -0.027260784 0.63302356 -0.27494103 0.012094396 -0.44221073 0.109103516 -0.14019297 0.18360558 -0.04681079 0.0957461 0.33626202 -0.08359911 -0.33502585 0.034347333 -0.13245124 -0.27109602 -0.09394097 0.18433902 0.041248456 -0.26173478 0.2943988 0.10278331 -0.077942744 -0.02615213 0.36684805 -0.2193443 -0.06650126 -0.010936403 -0.23292214 0.62887007 -0.1968617 0.09011202 -0.035456948 -0.008480233 -0.29601577 0.3913367 -0.1385595 -0.067626625 -0.17549123 0.3105243 -0.2684918 0.26785937 0.04726378 0.29294237 -0.18834208 -0.018728094 0.07456798 0.25643173 0.033068895 0.089063354 0.51868594 0.07062732 0.02166575 0.13092908 -0.38880298 -0.3142601 0.08603063 -0.0018105609 -0.06585827 -0.2474328 0.45627657 0.18076628 -0.12598369 0.601518 0.3190309 -0.1304781 0.047216803 -0.40498394 0.031426348 -0.8963623 0.33082747 -0.062342905 0.07108426 0.45587507 -0.40954822 -0.0476921 0.3863803 0.01176242 -0.20294467 0.02147923 0.15933304 0.39907533 0.10006325
بسيار -0.6084043 -0.119135864 0.14657998 0.023940882 -0.3447625 0.25318098 0.3091847 -0.48632762 0.5318984 0.1269247 0.082121834 0.24130371 -0.16476022 0.38546318 0.52727 0.20644146 0.42979544 -0.017549265 0.6667772 -0.26577017 -0.024144288 -0.43197855 0.14675705 -0.15714376 0.20678031 -0.028287282 0.082331546 0.34869817 -0.10817295 -0.3414725 0.044486716 -0.14158376 -0.29046544 -0.112893894 0.18425892 0.037422307 -0.27921617 0.32469547 0.119394384 -0.08200263 -0.012336618 0.3748716 -0.23668374 -0.07426362 -0.0077588493 -0.24096476 0.6422204 -0.20160775 0.069857724 -0.050165843 0.008687694 -0.31266627 0.40177184 -0.13757588 -0.055890575 -0.18318531 0.33713335 -0.27483165 0.25820366 0.04764721 0.2960236 -0.19924933 -0.024063636 0.067429125 0.25295785 0.059233125 0.10227138 0.5468164 0.08284582 0.018125322 0.112750046 -0.4075034 -0.3317912 0.08838462 0.030837394 -0.06583021 -0.27169812 0.4802105 0.19053915 -0.11846404 0.6265669 0.3273389 -0.12827593 0.030701667 -0.44216916 0.012734121 -0.9405702 0.30943245 -0.029072424 0.08464678 0.47171167 -0.43110833 -0.049520805 0.39286196 0.011703896 -0.2250238 0.037562832 0.18262589 0.42731532 0.13417055
سرعت -0.5738386 -0.09112575 0.118892856 0.020012295 -0.32532847 0.24321906 0.28474253 -0.48010397 0.48998797 0.11284475 0.067568295 0.2401415 -0.17299439 0.38405347 0.5091822 0.18354502 0.43673572 -0.03596132 0.6442494 -0.2908567 -0.010248238 -0.43455374 0.1039632 -0.14698337 0.16323453 -0.052309196 0.12072408 0.34287065 -0.09800149 -0.3482537 0.049635615 -0.12463529 -0.2597845 -0.10175071 0.1892218 0.05765574 -0.239453 0.27349502 0.13019978 -0.07467111 -0.045245286 0.3677948 -0.2014202 -0.061395347 -0.013506768 -0.23061086 0.63532585 -0.21670036 0.087213226 -0.042066596 -0.008912353 -0.28592008 0.4040764 -0.14122316 -0.0626503 -0.16948551 0.31130558 -0.27215025 0.27669016 0.05303842 0.31058213 -0.2115183 -0.017838191 0.072698556 0.23471674 0.014396057 0.07279241 0.51239425 0.08477479 0.039739065 0.14552517 -0.38850638 -0.31920323 0.07668663 0.016798604 -0.052276753 -0.24855587 0.4457228 0.19675852 -0.124104366 0.5863985 0.30774438 -0.10594574 0.04274845 -0.40903723 0.038755428 -0.89836127 0.32341537 -0.066967905 0.093979836 0.4606846 -0.41397133 -0.0624432 0.37844443 0.011667584 -0.23286481 0.013406245 0.16640273 0.40990147 0.094249904
دستگاه -0.6394678 -0.088036865 0.120598316 0.029998634 -0.35006914 0.26241076 0.3116523 -0.54875404 0.5387056 0.13212067 0.07345927 0.27285403 -0.18513021 0.43538916 0.5706338 0.20234436 0.48475575 -0.047621984 0.7072935 -0.32403752 0.013728599 -0.48678598 0.09015929 -0.1642857 0.17304467 -0.054970086 0.13376997 0.36946568 -0.10327667 -0.37907523 0.05180689 -0.12607226 -0.28468293 -0.12024147 0.20811619 0.070524655 -0.262075 0.2994478 0.15003502 -0.09058689 -0.05323266 0.4174026 -0.23425902 -0.06140565 -0.00832486 -0.2536401 0.69825053 -0.24013266 0.09214666 -0.039695024 -0.0023405368 -0.30357477 0.4472209 -0.16034028 -0.07336479 -0.19158234 0.3429201 -0.29456082 0.31409168 0.05185775 0.33603075 -0.23925866 -0.0044737956 0.095351495 0.2701679 0.0026301884 0.07606585 0.57093155 0.08586679 0.034722064 0.17383488 -0.4231891 -0.34984013 0.090767935 0.003455151 -0.05153239 -0.2747063 0.48059997 0.22104694 -0.14089017 0.66785806 0.3506912 -0.11330423 0.047632538 -0.45815673 0.04228383 -0.9857684 0.37896386 -0.07573529 0.09004781 0.49562672 -0.47454113 -0.06832681 0.42190665 0.024829669 -0.25304466 0.0194728 0.16750999 0.4457158 0.08104218
بازي -0.58381116 -0.11867538 0.1601174 0.009202408 -0.32434702 0.24890374 0.2935261 -0.47794506 0.5152717 0.12411605 0.09590177 0.21222824 -0.14977577 0.38103312 0.5007034 0.19403513 0.42171124 -0.015855696 0.65559524 -0.26307076 -0.012363189 -0.45131257 0.14811195 -0.15639868 0.22502278 -0.01911236 0.090312 0.3390079 -0.103623755 -0.3280279 0.045926504 -0.13544826 -0.28907108 -0.11353754 0.15967067 0.033303883 -0.25817007 0.33538762 0.09410641 -0.07477607 -0.011670613 0.36830533 -0.22854029 -0.07340088 -0.0034198859 -0.2214366 0.6370815 -0.19132811 0.06991361 -0.041016728 0.00086196366 -0.29339293 0.40544465 -0.13296716 -0.07509545 -0.1901749 0.32346478 -0.28873926 0.27859032 0.06127085 0.29783428 -0.18882087 -0.030941546 0.08053687 0.25889698 0.05210007 0.106522486 0.5312182 0.088552624 0.025500081 0.12147731 -0.40602842 -0.32127646 0.09068395 0.029344441 -0.06417164 -0.26383236 0.4701728 0.17926446 -0.13082835 0.6284445 0.31423664 -0.12835209 0.029257588 -0.43148923 0.015179963 -0.94060415 0.32515004 -0.040731426 0.06556109 0.45957997 -0.42160934 -0.045212 0.3873667 0.025110163 -0.2047501 0.039168086 0.1711694 0.4251151 0.10919364
عکس -0.5976607 -0.095132455 0.12611128 0.022391094 -0.33325216 0.24647792 0.28530777 -0.49781695 0.5003836 0.12260339 0.061778903 0.25036117 -0.17719783 0.39619952 0.5165489 0.19944412 0.44833302 -0.039730404 0.6562748 -0.2982437 -0.00948695 -0.44202918 0.10226114 -0.14525758 0.16873251 -0.047463387 0.12457481 0.3429268 -0.098829634 -0.35423413 0.043948356 -0.12974177 -0.2621873 -0.11350768 0.1892128 0.07292128 -0.25214058 0.28068087 0.12892789 -0.079973705 -0.04133517 0.37603247 -0.21125065 -0.05872476 -0.011895879 -0.22957046 0.6466476 -0.22344756 0.08980083 -0.04402949 -0.0008609558 -0.3043097 0.3992295 -0.14371392 -0.06212286 -0.1683308 0.32236534 -0.2789842 0.28069606 0.045695975 0.3190536 -0.21750481 -0.0050959107 0.074024744 0.24629875 0.010919148 0.08169675 0.52063334 0.081014164 0.032253988 0.14933799 -0.38188928 -0.32346898 0.07762323 0.017735751 -0.054648064 -0.24969056 0.4459846 0.19910668 -0.12841885 0.60557806 0.3229072 -0.11893973 0.038711548 -0.41788444 0.031550206 -0.90995276 0.3369043 -0.06797789 0.09787248 0.4554812 -0.4337809 -0.06516742 0.39094064 0.024465702 -0.24501097 0.014707199 0.17055553 0.42177442 0.08720745
بايد -0.5515346 -0.1202787 0.14160702 0.018276393 -0.31030762 0.23664126 0.2775757 -0.43663555 0.49058735 0.10289626 0.09259311 0.20415077 -0.14192797 0.33452302 0.46159986 0.19047792 0.3711456 -0.009068149 0.61291283 -0.22079085 -0.01890596 -0.40840325 0.13731796 -0.15014473 0.22414352 -0.017973185 0.06368418 0.31573734 -0.10214846 -0.30850333 0.035408266 -0.14701189 -0.2637019 -0.10758399 0.15328851 0.02217237 -0.24487107 0.3131037 0.090510555 -0.078933015 -0.006717313 0.33888105 -0.20356509 -0.069308065 -0.0015404769 -0.21192779 0.5752154 -0.18196534 0.05811373 -0.039246876 0.013189396 -0.27053407 0.37751946 -0.124206215 -0.049164757 -0.1762043 0.30120856 -0.26450762 0.24170393 0.047355708 0.26914707 -0.15856993 -0.030050315 0.06972886 0.2281626 0.071217656 0.10637505 0.4945055 0.088714704 0.0010531467 0.09266176 -0.375529 -0.3068235 0.08797592 0.03202862 -0.060882337 -0.2480091 0.44287103 0.1651231 -0.10416447 0.57963794 0.29712033 -0.13380878 0.02204456 -0.40773514 -0.00047906418 -0.85489213 0.2820346 -0.0023264938 0.056740105 0.42447203 -0.3910863 -0.048804246 0.35375905 0.012956158 -0.19236507 0.03621892 0.15495697 0.38580096 0.1289268
قيمت -0.57242125 -0.1160955 0.14168584 0.013873659 -0.32187107 0.23821576 0.2872905 -0.44928873 0.51161283 0.12191561 0.09485457 0.20857516 -0.13930824 0.35622856 0.49104804 0.19284315 0.39357167 -0.016663797 0.6351669 -0.24405451 -0.019475538 -0.4183003 0.14974986 -0.15651685 0.22371112 -0.025660248 0.06035798 0.3310708 -0.10752008 -0.31710067 0.031210955 -0.14761595 -0.27567354 -0.1035423 0.16678748 0.02676473 -0.2534067 0.31492907 0.09769285 -0.08390957 -0.010486662 0.35364705 -0.21324155 -0.07452575 -0.009755459 -0.22342817 0.6029285 -0.18876971 0.06278627 -0.05635256 0.016040334 -0.2859533 0.38619572 -0.13377397 -0.053193524 -0.16905496 0.31070444 -0.27329934 0.25012013 0.05166554 0.27206075 -0.1798921 -0.033407133 0.079307936 0.24084048 0.063164495 0.10286856 0.5170508 0.08965816 0.0031444388 0.10747502 -0.39013472 -0.3097711 0.091597594 0.04223201 -0.06396861 -0.26024783 0.46165022 0.17574914 -0.11025695 0.5910023 0.3038709 -0.13651417 0.011674832 -0.40998283 0.005729946 -0.90145165 0.2884664 -0.008949998 0.066061616 0.44891658 -0.4037325 -0.044939302 0.37698492 -0.0033076948 -0.20650305 0.04542819 0.172088 0.41605 0.1405558
نداره -0.57933974 -0.10950132 0.14594261 0.010671432 -0.31943753 0.25187004 0.28041384 -0.45664015 0.48961368 0.12044749 0.0828158 0.21996516 -0.15978794 0.3682822 0.48918235 0.20127186 0.40161684 -0.017863832 0.619236 -0.24842943 -0.0031986854 -0.4141541 0.13137402 -0.14054453 0.20329782 -0.019494407 0.09340728 0.33760792 -0.10363576 -0.32448176 0.03449368 -0.13943146 -0.2678237 -0.098921366 0.1640694 0.04341022 -0.25915074 0.30877095 0.110201605 -0.07423236 -0.0056711216 0.3499259 -0.20708883 -0.058253925 -0.016622582 -0.21854381 0.6033075 -0.19863603 0.06610441 -0.0443331 0.008384522 -0.28690138 0.38260612 -0.14064816 -0.0687963 -0.1621288 0.31006643 -0.27128366 0.25708467 0.053839024 0.29065964 -0.17879036 -0.01923247 0.06581312 0.23938185 0.05159212 0.091782704 0.5094031 0.07490421 0.007010817 0.1220775 -0.3938416 -0.32109785 0.092078194 0.032175694 -0.057239346 -0.25289702 0.45775336 0.17446452 -0.1108702 0.59732276 0.30042326 -0.13502653 0.027516592 -0.4032508 0.014602649 -0.8963328 0.3074985 -0.025223983 0.06412761 0.44895312 -0.4014093 -0.04722594 0.36893278 0.010974263 -0.22482684 0.029859465 0.16740909 0.41496634 0.11496437
عالي -0.515966 -0.10620704 0.13433751 0.01668309 -0.28430948 0.21708207 0.26643258 -0.40266618 0.43748748 0.104733 0.071367666 0.19541265 -0.13269423 0.32263568 0.44280133 0.18522125 0.35728788 -0.018363299 0.56272537 -0.22240824 -0.02855499 -0.36042982 0.121511064 -0.13790664 0.19034849 -0.024153236 0.07591675 0.29230592 -0.094903424 -0.28963372 0.029553594 -0.12191725 -0.24515978 -0.094263874 0.15349774 0.034438595 -0.2368445 0.2737103 0.095823124 -0.07020951 -0.0057721445 0.31401047 -0.19647852 -0.061543755 -0.00566543 -0.20319812 0.53741235 -0.17707932 0.05099475 -0.049789835 0.00021700085 -0.26590857 0.3417317 -0.12433394 -0.047919784 -0.14691563 0.28018108 -0.23051915 0.21668474 0.036829866 0.25271738 -0.15569793 -0.026355159 0.05667591 0.20677505 0.06418782 0.09572118 0.45436084 0.077070236 0.015144178 0.09946759 -0.33686903 -0.27578673 0.086775474 0.030485796 -0.045455165 -0.22992395 0.41100925 0.16790019 -0.09409377 0.5285323 0.2790584 -0.117259376 0.01936772 -0.3610503 0.009725825 -0.78034556 0.25508383 -0.008828292 0.0680272 0.39089236 -0.3550733 -0.045721717 0.3278732 0.012439378 -0.18664385 0.02986275 0.14948364 0.3550203 0.11782158
2 -0.6182525 -0.096127406 0.14057022 0.014254315 -0.34200117 0.25660926 0.30582717 -0.51525545 0.522485 0.12349851 0.07532809 0.25150946 -0.1782226 0.41745794 0.5369935 0.20031887 0.45412284 -0.025320336 0.67808974 -0.2918681 -0.0023903241 -0.46538633 0.11215384 -0.15014474 0.19046006 -0.03861656 0.11303406 0.35808808 -0.10582901 -0.35280016 0.0561123 -0.12693267 -0.2778277 -0.112795904 0.20403564 0.05011453 -0.26929793 0.30158186 0.13416326 -0.083153665 -0.035803076 0.39071032 -0.22381832 -0.061688934 -0.0112379445 -0.24313748 0.6698289 -0.21091457 0.075991064 -0.045040347 -0.0046181255 -0.3006236 0.42302057 -0.15150101 -0.073702306 -0.18758693 0.33029318 -0.28921777 0.28674552 0.049572796 0.31370288 -0.20496976 -0.011203249 0.090442225 0.27101782 0.031716038 0.08699104 0.5505947 0.0759591 0.028587626 0.15181662 -0.41743147 -0.33962277 0.095292956 0.016736891 -0.06960635 -0.26581872 0.4945199 0.1927082 -0.13020034 0.6463077 0.34377038 -0.12594794 0.050999496 -0.4422553 0.029540105 -0.9492119 0.34051177 -0.057265505 0.085335374 0.48697138 -0.44987163 -0.061268754 0.41009372 0.015434655 -0.23533142 0.019469388 0.16927965 0.43555006 0.107359365
خوبي -0.5432556 -0.11106564 0.13274097 0.012279135 -0.3041915 0.23570445 0.27874663 -0.42019257 0.46753246 0.110431045 0.07647289 0.21101014 -0.14665526 0.33236384 0.45511457 0.19422305 0.37476087 -0.007761394 0.59116286 -0.22836487 -0.024743842 -0.38184443 0.14431678 -0.14210095 0.20209488 -0.025490265 0.071672395 0.30333614 -0.10397153 -0.29878452 0.03690499 -0.1276094 -0.25997874 -0.10108771 0.15270929 0.038532857 -0.24893375 0.2977854 0.10420757 -0.06987572 -0.0019398226 0.3220294 -0.19623494 -0.06415475 -0.011899336 -0.20920421 0.56190604 -0.18800229 0.051548246 -0.056293912 0.0076843863 -0.28279415 0.35724363 -0.1224058 -0.0501937 -0.15542327 0.293212 -0.24386123 0.22737466 0.046942726 0.2601995 -0.16284159 -0.023974411 0.0594096 0.21594515 0.06484308 0.09877916 0.47983932 0.07543384 0.0043713036 0.091271125 -0.36600745 -0.2976464 0.088298514 0.035397697 -0.051079787 -0.24201418 0.4241208 0.17299503 -0.099975534 0.54762083 0.2895078 -0.13169917 0.015477177 -0.37518573 0.011851713 -0.82237107 0.2776574 -0.010604794 0.06350925 0.41451642 -0.37630486 -0.056261346 0.34543777 0.0099395225 -0.20172994 0.03982645 0.16370785 0.38954607 0.12105143
می‌باشد -0.61368287 -0.06739784 0.10722943 0.031884417 -0.33872572 0.25267926 0.28733158 -0.5370659 0.49279842 0.1267355 0.057523638 0.27181602 -0.19759548 0.43231472 0.55091035 0.18490678 0.46958005 -0.0623903 0.6779274 -0.33414674 0.014466563 -0.47635084 0.06273622 -0.15296288 0.13724722 -0.07091954 0.15214118 0.35739544 -0.08980725 -0.37702397 0.057927325 -0.101256944 -0.26312822 -0.10936053 0.21324436 0.08917019 -0.23767526 0.25200158 0.16082275 -0.08169957 -0.06082261 0.38879913 -0.21242382 -0.048895635 -0.006161295 -0.24087112 0.6850628 -0.24137053 0.1081784 -0.033650536 -0.0053381845 -0.28980088 0.42523453 -0.15108451 -0.07761704 -0.17500715 0.32352316 -0.27023467 0.307568 0.05148608 0.34580258 -0.24579455 0.0053961384 0.08610172 0.25860175 -0.033773042 0.056518916 0.53043526 0.073343664 0.044849478 0.18836062 -0.39232993 -0.33242282 0.0678579 -0.014569898 -0.05704518 -0.2537297 0.45422852 0.21267185 -0.14276716 0.6195951 0.3354039 -0.0963006 0.059552234 -0.43150833 0.054067295 -0.92366093 0.38058674 -0.10798008 0.103500195 0.4753484 -0.4519323 -0.067811824 0.41630706 0.026206503 -0.2502678 0.005552765 0.14552805 0.41432494 0.061133333
دست -0.5977198 -0.09007676 0.12791708 0.022647569 -0.32915714 0.2434047 0.2836433 -0.49653038 0.49624312 0.12732236 0.066626616 0.24564396 -0.17184208 0.39723596 0.5221868 0.19282043 0.43938017 -0.028508492 0.6514866 -0.2836222 0.00658325 -0.4436885 0.10715638 -0.14660397 0.17273064 -0.049662463 0.11870002 0.34241036 -0.09162984 -0.3469634 0.040209282 -0.12178814 -0.27313358 -0.1071444 0.19380642 0.058037743 -0.2454374 0.28731132 0.12490008 -0.08703604 -0.038588405 0.37744018 -0.2180724 -0.05072368 -0.011440839 -0.22996235 0.644773 -0.21860601 0.08856379 -0.044625398 -0.0040101036 -0.28726196 0.41088647 -0.1391354 -0.06770351 -0.17663693 0.3231039 -0.27109843 0.28198326 0.048657324 0.31119666 -0.20620576 -0.017533595 0.08510973 0.24188758 0.017060101 0.08254347 0.5241035 0.08813326 0.026253257 0.13818958 -0.3853327 -0.3226006 0.07450114 0.013149347 -0.05879684 -0.25756702 0.44524044 0.19561096 -0.12831032 0.6093249 0.32548225 -0.120948344 0.04178405 -0.41831687 0.040104225 -0.9092639 0.33540535 -0.06555444 0.08948121 0.46415287 -0.4271702 -0.062367056 0.39053723 0.026547797 -0.22725476 0.02476761 0.15829358 0.41382053 0.0848496
يا -0.63835716 -0.117798045 0.16031851 0.018180806 -0.35651296 0.27373376 0.32333332 -0.5161222 0.54257274 0.13937432 0.085730255 0.24484281 -0.17199269 0.4113992 0.55479866 0.21581833 0.45121902 -0.0100775305 0.71052265 -0.28966254 -0.014309404 -0.47651455 0.14074373 -0.15754357 0.23571156 -0.028888334 0.09752619 0.37464955 -0.100706644 -0.36168262 0.041282386 -0.1553069 -0.30154365 -0.11007241 0.18876183 0.048968747 -0.27716804 0.3376213 0.10940989 -0.08248346 -0.028671592 0.395412 -0.23680526 -0.07717696 -0.011436004 -0.248088 0.67811173 -0.20996751 0.078356974 -0.043884154 0.0066301296 -0.32392982 0.4390225 -0.15542163 -0.07700539 -0.19452134 0.34278223 -0.3095493 0.29346043 0.05452248 0.33191097 -0.20960186 -0.018987585 0.08258274 0.2717101 0.0488414 0.105864085 0.58243597 0.09450375 0.008834654 0.13428138 -0.4342699 -0.35471398 0.093945205 0.013581862 -0.06971678 -0.28221872 0.5091295 0.20544808 -0.12906978 0.6679434 0.34589413 -0.14583881 0.042195536 -0.4640829 0.022523558 -1.0017629 0.3557579 -0.051289346 0.08473084 0.5079794 -0.45892316 -0.057310164 0.42840967 0.013344529 -0.23784938 0.041031063 0.1776026 0.45944175 0.119394936
ي -0.6060798 -0.10951241 0.141619 0.017765336 -0.3313067 0.24850865 0.30685878 -0.49267387 0.5142839 0.12781063 0.072110526 0.238956 -0.16657065 0.3997996 0.512109 0.19624813 0.43031093 -0.028701164 0.669748 -0.2840478 -0.007849087 -0.44033495 0.124604605 -0.14607207 0.20600486 -0.041777536 0.10157198 0.34531167 -0.10400516 -0.35495228 0.042733587 -0.13938546 -0.28894874 -0.102267675 0.18669349 0.05422754 -0.27489796 0.31334695 0.116232336 -0.08928808 -0.023627138 0.3859086 -0.22153729 -0.06882977 -0.014750092 -0.23768789 0.6501141 -0.2125645 0.08133466 -0.049365263 -0.0006432285 -0.3110052 0.4174853 -0.14022242 -0.068490446 -0.18566272 0.33494616 -0.27618378 0.277945 0.044713136 0.31154865 -0.19735663 -0.014709659 0.08163129 0.2619727 0.047470503 0.096458696 0.5458063 0.081312716 0.018506894 0.12734768 -0.41179156 -0.3393583 0.09897249 0.011381569 -0.064809464 -0.2604266 0.4795027 0.1955395 -0.119592436 0.6290089 0.3385263 -0.13261715 0.041879218 -0.43523732 0.017814366 -0.9407008 0.32815588 -0.042235162 0.07747812 0.4743986 -0.4331306 -0.06281366 0.40417674 0.023521561 -0.21721467 0.023880323 0.16290972 0.42906448 0.11612747
عامل -0.5970187 -0.07435618 0.17112197 -0.006900708 -0.34161976 0.27525502 0.27137235 -0.45205757 0.44338822 0.13691507 0.06161323 0.22337607 -0.099716894 0.35878578 0.49536246 0.20475234 0.38994586 -0.088360004 0.63521546 -0.3235471 0.05451662 -0.48919082 0.084219866 -0.17736343 0.20695311 -0.06902838 0.09733836 0.3793035 -0.07408075 -0.38557783 0.022437144 -0.12992473 -0.23809023 -0.06444504 0.18055458 0.025460055 -0.2930496 0.252027 0.078064434 -0.06195198 -0.037062705 0.4064218 -0.22631623 -0.094092995 0.0017329013 -0.26911655 0.72422475 -0.2141157 0.16107795 0.0077915895 -0.014455955 -0.33685148 0.3949639 -0.13850309 -0.111411795 -0.20486674 0.36235994 -0.3088168 0.26493725 0.057867244 0.31003255 -0.22976954 3.920785e-05 0.09740242 0.29900166 0.0023560673 0.12428104 0.49586332 0.0512449 -0.003105281 0.16027577 -0.4227038 -0.29051244 0.09797009 -0.057596784 -0.10851048 -0.27557197 0.4843109 0.18654886 -0.15609165 0.6686612 0.38045853 -0.15083657 0.08849097 -0.3925773 0.048031475 -0.9367807 0.36153242 -0.11007672 0.011860796 0.5148438 -0.42284468 -0.042371374 0.45754644 0.033291195 -0.17355283 0.04310896 0.13360098 0.42983073 0.11448409
پردازنده -0.5936353 -0.08125406 0.10850607 0.017802402 -0.3081372 0.25383365 0.28786755 -0.5010762 0.49505678 0.12089668 0.052033216 0.24507025 -0.17875516 0.42039442 0.5218265 0.17188726 0.4282919 -0.030870378 0.6540887 -0.29531923 0.0077849035 -0.43252492 0.07558577 -0.14327821 0.16264556 -0.049571387 0.12324818 0.33110833 -0.09409714 -0.35935795 0.06555577 -0.12282248 -0.263945 -0.096758954 0.19138621 0.076865375 -0.24812514 0.28145882 0.13792883 -0.07814053 -0.052732907 0.38564038 -0.21498612 -0.065748796 -0.0154334875 -0.2511902 0.6581352 -0.210512 0.07807439 -0.04543937 -0.012940583 -0.29658306 0.42682242 -0.1550519 -0.066386044 -0.16631867 0.32434258 -0.2537934 0.28269762 0.048381742 0.31572893 -0.20807809 0.0021194995 0.09030096 0.25600532 0.022859631 0.06021754 0.5397163 0.05663592 0.035996005 0.1580061 -0.3887343 -0.33546314 0.08121918 -0.008941078 -0.061988108 -0.26089498 0.48126876 0.18685988 -0.1340523 0.6202459 0.32611293 -0.121376805 0.06513527 -0.4092267 0.045236483 -0.9248172 0.3487936 -0.08132755 0.097364314 0.47232798 -0.42706433 -0.062129907 0.39523536 0.0054160785 -0.19794373 0.009254489 0.16456969 0.42528093 0.08589419
برنامه -0.57007897 -0.084885284 0.12211386 0.011439423 -0.3075912 0.2387466 0.28178638 -0.4742701 0.47675693 0.118806526 0.072629996 0.23364528 -0.149947 0.37992516 0.5050173 0.19025259 0.41691577 -0.04172155 0.6317763 -0.27779946 -0.0014006697 -0.43955085 0.10115385 -0.14960644 0.17643723 -0.043379005 0.1121148 0.32510164 -0.08613214 -0.34161592 0.038774323 -0.12267954 -0.254593 -0.10452333 0.17487495 0.05522139 -0.25288254 0.27274516 0.10884143 -0.07360102 -0.04354395 0.36093482 -0.21382181 -0.05605953 -0.016007727 -0.22407787 0.6288959 -0.19867788 0.09093818 -0.035956822 -0.0066510183 -0.28436092 0.3928876 -0.14138795 -0.072299354 -0.17299479 0.31417373 -0.26227012 0.26804698 0.04585386 0.30016232 -0.20407467 -0.0050111213 0.08407207 0.24266396 0.008246989 0.078740515 0.51340437 0.08008268 0.026338456 0.14527556 -0.38042593 -0.31100273 0.08064328 -0.00895868 -0.054191656 -0.25004545 0.44575283 0.18569537 -0.13279746 0.6025933 0.32453248 -0.12243877 0.05202553 -0.40935335 0.03606591 -0.8834645 0.3303415 -0.076786496 0.07610754 0.45254752 -0.41104603 -0.057868022 0.38736504 0.028946036 -0.21957572 0.01578597 0.15022373 0.39356768 0.08319392
عاليه -0.5444045 -0.109228775 0.13588013 0.01993031 -0.3090336 0.22642341 0.272895 -0.42702895 0.46502852 0.10340904 0.076436326 0.2102566 -0.14321168 0.33317634 0.46144715 0.18859723 0.37445006 -0.012385958 0.5948357 -0.2380704 -0.011260745 -0.38966143 0.12876466 -0.13694587 0.19808967 -0.027841117 0.077143274 0.31012627 -0.10253839 -0.30142444 0.034005973 -0.13511956 -0.26103356 -0.0959279 0.15532541 0.03897104 -0.23854156 0.2879833 0.10584277 -0.077384025 -0.0044737216 0.33269942 -0.194982 -0.06556563 -0.012867697 -0.21517573 0.5628524 -0.18813246 0.051616076 -0.04491174 0.007827025 -0.2745747 0.3654729 -0.12539409 -0.055699296 -0.15678616 0.294761 -0.24356526 0.23047954 0.03929593 0.26783744 -0.17202243 -0.01842661 0.06821076 0.22221008 0.061615903 0.08998266 0.4760245 0.079434 0.012032189 0.10246462 -0.3634316 -0.29630426 0.0834298 0.028129796 -0.0500173 -0.23642972 0.4302497 0.17648391 -0.09794109 0.5609186 0.28698692 -0.12237593 0.028226374 -0.3842083 0.008285245 -0.8287675 0.27726263 -0.016038293 0.0602368 0.41624704 -0.37142053 -0.04961205 0.3495526 0.009422076 -0.19794382 0.034585353 0.15033606 0.37901828 0.1170854
خريدم -0.54851794 -0.12047078 0.14657937 0.008089336 -0.3188336 0.21537814 0.27859458 -0.39937717 0.512336 0.09804672 0.10432803 0.21119165 -0.12506562 0.30243534 0.461187 0.20137064 0.3611646 0.00813248 0.6011956 -0.19873661 -0.021298846 -0.38405877 0.13975751 -0.13668679 0.2180538 -0.0028521798 0.037650388 0.30314773 -0.10144555 -0.291205 0.023826968 -0.14678527 -0.25046387 -0.10877654 0.15712357 0.0039269063 -0.2278408 0.28641784 0.08998331 -0.089116946 0.022675259 0.334648 -0.2211148 -0.07508623 0.00055822416 -0.2378719 0.54740095 -0.16132565 0.029111411 -0.060025476 0.017790053 -0.2583565 0.35654777 -0.11890709 -0.04066682 -0.16211917 0.28337756 -0.26899248 0.21278997 0.0409915 0.21808368 -0.15389487 -0.021784618 0.075432755 0.22748628 0.10962319 0.082887 0.47115853 0.09358818 -0.007212473 0.07395121 -0.37555736 -0.27467754 0.08717715 0.051478554 -0.068517126 -0.2628091 0.44326204 0.17512506 -0.08705051 0.56162685 0.2727404 -0.121772006 0.013747559 -0.39805454 -0.0062952586 -0.8308095 0.23899543 0.030849183 0.061992437 0.4183268 -0.37937167 -0.062616065 0.3491889 -0.021782573 -0.18464857 0.026677012 0.1532683 0.37420648 0.15410806
افزار -0.52384144 -0.098081425 0.12042532 0.008140471 -0.29761928 0.2253553 0.27119148 -0.42544836 0.4599912 0.10580717 0.07088363 0.22577775 -0.14169769 0.37291002 0.45986244 0.16540273 0.38474447 -0.043732222 0.5872827 -0.26276228 0.024899375 -0.41112173 0.10052016 -0.12698282 0.17937608 -0.04304399 0.109365754 0.30635932 -0.08056004 -0.31114691 0.04223304 -0.121249035 -0.25059113 -0.08415179 0.16900033 0.04746493 -0.25734785 0.2701568 0.084739834 -0.048663136 -0.042223416 0.36249858 -0.20321928 -0.06512295 -0.00034107917 -0.22438918 0.5965649 -0.19325313 0.09540576 -0.019441623 0.00044324092 -0.28439626 0.36346105 -0.13224418 -0.07452039 -0.17368276 0.29629546 -0.24267189 0.26489085 0.040155437 0.2964904 -0.1978512 -0.0042793714 0.09210783 0.2508606 -0.00040320374 0.08905501 0.4852133 0.06124217 0.038534738 0.14603497 -0.37358782 -0.2950188 0.09682678 -0.012804802 -0.06137743 -0.24115263 0.437756 0.19226463 -0.12640129 0.5755053 0.31004477 -0.10940996 0.04609516 -0.37147048 0.040054005 -0.85661787 0.32446644 -0.078895025 0.051412992 0.439234 -0.3753215 -0.041730847 0.3721308 0.017207522 -0.18141371 0.017693337 0.15272045 0.3776814 0.096397676
نمايش -0.5137439 -0.09444107 0.11450681 0.020324659 -0.26458746 0.21284221 0.25304857 -0.43288547 0.41769227 0.11179658 0.052643158 0.20625487 -0.17042127 0.3465207 0.4283013 0.17272715 0.35503128 -0.024009624 0.5728295 -0.2441938 -0.036733977 -0.34804878 0.11304495 -0.13392344 0.16772087 -0.03762286 0.086110435 0.2904497 -0.1124034 -0.29915407 0.044252034 -0.104206175 -0.24428707 -0.07566911 0.17317842 0.046692505 -0.2469107 0.2666605 0.12116047 -0.08058035 -0.033776037 0.29996407 -0.19324018 -0.02540807 -0.025169339 -0.18703814 0.5371165 -0.20994858 0.06281211 -0.054229587 -0.0071109273 -0.26618454 0.35431367 -0.115547106 -0.04766026 -0.15217398 0.28672382 -0.20138107 0.23011976 0.037103556 0.27545437 -0.15286413 -0.025765236 0.040253207 0.19434391 0.04239621 0.08858296 0.46109682 0.07510128 0.028720882 0.11376209 -0.32368976 -0.2902111 0.082254045 0.022403484 -0.0267858 -0.19174094 0.40007183 0.15961646 -0.100710616 0.51288754 0.29051027 -0.12766166 0.04547526 -0.3587799 0.002372991 -0.75333685 0.26296175 -0.04541301 0.07266682 0.39770228 -0.3535479 -0.0565738 0.32196292 0.038661994 -0.19297618 0.018077983 0.11341361 0.34682924 0.09461773
سلام -0.4935316 -0.08431483 0.111085735 0.008628227 -0.27207148 0.20332552 0.25061047 -0.39803547 0.4299536 0.09583899 0.07797654 0.18551496 -0.12543598 0.2997015 0.41300634 0.16236356 0.34130773 -0.013924419 0.5338666 -0.22234339 -0.0029937034 -0.352962 0.10159249 -0.11576077 0.17009653 -0.022680275 0.059794787 0.27545875 -0.08399887 -0.2830379 0.032526262 -0.11417966 -0.2322464 -0.09059929 0.15352385 0.025249898 -0.20083442 0.25186208 0.08454472 -0.06515952 -0.014931993 0.30926526 -0.19290656 -0.057613242 -0.015671419 -0.20523462 0.5119624 -0.15633212 0.06160967 -0.047015775 0.002016687 -0.23156524 0.33675396 -0.12256983 -0.053820975 -0.14260955 0.26159176 -0.22239344 0.22152375 0.048855044 0.23742105 -0.15492858 -0.0069950647 0.057819963 0.2075317 0.05779873 0.07745297 0.44373357 0.07749738 0.017926779 0.10333789 -0.33005825 -0.26173776 0.07315876 0.03206475 -0.062016252 -0.22992326 0.39191762 0.15407039 -0.100094184 0.5141025 0.25986812 -0.09190731 0.032532472 -0.362275 0.004359386 -0.7490086 0.25822085 -0.022637635 0.05474238 0.37830278 -0.34625947 -0.048218265 0.32917407 0.006112227 -0.17371134 0.019708797 0.13162127 0.33739787 0.10510667
کنيد -0.5982544 -0.115116216 0.1528314 0.01482131 -0.33545616 0.25387445 0.29872197 -0.48712653 0.5180364 0.12705402 0.092432134 0.22203572 -0.1607442 0.3759291 0.5127372 0.20738207 0.41854382 -0.01744032 0.66836 -0.27064636 -0.009661125 -0.44635463 0.13749789 -0.15674871 0.22426254 -0.024072828 0.080539204 0.34811953 -0.09256828 -0.341651 0.044031534 -0.14089578 -0.2788686 -0.11216419 0.17025064 0.04611671 -0.26192182 0.3268241 0.09629978 -0.078688115 -0.021813136 0.3784217 -0.22082826 -0.071217485 -0.013702914 -0.23611885 0.6368361 -0.200059 0.072083086 -0.04626416 0.004743757 -0.30588284 0.41053522 -0.14544354 -0.067024924 -0.17808872 0.3301256 -0.2820376 0.26792333 0.054038562 0.3037314 -0.19079496 -0.028531281 0.08141525 0.25444564 0.048742183 0.1083726 0.5483725 0.08401834 0.008804745 0.120472044 -0.40915775 -0.3327371 0.090983614 0.021714874 -0.06137624 -0.2745494 0.47348848 0.19006708 -0.12671444 0.6300456 0.32686824 -0.1334046 0.030278107 -0.4402281 0.014668453 -0.947006 0.32849604 -0.03793454 0.07717038 0.47620216 -0.42804936 -0.054468207 0.39375043 0.011636578 -0.22642148 0.040886335 0.16720805 0.42804503 0.119786516
مشکل -0.5612046 -0.10928622 0.13417365 0.020367797 -0.3135654 0.24132925 0.2810533 -0.45162225 0.49230447 0.11313619 0.07636539 0.21769309 -0.15517902 0.3682522 0.48983267 0.18871105 0.39918485 -0.011052585 0.62623334 -0.2526481 -0.0073688524 -0.41729409 0.12624028 -0.14807867 0.20443247 -0.035249244 0.08926049 0.33258513 -0.09045896 -0.32691357 0.03397261 -0.13575663 -0.2693032 -0.107660875 0.17101933 0.046437543 -0.25642657 0.30509403 0.10593547 -0.073484905 -0.016408404 0.35274857 -0.20915978 -0.0584067 -0.0029169898 -0.21594928 0.6083556 -0.18973047 0.063873954 -0.0411329 0.001570109 -0.27930415 0.38968107 -0.13726532 -0.065566845 -0.17150028 0.3108219 -0.26922518 0.26682672 0.05033705 0.29007182 -0.18820414 -0.018061038 0.07964154 0.2487294 0.045191847 0.09055118 0.511475 0.07674526 0.017059335 0.1186938 -0.3842322 -0.31268087 0.09200538 0.015915673 -0.0614246 -0.25449565 0.4489304 0.18221052 -0.11566001 0.59074825 0.30900472 -0.12764421 0.026166668 -0.4029788 0.020064509 -0.8788079 0.316152 -0.045088045 0.07294253 0.43913227 -0.39661148 -0.051572792 0.3690549 0.009721114 -0.21521643 0.0362786 0.16660823 0.40449086 0.10426629
مناسب -0.5949355 -0.08644496 0.12396992 0.01952516 -0.3231992 0.24819623 0.2865886 -0.5110165 0.49930897 0.122015476 0.07011222 0.2493787 -0.17389728 0.4089168 0.5297569 0.18604216 0.4489132 -0.041880086 0.66403085 -0.3079713 0.0027643878 -0.45920414 0.09529562 -0.15621781 0.16679569 -0.05390781 0.12275959 0.3508055 -0.10246415 -0.356861 0.04847494 -0.11110848 -0.2731489 -0.107785955 0.20006672 0.06840814 -0.24923436 0.2806366 0.13970697 -0.07694001 -0.042723324 0.3817396 -0.21835966 -0.05659124 -0.013838942 -0.23603845 0.6556302 -0.22573079 0.095416225 -0.041587006 -0.0044827946 -0.29283765 0.41262493 -0.14362226 -0.07361101 -0.18369475 0.3277655 -0.2677619 0.28606817 0.0479775 0.3145373 -0.22094145 -0.012151834 0.08443616 0.24932875 0.0037664613 0.07569397 0.52861255 0.083539836 0.03166455 0.15975747 -0.39100444 -0.32656977 0.078600444 -0.0016475276 -0.05164581 -0.2499155 0.4572562 0.19718866 -0.13469777 0.61204225 0.33562827 -0.10915261 0.045104448 -0.4250796 0.043260463 -0.9113647 0.34465936 -0.070689544 0.08584701 0.46072048 -0.43581977 -0.05854196 0.40107667 0.023307113 -0.23812947 0.017712077 0.15310466 0.42061758 0.0824622
سامسونگ -0.5736968 -0.08597626 0.11564938 0.011603816 -0.31247818 0.24083072 0.27901065 -0.47114125 0.47705153 0.1155459 0.07136468 0.22746406 -0.16007681 0.38472396 0.49605185 0.18261334 0.41646948 -0.040903322 0.6238881 -0.28120503 0.0010840239 -0.44119734 0.09537195 -0.14128004 0.17232342 -0.04617249 0.10560053 0.32676637 -0.08347517 -0.34006333 0.040890377 -0.124177136 -0.26094207 -0.094487764 0.18298699 0.055677544 -0.24867027 0.2706325 0.11918243 -0.07401872 -0.04465451 0.3665409 -0.20437069 -0.06230475 -0.006591626 -0.22447087 0.62863284 -0.20284347 0.08672162 -0.043653123 0.0029503945 -0.282807 0.39601925 -0.14078227 -0.05974126 -0.16987063 0.3088097 -0.25804836 0.2747597 0.04663403 0.30138716 -0.2043542 -0.013272187 0.076953486 0.2502023 0.008887231 0.075899735 0.51147956 0.07164087 0.02453415 0.14406295 -0.37656206 -0.3167712 0.08321753 0.002322929 -0.058398325 -0.24824063 0.43728518 0.18779118 -0.12753347 0.5963519 0.32016954 -0.1168942 0.040621944 -0.40203127 0.037179288 -0.8772263 0.32653078 -0.06728033 0.071498044 0.4535881 -0.40785566 -0.056875013 0.38594434 0.013977505 -0.21736445 0.018764123 0.14221714 0.39874783 0.09276147
5 -0.61715686 -0.09025573 0.11765392 0.021640671 -0.33670515 0.25398126 0.30229005 -0.50907654 0.50608414 0.121159546 0.060664758 0.26381654 -0.18200712 0.40830442 0.53443253 0.20115782 0.45517334 -0.030514224 0.668219 -0.30449915 -0.004383045 -0.4644761 0.1030352 -0.15064006 0.16604684 -0.054044858 0.12375422 0.3446109 -0.09160967 -0.3660626 0.04004795 -0.12580064 -0.2749678 -0.106272064 0.20354702 0.057640303 -0.24889255 0.28825566 0.13904083 -0.09242903 -0.047336433 0.39615875 -0.22475407 -0.06516132 -0.007070418 -0.254136 0.6710847 -0.21909176 0.09411899 -0.05014419 -0.009227857 -0.29739335 0.4102457 -0.1571152 -0.07116292 -0.18542248 0.31888738 -0.26619294 0.2825974 0.05271641 0.32290912 -0.2129179 -0.004562232 0.08897449 0.25056112 0.016178703 0.075500906 0.53439164 0.08242678 0.03836066 0.15710734 -0.39198378 -0.32444125 0.09000984 0.015997758 -0.06164999 -0.26632896 0.47124997 0.21226157 -0.1351578 0.6306504 0.3445247 -0.12458518 0.040333547 -0.4268534 0.043293677 -0.9251115 0.34474066 -0.08012466 0.09880728 0.4772852 -0.4468081 -0.06283411 0.39608014 0.009260026 -0.23313743 0.018525215 0.16436441 0.41506648 0.09809799
بازار -0.62035435 -0.09680217 0.1264152 0.013296581 -0.3363659 0.26088858 0.29587594 -0.5254414 0.51778513 0.13487898 0.08468971 0.25592193 -0.18627587 0.42923298 0.5481981 0.19310442 0.46242934 -0.04451161 0.6885675 -0.30048376 0.007261686 -0.47675738 0.1071725 -0.14816439 0.1821891 -0.05345182 0.11862971 0.3626183 -0.09456865 -0.36859182 0.0559481 -0.13168031 -0.27888992 -0.11176033 0.20913647 0.05874519 -0.26487797 0.28777954 0.135721 -0.08575535 -0.045029763 0.39956966 -0.22571877 -0.060463216 -0.008806813 -0.23888958 0.66632587 -0.2266343 0.08885474 -0.04422739 -0.0005276251 -0.29512855 0.42836902 -0.1527716 -0.07561608 -0.18825182 0.32489523 -0.28471833 0.30182168 0.046619438 0.3250418 -0.22135307 -0.014088688 0.086758606 0.26047558 0.00985353 0.08593765 0.5554545 0.088786244 0.03651139 0.16404484 -0.40543145 -0.33518845 0.090273805 0.00047035568 -0.053573187 -0.26076204 0.48155883 0.21156172 -0.1340529 0.6425861 0.34280357 -0.121268414 0.051817805 -0.4510806 0.044279825 -0.9514162 0.3614849 -0.06843399 0.080473095 0.49146247 -0.4490785 -0.061491232 0.4068479 0.018104495 -0.24419811 0.011933835 0.15433642 0.42629236 0.09070744
حافظه -0.6255278 -0.07515749 0.10774102 0.03230883 -0.31986 0.25868276 0.30347952 -0.51090765 0.495865 0.13641353 0.048541494 0.25563428 -0.1646305 0.4282911 0.5304476 0.16961934 0.45665765 -0.026587307 0.6665536 -0.3029441 0.014744259 -0.46344543 0.085521854 -0.1665232 0.16212028 -0.051914185 0.12909271 0.33858475 -0.09634158 -0.37383765 0.06434151 -0.123858735 -0.2726272 -0.10649163 0.20901665 0.07093522 -0.23907463 0.28445023 0.14206254 -0.07087962 -0.042363897 0.39701235 -0.20612419 -0.066180386 -0.01715397 -0.2320467 0.671869 -0.21581373 0.08486572 -0.03691129 -0.0035788573 -0.30045727 0.43145123 -0.1566678 -0.07735708 -0.17504711 0.30350038 -0.29857546 0.31013882 0.037811555 0.34552014 -0.20183414 0.018680189 0.09456805 0.26443163 -0.0028218946 0.076333925 0.55990946 0.07442592 0.03586957 0.16835935 -0.40076703 -0.34044304 0.078112826 -0.0071339714 -0.052138098 -0.28960133 0.46891156 0.20431404 -0.11571709 0.65212536 0.35522532 -0.09991726 0.05049828 -0.4166144 0.058774214 -0.9655905 0.3720153 -0.07208267 0.10340829 0.47401 -0.4494422 -0.07423748 0.41300577 0.029133458 -0.240972 0.020584565 0.16259204 0.43521318 0.075028084
کارت -0.6783515 -0.097362444 0.13154094 0.036656667 -0.35950592 0.286609 0.312338 -0.54396373 0.5713504 0.13236338 0.06867992 0.26650685 -0.18959267 0.45009607 0.56527174 0.19614543 0.4990344 -0.024223382 0.7071887 -0.31423113 0.02670766 -0.48610112 0.10601139 -0.17382868 0.2086363 -0.050910138 0.13400689 0.37078497 -0.11349423 -0.39915818 0.0688492 -0.15862904 -0.28123897 -0.12747957 0.21176751 0.08570621 -0.28639296 0.31821394 0.13657239 -0.08130477 -0.05239736 0.42515108 -0.21752012 -0.0693389 0.0027474714 -0.24316381 0.73257107 -0.24744767 0.08511776 -0.056542505 0.002143084 -0.3334548 0.45697892 -0.16869783 -0.09067072 -0.20961043 0.33441812 -0.31677854 0.32849157 0.04891956 0.36799252 -0.21445473 0.009536135 0.08984458 0.2952483 0.013172253 0.09307316 0.58343226 0.099546716 0.032496765 0.1827892 -0.4247157 -0.38172004 0.10223611 0.008404688 -0.069063455 -0.30540237 0.5050477 0.22401102 -0.113218874 0.69376314 0.3664546 -0.11401076 0.035994835 -0.44617414 0.05488675 -1.0439816 0.40961432 -0.08309685 0.09889047 0.51564723 -0.48701417 -0.05740317 0.44144613 0.02865213 -0.28302705 0.032281928 0.19036792 0.48782185 0.07200453
روي -0.60356855 -0.10732954 0.14701444 0.02035813 -0.34072995 0.2498618 0.29412922 -0.49396396 0.51773864 0.12976025 0.081395 0.23761542 -0.1631365 0.3977045 0.51558435 0.20214589 0.43196532 -0.017669156 0.6689952 -0.27590644 -0.011807117 -0.4519687 0.13660961 -0.15956204 0.21117306 -0.026821027 0.101117626 0.3414211 -0.09745473 -0.35092708 0.037409164 -0.13822012 -0.28810763 -0.10657848 0.18581593 0.040606882 -0.26050684 0.32286793 0.106024384 -0.08761517 -0.027371611 0.38078764 -0.22143267 -0.066623546 -0.011820632 -0.2340417 0.6494647 -0.19988373 0.077357724 -0.038960945 5.4716456e-06 -0.30365363 0.4153336 -0.14470227 -0.06371391 -0.18230893 0.32984778 -0.286998 0.27735072 0.056206048 0.30354792 -0.19893579 -0.02334698 0.08583493 0.2555611 0.04339227 0.1028768 0.54499555 0.09003658 0.024483755 0.12954411 -0.40978995 -0.3380835 0.08530121 0.022058094 -0.061462495 -0.2684928 0.47242674 0.19485061 -0.12535718 0.62596273 0.33053148 -0.12720701 0.029449202 -0.43812317 0.015448591 -0.94672346 0.33190444 -0.05176502 0.07296366 0.47125125 -0.42959422 -0.057257976 0.3932579 0.024401508 -0.22134835 0.03921258 0.17014931 0.42226884 0.10695801
باشه -0.6030063 -0.11769546 0.1492173 0.023718016 -0.33663028 0.25162062 0.30109578 -0.48352918 0.5128429 0.12704092 0.09014771 0.23076856 -0.15942599 0.37902805 0.5223664 0.20911783 0.42680022 -0.023429794 0.66918206 -0.26707047 -0.016067842 -0.4499995 0.1344404 -0.1602189 0.21401107 -0.033568516 0.09526886 0.35567027 -0.10558621 -0.34173974 0.034259006 -0.14671707 -0.28827012 -0.10579522 0.1808934 0.044408493 -0.2693211 0.325859 0.11485893 -0.08112504 -0.01812721 0.38127506 -0.21887337 -0.06526325 -0.006472917 -0.2291394 0.63861424 -0.20412482 0.074360654 -0.051030304 0.004970099 -0.30827954 0.40386832 -0.14127009 -0.065606855 -0.1846363 0.33170527 -0.2810365 0.27744782 0.049496625 0.3031586 -0.19382013 -0.024574766 0.0825006 0.2528748 0.04831612 0.102675 0.5449021 0.086244375 0.021648554 0.1191678 -0.40553635 -0.32892978 0.098965436 0.0243632 -0.06144526 -0.26585558 0.48149848 0.19615132 -0.12470425 0.6219257 0.33183637 -0.13163435 0.03186014 -0.43976846 0.023870867 -0.93405116 0.32752165 -0.03578558 0.07763146 0.46555263 -0.4313885 -0.050326735 0.39401445 0.012821639 -0.22873229 0.033173755 0.1768054 0.43527046 0.12036104
طراحی -0.58352923 -0.077298574 0.09554435 0.014811507 -0.32520324 0.25455356 0.28909296 -0.5031597 0.48321015 0.110610075 0.05839899 0.26272863 -0.18713994 0.4212852 0.53605 0.17888388 0.448242 -0.05148152 0.6484277 -0.31665915 0.031651657 -0.45734864 0.06290713 -0.13720705 0.14355947 -0.06480408 0.15142956 0.34232977 -0.07085546 -0.37085795 0.046326857 -0.11024503 -0.2660185 -0.097584754 0.21188895 0.07773628 -0.23501788 0.2455168 0.14416626 -0.0753155 -0.07036182 0.39039826 -0.20384707 -0.048068907 -0.018670065 -0.2361043 0.66110784 -0.22759745 0.09891999 -0.038353134 0.0011381184 -0.27509338 0.4192873 -0.1428623 -0.072814204 -0.17684434 0.32365754 -0.26763454 0.28636602 0.043080587 0.3253951 -0.22335106 -0.0023183473 0.09050993 0.24126224 -0.031674195 0.06681642 0.51403576 0.07595458 0.03738949 0.17618473 -0.37068096 -0.32730773 0.07290192 -0.016922364 -0.060458116 -0.24172625 0.43237594 0.21685402 -0.13229395 0.6051672 0.33611268 -0.103833914 0.05779215 -0.40601614 0.047638886 -0.89390737 0.3671667 -0.09979746 0.08200587 0.46162903 -0.42232737 -0.05956052 0.39202848 0.025679305 -0.24163125 0.00906112 0.1429998 0.3979947 0.05968747
ديگه -0.53223705 -0.11098491 0.14221206 0.007844453 -0.29910073 0.23412596 0.27400047 -0.4301355 0.46363702 0.10767853 0.08368172 0.2001764 -0.13637169 0.3342772 0.4591356 0.18544598 0.36775938 -0.007814923 0.5946094 -0.22594683 -0.012211152 -0.3984416 0.13415843 -0.13783601 0.20462224 -0.018616222 0.067444116 0.30563945 -0.09354303 -0.30484542 0.039096233 -0.13911362 -0.2629706 -0.09851401 0.15360406 0.032723904 -0.24026494 0.30287424 0.09514134 -0.078905486 -0.010184937 0.3333473 -0.19371757 -0.06973568 -0.0031907137 -0.21638358 0.56471515 -0.17808418 0.053165913 -0.044213574 0.00047010844 -0.2763346 0.36555612 -0.12889713 -0.053832803 -0.16672227 0.28838342 -0.25740793 0.24113925 0.04899192 0.2648422 -0.15992133 -0.027558539 0.06961903 0.23142384 0.06301478 0.1037107 0.48813885 0.080481455 0.009732314 0.10280633 -0.36711207 -0.2955878 0.08843882 0.02563629 -0.061237484 -0.24625252 0.43376383 0.16078708 -0.10959728 0.5673595 0.2849107 -0.12781416 0.024619548 -0.38865003 0.016274242 -0.84539235 0.28361568 -0.027022047 0.061671913 0.41728982 -0.38222107 -0.043020368 0.35302326 0.010417537 -0.19803083 0.04214659 0.16153808 0.3854311 0.120771974
کالا -0.64690965 -0.16985673 0.19006316 -0.018382378 -0.40103772 0.2770904 0.34217805 -0.4796128 0.65211236 0.064195804 0.10846337 0.26132172 -0.15648626 0.33911288 0.5916731 0.25521734 0.41724345 -0.01770389 0.73236644 -0.20921768 -0.012921194 -0.4546156 0.14477517 -0.18619226 0.2686279 -0.018018289 0.02859956 0.34361365 -0.09461733 -0.34018573 -0.0016319274 -0.19752929 -0.25077057 -0.14326571 0.2260763 -0.018634554 -0.2192316 0.2943997 0.15288992 -0.11588652 0.021465147 0.39645788 -0.30306244 -0.10049477 -0.023670638 -0.27076465 0.65183955 -0.20513947 0.028820425 -0.08066654 0.007797814 -0.29170462 0.39322403 -0.1668891 -0.094447926 -0.20901817 0.3382237 -0.30394217 0.21809407 0.01833758 0.2163016 -0.20920186 0.0054081567 0.10075634 0.24089198 0.13278776 0.10009763 0.5350875 0.12496853 -0.01910717 0.061795607 -0.48526338 -0.33414665 0.08162039 0.043071214 -0.09511091 -0.36028853 0.5127742 0.19544572 -0.10340752 0.69218284 0.31821525 -0.13200916 0.03355461 -0.51852375 -0.016246907 -0.97209907 0.2551066 0.08508992 0.095486395 0.51908296 -0.48085713 -0.095945075 0.40761858 -0.035698358 -0.21675178 0.044949062 0.19344006 0.41242877 0.18867809
موجود -0.52588934 -0.07668404 0.09871343 0.011378845 -0.28378165 0.21587345 0.25827718 -0.45767546 0.4344718 0.10118217 0.051362462 0.21612886 -0.15265097 0.37182787 0.46896854 0.16328816 0.3876944 -0.04261434 0.5786749 -0.27403986 0.016574921 -0.40976143 0.07473593 -0.13491213 0.14558686 -0.051692728 0.11319449 0.30160856 -0.0846819 -0.31576276 0.051931635 -0.096194424 -0.24051052 -0.08144969 0.18457106 0.062528275 -0.21267314 0.23859125 0.119239286 -0.06257861 -0.04934308 0.34166306 -0.200282 -0.053875145 -0.014841084 -0.21134602 0.591569 -0.19779167 0.090834096 -0.030215932 -0.0063140453 -0.2656892 0.3664143 -0.13453837 -0.062476575 -0.15938954 0.2795932 -0.23527934 0.2529857 0.04468229 0.2858709 -0.19531098 0.0008873145 0.07271519 0.22994868 -0.010331597 0.06168073 0.47151026 0.06761021 0.032142483 0.15478438 -0.35089135 -0.28194323 0.06979425 -0.014336019 -0.056945648 -0.23055123 0.40301946 0.17417958 -0.1267882 0.5532725 0.29686618 -0.10366601 0.04564659 -0.3723685 0.042640727 -0.8052623 0.31869712 -0.074681126 0.080767915 0.42069885 -0.38820672 -0.06134131 0.3604711 0.023584075 -0.19046086 0.016702522 0.119349875 0.36073747 0.06540888
ميکنه -0.59789497 -0.10784961 0.15075135 0.019328011 -0.32929024 0.25371605 0.29806262 -0.48738703 0.50687957 0.12418879 0.07458459 0.24281646 -0.16566229 0.3845782 0.52015275 0.20104113 0.43363628 -0.017030835 0.6632155 -0.26685733 -0.007715034 -0.4487147 0.1246169 -0.15040775 0.20559397 -0.031166287 0.09469916 0.34822893 -0.09672338 -0.34107023 0.04665335 -0.13640411 -0.28521374 -0.10337361 0.1749145 0.047899783 -0.26771578 0.3205443 0.112686045 -0.0819009 -0.019331925 0.37261134 -0.22304831 -0.061496098 -0.005370439 -0.24036174 0.6473582 -0.20492792 0.079069406 -0.047396377 0.005726365 -0.308485 0.4103433 -0.14743446 -0.070340656 -0.18011157 0.32396615 -0.28406647 0.27801883 0.057071988 0.30714893 -0.19850199 -0.021834996 0.08117433 0.26074144 0.044935606 0.10293532 0.5367879 0.08150447 0.014587567 0.123872414 -0.4027427 -0.33401257 0.09314357 0.015022607 -0.05457739 -0.2699499 0.4759971 0.19092137 -0.12672971 0.62787503 0.33055335 -0.13407183 0.036754847 -0.43377325 0.02856412 -0.93802816 0.32778993 -0.050062574 0.083371885 0.4729785 -0.42705387 -0.061908122 0.39295423 0.018259455 -0.22596201 0.03042159 0.16951981 0.43275228 0.11824611
هيچ -0.64295256 -0.114853226 0.15972733 0.017927736 -0.35764778 0.2748425 0.31628025 -0.50719917 0.5485071 0.1297099 0.09467346 0.24408516 -0.1758178 0.41180047 0.5440888 0.21731369 0.44720864 -0.013971748 0.69721836 -0.28561786 -0.0074905944 -0.4719759 0.14482169 -0.16498172 0.22391097 -0.037297074 0.09758107 0.3730163 -0.112044826 -0.3658657 0.034623954 -0.1514264 -0.3039886 -0.117156684 0.18873116 0.038197648 -0.2759322 0.33453906 0.11984831 -0.08101266 -0.019921655 0.40206155 -0.22761463 -0.07609431 -0.004574718 -0.24543048 0.67836297 -0.21069291 0.07424322 -0.048730858 0.010567862 -0.3243164 0.42728862 -0.15575135 -0.07150728 -0.19036944 0.3488766 -0.3026613 0.28904697 0.056595575 0.31503296 -0.20296675 -0.021625279 0.08529298 0.27973557 0.054801907 0.10503953 0.5659915 0.08647429 0.017382277 0.13091663 -0.4259109 -0.3552404 0.104136996 0.02171469 -0.059754755 -0.2784217 0.5106676 0.19375786 -0.13699499 0.6682535 0.34758675 -0.14622995 0.037729897 -0.4637381 0.020951677 -0.9970695 0.34279445 -0.044940345 0.07774356 0.49328083 -0.44481763 -0.056370612 0.41871133 0.01667661 -0.23891097 0.029970365 0.18334694 0.45717022 0.12888241
بهترين -0.564548 -0.10373255 0.13299045 0.014388195 -0.31577152 0.23545633 0.27626684 -0.45162272 0.4886934 0.120638974 0.087886445 0.21750672 -0.15086226 0.3572394 0.47419333 0.18833107 0.39769197 -0.026389888 0.6149621 -0.25747856 0.0005335049 -0.41376558 0.122663744 -0.14272334 0.1970515 -0.029942319 0.07535639 0.32116532 -0.08805381 -0.3256569 0.031736277 -0.1277937 -0.26808363 -0.10822221 0.16300716 0.031923153 -0.24611326 0.29235172 0.10352624 -0.08420391 -0.016445257 0.35234413 -0.21286254 -0.07298882 -0.009907052 -0.21776645 0.59731585 -0.18590902 0.070563346 -0.037705734 0.0016708493 -0.28305534 0.3837255 -0.1276746 -0.05792855 -0.16957794 0.29975116 -0.2568854 0.25128266 0.054286182 0.27647352 -0.1820985 -0.020118007 0.078954495 0.23623876 0.04616279 0.09709935 0.49916908 0.08108841 0.016847834 0.12058624 -0.37604982 -0.30891728 0.09195572 0.024349293 -0.058703605 -0.25193602 0.4412087 0.17552076 -0.11498015 0.58371115 0.3028869 -0.12362502 0.023327107 -0.4013648 0.013055624 -0.86274433 0.2978889 -0.029420206 0.07012124 0.43415242 -0.39457762 -0.044672843 0.37248504 0.013112116 -0.19756325 0.031541817 0.1484475 0.38933277 0.11604056
اينکه -0.610022 -0.11378538 0.14596672 0.01784564 -0.33821177 0.24814029 0.29811904 -0.4929878 0.51291203 0.12824064 0.078962564 0.23436503 -0.16763645 0.38639545 0.5233564 0.20377907 0.42748183 -0.017593421 0.66674036 -0.2749409 -0.0093176095 -0.44607037 0.13518023 -0.15722679 0.2060848 -0.026980808 0.0962929 0.3534933 -0.098059624 -0.34405646 0.03720846 -0.14263362 -0.2860036 -0.10681688 0.18564923 0.050318196 -0.2717431 0.32067007 0.11542863 -0.08380557 -0.019936861 0.3772219 -0.22098267 -0.06331477 -0.0069550937 -0.2374429 0.6392892 -0.20437552 0.07219083 -0.044865474 0.0015059 -0.3076956 0.4069668 -0.1478956 -0.06790981 -0.18431218 0.33329082 -0.27857634 0.2731105 0.04931087 0.30671892 -0.19330195 -0.024390964 0.07370305 0.2562548 0.04375928 0.10263416 0.5410013 0.08165154 0.022725672 0.123285696 -0.40510425 -0.32846102 0.095116645 0.022845462 -0.055163387 -0.27290782 0.47214484 0.19457056 -0.115857236 0.62329644 0.3236514 -0.12601829 0.03416405 -0.42864916 0.025036909 -0.9359955 0.33212867 -0.041827932 0.07480149 0.46503103 -0.42288718 -0.05825655 0.39405543 0.016888507 -0.22160311 0.035672612 0.17259355 0.42950213 0.11221592
امکانات -0.58820504 -0.10313436 0.13196123 0.018207898 -0.33301076 0.24642642 0.29438236 -0.47957036 0.4982761 0.12414018 0.07059108 0.23285013 -0.15577899 0.38650638 0.50799364 0.1916948 0.4200405 -0.03749914 0.64145464 -0.27771863 0.0053039542 -0.44621244 0.10956673 -0.15307564 0.18633045 -0.04360243 0.10209289 0.33776668 -0.09632522 -0.33837405 0.04447814 -0.12542173 -0.2752315 -0.105503716 0.18112452 0.047529183 -0.2529488 0.29105642 0.11766198 -0.0736239 -0.03387218 0.37235844 -0.20724317 -0.06397896 -0.015001491 -0.23015252 0.6265396 -0.20683421 0.08037349 -0.044528432 0.0030344878 -0.2897812 0.40570122 -0.14102599 -0.06133433 -0.17771152 0.3153601 -0.2679896 0.2717217 0.046215903 0.30110794 -0.20204335 -0.009683089 0.08255036 0.2531293 0.027279954 0.09020101 0.51827407 0.08586598 0.026346566 0.1404595 -0.3882796 -0.32001704 0.092675425 0.009432418 -0.055916414 -0.25998846 0.45370993 0.19426362 -0.11896051 0.60319644 0.31745568 -0.12473268 0.034183327 -0.42059246 0.029137308 -0.9096972 0.3249997 -0.058577616 0.07150011 0.454953 -0.41329488 -0.058674674 0.38884687 0.017376412 -0.22777258 0.028729884 0.16725755 0.40905777 0.10015487
بدنه -0.6400451 -0.100401625 0.12502655 0.026543578 -0.36115074 0.27272585 0.31006047 -0.53244597 0.53209144 0.12663864 0.075812824 0.2689205 -0.18483572 0.43769845 0.56438607 0.21183673 0.47133905 -0.041396093 0.699726 -0.30677912 0.0028607042 -0.48072535 0.11043386 -0.15590715 0.18617952 -0.05064966 0.12319055 0.36480674 -0.09782135 -0.38262892 0.052188035 -0.12900323 -0.29381353 -0.107122086 0.21099058 0.06961876 -0.26952097 0.30485594 0.13661341 -0.09283949 -0.049031477 0.40716785 -0.23700722 -0.060781587 -0.01439518 -0.2564529 0.6878843 -0.23401567 0.08974617 -0.049422737 -0.0017027014 -0.30927005 0.44272494 -0.15541062 -0.06325952 -0.19643383 0.34977454 -0.287657 0.29251066 0.053868156 0.34148479 -0.2274229 -0.011130632 0.090264805 0.2637002 0.011080658 0.08977575 0.5666258 0.08263233 0.030436683 0.15326111 -0.41989747 -0.35138696 0.0911614 0.014570237 -0.062187467 -0.2691292 0.48801807 0.2144699 -0.12625545 0.6522252 0.3476772 -0.12042531 0.043033693 -0.44719583 0.034208328 -0.9756087 0.3613669 -0.061934035 0.08961728 0.49804157 -0.45272613 -0.06163499 0.42139465 0.027739009 -0.25179386 0.018668389 0.17246741 0.43752792 0.10347897
خريد -0.5371049 -0.102262296 0.12973316 0.011131033 -0.30072373 0.22400153 0.26110333 -0.4116416 0.4699495 0.103591084 0.09201445 0.20412937 -0.13571262 0.3256609 0.4574124 0.17918512 0.36436152 -0.006979129 0.58166116 -0.22813123 -0.015513909 -0.39399683 0.12661684 -0.14137812 0.20001951 -0.017825661 0.0644822 0.2989053 -0.094982795 -0.29611465 0.03411516 -0.1222642 -0.24097809 -0.10730954 0.16166186 0.030495238 -0.22896133 0.28328013 0.08599285 -0.08065466 -0.004414971 0.32736325 -0.1976322 -0.070465475 -0.00091955723 -0.2070886 0.5501193 -0.17744364 0.048759103 -0.04498006 0.011423998 -0.26027143 0.36178157 -0.12923387 -0.051197093 -0.1610903 0.27883682 -0.26014712 0.23531228 0.049439907 0.24566147 -0.17182148 -0.018519143 0.07166121 0.22196586 0.06118197 0.0907839 0.4775846 0.07426803 0.0044930726 0.091733195 -0.35978365 -0.2801 0.08490409 0.025713602 -0.054571833 -0.24408548 0.42300308 0.16539109 -0.10050025 0.549178 0.2728535 -0.11559014 0.015196926 -0.38678014 0.0033134697 -0.82769513 0.26632833 -0.008992702 0.05999875 0.4115516 -0.37568253 -0.051930826 0.34753034 0.0020488228 -0.18965712 0.024765605 0.15039621 0.3764591 0.1195711
سيستم -0.5126858 -0.104748875 0.14969367 0.015921561 -0.30829096 0.20525296 0.28011084 -0.42647594 0.4232484 0.09256598 0.07805 0.20441195 -0.10339099 0.33675882 0.45039392 0.16459416 0.34856516 -0.05416142 0.58849293 -0.2588826 0.030435953 -0.39792746 0.08759273 -0.121104255 0.18916772 -0.038524088 0.08244415 0.309608 -0.069801845 -0.33132786 0.024571242 -0.13635156 -0.25780937 -0.10242804 0.1577314 0.027246337 -0.25622964 0.26426193 0.06468517 -0.065401465 0.004628161 0.34397098 -0.1977328 -0.07580993 -0.030282576 -0.19175912 0.6042851 -0.1783197 0.10198547 -0.021897592 -0.022307577 -0.30614516 0.34883162 -0.11396152 -0.0545646 -0.16515133 0.27499974 -0.23246127 0.23880245 0.04724685 0.25811145 -0.15084246 0.001233673 0.06843591 0.25165984 0.015290529 0.11192775 0.4887244 0.082383744 -0.0016644015 0.08328405 -0.37375224 -0.30437657 0.10947102 -0.018702123 -0.06852075 -0.23669139 0.42204317 0.15848592 -0.11919324 0.57154614 0.30638972 -0.14744206 0.031662922 -0.37731338 0.0040192297 -0.8396922 0.2953502 -0.035901498 0.048173442 0.41423228 -0.3629133 -0.06509796 0.36590457 0.022062214 -0.1880349 0.020830024 0.14688557 0.3629214 0.11939321
هسته -0.5521626 -0.084106065 0.11532362 -0.0005057235 -0.2702087 0.21982725 0.2790139 -0.45652282 0.46475944 0.10665227 0.04040085 0.2236469 -0.14263439 0.3834937 0.46836305 0.15481177 0.38152447 -0.02204342 0.6031843 -0.27177623 0.0074858647 -0.3868088 0.07591669 -0.11003227 0.15679565 -0.032840647 0.116288975 0.2980323 -0.09034439 -0.32339373 0.06783971 -0.11977207 -0.25600636 -0.09100877 0.16081244 0.057709493 -0.24564758 0.2808684 0.12052876 -0.051264055 -0.0474563 0.34884483 -0.18969244 -0.0757593 -0.015205526 -0.24786918 0.58779323 -0.1799804 0.060273077 -0.02933247 -0.014564511 -0.28897375 0.3776227 -0.14110133 -0.0707536 -0.15694356 0.29472056 -0.2388551 0.2610698 0.037488155 0.29373387 -0.17367506 0.0021291801 0.09605378 0.24776365 0.039492987 0.055708196 0.5056816 0.038625125 0.023680454 0.1298776 -0.36281288 -0.29973686 0.067403406 -0.012993405 -0.0647475 -0.2357209 0.46012932 0.16654606 -0.13653874 0.5806785 0.30488086 -0.12908132 0.07079097 -0.36890876 0.045088235 -0.86786896 0.3017877 -0.06421794 0.08488097 0.44574827 -0.38738224 -0.05034015 0.3633319 -0.0041355765 -0.16547991 0.014162015 0.1411351 0.37649074 0.075485855
نرم -0.5837555 -0.1011271 0.13521554 0.010183676 -0.30970564 0.24807462 0.28321612 -0.49223965 0.49062124 0.109457396 0.059383117 0.22822054 -0.13388215 0.4086201 0.5241299 0.18751054 0.43230864 -0.043913964 0.65571237 -0.26777712 0.02436631 -0.47229055 0.106159054 -0.15717323 0.1807758 -0.060436543 0.124481656 0.35477912 -0.08094434 -0.35880807 0.05699722 -0.1268192 -0.26784563 -0.097743884 0.17702505 0.043391623 -0.26364562 0.28285512 0.106056705 -0.061599944 -0.037635755 0.38355178 -0.21684672 -0.0765331 -0.003975308 -0.22798193 0.65166277 -0.19103116 0.08172325 -0.042238116 0.010116237 -0.29596654 0.40719497 -0.13808466 -0.08493042 -0.19732408 0.3180181 -0.26354644 0.2919387 0.059211496 0.3063525 -0.19317201 -0.027539605 0.08739357 0.27235726 0.018721253 0.08054504 0.53447556 0.06922043 0.024508907 0.15157627 -0.4118751 -0.30596873 0.102614984 -0.007265901 -0.062588975 -0.25068069 0.4797848 0.21076779 -0.11665541 0.62577856 0.33227932 -0.1178634 0.04448861 -0.44018736 0.029067298 -0.9415176 0.3580453 -0.06486003 0.05426992 0.48016414 -0.4103714 -0.034347735 0.40508258 0.020054337 -0.21144992 0.015769769 0.17665987 0.41223994 0.09365519
کنسول -0.59398293 -0.10490419 0.14546955 0.011370949 -0.34182784 0.2571529 0.29557273 -0.49893373 0.52418375 0.13839613 0.08311412 0.21907946 -0.16061667 0.4076021 0.5265175 0.1868953 0.4389771 -0.03177466 0.67508906 -0.28077918 0.009692061 -0.4625806 0.12523803 -0.15463759 0.19754474 -0.032717742 0.101584084 0.343102 -0.10860041 -0.3476741 0.044159554 -0.120546386 -0.2775761 -0.11708358 0.18647559 0.0485227 -0.25037763 0.3129382 0.10351273 -0.09096772 -0.020455422 0.38883826 -0.2281873 -0.06859363 -0.006172867 -0.23827921 0.644213 -0.20236996 0.085915275 -0.03915792 0.0114958035 -0.28696537 0.40379137 -0.1474409 -0.07706434 -0.1787286 0.3158927 -0.29701406 0.28993207 0.0656244 0.28886425 -0.205898 -0.018216865 0.07978605 0.26474157 0.045068555 0.0863099 0.5503932 0.079930104 0.03013295 0.12859271 -0.41413265 -0.33352247 0.098095395 0.017177042 -0.05417798 -0.26329646 0.47375324 0.18439187 -0.13542159 0.6335119 0.31632388 -0.115366265 0.040332492 -0.43407604 0.022854242 -0.95286375 0.33632112 -0.04713515 0.066768534 0.47615448 -0.43448985 -0.0645417 0.40267554 0.021227287 -0.21267287 0.03849674 0.15869278 0.42519176 0.09793424
همراه -0.64387655 -0.085177355 0.11706187 0.030223044 -0.35436967 0.2668837 0.3081739 -0.5378795 0.5333298 0.13595486 0.0635308 0.2755073 -0.19462146 0.4458059 0.57079667 0.1879044 0.48414025 -0.053479724 0.70165193 -0.3376607 0.017909667 -0.48775482 0.07604168 -0.15913676 0.16878016 -0.05663579 0.1442062 0.37266797 -0.0914289 -0.38583726 0.055234477 -0.11935425 -0.27470675 -0.11363529 0.21041778 0.078216664 -0.25710708 0.2888425 0.14924552 -0.0861086 -0.05177978 0.4129591 -0.22051618 -0.06564347 -0.0063974494 -0.25630468 0.7095586 -0.23303375 0.09982861 -0.035769153 -0.006805836 -0.30534264 0.44922593 -0.16070014 -0.070395686 -0.18504371 0.33661395 -0.2905614 0.31029508 0.047639124 0.3471036 -0.24567772 0.008565761 0.09908056 0.2777908 -0.0069820913 0.07504882 0.56045014 0.08247768 0.04495706 0.18652141 -0.41468367 -0.35472727 0.081443235 -0.00095236034 -0.054848455 -0.275707 0.4767827 0.22406521 -0.13919117 0.6646375 0.35522315 -0.115089744 0.05906153 -0.45514503 0.044961184 -0.9868926 0.3808917 -0.09794735 0.10309854 0.50392914 -0.46630624 -0.07337617 0.43059745 0.024824854 -0.25570825 0.009549702 0.15688418 0.444714 0.07921079
يکي -0.56497157 -0.1095935 0.1332901 0.010619585 -0.323692 0.23204388 0.27626678 -0.4589637 0.486986 0.118961595 0.09032923 0.2142772 -0.15561998 0.3652524 0.48152688 0.18980047 0.40577775 -0.019160675 0.6267315 -0.26003778 -0.0061265915 -0.42180714 0.12706208 -0.13953684 0.20082554 -0.033448566 0.08133317 0.3275725 -0.08970129 -0.31924066 0.03131266 -0.13628301 -0.27473354 -0.10277327 0.17200042 0.038401335 -0.24442077 0.29598162 0.096002996 -0.081622675 -0.023761477 0.35804093 -0.21554598 -0.06331709 -0.014171463 -0.21963279 0.5956462 -0.18272609 0.06953443 -0.040874343 0.0016260364 -0.27502447 0.3923872 -0.13771327 -0.06099407 -0.17271858 0.29631832 -0.26223513 0.25283688 0.048321053 0.2825686 -0.1865682 -0.022212826 0.074943356 0.24408811 0.05415728 0.091443986 0.5051153 0.08435289 0.014745262 0.11351468 -0.38312897 -0.30685398 0.08805807 0.022879127 -0.06043663 -0.24795178 0.44462138 0.18319032 -0.11116729 0.58142143 0.30521205 -0.12858938 0.028487602 -0.4086489 0.0148610305 -0.8728264 0.3057472 -0.03894757 0.062031653 0.4353687 -0.3963349 -0.057149652 0.37565282 0.014921933 -0.2006649 0.03727053 0.1570549 0.4023322 0.115098014
HD -0.62828153 -0.082085855 0.12582992 0.02234366 -0.34670284 0.25175872 0.2937385 -0.53859574 0.51981556 0.1381017 0.05762275 0.24700247 -0.19723798 0.43397608 0.56208545 0.19076842 0.48500815 -0.048828073 0.6801496 -0.33264834 0.0012412183 -0.47373232 0.09113619 -0.142396 0.15355426 -0.06687233 0.14689821 0.37363666 -0.093411215 -0.3854633 0.058314517 -0.12473286 -0.27046585 -0.101808175 0.2068322 0.08868718 -0.24376778 0.2710068 0.14970884 -0.08149922 -0.043209143 0.39256188 -0.21242093 -0.06383998 -0.0042509655 -0.2402706 0.69041276 -0.2450166 0.101190954 -0.052666444 -0.012441905 -0.30994675 0.42842034 -0.1386822 -0.07492164 -0.16937056 0.33594748 -0.2782044 0.30451444 0.04575051 0.34155095 -0.24913903 -0.006048215 0.07573341 0.2521034 -0.0001455743 0.060360953 0.5390863 0.072642 0.044519797 0.18069842 -0.39643344 -0.3381054 0.074359365 -0.002154209 -0.05822381 -0.2618817 0.46411547 0.2182979 -0.12600833 0.6346998 0.3236918 -0.11229132 0.049140252 -0.41964188 0.042230554 -0.94920313 0.36408958 -0.090180546 0.111401245 0.48916093 -0.46123284 -0.06263806 0.41636318 0.027755585 -0.25509846 0.01660685 0.17690271 0.4314481 0.08070795
العاده -0.53977853 -0.09521577 0.11972443 0.01437749 -0.3071609 0.22928312 0.27435732 -0.44572222 0.46724015 0.11039881 0.06784495 0.22192849 -0.15126704 0.35675183 0.47556922 0.1881037 0.39291573 -0.02750739 0.5993218 -0.25711533 -0.013198686 -0.39068726 0.10466541 -0.1324523 0.17695777 -0.028664812 0.08455205 0.3055177 -0.09591148 -0.3080053 0.041104272 -0.123614945 -0.25441158 -0.1029181 0.17520232 0.042276617 -0.2393832 0.27264503 0.109219685 -0.08027518 -0.018685346 0.3396459 -0.19539161 -0.0583365 -0.012307977 -0.220194 0.57742107 -0.1897188 0.06733508 -0.04054088 0.0018139426 -0.27306038 0.3687047 -0.12573355 -0.055161845 -0.15781164 0.29455408 -0.2432655 0.24637349 0.04156837 0.27893886 -0.18003625 -0.012667226 0.07466408 0.2290924 0.03412431 0.079091325 0.48275852 0.0728087 0.015196267 0.12011755 -0.36114177 -0.3007118 0.08280502 0.020842034 -0.049716726 -0.23592746 0.42479712 0.17895527 -0.10867526 0.55410916 0.28952694 -0.114765845 0.02979451 -0.37984383 0.019004008 -0.8271275 0.2914593 -0.03883495 0.076962434 0.42064428 -0.38519335 -0.05130537 0.35370842 0.0060352087 -0.19898076 0.016998218 0.14451775 0.37556952 0.09989163
رزولوشن -0.6053584 -0.07504668 0.113282345 0.025392989 -0.33541596 0.25200346 0.2839827 -0.516835 0.4966617 0.12647149 0.056491587 0.24967904 -0.19634002 0.414966 0.53594774 0.18678857 0.4634536 -0.04060747 0.66673803 -0.31784064 -0.005763688 -0.45355663 0.08928355 -0.14694226 0.14565106 -0.05943945 0.13576923 0.3511803 -0.10091972 -0.35633907 0.054520097 -0.111979745 -0.26450723 -0.10615254 0.21080473 0.07315908 -0.24495111 0.2692894 0.14693269 -0.08259145 -0.057304874 0.38235852 -0.20943643 -0.051442116 -0.018153304 -0.24579316 0.6576906 -0.22513153 0.0961909 -0.04036694 -0.001241046 -0.2906218 0.4169075 -0.14955877 -0.069322236 -0.16926579 0.31539083 -0.2595442 0.2958222 0.047714762 0.3330497 -0.22981212 -0.0014564231 0.08243225 0.25227967 -0.01180312 0.06187773 0.51949984 0.07167025 0.039940055 0.16482498 -0.3850809 -0.33438483 0.07048641 0.0010839454 -0.05642346 -0.24613185 0.4563932 0.21187721 -0.14100112 0.6128248 0.32456958 -0.10750269 0.048887003 -0.42567214 0.048147112 -0.9081357 0.35666463 -0.0845406 0.10235086 0.4691224 -0.43407422 -0.07134915 0.3955193 0.029304082 -0.23548174 0.0021970514 0.15145688 0.41649643 0.078703836
ساخت -0.5234558 -0.0751019 0.09638056 0.011815052 -0.291029 0.23015414 0.2628758 -0.4353221 0.4457315 0.104351975 0.05631132 0.22021475 -0.15400508 0.36584392 0.46551004 0.17160627 0.39435938 -0.040422328 0.56778634 -0.26584214 0.011160534 -0.39886418 0.0877082 -0.1315444 0.14470229 -0.050169677 0.11145815 0.3103942 -0.077094644 -0.31483337 0.039301686 -0.10353433 -0.24508305 -0.08575311 0.1751444 0.0623361 -0.22851731 0.2442858 0.12334953 -0.0653822 -0.038442135 0.32638732 -0.18528728 -0.043455213 -0.0053945812 -0.20520544 0.5686974 -0.20093521 0.078065276 -0.044684306 -0.0036849827 -0.25972235 0.35422528 -0.1321632 -0.055419374 -0.15354612 0.28342763 -0.23811091 0.2396131 0.034214687 0.2801832 -0.18815671 -0.019032236 0.06806056 0.21166189 -0.00041847085 0.07024785 0.46269342 0.059421632 0.022299174 0.13042511 -0.334408 -0.27901646 0.07049803 0.006712238 -0.04469977 -0.21490571 0.40157008 0.18381527 -0.1013718 0.54045075 0.28323025 -0.1069559 0.043969642 -0.3672737 0.028591285 -0.7971757 0.299871 -0.06251999 0.06868452 0.4054168 -0.3731985 -0.04292378 0.35209787 0.011682098 -0.20038852 0.020228064 0.14087239 0.36475626 0.06982574
4 -0.57807523 -0.094873056 0.11651466 0.009514873 -0.3106734 0.2456195 0.28692824 -0.47048366 0.4735416 0.12085346 0.058649242 0.2358821 -0.15894632 0.3850298 0.4902275 0.18488431 0.41156688 -0.02568742 0.6344531 -0.2841212 0.0026443792 -0.42727494 0.09139465 -0.13481547 0.16899887 -0.0428399 0.10595133 0.3329607 -0.089421384 -0.33638093 0.05505446 -0.12256044 -0.26029414 -0.09069222 0.18844031 0.058394864 -0.24777257 0.27794188 0.12370748 -0.071606405 -0.04026506 0.36860546 -0.20523483 -0.059600383 -0.010548893 -0.24318735 0.6327647 -0.1996902 0.08842087 -0.041431155 -0.0077938912 -0.28703836 0.40169498 -0.1410194 -0.07563408 -0.17478484 0.3129619 -0.25248766 0.2764641 0.042908177 0.3086935 -0.1941669 -0.0021561384 0.0819752 0.25155005 0.018623643 0.08408149 0.51263535 0.06487584 0.02072876 0.14038923 -0.37728438 -0.32004103 0.081810735 -0.0023335828 -0.06176619 -0.25110146 0.456584 0.18789783 -0.12781288 0.5943453 0.32079315 -0.12565865 0.059108566 -0.4096554 0.03641691 -0.89475876 0.3295336 -0.06960882 0.079777285 0.4545873 -0.41038063 -0.05659578 0.38762444 0.014813906 -0.2050436 0.015632587 0.15310946 0.4056553 0.09417312
باتری -0.5689464 -0.064936556 0.09441732 0.035108704 -0.31343108 0.21936235 0.26549166 -0.48715863 0.46317643 0.12826416 0.026908493 0.25486177 -0.19087522 0.40040073 0.5141523 0.17064588 0.45936128 -0.0629853 0.63680756 -0.30925283 0.035688147 -0.4663218 0.044371534 -0.14413528 0.13112292 -0.05556261 0.14934039 0.32707813 -0.08141358 -0.36230683 0.037972897 -0.10068778 -0.2455855 -0.093868196 0.19342263 0.07919376 -0.20646924 0.23199381 0.14956744 -0.086553805 -0.045308657 0.36871257 -0.19385856 -0.051072028 -0.0004999929 -0.216624 0.63996744 -0.23249388 0.09461587 -0.019196406 -0.0130870575 -0.27848092 0.40685904 -0.16513641 -0.060377095 -0.15996496 0.2976527 -0.2694834 0.2828697 0.047730245 0.3348778 -0.2465241 0.014927537 0.09680292 0.24514157 -0.023922332 0.05479193 0.48814476 0.061496172 0.033580463 0.191614 -0.3702687 -0.3228348 0.05723468 -0.013531036 -0.051887754 -0.25649938 0.42344242 0.19676109 -0.13538034 0.5900043 0.30979997 -0.09704803 0.047849465 -0.40986812 0.05016992 -0.87082887 0.36985826 -0.118690416 0.10867842 0.42786133 -0.43532875 -0.0802 0.37704632 0.00825184 -0.23939334 -0.0053986893 0.11672354 0.39897892 0.03389616
بگم -0.61558133 -0.115185216 0.15310933 0.013363063 -0.355155 0.26041865 0.3056249 -0.47794908 0.5270382 0.11782715 0.087567635 0.23765075 -0.15862651 0.37517214 0.52915215 0.20874473 0.43033227 -0.020342525 0.67891145 -0.27561054 -0.010333688 -0.44553196 0.13835244 -0.16372961 0.2262629 -0.026445571 0.07613332 0.3569634 -0.11088224 -0.34226775 0.026502196 -0.14979772 -0.28221145 -0.119775906 0.18313497 0.038452167 -0.2730379 0.3139898 0.114944905 -0.089412324 -0.020134844 0.37528458 -0.222107 -0.068262696 -0.0143301245 -0.24184471 0.63822514 -0.20976748 0.07709837 -0.046282183 0.0074376264 -0.30645508 0.40562782 -0.14612365 -0.06273169 -0.18246679 0.330077 -0.29204527 0.2654713 0.05887315 0.29660508 -0.20009415 -0.026232285 0.082122855 0.26338676 0.067736864 0.0915649 0.5460476 0.08727744 0.014019034 0.123808526 -0.40873176 -0.33838275 0.09398923 0.024569338 -0.060726542 -0.2760452 0.4804016 0.20401748 -0.123999394 0.63069355 0.31953198 -0.13760331 0.03120717 -0.43936116 0.009737607 -0.9553786 0.31700727 -0.03050924 0.07579701 0.4711465 -0.4370024 -0.05556829 0.39256176 0.015126297 -0.22704552 0.028841695 0.17724179 0.4251216 0.13012955
فيلم -0.51923794 -0.093499966 0.123887435 0.010981499 -0.2992982 0.22393619 0.2572603 -0.41331238 0.44229782 0.1162116 0.078701936 0.19680585 -0.13869517 0.33382902 0.45250127 0.17635322 0.37904555 -0.010577056 0.5721564 -0.227985 -0.029643951 -0.37001297 0.12970215 -0.12810811 0.1933264 -0.023918727 0.07828233 0.29524663 -0.08343263 -0.3039276 0.03622809 -0.13175204 -0.24383464 -0.09105517 0.14767063 0.037153967 -0.23665981 0.28554082 0.09705272 -0.0708315 -0.020043898 0.31892797 -0.19590154 -0.050342694 -0.012224701 -0.20482561 0.5496065 -0.18579765 0.06135426 -0.044863675 0.0069366726 -0.27393767 0.35711533 -0.12079817 -0.05921977 -0.15564477 0.28160128 -0.24677794 0.22513323 0.04092627 0.26729032 -0.17060183 -0.015835654 0.052806504 0.20463133 0.05395473 0.09927515 0.45996025 0.06755258 0.01975369 0.1095733 -0.3421966 -0.29371005 0.07159642 0.02170955 -0.055566423 -0.22502597 0.40437585 0.16461624 -0.10154088 0.53977 0.27898735 -0.12127996 0.0267117 -0.3673753 0.013053657 -0.80484694 0.2757006 -0.035882995 0.07273573 0.40660292 -0.3671117 -0.050769437 0.34390798 0.019231891 -0.2030165 0.034433305 0.16018055 0.37776002 0.10006517
