1317 100
اين 0.5758757 0.23924427 -0.4135998 0.057803452 0.2581352 -0.46865764 0.18129867 0.13472904 -0.2750551 -0.23626369 0.23398735 0.045392748 0.2578933 -0.14897415 0.32285818 -0.07625519 0.4231925 -0.39938805 0.66735077 0.04032341 0.102199845 0.4342963 -0.05026662 0.07510598 -0.293572 -0.10855434 -0.39471167 0.26861268 0.031050913 0.06176128 -0.4171183 0.11734581 -0.011144846 -0.04507127 -0.20544533 -0.0045303176 0.10188953 0.309561 0.2631078 -0.10372585 0.033282068 0.045322467 0.23063809 0.111964785 0.33808362 0.36258236 0.1510622 -0.23627257 -0.120612785 0.13167597 -0.08820783 -0.073981866 0.09571159 0.17214222 0.19826618 -0.27165788 -0.65340275 -0.21359618 0.05000996 -0.033223048 -0.11422455 -0.05423246 -0.20686288 -0.06884249 -0.042002495 -0.06938131 -0.50130767 -0.023912564 -0.16122493 0.16987383 0.10817961 -0.018656347 0.28781384 0.09207359 0.3615374 -0.037557133 0.43160263 0.17960142 -0.109851174 0.5151272 0.10647026 0.39192957 0.69784915 -0.17132725 -0.00019848319 0.08117043 0.27825186 0.23626319 0.6718165 -0.060996603 0.3093482 0.30014354 -0.061367434 0.2762253 -0.015523407 0.35104924 -0.02004637 0.13991009 -0.26399112 0.4732968
گوشي 0.5821937 0.23878288 -0.4309202 0.06387419 0.26790535 -0.48300627 0.18977149 0.13649234 -0.27841288 -0.24262264 0.24422356 0.03826932 0.25939468 -0.15352051 0.34017035 -0.06643105 0.43128058 -0.419102 0.67194366 0.03958504 0.10511333 0.42132634 -0.0460422 0.07977374 -0.3039558 -0.11835697 -0.3948083 0.2626948 0.03372046 0.06427757 -0.4088842 0.127732 -0.026322762 -0.03417498 -0.2115679 0.0023300187 0.10896794 0.30731887 0.2650414 -0.10471807 0.041942094 0.051385302 0.24096237 0.10832756 0.35402778 0.36988735 0.15584427 -0.24604699 -0.11667829 0.13492931 -0.0838322 -0.07581905 0.082444355 0.17223668 0.20534374 -0.2745092 -0.6550672 -0.2162903 0.052164033 -0.05639862 -0.09853251 -0.05428943 -0.21976084 -0.08632536 -0.04498056 -0.07154731 -0.5138851 -0.03129312 -0.16295084 0.1759548 0.11180539 -0.0150186885 0.29451144 0.10370476 0.35644764 -0.027948013 0.43466884 0.18109205 -0.10762623 0.5202661 0.11533796 0.39023143 0.7156495 -0.16915473 -0.0140370475 0.089338675 0.2839385 0.24470347 0.6765626 -0.0610893 0.3220567 0.30142164 -0.047710296 0.29489666 -0.019554479 0.36413282 -0.012604505 0.13773057 -0.2725979 0.49555558
دوربین 0.5447109 0.28427154 -0.5464644 0.15365449 0.3466705 -0.5561907 0.22143376 0.1264687 -0.25343657 -0.3092801 0.2595587 0.014110869 0.25623974 -0.087303706 0.28666803 -0.038689565 0.42218912 -0.44148365 0.61322165 0.050175186 0.07762664 0.3081825 0.07118212 0.06299745 -0.28709126 -0.093623415 -0.37415764 0.19760479 -0.023278268 0.0545798 -0.25665018 0.103392236 -0.1254226 0.09189509 -0.18710802 0.037716176 0.124344155 0.30028194 0.28310353 -0.10543823 0.1026857 0.146646 0.25552332 0.09097087 0.4338809 0.38466838 0.2105929 -0.22421883 -0.0020997347 0.06328451 -0.021498796 -0.032565616 0.031334683 0.00022603552 0.2515079 -0.22633971 -0.5553757 -0.31234777 0.025082564 -0.22122964 0.045161236 -0.09109434 -0.30451998 -0.10683096 -0.034903403 -0.06905991 -0.4584789 -0.012531777 -0.25341314 0.18945642 0.15521984 0.009141682 0.38354677 0.12488493 0.24106964 0.04542264 0.38044894 0.21418715 -0.16678414 0.5599959 0.16905676 0.3925114 0.7218082 -0.16005377 -0.20234145 0.14719065 0.29670218 0.348206 0.6427023 -0.09651436 0.3387828 0.26260456 -0.057402655 0.2731298 -0.11997779 0.4865366 0.06498153 0.14213017 -0.25183657 0.4881585
صفحه 0.5914569 0.2764706 -0.5219855 0.14749277 0.3149013 -0.54628634 0.20319691 0.12682481 -0.25777417 -0.27086565 0.25858325 0.016843414 0.25755224 -0.13955 0.32866797 -0.071823515 0.44933045 -0.45284554 0.64886355 0.0649294 0.10385439 0.3373216 0.057795174 0.07277406 -0.30428874 -0.13181882 -0.34703785 0.22920224 -0.043750446 0.024279356 -0.3221088 0.1393474 -0.07472986 0.05177399 -0.2015918 0.06138907 0.09954796 0.33807996 0.29815057 -0.09443293 0.09527402 0.1101902 0.2317449 0.08573429 0.41780576 0.38404387 0.19481304 -0.22510813 -0.035889193 0.06285769 -0.0060544917 -0.060190085 0.030528758 0.0629491 0.22046807 -0.21530394 -0.6367628 -0.2983079 0.033738215 -0.15334688 -0.026541354 -0.08902751 -0.23559569 -0.09497836 0.014884245 -0.09494986 -0.4804319 -0.019885918 -0.21893372 0.15664789 0.14521794 0.03571099 0.35672742 0.12695661 0.24169523 0.059401408 0.39127636 0.1939412 -0.111599445 0.51948667 0.13168994 0.3921396 0.7292437 -0.15588577 -0.14761083 0.14128856 0.31413624 0.3161469 0.6778214 -0.06861714 0.37143293 0.3037799 -0.015907133 0.2702201 -0.049250446 0.47107962 0.017774168 0.106544696 -0.27646622 0.48662373
هاي 0.5611277 0.23462649 -0.44368213 0.08390803 0.26402694 -0.47905996 0.17763549 0.11998908 -0.2674188 -0.24342258 0.23014201 0.029720588 0.24930145 -0.15250419 0.31092304 -0.060365643 0.42203772 -0.4077568 0.65309685 0.043498024 0.095317364 0.39059788 -0.025283653 0.06915581 -0.27497295 -0.11269413 -0.37497726 0.25682905 0.020173894 0.057334334 -0.38031614 0.11224783 -0.03666767 -0.033530302 -0.20548011 0.0051930393 0.11017884 0.30658934 0.25487986 -0.0878947 0.050664954 0.066434614 0.22960022 0.11037026 0.3508733 0.3661365 0.16145869 -0.21838927 -0.094246045 0.11578262 -0.08125712 -0.07393301 0.080984496 0.14991993 0.2014819 -0.25616327 -0.6177332 -0.2200027 0.03031043 -0.07251824 -0.08914967 -0.0637259 -0.22164574 -0.080163434 -0.030754006 -0.08092344 -0.49425954 -0.03358685 -0.1632697 0.17845023 0.11151259 -0.015888406 0.29154512 0.09722251 0.33496496 -0.010010682 0.4206032 0.17335057 -0.10267229 0.50803506 0.119462706 0.37408185 0.6831386 -0.15170792 -0.033038486 0.0869949 0.28470734 0.2462571 0.6479713 -0.06857201 0.32138234 0.28623104 -0.04488855 0.28259173 -0.01247071 0.36677626 -0.006563556 0.13025793 -0.25848976 0.47239852
خيلي 0.58291006 0.24431817 -0.44975036 0.07910711 0.28245756 -0.5089892 0.1944782 0.13821404 -0.27326736 -0.2597745 0.23829406 0.03859054 0.25397173 -0.14349346 0.31722414 -0.07266274 0.43589425 -0.42363015 0.66658163 0.03927929 0.09939136 0.42072242 -0.023071857 0.07265199 -0.2950322 -0.11746594 -0.392306 0.25430346 0.021665495 0.06573822 -0.40514356 0.12257228 -0.050015748 -0.01816198 -0.21094584 0.012796507 0.10494557 0.31033397 0.26780668 -0.09813037 0.050575428 0.06047025 0.2349598 0.11109096 0.36274827 0.37502477 0.16601554 -0.24563003 -0.08645313 0.11791041 -0.06884383 -0.08105111 0.076400295 0.1435423 0.21200998 -0.26969117 -0.646458 -0.2339749 0.048304185 -0.06819268 -0.091012776 -0.055786345 -0.22565031 -0.08459341 -0.047715563 -0.077444196 -0.5072772 -0.034219496 -0.18230662 0.18467824 0.12121225 -0.008301124 0.3077926 0.10832516 0.34299278 -0.015589636 0.43074384 0.18677373 -0.11481207 0.5341323 0.12006291 0.38932452 0.72454584 -0.17233378 -0.041030176 0.09467453 0.2844786 0.26257896 0.68896794 -0.07322938 0.32952023 0.30950963 -0.04967563 0.28746888 -0.03193835 0.39295608 -0.014809859 0.14375041 -0.26986754 0.49233258
تبلت 0.56164235 0.25911254 -0.48647007 0.11374102 0.30788776 -0.49640325 0.19348069 0.13445792 -0.2612744 -0.27029654 0.24632095 0.015966725 0.23624398 -0.12820035 0.31848186 -0.052364446 0.421325 -0.4281138 0.63545555 0.050599463 0.09682191 0.35837904 0.026128067 0.06678147 -0.2926133 -0.104480445 -0.3760775 0.22897576 -0.002317547 0.051914368 -0.30886662 0.11744597 -0.068672165 0.021554215 -0.20105603 0.029586058 0.11253185 0.29881218 0.26230693 -0.10364333 0.06779392 0.10958801 0.24701294 0.10191845 0.39407414 0.38100338 0.18042387 -0.23300083 -0.051345557 0.0928625 -0.049099986 -0.049821828 0.051478416 0.0672314 0.21966185 -0.23897596 -0.60559064 -0.25388917 0.03230851 -0.14582402 -0.03685001 -0.084369525 -0.26056692 -0.09536379 -0.03970096 -0.07613068 -0.47189185 -0.015118434 -0.20741959 0.18504696 0.12357828 -0.004167594 0.32880962 0.11551318 0.29168728 0.021116095 0.40482727 0.186904 -0.13313664 0.51916355 0.13390067 0.38647315 0.6976412 -0.14981784 -0.10753122 0.13243055 0.28474155 0.29202327 0.6485718 -0.07750174 0.33195734 0.2802259 -0.04409986 0.28436553 -0.07223313 0.4331694 0.019546572 0.12722248 -0.2586834 0.4812508
مي 0.6449175 0.27267796 -0.5108575 0.10044586 0.32574838 -0.5615945 0.21469216 0.13677303 -0.2969756 -0.2910322 0.26543188 0.03291248 0.2814707 -0.16144587 0.3518875 -0.06871869 0.48158032 -0.47469357 0.7304083 0.055466846 0.107298866 0.4412795 -0.010354656 0.07402427 -0.32384548 -0.12884456 -0.4227825 0.27853605 0.017946977 0.064543806 -0.42415845 0.13563974 -0.051475357 -0.008894469 -0.2308724 0.022477577 0.12223532 0.34032932 0.29017073 -0.112747476 0.06925761 0.0832575 0.27551836 0.121682405 0.40613607 0.42110243 0.19182003 -0.2567405 -0.093889594 0.12522267 -0.07285471 -0.07051584 0.08544051 0.14249527 0.24464726 -0.27793002 -0.7035685 -0.26342735 0.037023023 -0.10131334 -0.073054194 -0.07643009 -0.2716408 -0.09420609 -0.042716056 -0.084301606 -0.55352867 -0.021981759 -0.20636983 0.21022029 0.13378292 -0.019395124 0.35189173 0.11793339 0.36393788 -0.012797626 0.46748134 0.20053296 -0.13000788 0.58468056 0.13825536 0.42907047 0.77664506 -0.17371587 -0.06471208 0.11126594 0.32003915 0.29611063 0.7364058 -0.072464086 0.36926228 0.32317808 -0.05187543 0.32339174 -0.034640852 0.4312787 -0.002013304 0.14480346 -0.29835257 0.5446727
نظر 0.5841487 0.26394874 -0.4846492 0.10563205 0.31024298 -0.5188397 0.1997299 0.13544858 -0.26770675 -0.27627996 0.24483062 0.022610573 0.24828817 -0.14072105 0.32513508 -0.061488412 0.4409521 -0.4353709 0.66716635 0.056729324 0.102468185 0.38736647 -0.00056078465 0.07347153 -0.29170722 -0.111644514 -0.38819286 0.24369974 0.011838544 0.059630416 -0.3540007 0.11864003 -0.06357897 0.0061084195 -0.2096717 0.026915595 0.109998256 0.30823487 0.27557257 -0.09844929 0.060460705 0.09506942 0.24713823 0.1080531 0.3845945 0.3816614 0.18101487 -0.2434344 -0.068491794 0.11486433 -0.06116082 -0.06333253 0.0649989 0.10434073 0.22629681 -0.25868353 -0.64098555 -0.25516886 0.033308692 -0.122268304 -0.057718772 -0.07037867 -0.24891986 -0.09678363 -0.032988258 -0.07677317 -0.49701667 -0.019326428 -0.19639042 0.18895972 0.12674452 -0.006161714 0.3305533 0.10782926 0.3057863 0.001973577 0.4210564 0.18698083 -0.13057041 0.5332852 0.13597022 0.3915635 0.72381157 -0.16590245 -0.08842796 0.11601404 0.28689724 0.2849318 0.680531 -0.08062674 0.33797893 0.29750833 -0.046838254 0.28473502 -0.05884167 0.4158984 0.009876066 0.13787846 -0.2724225 0.50168014
داره 0.6022312 0.2544681 -0.47656104 0.09359298 0.3029238 -0.5232087 0.20289655 0.13416518 -0.28002545 -0.2755089 0.24236684 0.036850467 0.2685528 -0.15468249 0.32903105 -0.0710368 0.4602542 -0.43947747 0.6846283 0.051033784 0.1040492 0.4107165 -0.015177022 0.07123186 -0.2972944 -0.11706717 -0.3945332 0.2603664 0.011727816 0.067551926 -0.40160877 0.128232 -0.050487 -0.023702614 -0.21936323 0.018098151 0.11486624 0.33117872 0.28093606 -0.10072263 0.058675047 0.065847136 0.25361022 0.116238505 0.3800505 0.39424944 0.17521873 -0.24003796 -0.08460025 0.1181765 -0.07099799 -0.074820206 0.08260461 0.13959232 0.22259137 -0.2623723 -0.6649491 -0.2428127 0.043374848 -0.08090246 -0.077930175 -0.0612483 -0.24121985 -0.09137129 -0.043428056 -0.08411156 -0.5294603 -0.031981986 -0.18789698 0.18573496 0.13168313 -0.010441346 0.32018027 0.10440779 0.34726283 -0.0037637432 0.44066304 0.18594259 -0.12191264 0.53941864 0.13216017 0.40859702 0.73172414 -0.1682979 -0.058583397 0.09935248 0.294683 0.27472404 0.69927514 -0.0792638 0.3467445 0.31123644 -0.0452052 0.30573454 -0.025374092 0.41723618 -0.0061717173 0.14955425 -0.28145665 0.50782573
براي 0.6355403 0.27276665 -0.5106772 0.09639974 0.3144069 -0.556245 0.21598019 0.14007415 -0.3025324 -0.2840758 0.2650657 0.027611129 0.28444776 -0.15584123 0.36026502 -0.07239259 0.47545302 -0.47042742 0.7320467 0.051063593 0.108555146 0.4313974 -0.005342819 0.07040883 -0.3207991 -0.12232728 -0.42811498 0.28310296 0.014091205 0.061381903 -0.41875088 0.13664715 -0.04545558 -0.019974483 -0.23049544 0.018899104 0.117608055 0.34732124 0.28738016 -0.10641734 0.06551906 0.08660594 0.26898637 0.11366626 0.41150692 0.414608 0.1855463 -0.25970146 -0.1003363 0.12554684 -0.076929584 -0.07901019 0.08032188 0.14389515 0.23850746 -0.27759296 -0.700723 -0.26283872 0.035296693 -0.09749857 -0.075648956 -0.081225514 -0.2623266 -0.088561706 -0.042855166 -0.092445485 -0.55233425 -0.035271402 -0.2017628 0.20563418 0.13061082 -0.015993642 0.3429332 0.105260424 0.36169204 -0.013340447 0.46364185 0.20210694 -0.14122579 0.5809823 0.13903262 0.43537784 0.7759265 -0.18230453 -0.05730758 0.11524765 0.32446173 0.29832435 0.73241055 -0.07802653 0.36860782 0.32437325 -0.05363934 0.32202834 -0.031192431 0.4344169 0.0024350027 0.1490902 -0.2883528 0.53676474
دوربين 0.5656136 0.24537374 -0.43868265 0.085606605 0.28337467 -0.5113859 0.18469031 0.1379354 -0.266487 -0.24983025 0.24244054 0.03975317 0.24933437 -0.1445493 0.32274392 -0.06822984 0.42858315 -0.42345423 0.66119933 0.03939182 0.09632665 0.40428972 -0.034276772 0.07867044 -0.29744902 -0.12499127 -0.39111465 0.24692777 0.0204246 0.053739335 -0.4040141 0.11475502 -0.054801647 -0.024832828 -0.2003786 0.022627143 0.10744932 0.30240476 0.27039298 -0.10080479 0.053077184 0.06311492 0.22924753 0.11483791 0.3522471 0.36971453 0.16647878 -0.23821701 -0.09312844 0.12504277 -0.067531794 -0.068373986 0.07745511 0.13790245 0.21498108 -0.2656242 -0.6443008 -0.23607366 0.046333328 -0.07322909 -0.0897183 -0.053627785 -0.22555447 -0.089323714 -0.035831556 -0.07133498 -0.50219595 -0.02901669 -0.17957826 0.17735785 0.11992552 -0.010607366 0.29933336 0.10476876 0.33401462 -0.009123895 0.42137536 0.18801221 -0.10802233 0.5318106 0.12595573 0.39032495 0.7211421 -0.17649436 -0.04118125 0.09032721 0.27989048 0.25964096 0.6714848 -0.074261814 0.32481486 0.29209754 -0.041869935 0.28745034 -0.037183706 0.39120543 -0.0011888287 0.14442162 -0.2633269 0.4780583
گوشی 0.58677036 0.29370928 -0.56592274 0.15438832 0.3681612 -0.55412483 0.21807924 0.14619093 -0.27548817 -0.32844844 0.26430613 -0.000200368 0.25266942 -0.11721281 0.32540792 -0.047884304 0.46001014 -0.46757942 0.6702992 0.06825756 0.08493794 0.33026704 0.06574677 0.069810085 -0.30940545 -0.10722069 -0.39228463 0.22540702 -0.029531814 0.04500523 -0.27183425 0.11963092 -0.10532607 0.06462125 -0.21739456 0.05489216 0.12472547 0.3282283 0.291919 -0.10191265 0.10765087 0.15782401 0.27459696 0.09770344 0.44779143 0.40438905 0.22323401 -0.24867113 -0.016006405 0.08295568 -0.03384723 -0.04929785 0.046484552 0.0059255534 0.25288305 -0.2360396 -0.6253654 -0.30847022 0.018593794 -0.22346434 0.009535871 -0.097407945 -0.30253908 -0.10837562 -0.030809933 -0.07871036 -0.48189926 -0.00853641 -0.25933132 0.19986914 0.14611477 0.0072935214 0.3879196 0.13220839 0.25624916 0.04855459 0.40606135 0.2156491 -0.16274436 0.57045335 0.16432057 0.4137189 0.7483879 -0.15446666 -0.17370673 0.15802167 0.30987048 0.3465334 0.68405074 -0.09466241 0.37093434 0.28441486 -0.042526055 0.30153975 -0.098849125 0.50695866 0.04838462 0.13649583 -0.274074 0.52158916
يک 0.6144303 0.26327172 -0.48147094 0.090841986 0.31303632 -0.52401406 0.19961452 0.14282383 -0.28594026 -0.27879804 0.2623987 0.036315564 0.26793838 -0.15328011 0.35061574 -0.06626476 0.45026782 -0.45322257 0.7054612 0.0502651 0.11098124 0.42377454 -0.020161606 0.078232914 -0.3146124 -0.11312643 -0.41939676 0.26193404 0.02177384 0.066244125 -0.39886594 0.13235304 -0.048115246 -0.011306839 -0.2187502 0.012314285 0.111322545 0.33062842 0.28036878 -0.11234846 0.05995853 0.08297161 0.2651838 0.109637976 0.3922094 0.40501532 0.1776603 -0.25699824 -0.100320235 0.12690999 -0.07550226 -0.065254755 0.08347135 0.13471806 0.23153079 -0.27339706 -0.68128103 -0.25052583 0.043651022 -0.09614989 -0.07885823 -0.076938294 -0.24797417 -0.08562207 -0.04500284 -0.08386879 -0.53669024 -0.019725483 -0.195335 0.19655794 0.121666476 -0.013112687 0.33897755 0.109723166 0.34972057 -0.009859773 0.44742292 0.1899724 -0.12745725 0.5632107 0.13729769 0.41486594 0.7546041 -0.17774867 -0.060801756 0.10524179 0.3024253 0.275801 0.71445197 -0.07499258 0.35282964 0.312448 -0.06103306 0.30148032 -0.04314677 0.41526598 -0.0013677507 0.14665593 -0.27886167 0.52458715
ولي 0.58453816 0.24631937 -0.45074433 0.07922085 0.28427804 -0.5078756 0.19916385 0.13607053 -0.272127 -0.2576079 0.2405974 0.03624955 0.2531207 -0.14009309 0.3236003 -0.07340842 0.43247193 -0.42786604 0.67018926 0.046828534 0.10332667 0.40410393 -0.023780117 0.070903696 -0.29506338 -0.11625469 -0.38955006 0.2575293 0.013894622 0.06481666 -0.39959428 0.12834509 -0.046736713 -0.023010654 -0.20301692 0.01907588 0.10941207 0.309246 0.27046016 -0.10304339 0.052689105 0.06366718 0.24015464 0.10986593 0.3662413 0.3694376 0.1738232 -0.2381647 -0.08805985 0.11237851 -0.06433717 -0.0774657 0.07570021 0.14604665 0.21250162 -0.25642198 -0.64263034 -0.24037638 0.036729388 -0.072228245 -0.08286776 -0.061918184 -0.23265769 -0.08143305 -0.03840128 -0.07915622 -0.50559366 -0.02713965 -0.17806137 0.17842945 0.1251162 -0.0103917755 0.30705687 0.10044615 0.33398426 -0.013490595 0.4250314 0.18432713 -0.113225214 0.52485096 0.12750664 0.39240593 0.7086706 -0.16301496 -0.04443261 0.09751977 0.28266057 0.258947 0.6767168 -0.06651014 0.3343883 0.30389532 -0.04244766 0.28420192 -0.034396686 0.3977002 -0.0048302254 0.13881391 -0.26700246 0.49399167
کار 0.5828076 0.26380017 -0.4940599 0.11726453 0.32357988 -0.52297145 0.20655747 0.13880844 -0.27228838 -0.28188595 0.2474177 0.013226657 0.25780484 -0.13376325 0.31735963 -0.05273683 0.44609046 -0.43120554 0.6667498 0.059783448 0.09919164 0.3741751 0.014231975 0.060859792 -0.29442537 -0.10871093 -0.38119176 0.2397474 -0.0054050814 0.04905344 -0.34653217 0.12639864 -0.06750199 0.019149825 -0.21086909 0.029014787 0.11021658 0.31478456 0.2727653 -0.09689627 0.07736926 0.102974504 0.2528484 0.11013809 0.408293 0.39306474 0.1850063 -0.243826 -0.061309088 0.105732575 -0.059022043 -0.056669 0.055342246 0.089427136 0.2256759 -0.24587482 -0.6278607 -0.2623202 0.033415027 -0.1330304 -0.048037607 -0.0777313 -0.25916773 -0.10095804 -0.041044727 -0.0889806 -0.4997961 -0.011080977 -0.21003489 0.18779463 0.14141165 0.00024205969 0.3463239 0.11609966 0.2967933 0.013009835 0.41453674 0.19104445 -0.13475895 0.5283878 0.13678363 0.3965987 0.71556675 -0.1554833 -0.101729855 0.11402929 0.29467615 0.29601097 0.67524487 -0.08099557 0.3417346 0.29449734 -0.04878649 0.29593796 -0.053210214 0.43109572 0.010425719 0.1353181 -0.27382243 0.49927467
کيفيت 0.5794628 0.2579886 -0.4648331 0.09147252 0.29026642 -0.5254152 0.19218403 0.14487356 -0.27361444 -0.2711509 0.24174125 0.03305031 0.2504327 -0.1487607 0.31895977 -0.07356741 0.44467068 -0.4354278 0.6639106 0.051562194 0.1074382 0.4039079 -0.0154647315 0.065875016 -0.28709978 -0.1231407 -0.3920175 0.25201973 0.009774625 0.06116618 -0.392936 0.117368944 -0.059314597 -0.009429939 -0.21043183 0.028306965 0.10254533 0.31794795 0.29141095 -0.09123756 0.062226206 0.064886145 0.23203309 0.12106254 0.36789623 0.37220633 0.17204107 -0.23164518 -0.07800053 0.116233274 -0.061688703 -0.07720919 0.07029027 0.1290633 0.22452542 -0.25228032 -0.6526421 -0.2607495 0.034281388 -0.07993353 -0.083607 -0.055564143 -0.23052785 -0.093766235 -0.028298724 -0.079969615 -0.5120239 -0.029316626 -0.18826051 0.18364686 0.12488975 -0.0009496706 0.31426132 0.113466576 0.3170425 -0.0016818824 0.432415 0.1996144 -0.11581308 0.5355491 0.13606182 0.39120364 0.73642087 -0.16821526 -0.06440252 0.09876251 0.28766274 0.26516506 0.683221 -0.081205085 0.33144084 0.29674384 -0.035583027 0.28132206 -0.041513607 0.41414896 -0.011422998 0.1392588 -0.2715999 0.48515272
! 0.5614552 0.24684437 -0.4559572 0.09898669 0.29548562 -0.49800444 0.19424741 0.12604547 -0.2630412 -0.26461124 0.24148412 0.017294563 0.24221806 -0.13198853 0.30775452 -0.056357853 0.4258364 -0.4115717 0.64500505 0.047165845 0.09513715 0.3720708 0.0070257327 0.060998023 -0.28763524 -0.09977386 -0.37589264 0.23449303 0.006663419 0.057465024 -0.34448233 0.113392 -0.06343889 0.0018159618 -0.19701435 0.020400109 0.110721454 0.29971972 0.2524737 -0.092065245 0.066754796 0.080567464 0.23824966 0.09691785 0.36668426 0.36574224 0.16997981 -0.22506161 -0.07468397 0.101546004 -0.060935423 -0.06082697 0.065741524 0.10638882 0.21487004 -0.24105202 -0.60637754 -0.24590975 0.03744005 -0.105356686 -0.055153105 -0.069690675 -0.2430373 -0.08563693 -0.033389997 -0.0832934 -0.4777199 -0.024946295 -0.18806198 0.17407998 0.12861158 -0.006545699 0.3194384 0.10159796 0.300416 0.0006147835 0.40190965 0.18460813 -0.12824076 0.5167027 0.12940602 0.38179928 0.6871371 -0.15418087 -0.08449229 0.108906224 0.28253844 0.27581638 0.64767396 -0.06818888 0.32812497 0.27440202 -0.04944134 0.28408125 -0.04555501 0.40041697 0.0033491603 0.13070391 -0.26419088 0.4760344
مدل 0.6165018 0.29109395 -0.53733313 0.11842464 0.3322068 -0.56291676 0.21144809 0.13408133 -0.2806069 -0.2981139 0.26912338 0.023762017 0.27285582 -0.12857416 0.3399518 -0.05742668 0.4730731 -0.47108573 0.70835257 0.056791987 0.09887821 0.39308026 0.019667687 0.07189952 -0.31101248 -0.1123033 -0.41702783 0.24941532 -0.00011967471 0.06081607 -0.3606214 0.12889294 -0.07042447 0.0231569 -0.2228073 0.032121964 0.11746663 0.3403663 0.28981614 -0.10466859 0.076649375 0.11485685 0.27438748 0.107946806 0.41875124 0.40765542 0.21000049 -0.25380445 -0.05403565 0.104069896 -0.041393723 -0.05158178 0.05713607 0.07729857 0.24479185 -0.25823689 -0.65759474 -0.29147598 0.039997417 -0.16535264 -0.039088298 -0.08948741 -0.28828916 -0.09746073 -0.03719801 -0.07168938 -0.507132 -0.013355797 -0.22686538 0.19676667 0.13479234 0.0051743444 0.3564637 0.118302606 0.31870237 0.0155905355 0.44185036 0.20496275 -0.15060017 0.5845141 0.15772577 0.41347995 0.77047145 -0.17431208 -0.11746479 0.1418073 0.3176939 0.3284396 0.71037954 -0.07810915 0.35952735 0.30572653 -0.045391124 0.30723673 -0.076461904 0.45830587 0.031023242 0.14442018 -0.28797022 0.5300347
قرار 0.6525512 0.3041547 -0.59070575 0.15489359 0.38958207 -0.6115818 0.24079873 0.15237893 -0.29795855 -0.3379102 0.2943802 0.018831806 0.2854266 -0.13379659 0.36112338 -0.054209128 0.5005837 -0.5083533 0.74372065 0.05515922 0.09997645 0.38481128 0.04563083 0.07265902 -0.33733445 -0.12520483 -0.43858725 0.25559163 -0.011940439 0.061650537 -0.3422981 0.13204871 -0.10466134 0.059519947 -0.22907715 0.048749465 0.13632748 0.36186966 0.30835652 -0.12486812 0.10427816 0.14201036 0.29631418 0.10921547 0.47298583 0.4520244 0.23034763 -0.27101132 -0.03643555 0.10379859 -0.042887513 -0.050519522 0.055564303 0.049611453 0.26492903 -0.27532753 -0.687498 -0.32390514 0.037310887 -0.19435945 -0.0021860183 -0.10204646 -0.32151508 -0.10803744 -0.041005246 -0.08456472 -0.55104923 -0.019637063 -0.26614815 0.22260842 0.16138826 -0.0012987781 0.4154333 0.14006913 0.31649286 0.035600893 0.45495105 0.22500506 -0.17987187 0.6240133 0.17039038 0.4596243 0.81867635 -0.18481639 -0.16754934 0.15188631 0.3446717 0.3610346 0.7517797 -0.09951749 0.40021765 0.31798372 -0.05014674 0.32817125 -0.088305436 0.5263425 0.044362076 0.1624019 -0.3028651 0.5638725
نسبت 0.63868004 0.30021825 -0.54015684 0.12681794 0.35121974 -0.5911405 0.23112082 0.13975635 -0.305321 -0.3075581 0.27738622 0.030420499 0.27555424 -0.14483644 0.3575722 -0.06359962 0.49445862 -0.47950208 0.7325025 0.043488145 0.09511575 0.4181368 0.0031430195 0.084264055 -0.3390681 -0.11313289 -0.43540478 0.2716771 0.010989958 0.06912079 -0.39391148 0.12761293 -0.08188234 0.022525031 -0.23892558 0.036080983 0.120078966 0.35102832 0.30162802 -0.11170167 0.07531044 0.10786422 0.27529392 0.11293645 0.43474802 0.42069545 0.21434185 -0.26399106 -0.071593024 0.122504525 -0.049995415 -0.06718631 0.06509771 0.10387775 0.25343543 -0.28381702 -0.7023814 -0.28888276 0.03483433 -0.15534635 -0.05433483 -0.08093376 -0.3028538 -0.10225444 -0.045688305 -0.07971624 -0.5494323 -0.029381627 -0.23104821 0.20049064 0.1446053 -0.004362337 0.37255314 0.12778923 0.3516346 0.008586128 0.47099984 0.21065956 -0.14772035 0.6077389 0.16378686 0.4332826 0.8103686 -0.18518086 -0.10246583 0.13793556 0.33117405 0.3278336 0.75827795 -0.08683055 0.38476998 0.32248852 -0.048906017 0.3217887 -0.0706903 0.47090957 0.012741303 0.16565865 -0.3002398 0.55880463
يه 0.6109326 0.26226255 -0.47771987 0.08543499 0.3009452 -0.53227806 0.20632507 0.13979234 -0.2896356 -0.27481654 0.2602694 0.02791267 0.2678505 -0.15178394 0.33905733 -0.074090905 0.4540169 -0.44282696 0.7043637 0.047598135 0.10043002 0.42347196 -0.015285866 0.07699566 -0.3099892 -0.121929795 -0.4079226 0.25978148 0.023411805 0.058888413 -0.4005248 0.12913631 -0.048262488 -0.01179971 -0.21517806 0.01166938 0.11068337 0.32784104 0.27851784 -0.10346318 0.054745886 0.071309626 0.25752872 0.11735322 0.3961372 0.3997047 0.17690597 -0.25550237 -0.092458054 0.11539786 -0.06865565 -0.074616924 0.07514563 0.13556024 0.2315999 -0.274247 -0.67891425 -0.25127453 0.04555163 -0.09453139 -0.07247186 -0.06702485 -0.24525361 -0.08471472 -0.039727032 -0.08852317 -0.5224239 -0.020747272 -0.19447027 0.18710521 0.13214985 -0.011229555 0.32654843 0.113947034 0.34951994 -0.010248019 0.45003957 0.19239512 -0.12162363 0.5473576 0.13125667 0.41602227 0.7497361 -0.17731106 -0.062234115 0.10678615 0.2970332 0.27992368 0.7140014 -0.07150013 0.34824842 0.3082458 -0.0495501 0.3087285 -0.040600263 0.42023262 -0.006035976 0.146249 -0.27864692 0.5179929
ميشه 0.62232685 0.27004197 -0.49078766 0.103063315 0.32201913 -0.5451605 0.20632176 0.1504369 -0.29414964 -0.28519446 0.2586155 0.03186083 0.2710285 -0.14825611 0.35228282 -0.07176778 0.4678026 -0.45880562 0.711216 0.042325266 0.10830624 0.41833162 -0.008155458 0.06940525 -0.3122309 -0.11669194 -0.41022706 0.265399 0.007762365 0.05602451 -0.39600798 0.13509618 -0.061475843 -0.009360843 -0.21438213 0.02404527 0.115232535 0.3336075 0.28510717 -0.114806786 0.06480628 0.08636298 0.256749 0.112770036 0.40708187 0.40284452 0.18142447 -0.25820354 -0.08218624 0.11731372 -0.071331084 -0.06952581 0.07573689 0.13296653 0.23347053 -0.26896483 -0.68382585 -0.2587391 0.046270646 -0.09934761 -0.062223166 -0.07216236 -0.26090574 -0.096657805 -0.036296442 -0.08793203 -0.539319 -0.020011945 -0.20022614 0.19358194 0.13018619 -0.016429784 0.34444216 0.11014995 0.34240687 0.0033133007 0.4537292 0.20273344 -0.14005908 0.5662557 0.13854231 0.42560256 0.76823217 -0.17055185 -0.071680434 0.10959829 0.30972317 0.29022175 0.71525985 -0.07708628 0.3586203 0.31404597 -0.05334257 0.3051328 -0.042082164 0.4375737 0.006957618 0.15478425 -0.28905645 0.52766615
بازي 0.5782058 0.2459451 -0.4636884 0.083084896 0.28669822 -0.5143596 0.1975971 0.11667786 -0.27241156 -0.26625553 0.23643738 0.029609557 0.25413102 -0.15129095 0.3335605 -0.0556618 0.4391704 -0.4342682 0.6654275 0.044967886 0.10080197 0.38661206 -0.0047116773 0.06276574 -0.28794533 -0.1075173 -0.3940459 0.2538088 0.01928259 0.057793546 -0.38235664 0.12106526 -0.04806192 -0.023276368 -0.20608358 0.02465855 0.11621279 0.31277534 0.26041093 -0.09143572 0.06740889 0.07456754 0.24737002 0.11199829 0.37225062 0.385721 0.17531171 -0.23462045 -0.09690762 0.11381296 -0.07716614 -0.064718395 0.0787662 0.13148929 0.20581216 -0.25770524 -0.6312044 -0.24539217 0.03301341 -0.08638637 -0.072681494 -0.08124925 -0.25179747 -0.087909274 -0.046301447 -0.08455308 -0.5044594 -0.029605284 -0.17780441 0.19049655 0.11188633 -0.008974753 0.30613998 0.09509506 0.32475245 -0.0054733143 0.42473924 0.17986351 -0.12713508 0.53234 0.12902193 0.39800876 0.7040435 -0.15369746 -0.05504819 0.10878653 0.29339778 0.2778009 0.6646709 -0.075878985 0.3367036 0.2847672 -0.04845509 0.28468132 -0.031254668 0.39964843 -0.005624499 0.13437207 -0.264187 0.48618212
نمایش 0.53218406 0.29260555 -0.49950486 0.13687742 0.34178218 -0.5183186 0.17772779 0.14764026 -0.22852735 -0.31096816 0.2473941 0.0044888193 0.21679357 -0.11545225 0.29254875 -0.043770503 0.40001413 -0.42279926 0.6065562 0.08205641 0.07022673 0.28224725 0.09046361 0.045855053 -0.2813824 -0.09304975 -0.33858037 0.21255386 -0.043284226 0.029690277 -0.21997802 0.1218377 -0.08322974 0.089407995 -0.20632467 0.07424163 0.089179836 0.31664342 0.29289645 -0.085145794 0.074346505 0.15227684 0.23045638 0.08906584 0.42204446 0.35369846 0.1930296 -0.22396845 0.0054792464 0.04823727 0.0042375512 -0.020500412 0.011860197 -0.026500763 0.22864431 -0.19261783 -0.57272273 -0.3000565 0.025279308 -0.21992356 -0.006796618 -0.08831185 -0.26143417 -0.1177227 0.0022878158 -0.079133235 -0.41015503 -0.017327765 -0.2574697 0.17767736 0.11694922 0.019316975 0.31903926 0.13182633 0.20198463 0.08556138 0.35546207 0.20304309 -0.13780567 0.5183461 0.14072508 0.37795028 0.6923393 -0.11386296 -0.1986212 0.14586262 0.2952108 0.30365068 0.59878427 -0.093637116 0.34544948 0.27681693 0.001850986 0.2560123 -0.086965606 0.4919705 0.026600262 0.082436 -0.26500586 0.4532764
بسيار 0.5893894 0.25847524 -0.4704336 0.1004828 0.29553723 -0.5179743 0.19450757 0.14489888 -0.26721385 -0.26373336 0.24934936 0.035978034 0.25769573 -0.14943734 0.3284207 -0.06610735 0.4400688 -0.43520385 0.6673623 0.053427495 0.1063661 0.39170736 -0.014593911 0.06557253 -0.29572365 -0.12002564 -0.39300644 0.25334308 0.01724871 0.062461115 -0.37434423 0.12629418 -0.06157926 -0.0068345624 -0.21419679 0.027631186 0.10831481 0.3105522 0.2745612 -0.09940486 0.06066013 0.074170135 0.2343273 0.1146618 0.3714801 0.37430844 0.17084579 -0.24360162 -0.0761718 0.11674793 -0.06494339 -0.07083583 0.07409087 0.116676584 0.22450763 -0.26002055 -0.65524954 -0.248961 0.041560084 -0.0864838 -0.0760001 -0.058984853 -0.24030007 -0.086712904 -0.027811784 -0.08035143 -0.51311123 -0.021541236 -0.19034347 0.17890595 0.13133886 -0.005908335 0.32076725 0.10434409 0.32723594 0.0033883299 0.42294723 0.19990407 -0.12573746 0.5330317 0.13100073 0.40571913 0.7289798 -0.16979147 -0.06356859 0.1091652 0.29314646 0.2758657 0.68501186 -0.07453346 0.34451374 0.2926559 -0.038102206 0.28626025 -0.03937523 0.4226276 -0.007457761 0.14666489 -0.26864842 0.49139136
کیفیت 0.60984904 0.30288434 -0.5766091 0.16134295 0.37462792 -0.59043247 0.23119324 0.1491214 -0.28720188 -0.32325777 0.28258443 0.013031066 0.27670112 -0.11158517 0.33687404 -0.046208072 0.45636833 -0.4826142 0.69357246 0.05209056 0.09242526 0.35116106 0.065603375 0.0759015 -0.32111013 -0.11419629 -0.39722735 0.2321947 -0.024777703 0.052641224 -0.30101645 0.116023995 -0.114161626 0.07471474 -0.20766704 0.044002954 0.118005596 0.33180124 0.3062531 -0.10320089 0.09814563 0.14611134 0.281382 0.10387658 0.44414523 0.41990212 0.21421868 -0.2529503 -0.019447634 0.0849367 -0.031337503 -0.044548757 0.03991603 0.016135324 0.25179616 -0.24216925 -0.6395501 -0.31921282 0.029361356 -0.21215242 0.01701588 -0.09501585 -0.31142402 -0.100813724 -0.038070824 -0.07655663 -0.5057651 -0.01240809 -0.26541388 0.20044681 0.16497605 0.015941335 0.39756766 0.1359474 0.26790717 0.052485604 0.41962436 0.22482917 -0.17099269 0.60054713 0.17035551 0.42751828 0.7765561 -0.17185329 -0.18737411 0.16490142 0.33548135 0.34750316 0.7111894 -0.09615649 0.3733759 0.29463667 -0.05527133 0.2977062 -0.106378905 0.50639933 0.052250206 0.14095876 -0.28865796 0.5284746
اي 0.59200454 0.26033524 -0.47898898 0.07976732 0.29896188 -0.5184454 0.2044385 0.13640511 -0.28066173 -0.25026795 0.26715064 0.029927084 0.23540913 -0.13791433 0.3221133 -0.06113769 0.43858632 -0.42432326 0.6772432 0.06280546 0.087846704 0.4043425 -0.025747528 0.08651001 -0.28647456 -0.1217868 -0.4022908 0.25064144 0.030792942 0.047666594 -0.37919822 0.124107055 -0.042430297 -0.024555353 -0.21344605 -0.0012366456 0.11186751 0.30406913 0.27334115 -0.1132648 0.04124253 0.08139322 0.2469905 0.09383606 0.3921897 0.3856533 0.16404633 -0.24675585 -0.09527238 0.10087008 -0.07902834 -0.06858309 0.0587129 0.10698891 0.22770366 -0.25758865 -0.6772011 -0.22307 0.032702062 -0.095790744 -0.06992961 -0.07928465 -0.23653823 -0.08091352 -0.031192526 -0.08652055 -0.5085056 -0.021544658 -0.18203415 0.16726702 0.11410118 -0.013709563 0.33655283 0.1262827 0.33904192 0.0021832823 0.44553703 0.17351115 -0.11796298 0.5245326 0.123990566 0.40659198 0.7237206 -0.16162644 -0.057877094 0.110975824 0.28137115 0.27167168 0.68719834 -0.06934188 0.33293667 0.30661663 -0.030888073 0.29998598 -0.056485094 0.42029846 0.0073670372 0.12472422 -0.27026263 0.51121503
نيست 0.5735218 0.25194174 -0.4622528 0.096836604 0.2967575 -0.51061404 0.19346073 0.1315662 -0.268701 -0.26350707 0.24400671 0.02725897 0.25292107 -0.14355066 0.31167927 -0.06494452 0.43196446 -0.42007795 0.66129667 0.046602182 0.10242891 0.38750863 -0.012755107 0.06734635 -0.28937617 -0.1180406 -0.37663847 0.2444002 0.018792314 0.055247463 -0.37931678 0.12380253 -0.05221374 -0.014468673 -0.20305324 0.02125841 0.10870247 0.3066177 0.2700087 -0.10092243 0.05132116 0.07325387 0.23697312 0.106649294 0.3718635 0.37240666 0.16967984 -0.23750491 -0.07239164 0.1097183 -0.064853154 -0.074197136 0.07291825 0.12633066 0.22002403 -0.24962129 -0.6348152 -0.23986234 0.04037763 -0.08304974 -0.07473471 -0.06391011 -0.24096185 -0.080801696 -0.03787247 -0.084127076 -0.4978704 -0.02304967 -0.18911973 0.18354385 0.12196611 -0.012157912 0.3150554 0.09842751 0.31414208 -0.0046676802 0.41752607 0.1782012 -0.11686879 0.5148544 0.12229381 0.38104078 0.7042792 -0.16186893 -0.059614 0.09691707 0.28338742 0.27159917 0.66511315 -0.06810164 0.33042434 0.28698185 -0.043265074 0.28302035 -0.036393955 0.39799705 -0.0028259044 0.1351053 -0.2680557 0.48216087
دستگاه 0.6207554 0.2861421 -0.55060446 0.12743902 0.35855892 -0.5809999 0.22734374 0.14981487 -0.28348422 -0.31216604 0.27116466 0.012686322 0.27181804 -0.13261932 0.35021538 -0.055283893 0.47168013 -0.47744146 0.71371686 0.054915264 0.10416097 0.3877246 0.02941144 0.07374736 -0.31783065 -0.11707163 -0.42078978 0.25171742 -0.007772588 0.058677386 -0.3515978 0.13034706 -0.079548135 0.03487154 -0.21807711 0.037277576 0.127703 0.33913344 0.2908259 -0.11239395 0.08924966 0.1271127 0.27554268 0.10832293 0.43408564 0.4231672 0.21601942 -0.25431123 -0.06436841 0.099635266 -0.056840498 -0.055449076 0.060741905 0.07291016 0.24566618 -0.27063194 -0.6727619 -0.29584986 0.034650803 -0.15827684 -0.028798101 -0.08856096 -0.28971168 -0.09921753 -0.037593313 -0.08511589 -0.52436537 -0.020731853 -0.23876952 0.20631154 0.14542648 0.004812046 0.37178642 0.12490706 0.3197625 0.025018934 0.44677547 0.22250122 -0.1585288 0.58799434 0.1570805 0.43378308 0.78173107 -0.17548342 -0.124471605 0.14647277 0.32699364 0.3366253 0.73014176 -0.09340101 0.3786009 0.31267998 -0.04742464 0.31183928 -0.07859127 0.48839185 0.021767512 0.15079606 -0.29005167 0.53863615
سرعت 0.60080385 0.27139315 -0.525561 0.12761754 0.33465564 -0.5474393 0.2058057 0.13473879 -0.27635917 -0.29287273 0.27163813 0.020382797 0.26939997 -0.124010146 0.32282245 -0.061285216 0.44853374 -0.46065965 0.67415726 0.04912968 0.09799203 0.38229346 0.02276919 0.07258 -0.3038481 -0.11758049 -0.39275745 0.2557362 -0.0035771532 0.054260883 -0.3406812 0.12031453 -0.085454464 0.023013182 -0.20677818 0.032213464 0.110798165 0.31957012 0.28694692 -0.10685699 0.08152946 0.10034957 0.26351798 0.10051818 0.41729692 0.39787295 0.2001878 -0.23948842 -0.05761559 0.10100499 -0.050811987 -0.05731485 0.06065003 0.08292774 0.24668866 -0.2520104 -0.63936657 -0.2808215 0.031679135 -0.14717115 -0.02445498 -0.07536419 -0.27793312 -0.10101725 -0.037928045 -0.088473625 -0.514879 -0.025477797 -0.2197866 0.19904493 0.14712335 0.0002771213 0.35978776 0.11354544 0.30724657 0.017905572 0.43268812 0.194345 -0.1360582 0.5546565 0.15365028 0.4104581 0.74982107 -0.17117263 -0.11381554 0.12557139 0.30732214 0.3091172 0.6874787 -0.081091896 0.35488126 0.30000195 -0.047520492 0.2905727 -0.069688044 0.4594584 0.025673222 0.1405441 -0.27673724 0.5087609
عکس 0.6003346 0.27586338 -0.51850104 0.12687542 0.34126207 -0.563057 0.21517451 0.1355886 -0.27794635 -0.29882988 0.26482204 0.025209231 0.275519 -0.13177465 0.32803702 -0.055056687 0.45939648 -0.45835578 0.6869633 0.04603934 0.086187 0.3836587 0.015935972 0.07062251 -0.31512877 -0.12443389 -0.4018614 0.24014568 -0.0025165738 0.053260148 -0.3700552 0.121964075 -0.0860645 0.028468031 -0.21909551 0.04216596 0.11119474 0.34009838 0.29684946 -0.11322204 0.078594185 0.11340745 0.25847328 0.11248532 0.41504478 0.40053377 0.2010697 -0.24612638 -0.05110794 0.10516781 -0.047236152 -0.058701657 0.057997137 0.08009911 0.24894921 -0.26009965 -0.6505802 -0.2894587 0.04120646 -0.13866144 -0.038444623 -0.075457856 -0.271866 -0.103819326 -0.037281975 -0.0806402 -0.5280026 -0.023632614 -0.22425926 0.20423491 0.14847489 0.0009974313 0.35858467 0.12200642 0.31827685 0.01819825 0.43769643 0.21565032 -0.14778043 0.5688705 0.15753987 0.41432938 0.75616837 -0.17779125 -0.116112754 0.12159447 0.30611506 0.31203493 0.7136463 -0.095077135 0.35033613 0.3008434 -0.05156664 0.3062216 -0.06423424 0.455717 0.01654502 0.15209414 -0.2796917 0.5162697
اپل 0.59780306 0.27173662 -0.50833833 0.11541008 0.3308456 -0.53588176 0.20213637 0.13135853 -0.2838965 -0.28589094 0.2588504 0.015413911 0.26650667 -0.14845325 0.34363163 -0.06338012 0.45827365 -0.45695424 0.696877 0.06313107 0.098719254 0.39697382 0.008449769 0.06934107 -0.31459853 -0.115244515 -0.39400586 0.26002806 0.011438705 0.06353944 -0.36349136 0.12982903 -0.05613541 0.012869065 -0.21569338 0.019683553 0.12094794 0.3214292 0.27431548 -0.1078077 0.07527359 0.09651933 0.2690555 0.10145119 0.41229415 0.40833303 0.18926744 -0.24971211 -0.07222151 0.10841261 -0.05548229 -0.06486203 0.06310875 0.10459797 0.23855627 -0.25490016 -0.6597111 -0.25869405 0.033315457 -0.12759921 -0.05406568 -0.08902684 -0.27149272 -0.096876785 -0.04643056 -0.08740418 -0.51595277 -0.014611782 -0.21450546 0.19179232 0.13575923 -0.009467496 0.34862742 0.12284474 0.31562835 0.0027227222 0.43253547 0.19563323 -0.13505082 0.5578858 0.13929066 0.40857506 0.7475101 -0.15964274 -0.0927867 0.12349023 0.31195948 0.29575926 0.69912463 -0.07312301 0.3647981 0.29616326 -0.053087916 0.3045918 -0.05679411 0.43289968 0.01418421 0.13255651 -0.27722993 0.5235886
قيمت 0.5778168 0.24379076 -0.45539954 0.07793368 0.28210467 -0.50299704 0.19267014 0.13552363 -0.27624097 -0.2589724 0.24456485 0.036759797 0.2487056 -0.13769028 0.3216652 -0.063830785 0.42840412 -0.41981402 0.6598165 0.04596333 0.09388783 0.40812227 -0.021370882 0.069773376 -0.2990647 -0.11937933 -0.38716963 0.2522414 0.013111758 0.06308751 -0.38650262 0.12639418 -0.042135768 -0.013756733 -0.20985033 0.008584348 0.10537657 0.31321746 0.26480693 -0.09486736 0.049124073 0.06760905 0.2392633 0.105865456 0.36311468 0.37583253 0.17167236 -0.24365081 -0.089416675 0.115108944 -0.06302227 -0.0700851 0.07215236 0.13785484 0.21525581 -0.26379248 -0.6386212 -0.24005346 0.046340607 -0.077722885 -0.07796095 -0.059366394 -0.22994368 -0.08698057 -0.038929243 -0.07552546 -0.49875712 -0.03185518 -0.17670357 0.17344128 0.122775584 -0.004702707 0.31049052 0.10351997 0.33065578 -0.016613167 0.42710423 0.18796746 -0.11493514 0.526975 0.12447261 0.39560264 0.71428627 -0.15923253 -0.05462583 0.09899664 0.2915845 0.2680219 0.6702835 -0.07356865 0.3309576 0.28726548 -0.05001932 0.28546906 -0.037338875 0.38741672 -0.008291128 0.14120115 -0.2631292 0.48780492
می‌باشد 0.6080972 0.29029018 -0.5656416 0.1474589 0.3676646 -0.58315384 0.23197044 0.14521532 -0.28750575 -0.32410067 0.2814762 0.006966491 0.27268678 -0.123483956 0.339829 -0.048071444 0.46513 -0.47617695 0.69635284 0.060014825 0.09490361 0.36495432 0.049444627 0.07313386 -0.32241914 -0.114615664 -0.40762502 0.24228404 -0.019869637 0.061347365 -0.31242663 0.12762097 -0.10068957 0.06674126 -0.22376001 0.048728757 0.12222038 0.3311808 0.29231775 -0.10560421 0.10327324 0.13990495 0.27520186 0.094346 0.44995075 0.42134705 0.22174932 -0.2504191 -0.04068643 0.08516228 -0.02932975 -0.054955833 0.05172211 0.031031372 0.26321897 -0.25317442 -0.6410135 -0.31752184 0.022209093 -0.20226258 0.0024785262 -0.09969261 -0.3064427 -0.10963562 -0.039292082 -0.07832236 -0.51355505 -0.021954304 -0.25664333 0.20753828 0.14872688 0.006107471 0.3873795 0.12808253 0.28548408 0.042983163 0.42833534 0.21185769 -0.16946559 0.59062207 0.16866177 0.43061346 0.7728882 -0.16975826 -0.16301215 0.15152326 0.3249453 0.3409105 0.7082387 -0.09491703 0.37855318 0.29391623 -0.05332527 0.3065423 -0.09689341 0.4974131 0.04260423 0.15170085 -0.28086573 0.5332142
2 0.65122014 0.29620636 -0.5477883 0.11870492 0.3521066 -0.5879675 0.21793962 0.14452752 -0.30727285 -0.30746344 0.2818742 0.0330741 0.27792165 -0.1401126 0.3626441 -0.06213115 0.48311815 -0.49314567 0.7392845 0.05966151 0.10860179 0.42282644 0.017475164 0.06981476 -0.3329431 -0.12798767 -0.43933588 0.2685447 0.0004847714 0.053663887 -0.38922998 0.13920534 -0.06703143 0.0073183 -0.23468721 0.035879362 0.12596734 0.3555821 0.30765665 -0.12384407 0.07973145 0.10442111 0.28921267 0.11250274 0.4394656 0.4311489 0.21270685 -0.26917934 -0.065716214 0.11225651 -0.062678754 -0.06373819 0.06633484 0.10370886 0.25665492 -0.2758571 -0.7098358 -0.29835898 0.046305183 -0.14500296 -0.04951639 -0.09078661 -0.29571036 -0.091427915 -0.030832006 -0.09351512 -0.5590737 -0.013655088 -0.22242466 0.2072472 0.13995896 0.002068297 0.37712926 0.1328276 0.34306294 0.00824118 0.47351193 0.20910911 -0.15787849 0.6019418 0.14642052 0.44787028 0.8109061 -0.17973608 -0.10587483 0.13956259 0.32871947 0.32520404 0.74780464 -0.08245563 0.3838736 0.33334416 -0.04684086 0.33161283 -0.061948393 0.48067182 0.015679492 0.15412681 -0.29688838 0.5512001
نداره 0.6029187 0.26941538 -0.47737628 0.09188418 0.30605683 -0.5418346 0.20784332 0.13849984 -0.27513206 -0.28248203 0.24361321 0.03492583 0.26324117 -0.14807115 0.33506307 -0.0649458 0.45296964 -0.44827437 0.69787174 0.054047175 0.10660812 0.40771466 -0.015381766 0.073779926 -0.29606894 -0.114553705 -0.40764543 0.24844645 0.00769417 0.05608018 -0.39680874 0.123588465 -0.05832226 -0.008427712 -0.21205585 0.024799502 0.107281454 0.33112743 0.28513694 -0.09810796 0.05635673 0.08401328 0.25025865 0.118681684 0.3954855 0.39431107 0.1830941 -0.24123828 -0.07558211 0.118508585 -0.059070032 -0.06722689 0.069137335 0.13329299 0.23569386 -0.26926988 -0.66669893 -0.26202223 0.030320013 -0.09181649 -0.061574154 -0.06641419 -0.24536358 -0.08238977 -0.041975696 -0.08007249 -0.5176342 -0.026923208 -0.18931392 0.18642831 0.1295229 -0.0023837683 0.3399246 0.110656716 0.32862538 -0.009626839 0.4304494 0.19615868 -0.12132439 0.5568655 0.12524776 0.41462502 0.74598765 -0.17874594 -0.062830225 0.11107565 0.29375872 0.27724126 0.7088317 -0.08689283 0.34133133 0.31162122 -0.05209583 0.29269704 -0.04730378 0.42986828 -0.004013409 0.15311411 -0.27671444 0.5035621
بايد 0.59652954 0.26491866 -0.46731678 0.09253544 0.3050662 -0.5151414 0.19665721 0.13909881 -0.2718604 -0.26259282 0.25374967 0.03318213 0.26179522 -0.14544304 0.33368382 -0.06798537 0.4486448 -0.44012955 0.6823672 0.03788428 0.107777394 0.41270277 -0.013894138 0.07547078 -0.30635798 -0.114488386 -0.40077084 0.25323883 0.02163712 0.05764194 -0.3907877 0.12614259 -0.042886388 -0.015008002 -0.21138355 0.018655775 0.109130934 0.31681344 0.2746738 -0.110625476 0.0631491 0.077868626 0.25269383 0.1049441 0.38207456 0.38924587 0.17316772 -0.24759305 -0.10066334 0.12314654 -0.07326895 -0.07056376 0.076743275 0.13315563 0.21599245 -0.261855 -0.6601269 -0.24991684 0.045711774 -0.08897855 -0.07667357 -0.07759294 -0.24741238 -0.08640357 -0.046599682 -0.084314786 -0.5125435 -0.029568437 -0.18734974 0.18496181 0.12797272 -0.016205167 0.3231991 0.106994316 0.3414991 -0.011296309 0.43907687 0.18767093 -0.12259931 0.53902996 0.13066684 0.4040298 0.73676014 -0.17320637 -0.05540447 0.10425603 0.30009907 0.26614738 0.68692946 -0.071356304 0.34149987 0.29796955 -0.050833385 0.29650104 -0.033656627 0.4027562 -0.002636597 0.1512324 -0.28039187 0.51032096
برنامه 0.5950831 0.27209562 -0.5014251 0.11689282 0.31836054 -0.537998 0.21061054 0.12821269 -0.27588147 -0.27893505 0.25524187 0.016110582 0.25589758 -0.14288233 0.3348082 -0.06005832 0.4593675 -0.45180824 0.678786 0.062012225 0.09681743 0.37664872 0.014209518 0.06960283 -0.3052378 -0.10965331 -0.4017649 0.25070268 -0.005927851 0.06342573 -0.34796262 0.114097916 -0.06779192 0.01206745 -0.2162151 0.034090586 0.1158852 0.3228484 0.27711055 -0.10229383 0.0776807 0.09268518 0.2540286 0.10081211 0.407846 0.39773613 0.18798882 -0.23368426 -0.0631363 0.10021679 -0.06491772 -0.06317068 0.05785321 0.09328631 0.22759616 -0.24970113 -0.6475942 -0.27050275 0.03426877 -0.13420244 -0.049321767 -0.08451979 -0.27681914 -0.10026543 -0.04717527 -0.09482036 -0.5108412 -0.020326668 -0.20839447 0.2018828 0.14234872 -0.012351193 0.34748453 0.1181073 0.31371742 0.016750367 0.4218766 0.19023737 -0.14618586 0.5490225 0.1347296 0.41249904 0.72932184 -0.1540133 -0.09653113 0.12891026 0.30859104 0.29589486 0.6839103 -0.07159634 0.3547031 0.29336327 -0.043258626 0.2983555 -0.050473392 0.44056073 0.013215723 0.13735323 -0.28445336 0.5169055
ي 0.5816117 0.25309822 -0.4719796 0.10423489 0.30366594 -0.5128828 0.19985792 0.1353861 -0.27132756 -0.2678038 0.2562501 0.021608334 0.24179323 -0.14498472 0.31840682 -0.06068438 0.44045335 -0.4358894 0.6646662 0.04993928 0.09321054 0.38534322 0.00043194013 0.06934855 -0.2926249 -0.10842978 -0.38843554 0.25663915 0.010411521 0.051573157 -0.36732525 0.12118778 -0.0485502 -0.008757754 -0.21337138 0.02527329 0.116137326 0.30804515 0.2704923 -0.10608689 0.052900203 0.08112628 0.24304907 0.108477876 0.3897571 0.38700393 0.1809541 -0.23773512 -0.07207116 0.111438416 -0.064455755 -0.063930124 0.062163997 0.10054776 0.22065793 -0.25156936 -0.64555496 -0.23980826 0.034788165 -0.11003449 -0.069664724 -0.07675788 -0.24929897 -0.08554469 -0.03361138 -0.0903872 -0.49481997 -0.022973558 -0.18967001 0.18525817 0.11445299 -0.008730519 0.31825048 0.108364396 0.31960863 0.012855134 0.42075604 0.18013112 -0.1252042 0.53211206 0.12901215 0.39256376 0.71523404 -0.1617633 -0.071596384 0.11122564 0.28800023 0.27387875 0.66606724 -0.06547816 0.3362152 0.30385318 -0.0411245 0.29758984 -0.046874512 0.42416927 0.0009883973 0.12442715 -0.27115837 0.5004636
عالي 0.51647055 0.23190285 -0.40499455 0.08364052 0.25813875 -0.45434916 0.17276971 0.12792596 -0.23403603 -0.23689534 0.21643692 0.0368142 0.22049162 -0.13231903 0.28439653 -0.06115093 0.38222027 -0.37650073 0.59454596 0.039833352 0.08551536 0.35819554 -0.018157369 0.058283467 -0.25862053 -0.10496616 -0.3470839 0.22006488 0.01573702 0.052314628 -0.3431662 0.10699766 -0.05594851 -0.0053604958 -0.18897411 0.022003317 0.087738134 0.2839963 0.25113565 -0.09514285 0.05358607 0.06440454 0.2166662 0.09803484 0.3233537 0.336844 0.14779945 -0.21001735 -0.07403691 0.10659276 -0.058894824 -0.06299801 0.06598709 0.1130693 0.2002651 -0.22864485 -0.57502234 -0.2233595 0.04193007 -0.0751637 -0.06534557 -0.053372204 -0.21448214 -0.07955412 -0.023777843 -0.070801854 -0.45543668 -0.024213636 -0.16191712 0.15879142 0.11111742 -0.012164121 0.2728289 0.09822804 0.2895963 0.0027217905 0.37912163 0.174499 -0.11102803 0.4765222 0.1106551 0.35283896 0.64356273 -0.15197454 -0.054940946 0.089391045 0.25173655 0.23082191 0.6032251 -0.069026336 0.3004594 0.2553263 -0.03337319 0.25878567 -0.0401183 0.37036386 -0.005941903 0.13002145 -0.24282733 0.4360668
خريدم 0.5469178 0.24142128 -0.39906976 0.07212327 0.27245218 -0.46937442 0.17364442 0.14086363 -0.25468686 -0.24094196 0.23902786 0.05533953 0.2472243 -0.13623525 0.30451906 -0.07947091 0.3944138 -0.4055448 0.63566166 0.013287496 0.09267291 0.41429177 -0.034282856 0.07049369 -0.29743728 -0.12338234 -0.37742144 0.23074327 0.025457308 0.055128694 -0.3883753 0.12755169 -0.025266515 -0.012309164 -0.18782313 0.015296931 0.0969681 0.2940152 0.26247558 -0.10517105 0.03603596 0.068964995 0.24547826 0.09791659 0.34309122 0.35086197 0.15278536 -0.24722016 -0.10133716 0.115261145 -0.06663833 -0.064344995 0.0776432 0.14393476 0.20416202 -0.2661117 -0.62038314 -0.21756579 0.0569741 -0.06653429 -0.08910474 -0.054294474 -0.20604523 -0.079618834 -0.057846215 -0.051773265 -0.49620914 -0.021466153 -0.17503849 0.15640014 0.09476708 -0.03325987 0.28147465 0.10231104 0.33907157 -0.032736775 0.40956265 0.18800677 -0.11430987 0.52604675 0.12482977 0.38953894 0.7002799 -0.17861363 -0.023693899 0.09422834 0.26588005 0.23009883 0.66582566 -0.05596532 0.30477563 0.29314488 -0.064829774 0.25963828 -0.03628106 0.3604553 -0.014090917 0.14717796 -0.24648292 0.4668126
پردازنده 0.60532784 0.27352065 -0.52778625 0.1159125 0.32101205 -0.54199344 0.21882161 0.14025529 -0.2791618 -0.27176848 0.26973876 0.0225476 0.24383341 -0.13979545 0.32315964 -0.0481973 0.44649985 -0.4478402 0.68077725 0.071024835 0.08978557 0.38149154 0.012946797 0.08552002 -0.2974474 -0.118179366 -0.4072043 0.25063756 0.0037682224 0.051722508 -0.34493557 0.1177285 -0.05560179 0.011350028 -0.21642984 0.014629865 0.11458019 0.32360095 0.27933297 -0.11372721 0.061204087 0.10970972 0.26721784 0.09068554 0.41353527 0.3964921 0.18104449 -0.25681585 -0.059231564 0.09142649 -0.05609402 -0.053302594 0.042896878 0.06666932 0.2420536 -0.2476542 -0.67576575 -0.2502777 0.024700329 -0.14160974 -0.044622574 -0.091730386 -0.26677313 -0.08619583 -0.027824694 -0.084680535 -0.4979094 -0.001524477 -0.21187004 0.18096529 0.13008152 -0.0012686787 0.36450005 0.12999761 0.30414155 0.026214521 0.43702284 0.18063636 -0.14391652 0.53960973 0.1297343 0.41001508 0.7449573 -0.15634365 -0.10204361 0.1356744 0.29681507 0.30998468 0.68941706 -0.07638397 0.35585025 0.30396712 -0.030403797 0.30899656 -0.08205357 0.45464146 0.017812159 0.12046607 -0.28122368 0.5244511
عاليه 0.53900677 0.23669562 -0.42675152 0.089518726 0.28038278 -0.47548586 0.1813231 0.1287292 -0.25004998 -0.25395724 0.22568353 0.0305619 0.23215249 -0.1291017 0.30158323 -0.062323473 0.40330395 -0.3998547 0.6145097 0.040864363 0.08813121 0.36711815 -0.011343945 0.06954662 -0.27983582 -0.11168924 -0.35510632 0.2305563 0.00958398 0.048109658 -0.34987825 0.11717611 -0.057479836 -0.004189292 -0.19672477 0.025234303 0.103415735 0.29175395 0.25129303 -0.094071195 0.050893474 0.070352815 0.230253 0.10113956 0.34589273 0.34765533 0.16844954 -0.22457916 -0.073354945 0.11361026 -0.052564535 -0.068911135 0.06933405 0.11746234 0.201603 -0.24403712 -0.5934131 -0.2302048 0.033886943 -0.087995976 -0.06407298 -0.058997106 -0.22428495 -0.08291221 -0.042792965 -0.076543964 -0.4624076 -0.025779247 -0.17629772 0.1692511 0.12025782 -0.00903523 0.2964423 0.09595772 0.30206928 -0.0036923862 0.39736935 0.16979755 -0.112989984 0.491199 0.11646862 0.36136585 0.6738149 -0.1589864 -0.06484578 0.09994884 0.26453182 0.2538268 0.6320027 -0.07421524 0.30633873 0.278628 -0.042711325 0.2648416 -0.037236944 0.38457325 -0.0037099854 0.1323499 -0.24518244 0.45281675
خوبي 0.5360716 0.22866465 -0.42249805 0.07502038 0.26837245 -0.47362804 0.18074466 0.12018124 -0.25399813 -0.24526007 0.22644083 0.033574 0.24097829 -0.1379582 0.2877009 -0.07074677 0.4119605 -0.3902159 0.6200838 0.046863317 0.08831505 0.3744001 -0.02010281 0.06951541 -0.27065894 -0.112645365 -0.3610533 0.22648457 0.011847523 0.047644988 -0.36977574 0.10615598 -0.058345757 -0.017286591 -0.19189526 0.015180068 0.0989156 0.28939903 0.256809 -0.08315231 0.050493423 0.059456877 0.21104936 0.10559648 0.33913866 0.33905676 0.1621142 -0.20973326 -0.0706822 0.10941563 -0.06386723 -0.06483431 0.07406785 0.12762417 0.20726326 -0.24344625 -0.595882 -0.2300728 0.030786099 -0.078547515 -0.0719185 -0.05310759 -0.21903919 -0.07385513 -0.035033546 -0.08005879 -0.46796364 -0.029997174 -0.16519701 0.17138408 0.11775344 -0.006304073 0.2855265 0.096572906 0.31017837 -0.011326884 0.39710933 0.17466386 -0.10921721 0.4838578 0.11070067 0.36421004 0.6655282 -0.15773165 -0.050235648 0.09324133 0.2583961 0.25153846 0.6259237 -0.07375762 0.2970902 0.27261293 -0.04223697 0.27021623 -0.033855285 0.3629006 -0.010726164 0.1279168 -0.24637869 0.4571441
عامل 0.5700734 0.25071448 -0.48541036 0.14981115 0.32032394 -0.4711173 0.22771473 0.1484101 -0.2731217 -0.28027418 0.28133765 -0.01300876 0.26461014 -0.16070335 0.36088818 -0.02840603 0.4730023 -0.43463278 0.6473484 0.11697453 0.13995922 0.35859635 0.07124764 0.05078231 -0.34351116 -0.06755571 -0.3858597 0.2706727 -0.015454686 0.07428907 -0.2846654 0.100141115 -0.027065894 0.03969072 -0.26021048 0.008327019 0.12785971 0.3112564 0.2302472 -0.092857294 0.11015701 0.09248748 0.29202467 0.09179144 0.40948698 0.423271 0.20447916 -0.23780994 -0.06854797 0.1163686 -0.037588213 -0.095034935 0.08579441 0.06084327 0.2643223 -0.25032213 -0.63726234 -0.24368311 0.01385936 -0.15251978 -0.049293347 -0.11468537 -0.29291347 -0.085902035 -0.106033914 -0.13014396 -0.50360453 -0.026402408 -0.19275393 0.22385837 0.15231991 -0.024263127 0.3866364 0.094088286 0.32786858 -0.0076525854 0.4110092 0.19920303 -0.14744787 0.5243496 0.12592745 0.40031493 0.7429089 -0.13352866 -0.11445224 0.1529159 0.3093267 0.25895548 0.64016575 -0.03704089 0.40419683 0.2501783 -0.07786487 0.32363924 -0.06543857 0.40686753 0.025487194 0.15883099 -0.29783246 0.5402533
افزار 0.61194825 0.27676815 -0.5101974 0.11612748 0.2990863 -0.49902654 0.20265912 0.13892165 -0.2647056 -0.2946168 0.26453286 0.025860755 0.26324385 -0.14668506 0.35754898 -0.05107492 0.45021278 -0.44964176 0.6700582 0.084660366 0.111642264 0.39004645 0.029051976 0.060848434 -0.30130005 -0.09979578 -0.39584848 0.26459333 0.006015121 0.077232026 -0.32407784 0.13628271 -0.036278956 0.00810798 -0.22536333 0.025770955 0.12272323 0.32991758 0.2584306 -0.10791548 0.077712245 0.08317271 0.27007288 0.08516156 0.38945323 0.39941937 0.17992195 -0.23811832 -0.090126194 0.1381945 -0.04932456 -0.07542652 0.06140017 0.100360356 0.2421014 -0.2540235 -0.6406984 -0.26943046 0.038344752 -0.12042741 -0.072945096 -0.0690334 -0.28189418 -0.07818074 -0.055461064 -0.10422914 -0.4963605 -0.0098333685 -0.19764534 0.1912112 0.14766239 -0.003130185 0.33955637 0.10421354 0.32079667 0.01084593 0.4361378 0.20170225 -0.1412406 0.52854025 0.14900915 0.40653268 0.7282418 -0.14717785 -0.096006885 0.12589408 0.3233155 0.28800917 0.6826484 -0.053149637 0.37085727 0.29027694 -0.05838137 0.30032 -0.045304965 0.43309784 0.018825721 0.1473278 -0.28216878 0.50529
5 0.60612106 0.2691796 -0.5163387 0.1266275 0.33829913 -0.5619037 0.20317733 0.12939908 -0.28362256 -0.3026594 0.27586928 0.019494005 0.26060766 -0.12628466 0.32760873 -0.04806825 0.45924985 -0.46605548 0.6963214 0.058363058 0.09594136 0.37465507 0.009216194 0.08054904 -0.3115092 -0.10557823 -0.39464048 0.2461547 0.0064755967 0.051509824 -0.35368234 0.12951618 -0.080819145 0.034170505 -0.21328358 0.027996682 0.1125017 0.32537997 0.28680107 -0.107568696 0.08407951 0.10160856 0.26836333 0.10569308 0.42604828 0.41090325 0.18933077 -0.2544599 -0.055580623 0.089620516 -0.04543535 -0.050839756 0.05574191 0.07251901 0.2476579 -0.26181176 -0.6609863 -0.28236368 0.03791675 -0.1391786 -0.032507304 -0.072354905 -0.28235784 -0.09162123 -0.027663752 -0.08393913 -0.5107122 -0.022891484 -0.21766385 0.19056115 0.1300777 0.0023969423 0.36499837 0.1299263 0.30818862 0.017760567 0.43454966 0.2090802 -0.15160193 0.5695168 0.13800319 0.42510462 0.7658325 -0.163095 -0.11274793 0.12410357 0.31237808 0.308886 0.69712263 -0.072388254 0.35778823 0.31135985 -0.05319539 0.29790613 -0.076282516 0.4525896 0.028355526 0.13449201 -0.27963293 0.52284145
مناسب 0.58116245 0.27546462 -0.516652 0.120219596 0.32593516 -0.52892536 0.20422511 0.14051034 -0.27482283 -0.29305783 0.26300493 0.015364096 0.25988436 -0.13184948 0.32170165 -0.058549277 0.43995863 -0.45024407 0.65695596 0.06092078 0.09764543 0.3703212 0.03210909 0.07238255 -0.30394277 -0.11345769 -0.392106 0.2497579 -0.010196482 0.056642704 -0.32048666 0.121152006 -0.08043852 0.034018088 -0.21136232 0.035537355 0.11389263 0.31720045 0.2826699 -0.107205726 0.07804937 0.11165922 0.2622714 0.09994682 0.41303486 0.39157888 0.19115506 -0.24352549 -0.05696035 0.10333872 -0.04371087 -0.057797603 0.06092189 0.06895252 0.23266597 -0.24767043 -0.62330574 -0.27799615 0.032883167 -0.15198587 -0.030357921 -0.08062641 -0.28041476 -0.10089648 -0.036697485 -0.08577799 -0.4891267 -0.02015022 -0.22509024 0.1903285 0.14273381 0.0023522128 0.34573632 0.11983521 0.30135185 0.02648825 0.42404592 0.19853878 -0.13863154 0.5525322 0.14246063 0.4009111 0.72979987 -0.16888127 -0.122346714 0.13290346 0.30599317 0.3059384 0.6787381 -0.084119216 0.35359076 0.28424358 -0.048460178 0.28870296 -0.068140596 0.45211965 0.02237377 0.1345945 -0.27775383 0.5086459
نمايش 0.52679086 0.25905427 -0.42386186 0.09079863 0.28053683 -0.48554623 0.16597043 0.14256705 -0.23470177 -0.26382622 0.23017773 0.022456385 0.20967542 -0.13740858 0.2896174 -0.06395145 0.3966568 -0.39466023 0.6060907 0.06702173 0.092998065 0.3388322 0.0063557513 0.042821437 -0.26825723 -0.10072062 -0.342226 0.23236895 0.00014309086 0.049903724 -0.31096905 0.109269835 -0.049302943 0.015003052 -0.20078081 0.043736488 0.092542976 0.29547065 0.27277112 -0.088034175 0.047339853 0.08223677 0.21569629 0.10461875 0.35983658 0.33100495 0.16378365 -0.21333425 -0.04383726 0.094733424 -0.03039109 -0.05926445 0.042238068 0.079121456 0.20160875 -0.21285197 -0.5994406 -0.24491309 0.029851826 -0.106850795 -0.07705956 -0.050887782 -0.2081942 -0.10106922 -0.015032918 -0.08799061 -0.4395763 -0.023416592 -0.1855672 0.17247365 0.106077366 -0.0057653934 0.2771018 0.11094731 0.2665013 0.027133346 0.38095662 0.18064095 -0.09730062 0.47871244 0.113434255 0.36217454 0.66727656 -0.12939332 -0.09559862 0.09807162 0.26404503 0.24213119 0.6033017 -0.064473875 0.3128561 0.2719346 -0.009820755 0.2548464 -0.041176964 0.4114059 -0.005224262 0.09442952 -0.2538233 0.4420756
يا 0.67178226 0.29575333 -0.53604215 0.111750305 0.34461588 -0.5858468 0.22193487 0.15116656 -0.31895837 -0.30455023 0.2869959 0.026997272 0.29309818 -0.16307206 0.3766425 -0.07410873 0.50617534 -0.48815972 0.76542586 0.050572164 0.11683222 0.43996692 0.0010915017 0.08158677 -0.3332328 -0.12607 -0.45008597 0.28389603 0.00703322 0.06771139 -0.42392653 0.1358658 -0.058853585 -0.009043915 -0.24017525 0.014921676 0.12393228 0.3648086 0.29637164 -0.11251427 0.0689967 0.09248517 0.28438658 0.11540798 0.44342303 0.44657856 0.20377955 -0.26413238 -0.0933732 0.12781782 -0.0726106 -0.08028447 0.07573781 0.12540914 0.24643703 -0.29359227 -0.73232573 -0.2819335 0.04242165 -0.11087193 -0.06844095 -0.08992525 -0.28076735 -0.09331393 -0.044659752 -0.098978706 -0.57561034 -0.026331687 -0.21700683 0.21774168 0.14404155 -0.014416222 0.37496132 0.116118945 0.36089888 -0.0010948008 0.47970468 0.21272933 -0.14424296 0.61127454 0.14287467 0.4550364 0.8092114 -0.18267381 -0.08002072 0.12151397 0.33239844 0.3203517 0.76151603 -0.08299706 0.3849324 0.32932648 -0.05223086 0.33781666 -0.047039393 0.46568337 0.011560575 0.15599002 -0.31038737 0.5718907
دست 0.59322923 0.2676598 -0.5051051 0.11559787 0.32625297 -0.5450649 0.20361467 0.13824356 -0.27585483 -0.29240444 0.25889584 0.01334757 0.26132005 -0.13718334 0.32490486 -0.053464208 0.44990876 -0.44272184 0.66701984 0.047347356 0.09462089 0.380139 0.01598052 0.07210647 -0.2980493 -0.109225005 -0.38519982 0.23695171 -0.00664562 0.0553165 -0.3533323 0.118636556 -0.079346254 0.019929295 -0.20990506 0.0368171 0.11244159 0.32201877 0.2744983 -0.10379389 0.07160921 0.10360185 0.25913554 0.10905494 0.40537986 0.39448988 0.1941384 -0.24199787 -0.062704824 0.10233587 -0.04647886 -0.060636364 0.06440949 0.0894884 0.23100221 -0.24579427 -0.63413596 -0.27412507 0.039952084 -0.13222714 -0.034463976 -0.08327743 -0.27266222 -0.1024233 -0.042553585 -0.077773474 -0.5076194 -0.01795654 -0.21248567 0.19333062 0.13912055 -0.0053261206 0.3467837 0.12199362 0.30317554 0.0115082115 0.4268768 0.19911167 -0.14489257 0.5542926 0.14838313 0.403969 0.7327168 -0.17112315 -0.11388378 0.12090705 0.30535778 0.2991215 0.6822566 -0.08554837 0.34338668 0.29732358 -0.050160002 0.29331905 -0.05892709 0.44147193 0.015215136 0.13860784 -0.27704287 0.5050379
سامسونگ 0.5963756 0.27204725 -0.51237833 0.11878215 0.32769188 -0.53858036 0.20056769 0.13154346 -0.27886534 -0.29018667 0.26580554 0.024720348 0.25782776 -0.14277968 0.34328488 -0.063544005 0.4573409 -0.45253944 0.6843666 0.05206647 0.09830072 0.38959897 0.01755595 0.06826213 -0.30539343 -0.11353784 -0.4024503 0.2560578 0.0005501442 0.061396807 -0.34969547 0.11669248 -0.06785456 0.014235335 -0.2160207 0.034468554 0.11671653 0.32331935 0.2808706 -0.09874775 0.075391695 0.10974269 0.2588988 0.10378993 0.41454834 0.4003738 0.18978177 -0.24985763 -0.067106314 0.11067759 -0.05226278 -0.06243441 0.06446061 0.09051913 0.22918747 -0.25585222 -0.6524242 -0.2735837 0.02977855 -0.14375205 -0.045359537 -0.0844553 -0.2720717 -0.100178346 -0.03349131 -0.079669416 -0.5106004 -0.017505713 -0.21155448 0.19733755 0.13663845 -0.00013936208 0.34626278 0.12165077 0.30510318 0.007978963 0.43293038 0.19982718 -0.13605197 0.55998325 0.13834862 0.4147195 0.7449105 -0.15895423 -0.111567885 0.12794459 0.31332612 0.3016002 0.6967776 -0.078044094 0.36048448 0.29750863 -0.049625482 0.30588076 -0.06616937 0.44748604 0.020822262 0.1420925 -0.28220642 0.5152923
کنيد 0.6307417 0.2770043 -0.5065695 0.109701455 0.3207534 -0.54937255 0.20504668 0.14186482 -0.29016382 -0.2833533 0.26364154 0.03208863 0.27916753 -0.15617445 0.35322708 -0.06871856 0.4750348 -0.4587474 0.71148014 0.0508769 0.10661781 0.425097 0.002737595 0.06649194 -0.32162046 -0.12258342 -0.41494378 0.27048546 0.009532375 0.06919727 -0.40131924 0.12891445 -0.052146487 0.00072257617 -0.22425783 0.027442444 0.11398168 0.34064063 0.28553653 -0.10225877 0.071747296 0.08530791 0.25892323 0.119274184 0.41300407 0.4187292 0.18756364 -0.24960107 -0.09057427 0.12288677 -0.078055434 -0.06691446 0.0726356 0.13174036 0.23819694 -0.27913162 -0.6830703 -0.26074865 0.03563913 -0.10124033 -0.07232365 -0.08011258 -0.2612663 -0.0911548 -0.042353924 -0.08962511 -0.5402982 -0.029517882 -0.20648319 0.20274293 0.13380538 -0.011359482 0.3420893 0.11511837 0.35053724 0.00019624866 0.4550599 0.1953944 -0.13886102 0.5633362 0.14563203 0.42112827 0.7643751 -0.17788205 -0.07739505 0.1173498 0.31107375 0.29666138 0.7166325 -0.081886515 0.35886604 0.3055688 -0.05363095 0.30626997 -0.039561003 0.4307099 0.00073139917 0.15329312 -0.29339236 0.5263589
بازار 0.60658914 0.26944566 -0.52000946 0.12264173 0.3422288 -0.5536509 0.20911364 0.12865011 -0.29206887 -0.29644275 0.2640252 0.02284264 0.27128187 -0.13821746 0.34952426 -0.058541544 0.45655775 -0.46698698 0.6936764 0.055270728 0.09274095 0.3917311 0.015383013 0.06805582 -0.31486374 -0.117005244 -0.40625298 0.24935856 0.0045846933 0.06293711 -0.3556657 0.13261521 -0.07669061 0.0134499855 -0.22582455 0.031216849 0.121364884 0.32807097 0.27848426 -0.10148367 0.074581005 0.10722166 0.27610177 0.1098244 0.42054474 0.41630515 0.19622388 -0.24452268 -0.06391499 0.11079765 -0.056780122 -0.06178709 0.06395172 0.08524552 0.24214713 -0.2642812 -0.6645235 -0.2801121 0.032732226 -0.15464884 -0.034570284 -0.08070696 -0.28477198 -0.09492727 -0.03146394 -0.078498356 -0.5223022 -0.018775824 -0.21921736 0.19493562 0.13217677 0.0014836345 0.3495603 0.11849017 0.3152285 0.013407102 0.43999678 0.19940788 -0.15256846 0.57771146 0.14700642 0.41864452 0.75772274 -0.1662047 -0.11156389 0.13909559 0.3188857 0.3163127 0.71018857 -0.08817649 0.3678608 0.29821986 -0.04260132 0.30948123 -0.07121271 0.46224594 0.01348524 0.13951086 -0.2868332 0.53325593
روي 0.58827 0.25643367 -0.4688557 0.093622416 0.29352906 -0.51419 0.19063735 0.13190944 -0.27321413 -0.2630586 0.2505263 0.023015745 0.26267654 -0.14179882 0.32085243 -0.061734565 0.4402888 -0.42686686 0.66998523 0.042939637 0.09550798 0.39123183 0.00084519514 0.061034948 -0.29542243 -0.115149945 -0.38540024 0.24822439 0.015619365 0.054467164 -0.37038717 0.12328844 -0.05339861 -0.013067691 -0.21221544 0.013278024 0.10474468 0.3127616 0.26412672 -0.09839264 0.05735907 0.075152636 0.24706735 0.11034261 0.37972116 0.3838818 0.18180057 -0.23026313 -0.07642775 0.10866405 -0.06903344 -0.06531954 0.07680803 0.1197516 0.22176917 -0.26387894 -0.64521813 -0.24500577 0.036571406 -0.089940414 -0.06297172 -0.07596828 -0.24459139 -0.09210015 -0.033211537 -0.08021914 -0.50809115 -0.021466915 -0.18378563 0.19022924 0.120809205 -0.013427235 0.32453582 0.101462156 0.32715264 -0.0018063101 0.42468956 0.19111623 -0.12659945 0.526485 0.12456382 0.39162052 0.71521544 -0.15652661 -0.069128625 0.11172008 0.2962866 0.2770815 0.66897947 -0.075930804 0.32947135 0.28996763 -0.048594147 0.29370654 -0.038098417 0.4119354 0.004234134 0.13635395 -0.27287886 0.49472836
مشکل 0.5824036 0.25619286 -0.47316563 0.10437756 0.30567643 -0.5222401 0.19268757 0.13989106 -0.2668634 -0.2752929 0.2521785 0.020110015 0.26072913 -0.13455541 0.3271286 -0.057455484 0.44239238 -0.42600647 0.67216176 0.04011541 0.09940609 0.38428563 0.0025927208 0.06590925 -0.2891672 -0.114507906 -0.38850823 0.24645631 0.010895337 0.052689716 -0.36939737 0.1271587 -0.054637272 -0.0048054517 -0.20147271 0.018961824 0.104334034 0.3181511 0.26887035 -0.09885372 0.07082326 0.08872388 0.2504601 0.110633075 0.38739702 0.3864251 0.18568277 -0.23541962 -0.073488094 0.10204348 -0.06446476 -0.066533916 0.06826359 0.11458974 0.2140888 -0.26044917 -0.632581 -0.25570825 0.03939042 -0.1099594 -0.059706133 -0.077801764 -0.24515492 -0.08939274 -0.03404183 -0.08067937 -0.5024997 -0.022597168 -0.20023166 0.18363263 0.13289395 -0.002951818 0.32634088 0.106451884 0.31842592 0.0032296774 0.4174301 0.19677863 -0.12867512 0.5329097 0.13190496 0.39796802 0.7182348 -0.16338407 -0.07755555 0.1102012 0.29235014 0.28443712 0.6804017 -0.07266636 0.3360803 0.28928533 -0.047880687 0.29582605 -0.0427625 0.4183296 0.0030593933 0.14032264 -0.2705579 0.49797234
کنسول 0.6071873 0.26964137 -0.48480046 0.091692865 0.32099167 -0.54235595 0.20868528 0.13506517 -0.29014382 -0.2847756 0.26622164 0.025943002 0.26498616 -0.14378655 0.34346128 -0.060665842 0.45464164 -0.4627088 0.7003603 0.02619407 0.10373736 0.3953274 0.012311082 0.075834446 -0.3059553 -0.10719531 -0.41533232 0.25447702 0.021180943 0.0553316 -0.3865054 0.14237067 -0.057215475 -0.0025570416 -0.22309059 0.017349757 0.11085747 0.32186544 0.263443 -0.111078605 0.07048275 0.095894285 0.272409 0.11435913 0.3914099 0.40851608 0.19064364 -0.23979078 -0.10049463 0.12590162 -0.060014322 -0.059947733 0.07365094 0.10822478 0.21444088 -0.27855742 -0.6549847 -0.27424994 0.029948957 -0.10445103 -0.045932114 -0.09504406 -0.27293408 -0.08354678 -0.0455446 -0.06754553 -0.5221765 -0.031321 -0.19609864 0.19695295 0.11219482 -0.0011774942 0.32724506 0.09582692 0.33212695 -0.0041865036 0.44922838 0.20240119 -0.14803484 0.57826906 0.1537048 0.4118492 0.7605525 -0.16675287 -0.07808265 0.13038562 0.3156282 0.3064866 0.7041302 -0.06691527 0.3510316 0.30020496 -0.06054357 0.29547456 -0.046687573 0.43519694 0.005976045 0.15281174 -0.27820674 0.52660424
ديگه 0.56063396 0.24532585 -0.4430514 0.08631385 0.2806967 -0.48789036 0.18497062 0.12817778 -0.2641486 -0.2501388 0.23163575 0.024421794 0.24668927 -0.13682278 0.31316668 -0.05796881 0.4262606 -0.41500765 0.6491388 0.04533795 0.09384837 0.3860193 -0.006648523 0.067459494 -0.2771597 -0.11166276 -0.38021696 0.2405936 0.010287249 0.05939798 -0.37026045 0.11510117 -0.04356783 -0.014185395 -0.19470078 0.01505115 0.10442424 0.3041607 0.25589517 -0.10304081 0.051082116 0.07779128 0.238872 0.101367086 0.36089152 0.3654913 0.16606607 -0.23056911 -0.08389196 0.10687541 -0.06150051 -0.058812264 0.06297353 0.123480834 0.2033089 -0.23912807 -0.61820483 -0.22607285 0.031856254 -0.08528986 -0.063235044 -0.062209185 -0.22879604 -0.085554644 -0.03874791 -0.077427104 -0.4824998 -0.02143044 -0.17749281 0.17849585 0.11751968 -0.014004954 0.30843544 0.10093678 0.3088681 -0.0058813524 0.40471256 0.17190778 -0.11655477 0.51276416 0.12274021 0.37763712 0.688667 -0.15073062 -0.062168386 0.10094458 0.2827632 0.26635435 0.65552264 -0.075747825 0.32191914 0.2780833 -0.039701313 0.28218392 -0.03404112 0.38661823 0.006806079 0.12699771 -0.26485223 0.47372872
کارت 0.6552982 0.29842544 -0.5765588 0.14199328 0.37974358 -0.6001977 0.22339427 0.15943375 -0.30062857 -0.32266477 0.30515283 0.019108333 0.2884276 -0.15031283 0.3577651 -0.06857673 0.48750287 -0.5023957 0.74220234 0.05518587 0.08997148 0.39795968 0.032183137 0.06900906 -0.31923017 -0.13731165 -0.44141278 0.26766086 -0.010172601 0.057718866 -0.36721098 0.14537743 -0.093904965 0.021832835 -0.22706875 0.030576808 0.11989136 0.3572483 0.2971682 -0.11475487 0.08488021 0.1372668 0.30763495 0.12674658 0.44246385 0.45641652 0.2447931 -0.2581477 -0.063319765 0.098618485 -0.06754323 -0.07321502 0.06921194 0.07057053 0.26257744 -0.2928362 -0.71955407 -0.3204284 0.04142808 -0.17259453 -0.037808716 -0.10463847 -0.31015754 -0.08897776 -0.04076323 -0.09690497 -0.5581076 -0.0034591919 -0.2325991 0.23342153 0.16207208 0.004302325 0.40537193 0.11553302 0.3252402 0.0070924107 0.47856042 0.22138353 -0.1895086 0.6187012 0.14103818 0.4534931 0.8197346 -0.18888462 -0.11609762 0.15929016 0.33921024 0.36009154 0.7639629 -0.081424884 0.38913077 0.34240258 -0.05595605 0.34468046 -0.09031555 0.5121873 0.018057162 0.15896961 -0.2872171 0.56306124
بهترين 0.5620294 0.2524583 -0.4546834 0.089216374 0.28567865 -0.49521622 0.18409014 0.12372303 -0.2630224 -0.2613969 0.24690478 0.031307023 0.24262376 -0.1301438 0.319182 -0.06677525 0.4229494 -0.409686 0.6492817 0.04525821 0.095321834 0.3813293 -0.006006978 0.060340427 -0.292012 -0.11091502 -0.37020177 0.24910085 0.012655441 0.062320307 -0.3621571 0.10986663 -0.05118206 0.001309909 -0.1981021 0.0266191 0.11211595 0.30884907 0.26114646 -0.102522515 0.05870685 0.08059077 0.24212141 0.10074445 0.36355343 0.36835605 0.16846208 -0.23512879 -0.08728025 0.11473781 -0.06805619 -0.058552496 0.07519174 0.11804262 0.21130867 -0.24437132 -0.6210014 -0.23817363 0.03896643 -0.09429724 -0.06022344 -0.06316899 -0.23791225 -0.09198833 -0.043505047 -0.07698917 -0.48702812 -0.030223066 -0.18872978 0.17606121 0.12279707 -0.0055246325 0.30320022 0.10742681 0.31469372 -0.013548625 0.41432753 0.18086934 -0.11872529 0.5136935 0.1305793 0.3873001 0.6936818 -0.15179943 -0.07205182 0.10141407 0.28829318 0.2584011 0.64942247 -0.06737083 0.33011976 0.2862042 -0.04366387 0.28080562 -0.036486544 0.39815784 0.008665482 0.13433477 -0.25911334 0.48370475
4 0.5742196 0.26360443 -0.48432785 0.104220614 0.30958232 -0.5123786 0.20171131 0.12957118 -0.26682764 -0.26480597 0.25194624 0.016767574 0.23540273 -0.13972564 0.31520882 -0.050623093 0.4292849 -0.4332505 0.6544015 0.057428606 0.099543065 0.36379686 0.010305113 0.07375073 -0.29061538 -0.099732995 -0.3818735 0.24914832 0.011882349 0.046385087 -0.33038825 0.113793045 -0.052154098 0.01053441 -0.21024403 0.020793932 0.11711712 0.3021909 0.25958103 -0.10286623 0.058744527 0.08960429 0.25455326 0.09102418 0.40092567 0.38923073 0.18231395 -0.23792055 -0.066401124 0.08945102 -0.05835021 -0.06326328 0.04678189 0.0716831 0.23451596 -0.23838723 -0.6419176 -0.2413572 0.029548181 -0.12605545 -0.04570506 -0.08356174 -0.25438234 -0.092424095 -0.032142553 -0.09330573 -0.48807025 -0.013327789 -0.20506027 0.17557876 0.1175706 -0.00575108 0.33373055 0.116043955 0.2960336 0.024281422 0.41097376 0.1786927 -0.13318354 0.51537937 0.12514448 0.39417648 0.70539236 -0.15310216 -0.09113358 0.1259005 0.28466412 0.28281203 0.6566302 -0.073527396 0.34192792 0.29825717 -0.035286944 0.29459414 -0.06708285 0.43027562 0.012006659 0.12026969 -0.27220458 0.49974668
هيچ 0.62308264 0.27725786 -0.49091393 0.09642362 0.3206165 -0.54370606 0.21088165 0.13670376 -0.2929277 -0.2843782 0.2551984 0.025786735 0.27706787 -0.14720805 0.34779793 -0.062288124 0.47060534 -0.46050543 0.71256757 0.04687631 0.1042415 0.41887304 -0.009392952 0.07336993 -0.30844805 -0.11446992 -0.4147172 0.26601896 0.011474341 0.06671545 -0.40155092 0.13304757 -0.05909403 -0.009595409 -0.21485594 0.02827048 0.10952455 0.3363571 0.28857774 -0.11042582 0.06503886 0.08542025 0.2665513 0.10912693 0.40322423 0.40049502 0.19426024 -0.2549555 -0.08499507 0.12152562 -0.069548525 -0.07361848 0.076144814 0.12579438 0.23643266 -0.27359775 -0.6813145 -0.26844642 0.033328548 -0.09989018 -0.06370864 -0.07663882 -0.26168934 -0.092490554 -0.04031126 -0.07997824 -0.5287768 -0.026765803 -0.1999946 0.20183663 0.13796665 -0.013222723 0.34820458 0.1072656 0.33889875 -9.945842e-05 0.4508678 0.19869077 -0.13072306 0.5675164 0.13661344 0.42664286 0.76828504 -0.17649807 -0.06679753 0.11881081 0.30646044 0.29882535 0.7250647 -0.079337105 0.36245063 0.3076769 -0.05450569 0.30312052 -0.045506816 0.4430842 0.008763636 0.1573322 -0.29383317 0.51840997
هسته 0.5656825 0.24267602 -0.48485854 0.09802419 0.28364342 -0.47597358 0.20150474 0.105433635 -0.24870676 -0.23539002 0.23867677 0.028294988 0.21387276 -0.12889156 0.31567916 -0.05514339 0.4141795 -0.41553083 0.6223724 0.060072776 0.09519321 0.3427517 -0.008227696 0.07547717 -0.27119264 -0.09665569 -0.3647043 0.24547975 0.02404187 0.03929154 -0.31960174 0.10342939 -0.029423885 -0.020135764 -0.21702959 0.019712646 0.12745054 0.28288907 0.24148856 -0.10229409 0.04694609 0.093853705 0.23547077 0.09930729 0.39358145 0.36743674 0.14789774 -0.2386892 -0.07286267 0.09027557 -0.050777722 -0.04742021 0.029303515 0.076584935 0.21915637 -0.22136305 -0.63641 -0.21096615 0.035288475 -0.1421665 -0.043010402 -0.085902214 -0.25815088 -0.074884735 -0.026650362 -0.09185984 -0.46044844 0.010785181 -0.19736469 0.16022198 0.10419577 -0.024320746 0.31887835 0.123850085 0.29607493 0.018633302 0.40509978 0.15701692 -0.120783836 0.5001957 0.113227524 0.37032267 0.6614827 -0.13682605 -0.07502488 0.12750132 0.2617065 0.2689011 0.62663764 -0.05492712 0.3142951 0.2899559 -0.034764938 0.29464096 -0.079120524 0.41814703 0.015136062 0.11566545 -0.25308874 0.48910582
HD 0.6190872 0.2925449 -0.54573894 0.14339802 0.33395323 -0.58000696 0.22451703 0.14243735 -0.28009126 -0.31682694 0.2676973 0.026750589 0.281131 -0.112484425 0.32967633 -0.049719166 0.47673315 -0.47093195 0.68764603 0.043925524 0.099709705 0.38219738 0.036075648 0.06763305 -0.300753 -0.1260847 -0.42116287 0.2520348 -0.023015318 0.06341657 -0.35702842 0.11758512 -0.08814249 0.04197425 -0.21083349 0.044844072 0.1305943 0.34618226 0.3106005 -0.10460755 0.07741741 0.116545856 0.26908204 0.10276197 0.43396804 0.41917667 0.20463899 -0.24382956 -0.053177103 0.08306986 -0.02805481 -0.052657016 0.06086059 0.061327647 0.2607169 -0.2536347 -0.6467444 -0.31345084 0.021947896 -0.16690296 -0.015617439 -0.07321687 -0.28330472 -0.104529314 -0.03553223 -0.08099354 -0.5288711 -0.030412484 -0.22981745 0.21519302 0.15394634 -0.0049912455 0.37601173 0.115453415 0.31030604 0.029370327 0.4226329 0.20479119 -0.14372283 0.5957332 0.16305959 0.41578978 0.7729887 -0.18958136 -0.14204161 0.14427252 0.3335134 0.33712193 0.72167146 -0.083658636 0.35314286 0.3107474 -0.042142853 0.30118358 -0.071760476 0.48145792 0.024672927 0.14439474 -0.27499375 0.52146727
رزولوشن 0.6032305 0.28416434 -0.5368549 0.13630618 0.34777215 -0.5789161 0.21923387 0.14145796 -0.28477785 -0.30628645 0.27621323 0.023227016 0.26512063 -0.12435399 0.33639872 -0.058369767 0.46682385 -0.46299452 0.6867354 0.056703806 0.09457667 0.37427944 0.039283257 0.06708971 -0.3195247 -0.120001465 -0.39741376 0.2409507 -0.019878296 0.056018926 -0.34556827 0.12676208 -0.09346188 0.044265244 -0.22120333 0.03525483 0.114826776 0.34313503 0.2966073 -0.11111636 0.07817534 0.121062525 0.2645738 0.103416145 0.4256208 0.41417724 0.20022537 -0.24477896 -0.04300787 0.09195119 -0.03651824 -0.05094216 0.050296538 0.055762492 0.25092775 -0.25418246 -0.65949124 -0.30089143 0.032850172 -0.17115346 -0.0156105235 -0.08923103 -0.2874593 -0.09937592 -0.031240737 -0.08733645 -0.5077251 -0.026358733 -0.23731226 0.19577093 0.14557809 0.0017542584 0.3630978 0.12991516 0.2943032 0.037100088 0.42872274 0.20800273 -0.15087326 0.58297545 0.16238706 0.4194011 0.76436377 -0.17630617 -0.14329492 0.13934527 0.32508022 0.32952923 0.71171254 -0.09065774 0.37018287 0.3083319 -0.04818556 0.29870957 -0.07599786 0.4844017 0.023234684 0.13763292 -0.28475553 0.5202087
نرم 0.5967373 0.26991788 -0.4961845 0.09401743 0.29167947 -0.49374968 0.17886372 0.13933906 -0.26533648 -0.2734738 0.25017223 0.0014198131 0.2434975 -0.15953855 0.35449848 -0.05397733 0.45567742 -0.4412739 0.67312205 0.087963745 0.1187248 0.38287675 0.0052225627 0.06771042 -0.30234364 -0.11205636 -0.3847418 0.2816141 0.010159115 0.07568002 -0.328003 0.11831456 -0.047615103 0.0107501885 -0.22836775 0.035663974 0.12061354 0.31832674 0.25480157 -0.09231384 0.06281726 0.09312066 0.26750532 0.086715534 0.3979609 0.40671322 0.19363117 -0.22117138 -0.09538131 0.11683938 -0.061830055 -0.064734705 0.077536896 0.111892566 0.21474293 -0.25151542 -0.64634836 -0.24773629 0.03340026 -0.106596254 -0.072789915 -0.07780907 -0.2600556 -0.082043 -0.05381643 -0.07529964 -0.5107826 -0.023786671 -0.18837799 0.19695477 0.139262 0.0064614736 0.32515013 0.10654767 0.3336017 0.022251533 0.43468106 0.18563549 -0.11628321 0.51720494 0.13055971 0.4075554 0.72122574 -0.16300549 -0.07309855 0.10996796 0.30975574 0.2780559 0.66072476 -0.047483414 0.3639233 0.2948195 -0.04988985 0.2868928 -0.032485366 0.40978163 0.0120768305 0.1484777 -0.27469695 0.51774335
سيستم 0.56859183 0.27225927 -0.46247318 0.11380334 0.29854533 -0.4452105 0.18007776 0.118530706 -0.27676392 -0.27323866 0.22773936 0.010061461 0.24389158 -0.1771157 0.31747806 -0.05157377 0.4438543 -0.4030667 0.6457984 0.10041463 0.12426255 0.38813657 0.033268776 0.0657173 -0.28656602 -0.086050294 -0.35145363 0.27209607 0.013700074 0.053243 -0.29821908 0.12008963 -0.027959656 0.012711679 -0.22453243 0.019871844 0.10559578 0.28834417 0.23967603 -0.088104635 0.079895176 0.06052947 0.24362862 0.07974318 0.39609587 0.37898698 0.16145076 -0.19868596 -0.096501864 0.13569865 -0.061927103 -0.087465584 0.07145155 0.118162505 0.21046872 -0.23962277 -0.5796046 -0.22318155 0.024538772 -0.11597157 -0.073030636 -0.089487605 -0.24007651 -0.08439721 -0.082952 -0.08248537 -0.46275368 -0.009554565 -0.19076578 0.18164615 0.112498656 -0.009142278 0.32892513 0.10340665 0.32391492 0.004903111 0.41293156 0.148256 -0.11999253 0.4767781 0.14615569 0.39945844 0.6708136 -0.15920015 -0.060720358 0.11810603 0.30653307 0.22690621 0.6259129 -0.04493077 0.3480139 0.2813153 -0.06143035 0.2527211 -0.036543492 0.39581856 0.01973163 0.12228263 -0.27233195 0.4738103
عکاسی 0.5992478 0.29682 -0.55069196 0.14816207 0.36606374 -0.57380253 0.22854742 0.13398443 -0.2803118 -0.3240043 0.2853323 0.01936698 0.26375374 -0.1012171 0.31362382 -0.053271424 0.4576547 -0.48067772 0.66261506 0.054139897 0.081906416 0.34774145 0.045841035 0.07126563 -0.319227 -0.11429552 -0.3951636 0.24439354 -0.016767934 0.055079788 -0.30726722 0.11294686 -0.108374126 0.07168783 -0.20985873 0.03920656 0.12434588 0.33437192 0.28838634 -0.11183822 0.094485246 0.13606246 0.27594414 0.104296535 0.44599816 0.41189632 0.20460384 -0.25071335 -0.039280683 0.081904076 -0.03443122 -0.047199205 0.054580312 0.037862163 0.26141012 -0.258478 -0.61986583 -0.3130346 0.023139037 -0.1975214 0.015221422 -0.07887878 -0.3034799 -0.11641549 -0.039751563 -0.07923497 -0.50294 -0.011129185 -0.24848971 0.2070882 0.15509574 0.012193798 0.39045075 0.121596746 0.28911424 0.034389153 0.42470893 0.2223737 -0.16685373 0.5908071 0.17033096 0.41994032 0.7698074 -0.18342876 -0.17435068 0.1529814 0.31028342 0.34806824 0.6941774 -0.09433197 0.3594153 0.2839074 -0.05948363 0.2876805 -0.10434696 0.49362096 0.04721266 0.14846505 -0.2819866 0.51370835
همراه 0.649385 0.30103138 -0.5873189 0.14051911 0.3796722 -0.6084369 0.23958634 0.15289308 -0.3036311 -0.3334303 0.2902054 0.018962648 0.2867681 -0.1355806 0.3649629 -0.05396124 0.5028158 -0.5001439 0.745979 0.05533865 0.10233654 0.4022146 0.032723136 0.0749836 -0.33427066 -0.11916161 -0.4428192 0.26098868 -0.008799156 0.05684295 -0.36376595 0.13857596 -0.09492054 0.03895523 -0.22772072 0.033739038 0.12973246 0.36492655 0.3091626 -0.12049774 0.09037381 0.13276935 0.2981066 0.11107502 0.4701381 0.4458791 0.22771512 -0.26909575 -0.060255073 0.107899584 -0.047165588 -0.06157521 0.060334694 0.059868265 0.27388602 -0.28347966 -0.7030418 -0.3188956 0.03215229 -0.18657914 -0.025264109 -0.09702086 -0.31054857 -0.113294356 -0.046305176 -0.08374673 -0.55918413 -0.021791514 -0.2553181 0.22336197 0.15303938 0.002540551 0.40553215 0.13277355 0.3232713 0.026925974 0.46691874 0.22802374 -0.1663041 0.62804884 0.17066087 0.45584175 0.8258764 -0.18778072 -0.15065253 0.15666929 0.34668523 0.35524306 0.7567778 -0.08840521 0.39432633 0.3229892 -0.05620174 0.33377776 -0.086062595 0.5123414 0.029201666 0.15705997 -0.294921 0.57195914
توجه 0.6004057 0.2685863 -0.5081362 0.11501297 0.32560214 -0.5488734 0.21562558 0.14585103 -0.28867322 -0.28849214 0.26871723 0.022236008 0.26567864 -0.13281201 0.3368921 -0.059457824 0.45925486 -0.4530089 0.6902706 0.04480233 0.09131866 0.4065738 0.0075159837 0.070413776 -0.31442407 -0.11794062 -0.41031057 0.25400707 0.0028652225 0.059167933 -0.3644666 0.1221682 -0.06918929 0.013589696 -0.21589884 0.026692187 0.114124656 0.33100855 0.28200144 -0.102744624 0.07353858 0.09949938 0.2622211 0.10754232 0.40257034 0.39912382 0.19874023 -0.2495846 -0.06829974 0.10883768 -0.063607536 -0.05968821 0.07177482 0.099571094 0.23775513 -0.26206705 -0.654132 -0.27624145 0.04119885 -0.13204381 -0.050792433 -0.076104864 -0.2667545 -0.09066083 -0.043949913 -0.07253391 -0.519872 -0.027530413 -0.21547706 0.19222341 0.13212965 -0.0023195157 0.35058138 0.11551954 0.32321241 0.010249857 0.4437438 0.1991896 -0.13884637 0.5701139 0.1435667 0.41741112 0.7556235 -0.17866766 -0.097139746 0.12889796 0.30676192 0.29955843 0.70472443 -0.08198596 0.35096526 0.3003223 -0.04979832 0.3056821 -0.059319314 0.44930068 0.0075696856 0.14750347 -0.28247526 0.5203325
اينکه 0.6122149 0.27412698 -0.50197136 0.104303114 0.322973 -0.5474575 0.21020634 0.13612115 -0.2873127 -0.2911824 0.25912955 0.030489013 0.2693328 -0.13976988 0.3373834 -0.069575496 0.46338674 -0.45408928 0.70288104 0.051470738 0.10563959 0.4035696 0.0032863521 0.07451511 -0.30576393 -0.11966752 -0.4093249 0.25553557 0.009614853 0.055198558 -0.38269946 0.12582923 -0.06057418 0.0059420974 -0.21354206 0.022285407 0.11698073 0.33459133 0.27780944 -0.108774185 0.064584516 0.08791432 0.26326418 0.10856268 0.40177774 0.4019735 0.19194904 -0.25216302 -0.07826174 0.11938864 -0.06319142 -0.07283995 0.066911384 0.12113542 0.23065855 -0.2684944 -0.67023337 -0.2659192 0.042967882 -0.10406558 -0.06649255 -0.075820066 -0.25564605 -0.092445426 -0.042264197 -0.087805025 -0.5300133 -0.027924253 -0.19973044 0.19382665 0.13752662 -0.006736366 0.33892533 0.10958528 0.3318391 0.0056051714 0.43930334 0.1960494 -0.13782991 0.5577873 0.13634501 0.41730785 0.75407094 -0.17447448 -0.08503603 0.11368884 0.3070439 0.2893803 0.7129389 -0.07457503 0.3514208 0.3026137 -0.049688656 0.30475616 -0.0437614 0.43198588 0.009452791 0.15101784 -0.28767124 0.51607984
امکانات 0.55361694 0.24456051 -0.46510372 0.09821362 0.2944529 -0.48784631 0.18474591 0.1286436 -0.25933275 -0.26599354 0.2361698 0.018177794 0.24635652 -0.1294123 0.3048847 -0.04905343 0.42133027 -0.41587853 0.6318897 0.053251285 0.09724153 0.3594441 0.0035407715 0.06808203 -0.27673075 -0.10438414 -0.37014002 0.24123645 0.006810038 0.059005097 -0.32640126 0.116584495 -0.057363886 0.006246307 -0.20320152 0.019540124 0.104025625 0.29970834 0.25062725 -0.09926667 0.06496017 0.08607422 0.2442729 0.09091702 0.36189044 0.3665754 0.17571479 -0.22471987 -0.062433675 0.10695101 -0.055493407 -0.058867898 0.06746694 0.099401265 0.20958778 -0.23582466 -0.5942272 -0.2437398 0.036315754 -0.11339515 -0.052867293 -0.07005775 -0.25157943 -0.082942955 -0.04125652 -0.07268658 -0.46583778 -0.016865019 -0.19089568 0.17511669 0.12536848 -0.00439047 0.31606436 0.1105734 0.30255732 0.0005409076 0.3981684 0.17647375 -0.123264536 0.5112926 0.13060337 0.38034633 0.67847466 -0.15151252 -0.08124921 0.11236939 0.286977 0.2665589 0.6322408 -0.0645511 0.32925797 0.2699125 -0.047990464 0.2749445 -0.04860536 0.4019251 0.0069376184 0.12901676 -0.25365916 0.47628266
حافظه 0.6019062 0.25736323 -0.54258317 0.12749706 0.3417806 -0.55162233 0.20387885 0.14300527 -0.2826502 -0.3028853 0.27567327 0.019238265 0.26627454 -0.1364552 0.3284717 -0.051059477 0.45974055 -0.45891467 0.6784373 0.0567342 0.08543945 0.36286756 0.018124314 0.06518672 -0.29535827 -0.122241676 -0.42011476 0.2541585 0.009850574 0.05927698 -0.33458763 0.1279172 -0.0856869 0.02054294 -0.19739635 0.022100236 0.125527 0.32835022 0.27334553 -0.10342935 0.07277772 0.12578565 0.28101987 0.112924874 0.41897994 0.41655946 0.21597335 -0.25322634 -0.061557002 0.096114434 -0.06271931 -0.052161273 0.04630283 0.058104977 0.24543907 -0.25788525 -0.64620894 -0.29341593 0.03610904 -0.14746007 -0.019560102 -0.092882 -0.28725472 -0.083435506 -0.04591978 -0.08090675 -0.51649165 -0.006620116 -0.21460591 0.19777924 0.14827433 0.0067583183 0.3708867 0.12018159 0.3025652 0.015842551 0.431851 0.20891416 -0.17532673 0.5530949 0.13712457 0.418633 0.73509026 -0.17800707 -0.11987253 0.14390028 0.3160048 0.32490575 0.6881888 -0.068931095 0.36940882 0.30251276 -0.05209524 0.31158727 -0.085131586 0.46294093 0.03009201 0.13626443 -0.26870397 0.51814616
خريد 0.53011316 0.22646536 -0.41881895 0.078473516 0.27047187 -0.45105043 0.17451832 0.12695016 -0.23866396 -0.23793007 0.21929912 0.0332769 0.23411697 -0.12619798 0.28999394 -0.06381487 0.38441107 -0.38800865 0.6007233 0.031606663 0.087169826 0.37357986 -0.012956426 0.064167604 -0.28037566 -0.09742005 -0.36022782 0.22490111 0.014342407 0.049903575 -0.35029277 0.108401254 -0.038558554 -0.007382126 -0.18491133 0.021558562 0.10312649 0.27783245 0.24697426 -0.088347666 0.051104046 0.06997565 0.23209392 0.10155659 0.331081 0.34746182 0.15678628 -0.21889791 -0.08850122 0.106751926 -0.06715777 -0.06772301 0.07116954 0.11834886 0.19384722 -0.24587323 -0.5770483 -0.21710248 0.033830132 -0.07424876 -0.06787989 -0.061741628 -0.21573818 -0.07218736 -0.043199986 -0.061233316 -0.46325937 -0.02580905 -0.17266534 0.16504218 0.10683355 -0.020410614 0.28533837 0.09850286 0.30254328 -0.014675194 0.38896728 0.17487876 -0.1089896 0.49318632 0.117724314 0.3622374 0.6523258 -0.15185533 -0.048860326 0.089480065 0.26072657 0.24675748 0.62325287 -0.068295725 0.3027849 0.2705444 -0.05119891 0.2614083 -0.037224337 0.35718077 -0.0049720127 0.13554549 -0.25037536 0.44417533
ساخت 0.5367139 0.25755897 -0.47108912 0.119259164 0.30478606 -0.5028864 0.19291006 0.12786761 -0.24824688 -0.2738121 0.23700127 0.015948305 0.23679326 -0.1187939 0.31455743 -0.05811241 0.4186948 -0.42156014 0.6282856 0.052175682 0.089741945 0.35310104 0.020395773 0.06739024 -0.27585617 -0.112362385 -0.35777274 0.23019893 -0.006633899 0.046742927 -0.31550345 0.11363519 -0.071247675 0.026906746 -0.19853435 0.039840918 0.09996267 0.29932198 0.26726013 -0.0876393 0.0790968 0.105471194 0.2358333 0.097026415 0.36812332 0.37474713 0.18905975 -0.23431534 -0.04859816 0.09693654 -0.04003778 -0.058533624 0.065885045 0.06685003 0.21701811 -0.23909375 -0.59668607 -0.26012996 0.036923423 -0.1400707 -0.033396013 -0.07529306 -0.2542339 -0.09693031 -0.027869971 -0.06633949 -0.46889246 -0.013933073 -0.20659773 0.18573864 0.130882 0.0016676495 0.32260478 0.11635993 0.2838041 0.009727592 0.38696665 0.1903996 -0.13942166 0.5060569 0.13244534 0.37184405 0.68020284 -0.16223179 -0.11209917 0.12835868 0.28072518 0.27959764 0.64888227 -0.074913085 0.335047 0.2684769 -0.051381167 0.27889702 -0.07071596 0.4191061 0.0136840595 0.129072 -0.25127894 0.47248143
کالا 0.61146635 0.25116977 -0.46738663 0.057388432 0.3217609 -0.5081112 0.18433043 0.2010317 -0.2497094 -0.2590713 0.2881956 0.09773694 0.27539876 -0.11282754 0.3772775 -0.10650371 0.44566816 -0.45145127 0.7065071 -0.029613916 0.078721225 0.48771304 -0.059689373 0.10970546 -0.3768342 -0.1581497 -0.46448687 0.22431146 0.046531174 0.0693825 -0.46009108 0.13082324 -0.019864125 -0.012205564 -0.19495109 0.06707346 0.11461466 0.3449865 0.29687336 -0.15263537 0.02763778 0.09554368 0.28944862 0.114204556 0.3820718 0.4383905 0.15167755 -0.28338018 -0.1458724 0.13653176 -0.03782533 -0.06438862 0.08555651 0.13789 0.25406745 -0.31816003 -0.72342825 -0.24933921 0.10004713 -0.072221495 -0.10076463 -0.102474384 -0.23419946 -0.067302525 -0.097381346 -0.020511612 -0.5938397 -0.051917125 -0.19437708 0.1594114 0.120797195 -0.06691636 0.31950712 0.16414851 0.41406488 -0.023484265 0.4423322 0.24371915 -0.16581275 0.6397146 0.16426744 0.44950336 0.8188818 -0.19727986 -0.05917236 0.08113708 0.30161244 0.24978912 0.79307574 -0.06490458 0.33483177 0.33396077 -0.092597015 0.27641147 -0.03394218 0.40948445 -0.009354746 0.18568014 -0.27953586 0.51727384
موجود 0.5384477 0.25550213 -0.4683912 0.11742891 0.3044731 -0.48622435 0.18681759 0.11528295 -0.24708723 -0.27026263 0.23138596 0.02051863 0.22946657 -0.1262425 0.31068087 -0.0438249 0.4171396 -0.41748056 0.6182307 0.054782357 0.08384566 0.3329266 0.028657475 0.06858075 -0.2829822 -0.09646038 -0.35473743 0.22803973 -0.008362709 0.044972915 -0.30197498 0.104574196 -0.061834887 0.024169264 -0.19760889 0.030297527 0.11198778 0.2894198 0.25201413 -0.09419489 0.07828349 0.10940186 0.23754774 0.09632654 0.37084273 0.36374757 0.18129908 -0.2242997 -0.052490156 0.09779908 -0.04558298 -0.05161799 0.052911647 0.052057013 0.2101572 -0.23187153 -0.5819508 -0.26071256 0.020553079 -0.14315224 -0.030020816 -0.07837995 -0.25375485 -0.088992774 -0.037317194 -0.075976014 -0.45862928 -0.015712993 -0.20849358 0.17925295 0.12865525 0.0074201296 0.32480407 0.1035344 0.27622178 0.016358089 0.38053542 0.17907156 -0.13323584 0.5096575 0.1318416 0.37123394 0.6775763 -0.14762188 -0.111092016 0.12627245 0.27904993 0.28476325 0.6163977 -0.070280336 0.32794553 0.26066124 -0.045313984 0.27246442 -0.061700236 0.40831146 0.01716176 0.12966768 -0.24856643 0.4729429
طراحی 0.57041985 0.27047133 -0.513871 0.13793908 0.3381511 -0.5235926 0.1970249 0.14275065 -0.26822498 -0.3009007 0.24913733 0.005179758 0.24750675 -0.12283758 0.3159332 -0.052588142 0.436164 -0.44760567 0.6512485 0.055412035 0.09443184 0.35760587 0.04643526 0.072443075 -0.29088145 -0.11043657 -0.37195477 0.23534508 -0.014729271 0.049975023 -0.2977519 0.12018363 -0.085463315 0.043581285 -0.20304345 0.045609325 0.11472734 0.30115834 0.27112064 -0.08941243 0.09348007 0.1263801 0.25453347 0.09272226 0.40653825 0.39602578 0.19951467 -0.24067488 -0.042735834 0.101171814 -0.044827316 -0.04486645 0.056167502 0.050179526 0.23188433 -0.24133107 -0.60487586 -0.27365252 0.028738184 -0.17671466 -0.0134855835 -0.08700706 -0.28102642 -0.090942934 -0.04301626 -0.06921175 -0.4714349 -0.011137623 -0.23039243 0.18717359 0.13977644 0.005315453 0.34912094 0.12541893 0.27013606 0.027873404 0.4104354 0.20348129 -0.15860459 0.5456412 0.14105034 0.3964408 0.70898396 -0.15820368 -0.1413191 0.13399065 0.30037203 0.30877218 0.66215175 -0.080884375 0.3557042 0.2741255 -0.04889729 0.28261027 -0.07976615 0.44661102 0.034377124 0.13719024 -0.26731902 0.49298486
ميکنه 0.61194956 0.2704384 -0.5068307 0.10212134 0.3253767 -0.5505152 0.20374794 0.14104888 -0.28078192 -0.28244957 0.259629 0.018953597 0.26480246 -0.14696819 0.3381783 -0.06599229 0.464753 -0.4502753 0.7013293 0.048236743 0.09832649 0.4048467 -0.0009990889 0.072068065 -0.31138608 -0.11640494 -0.40801865 0.2609985 0.0059093707 0.062723435 -0.3723629 0.12534682 -0.066187 -0.0023834456 -0.2114721 0.029653339 0.116693966 0.33077872 0.27716485 -0.10768797 0.06757828 0.097180836 0.2578973 0.113453686 0.41051245 0.40397742 0.1935871 -0.25534466 -0.07639641 0.10507936 -0.063531674 -0.064158335 0.06240632 0.10957714 0.23684211 -0.2675309 -0.67170715 -0.2639099 0.04008059 -0.119622216 -0.05016467 -0.07559081 -0.26800188 -0.09850321 -0.039716017 -0.087552525 -0.52950764 -0.025050618 -0.20391606 0.19656572 0.13897872 -0.011095572 0.3411185 0.114337444 0.32364562 0.0067942594 0.44308656 0.19359244 -0.1302904 0.5562536 0.14103384 0.4214599 0.7541079 -0.17445341 -0.08177888 0.11399938 0.30636758 0.29803804 0.7071912 -0.083500266 0.35098422 0.30313176 -0.05087175 0.30533236 -0.05157756 0.44883606 0.013214679 0.14681171 -0.279335 0.5220311
دوستان 0.5410403 0.2456342 -0.4407283 0.08659918 0.2908278 -0.48282546 0.18508567 0.12332729 -0.26004386 -0.25709808 0.23654954 0.026095113 0.23963903 -0.13043754 0.30526423 -0.058690384 0.40341887 -0.41186363 0.625154 0.035771064 0.09200356 0.3754047 -0.0039150952 0.06261545 -0.28751963 -0.10144531 -0.3700816 0.23307663 0.013233697 0.056263175 -0.34659278 0.11268063 -0.045764316 0.005791871 -0.19059914 0.02732211 0.10785067 0.290252 0.25017634 -0.101096764 0.059532966 0.07974856 0.2375325 0.092496425 0.35886428 0.35683775 0.1704759 -0.22498032 -0.073454656 0.10718468 -0.061071664 -0.059009776 0.06192002 0.10815583 0.20502745 -0.238411 -0.6008693 -0.23126175 0.03893179 -0.10073306 -0.057512406 -0.06569769 -0.22684552 -0.08603288 -0.04067494 -0.066894315 -0.47149828 -0.025678232 -0.18720692 0.16913281 0.12174987 -0.009588233 0.30849987 0.10196816 0.29958418 -0.008791742 0.39665887 0.18061231 -0.11901574 0.49983612 0.12882306 0.38001084 0.6759103 -0.15643544 -0.06413981 0.09970361 0.27238864 0.2583325 0.6361183 -0.066688925 0.31776282 0.28181547 -0.050324097 0.2696301 -0.042610712 0.3815716 0.009900398 0.1344746 -0.25401458 0.46755797
باعث 0.6533763 0.30083057 -0.57021475 0.14144838 0.36729893 -0.60539603 0.23855555 0.14896275 -0.30996674 -0.33110636 0.28879339 0.018197328 0.2948887 -0.14434461 0.35912773 -0.06325074 0.49741876 -0.50230724 0.75366074 0.05953073 0.107222594 0.41558865 0.03319742 0.07812275 -0.33719754 -0.12091385 -0.43163195 0.26564014 -0.006092102 0.054953642 -0.3660153 0.13440551 -0.090077564 0.04124508 -0.23439081 0.036399197 0.12859389 0.3543268 0.31033465 -0.12106487 0.08638892 0.13106583 0.2902264 0.10852886 0.4675683 0.4484694 0.2193997 -0.2752891 -0.058507614 0.10743227 -0.05576757 -0.06196466 0.060450267 0.07163318 0.26811817 -0.28324407 -0.70399594 -0.31322312 0.03270488 -0.1743913 -0.02420432 -0.0899593 -0.31428915 -0.11230936 -0.0397802 -0.09162039 -0.56021196 -0.014467518 -0.25465724 0.21846683 0.15435398 0.0024230047 0.40157533 0.13662797 0.33446354 0.026836453 0.47344345 0.22283453 -0.16865894 0.6222299 0.16686761 0.45876023 0.8272441 -0.18059091 -0.13585773 0.14800723 0.33975825 0.3515949 0.7632265 -0.08897878 0.39434698 0.32228935 -0.055536766 0.33135673 -0.081695095 0.5132125 0.022078719 0.15867268 -0.30811542 0.5642281
بدنه 0.6398312 0.28580257 -0.54712284 0.12866597 0.35561338 -0.57626647 0.22199632 0.15413292 -0.2940269 -0.3062112 0.26989645 0.017046355 0.27520344 -0.14539707 0.3539489 -0.059333287 0.48730153 -0.48627317 0.72352695 0.061216064 0.11131313 0.40893382 0.018949186 0.08332118 -0.3200678 -0.12900724 -0.42829517 0.2601073 -0.0022431638 0.0621378 -0.3771512 0.12849945 -0.081287846 0.023395622 -0.22984245 0.029606106 0.12206627 0.34234983 0.30143863 -0.108437 0.079883486 0.10772732 0.27226105 0.118230954 0.43486 0.43033132 0.21397372 -0.2673496 -0.059589837 0.11702455 -0.057501134 -0.0641448 0.06287994 0.0895923 0.25060177 -0.266054 -0.6949553 -0.28690878 0.038843755 -0.14229006 -0.049532738 -0.08157539 -0.28658772 -0.10577732 -0.032544132 -0.08967945 -0.54251945 -0.02085932 -0.23657832 0.20793942 0.1519151 -0.0021836953 0.37467986 0.12164647 0.3259588 0.022568947 0.4632484 0.21695638 -0.15803358 0.5982384 0.15190904 0.43672842 0.7985728 -0.18407065 -0.11555784 0.13498008 0.32656246 0.31798396 0.73696005 -0.084251225 0.3718515 0.3103689 -0.048114415 0.3115138 -0.06600338 0.47686848 0.016668899 0.14687428 -0.29128215 0.54241735
يکي 0.57998306 0.26216847 -0.47308755 0.10467801 0.3025256 -0.51600975 0.20006564 0.12809674 -0.28190643 -0.27495763 0.24975643 0.03142568 0.25242344 -0.13541956 0.337463 -0.06420143 0.4401622 -0.43470117 0.6791051 0.050722275 0.09476928 0.389445 -0.0042906627 0.065317884 -0.30420694 -0.115790315 -0.39305454 0.25364122 0.010283257 0.05708654 -0.37001744 0.1256365 -0.059150044 0.005699311 -0.20632318 0.020910168 0.10956768 0.3137036 0.27254245 -0.099938385 0.064163126 0.09289588 0.2573764 0.10711994 0.38051963 0.39138266 0.17816134 -0.24934769 -0.08399552 0.11614354 -0.062220693 -0.064910665 0.064532705 0.110431306 0.22319207 -0.2640968 -0.6470995 -0.25323346 0.034072794 -0.104638815 -0.0594457 -0.08030121 -0.2562538 -0.09452522 -0.045233127 -0.08347613 -0.5057337 -0.028685406 -0.19585548 0.18301143 0.12138422 -0.008542469 0.32807514 0.10515595 0.31857172 -0.0025538597 0.42212576 0.19508913 -0.13539062 0.5404869 0.13473976 0.40069944 0.72350365 -0.16855355 -0.07208838 0.11811413 0.28988275 0.2889994 0.6837701 -0.071394295 0.34148186 0.29878566 -0.054537386 0.2885196 -0.04312424 0.41717765 0.0032421006 0.13821393 -0.26848015 0.5040294
فيلم 0.5806328 0.2542567 -0.47368026 0.10550432 0.29295394 -0.52370656 0.19271809 0.12149375 -0.26117343 -0.25959218 0.23910412 0.024641344 0.25526488 -0.12862124 0.31966606 -0.05426714 0.43207195 -0.43087012 0.65986764 0.051336613 0.090702824 0.38357082 -0.0084412275 0.06205237 -0.2842955 -0.12164684 -0.38691735 0.23965143 0.0041000526 0.061129887 -0.37873834 0.10993341 -0.07105421 -0.010371709 -0.21273994 0.02731327 0.10188547 0.31710348 0.27353725 -0.09457185 0.063465565 0.08328556 0.2305002 0.116455406 0.3675809 0.3767623 0.18008949 -0.22198611 -0.068908446 0.10210438 -0.061617907 -0.063143186 0.07300307 0.11105906 0.23128659 -0.24663618 -0.62496877 -0.26172322 0.045766886 -0.09144407 -0.06622645 -0.059947748 -0.24927977 -0.08362805 -0.032730244 -0.084822804 -0.5092299 -0.028078372 -0.19332835 0.18637472 0.12762086 -0.0043349992 0.3136871 0.11097266 0.31156385 0.012563324 0.42329657 0.19213161 -0.11757506 0.52684534 0.13850915 0.3868229 0.7156323 -0.16228513 -0.077111065 0.09851208 0.2829055 0.28376687 0.66569746 -0.07875564 0.32495275 0.29059613 -0.04341317 0.28110194 -0.038538612 0.40550545 0.007978239 0.1321268 -0.2604598 0.48866037
8 0.6323303 0.29212242 -0.5707844 0.13904583 0.36836776 -0.59754705 0.22834104 0.14586782 -0.29833695 -0.32512367 0.2934015 0.02067909 0.27652594 -0.13069604 0.35602015 -0.055390198 0.48198086 -0.49744383 0.73277444 0.054488067 0.09652074 0.40237898 0.039749864 0.070135884 -0.32734665 -0.12409781 -0.42561257 0.2564562 -0.008831766 0.05476618 -0.35998604 0.13423605 -0.08936512 0.04416073 -0.22778489 0.0398166 0.122425936 0.35364333 0.31057835 -0.11729303 0.093915634 0.12461568 0.28976387 0.10927447 0.4563434 0.43665206 0.21650034 -0.26607463 -0.046334032 0.09881502 -0.052311566 -0.0638427 0.056756414 0.064350896 0.26596057 -0.2797304 -0.6806334 -0.31300005 0.035716936 -0.17653233 -0.026592867 -0.090495 -0.30833954 -0.10612232 -0.039621074 -0.09059745 -0.5383824 -0.021230102 -0.24608709 0.20709603 0.15702929 0.0062970747 0.39902082 0.13665201 0.32642332 0.029593254 0.46074143 0.21510307 -0.1632343 0.6097575 0.16350883 0.44984207 0.812038 -0.18469933 -0.14676294 0.1475348 0.3355757 0.3416096 0.74338573 -0.09068398 0.38661906 0.3193037 -0.04929712 0.32505557 -0.08218588 0.49859023 0.03306989 0.1562597 -0.30086908 0.5459972
لنز 0.5979258 0.27878073 -0.52912694 0.12755868 0.3487744 -0.5671515 0.22865178 0.132226 -0.27845395 -0.3117336 0.2647603 0.023638673 0.26034486 -0.123223975 0.3201702 -0.04415736 0.45593834 -0.4556679 0.67662793 0.042578623 0.084459424 0.36903393 0.026532598 0.06917116 -0.30336028 -0.11305079 -0.38933632 0.23384696 -0.006951151 0.06205531 -0.33521572 0.12570707 -0.10566881 0.05057023 -0.2067223 0.029972343 0.12710325 0.31601688 0.2813724 -0.11300767 0.09236472 0.12667516 0.2676549 0.096159674 0.42376208 0.4079395 0.19734108 -0.2524819 -0.04314277 0.092408225 -0.034078214 -0.045526482 0.04991327 0.06267578 0.24438922 -0.25792652 -0.6434633 -0.28756452 0.038323596 -0.17077212 -0.023166379 -0.08923815 -0.2815584 -0.109044485 -0.047794484 -0.07968991 -0.5033162 -0.022813717 -0.24213329 0.19819158 0.15168633 0.0098399855 0.37386003 0.1141844 0.29209474 0.026380915 0.41928715 0.21680674 -0.14862359 0.5767577 0.15627848 0.40917942 0.7627838 -0.17559686 -0.14447547 0.12909454 0.3078559 0.32854605 0.7005382 -0.086967714 0.35953334 0.2926611 -0.048484948 0.2986279 -0.082016885 0.47542384 0.04209018 0.15643145 -0.2748242 0.5219757
