1305 100
اين -0.3825955 0.07223487 0.070221834 0.030715158 0.16591284 -0.03870619 -0.38467473 0.07856545 -0.09602446 -0.0993451 0.29292586 0.07160062 0.3612192 0.0012664087 -0.22472033 -0.35343784 0.19242817 0.109805 -0.54795974 0.27493256 -0.058465634 -0.25478408 0.20621842 0.26399988 0.2385703 -0.14611451 0.076460876 0.037062846 -0.033411015 -0.22429188 -0.21176921 -0.050608754 0.1450635 -0.38810128 -0.122242585 0.29814246 0.067431144 -0.1988375 -0.6893388 0.3116721 0.07089889 0.19082828 -0.37775126 -0.6603883 -0.11181214 -0.11441646 0.096650586 -0.045446612 0.14122993 -0.15352671 -0.16417666 -0.24580854 -0.41630596 0.036121838 -0.33980218 0.035088494 0.4767074 -0.021147156 -0.106018215 0.30790886 0.15620181 0.40398192 -0.2275876 -0.044811305 -0.17785317 -0.52588016 -0.3755531 0.17305213 0.016973762 0.4019392 -0.31008738 0.13606864 -0.077562764 0.38204724 -0.22207311 0.34046376 0.4213886 0.3227518 -0.006137082 -0.56982154 0.16886424 0.7265919 0.16991387 0.119572125 -0.009083074 0.09860753 0.029254274 -0.012677125 0.12603176 -0.17077501 -0.20108698 0.054896206 0.06535904 0.071029894 0.01707586 -0.40673837 0.17228456 -0.11795478 -0.15536399 -0.46919137
گوشي -0.36803743 0.06540599 0.050112054 0.03213031 0.16936128 -0.043785613 -0.39658996 0.08574053 -0.088997334 -0.1081426 0.29054895 0.059689645 0.36445326 -0.008637113 -0.21890862 -0.36019552 0.18995371 0.10453947 -0.56963044 0.28192627 -0.07882098 -0.25268427 0.21181187 0.2440787 0.23195949 -0.16299227 0.06421663 0.04661498 -0.028111467 -0.21496491 -0.20367953 -0.051367328 0.1466057 -0.38019884 -0.10748726 0.29972604 0.09073574 -0.19202875 -0.68693894 0.28917888 0.074840344 0.19545068 -0.38045904 -0.6457515 -0.09045013 -0.13267638 0.09844145 -0.055111438 0.13790002 -0.14910588 -0.15239847 -0.24233155 -0.39189625 0.054846056 -0.32911575 0.014742417 0.4639581 -0.013353566 -0.12012781 0.29396436 0.15579744 0.41019472 -0.23670366 -0.029447243 -0.17621243 -0.53326243 -0.38204777 0.16956139 0.015295496 0.4078626 -0.31594893 0.13912328 -0.07822878 0.38729972 -0.21282056 0.34047154 0.40053773 0.326504 -0.013583822 -0.56709063 0.16429555 0.7310093 0.17501697 0.11527191 -0.007357535 0.09646877 0.043479532 -0.018773554 0.116734 -0.18262577 -0.19924252 0.043086763 0.0672015 0.06478781 0.0027190784 -0.3878166 0.18160383 -0.12990986 -0.14446802 -0.46691197
دوربین -0.316151 0.07356692 0.034747444 0.0567398 0.11213838 -0.13917506 -0.3690978 0.22333805 -0.025942279 -0.15448688 0.18844931 -0.01198327 0.37406072 -0.085120894 -0.34981546 -0.44175103 0.18119471 -0.032107208 -0.64548296 0.33944166 -0.16207896 -0.21358013 0.2634403 0.20094849 0.024845393 -0.32748488 0.024751741 0.13980332 0.15142888 -0.19617228 -0.33132648 -0.19598491 0.20431903 -0.43233 0.011482261 0.35441238 0.23134585 -0.1669573 -0.7345193 0.26043954 0.04674414 0.1725862 -0.39813063 -0.6481358 0.08110573 -0.17983082 0.024656765 -0.108679205 0.034961738 -0.08349419 -0.08742678 -0.37279832 -0.30069825 0.13311635 -0.3493176 -0.045866907 0.46507883 0.08350744 -0.19188888 0.27224326 0.21194886 0.46545574 -0.23109204 0.033655427 -0.1952279 -0.5961514 -0.42315665 0.14720146 0.07168704 0.42009714 -0.41495648 0.16967638 -0.025609626 0.4377305 -0.1502806 0.4048563 0.20927009 0.39917892 -0.080973685 -0.55643064 0.15161206 0.85302144 0.19496828 0.10837197 0.019016786 -0.038731243 0.12292002 -0.04152554 0.0820914 -0.29171512 -0.2831873 -0.06396409 0.033931267 0.0013474791 -0.11466217 -0.23789151 0.26906425 -0.18526131 -0.09674713 -0.4395784
صفحه -0.33450553 0.09513575 0.0602359 0.038243495 0.119374044 -0.12337617 -0.38751835 0.18851559 -0.033060603 -0.11661521 0.2128081 -0.011718757 0.37623745 -0.05205535 -0.3046052 -0.42898712 0.15617822 -0.02081154 -0.6019718 0.32481116 -0.14500113 -0.23160288 0.21768382 0.21343978 0.07164559 -0.25335893 0.019223768 0.13689095 0.10998362 -0.20143886 -0.30238104 -0.17336272 0.19850403 -0.3886226 -0.0146202985 0.35780504 0.17450468 -0.17019425 -0.7026552 0.280785 0.04601093 0.1752625 -0.41494995 -0.65835977 0.024271969 -0.14288813 0.015549325 -0.11083956 0.06928599 -0.07768433 -0.13631062 -0.2951218 -0.33262458 0.10719777 -0.30168682 -0.042129535 0.45867023 0.07533839 -0.221702 0.26891023 0.16245683 0.41786197 -0.23842855 0.040507525 -0.2023753 -0.58017236 -0.3997721 0.14119437 0.061800316 0.42982888 -0.39651495 0.16074793 -0.012755416 0.4293312 -0.13965309 0.39286035 0.26024735 0.38816229 -0.08060534 -0.567485 0.13345759 0.84713036 0.20496577 0.09956523 -0.008401555 0.0017586041 0.09906846 -0.04709219 0.11460893 -0.2611755 -0.27556825 -0.04144804 0.03944698 0.0051619443 -0.10981001 -0.2850933 0.20759933 -0.1805606 -0.09348346 -0.466534
هاي -0.37230706 0.08502519 0.056480963 0.034012314 0.15240435 -0.06764703 -0.40365815 0.111969925 -0.0824425 -0.11504685 0.28059864 0.033562325 0.3829423 -0.029651912 -0.25546202 -0.3821078 0.19740917 0.08972991 -0.5987163 0.29926008 -0.09389155 -0.25267357 0.23340458 0.24967375 0.18429172 -0.21198982 0.05140597 0.06106854 0.014645702 -0.22246528 -0.25898573 -0.09810774 0.15619396 -0.40575832 -0.07757918 0.3141278 0.12617302 -0.18744723 -0.7179372 0.29338 0.075307086 0.19299364 -0.38354692 -0.6830848 -0.06868246 -0.13505748 0.075066224 -0.06842991 0.12147524 -0.1259465 -0.14967686 -0.28808025 -0.38689613 0.064057395 -0.3550959 0.011599517 0.4982273 0.0060633603 -0.13563344 0.30893728 0.17450559 0.44054452 -0.24315253 -0.023361033 -0.18617113 -0.5638923 -0.41316447 0.19108833 0.024001883 0.42423004 -0.35277483 0.1576527 -0.07995408 0.40994164 -0.21566072 0.36477026 0.38501677 0.35460544 -0.028547885 -0.5839576 0.16918328 0.794867 0.19955029 0.11792005 0.0005511431 0.076575056 0.066063374 -0.024788855 0.12439372 -0.20684235 -0.24279773 0.01605061 0.062343165 0.04640595 -0.023108512 -0.37426057 0.20886448 -0.15251786 -0.15059802 -0.49376377
خيلي -0.35371777 0.07415236 0.061087336 0.030270385 0.15026756 -0.053360187 -0.3899504 0.10569638 -0.0720299 -0.11503683 0.26415074 0.040702555 0.36075506 -0.024899792 -0.24632885 -0.3669158 0.1834554 0.06778316 -0.5708769 0.28525886 -0.08365001 -0.24670233 0.21623051 0.24661914 0.18909156 -0.18169795 0.055207975 0.06707285 0.0130490335 -0.220086 -0.23109159 -0.08128608 0.14312802 -0.38577008 -0.09010071 0.31845054 0.10326225 -0.18184687 -0.68210274 0.29745695 0.06358187 0.18014623 -0.37807083 -0.6331788 -0.07112792 -0.13403341 0.07112889 -0.07520584 0.11300366 -0.13725148 -0.1309972 -0.2640559 -0.3774588 0.0678491 -0.33822995 0.009934224 0.46435228 0.0073873387 -0.14047037 0.28312767 0.1646358 0.4085919 -0.2339295 -0.017135954 -0.18029387 -0.53218293 -0.3777866 0.1663762 0.023251718 0.4045172 -0.31803823 0.13846047 -0.064186275 0.39000905 -0.20263667 0.3556967 0.36103362 0.3302758 -0.029845275 -0.55889696 0.15627845 0.7387858 0.1858534 0.12542854 -0.012885659 0.07051152 0.055549182 -0.021838425 0.109661974 -0.19752754 -0.21089652 0.026064953 0.057524703 0.05609657 -0.026144182 -0.3523962 0.19423303 -0.14363973 -0.13136746 -0.46254492
تبلت -0.32742143 0.06997196 0.042674385 0.048240766 0.13809206 -0.1145763 -0.37766135 0.16664033 -0.051585175 -0.12915324 0.2277272 0.006626966 0.35361326 -0.055434693 -0.2842775 -0.39889956 0.18217239 0.026994314 -0.59775823 0.30442834 -0.12657128 -0.23018306 0.22762607 0.21987939 0.106300935 -0.2526975 0.037289813 0.101886466 0.07994712 -0.19347435 -0.28296137 -0.1444695 0.18232237 -0.40061787 -0.042285606 0.31958365 0.17795101 -0.17570543 -0.7001279 0.26853347 0.071965344 0.16851819 -0.3791691 -0.6327333 -0.003264635 -0.15277663 0.044752494 -0.08482866 0.08645269 -0.108258516 -0.11416651 -0.3037298 -0.33661917 0.09289038 -0.3391711 -0.016217126 0.45956138 0.04234247 -0.15870072 0.27534235 0.18514553 0.42898723 -0.22233422 0.008391611 -0.19507219 -0.5640249 -0.40440524 0.14814122 0.051066246 0.40914658 -0.3727289 0.15132876 -0.04987265 0.40475035 -0.1714964 0.37992254 0.29536715 0.3646217 -0.060004916 -0.5509436 0.15689278 0.798631 0.18842593 0.10943537 0.00761059 0.020832956 0.07783264 -0.03422064 0.098850444 -0.23133913 -0.24964967 -0.033744562 0.050282527 0.028842408 -0.062400036 -0.30279952 0.22465043 -0.14843126 -0.09971091 -0.44727662
مي -0.3861305 0.08150548 0.05094359 0.0393666 0.16175286 -0.07523705 -0.41560614 0.124736615 -0.08201516 -0.1194205 0.2895167 0.04361042 0.40098867 -0.032356784 -0.27684563 -0.40558344 0.1987528 0.081743844 -0.62925494 0.32313693 -0.09609094 -0.27040017 0.24792446 0.25703743 0.19272989 -0.22741313 0.059574023 0.06214136 0.018713538 -0.2320303 -0.26926148 -0.10486578 0.17375568 -0.42465597 -0.08555588 0.34037814 0.12854788 -0.198888 -0.75034153 0.3070845 0.08289647 0.19553033 -0.41310602 -0.7000429 -0.061690584 -0.15058826 0.0765249 -0.07745276 0.12161868 -0.14391038 -0.14062688 -0.29635668 -0.3979677 0.069203444 -0.37274486 0.002162201 0.5089305 0.006543733 -0.1554929 0.31016573 0.18985315 0.46913457 -0.24721558 -0.021552814 -0.1935812 -0.58798647 -0.43175223 0.19190098 0.037792627 0.4426939 -0.36281452 0.15721846 -0.06990597 0.43605167 -0.22291586 0.38840735 0.38970706 0.37803066 -0.036904216 -0.61375254 0.17201185 0.832828 0.19637378 0.11909366 0.006901355 0.075769804 0.07456615 -0.02566768 0.12828417 -0.22603148 -0.25086644 0.017788406 0.06798239 0.05500128 -0.033664443 -0.37917855 0.21978913 -0.15083519 -0.14833927 -0.51321757
نظر -0.34453613 0.070806205 0.05477969 0.041625913 0.14990503 -0.078878045 -0.379805 0.13468367 -0.06877095 -0.116213255 0.2525488 0.025673587 0.3577637 -0.035955176 -0.26355454 -0.38350868 0.18256184 0.049408004 -0.5885042 0.30028027 -0.10807122 -0.24365097 0.23018165 0.23461804 0.14831065 -0.22188838 0.04375683 0.08264763 0.04442754 -0.2048464 -0.2604104 -0.10920159 0.16714086 -0.38714102 -0.06494641 0.3268645 0.14566353 -0.17543015 -0.69819415 0.29012436 0.06496902 0.17584991 -0.38310507 -0.6425688 -0.038291395 -0.14040725 0.057406355 -0.07497051 0.09242136 -0.12350524 -0.1265834 -0.2924705 -0.3565535 0.072197035 -0.33210707 0.0040464913 0.4657048 0.025809497 -0.15575856 0.29190275 0.16948102 0.4333366 -0.22575349 -0.004985699 -0.19090559 -0.54508454 -0.40112776 0.1633874 0.042368393 0.41345093 -0.34748304 0.15224777 -0.06190611 0.40894783 -0.18968949 0.36506167 0.33059528 0.35672238 -0.048611894 -0.56265897 0.15712631 0.7806002 0.19143946 0.111939065 0.001074108 0.04762223 0.07319636 -0.02761317 0.10842306 -0.20933318 -0.2318198 0.0067208786 0.047681022 0.03500803 -0.042377852 -0.33133087 0.2090735 -0.15126431 -0.12597674 -0.45825234
داره -0.39156103 0.08694154 0.05854372 0.040490855 0.1586847 -0.07606397 -0.42220607 0.12248519 -0.07313954 -0.120068066 0.2887604 0.04540252 0.39172006 -0.027704615 -0.27926886 -0.404639 0.19471678 0.07683119 -0.6268547 0.31110063 -0.0949009 -0.2584528 0.23361835 0.26448599 0.18246192 -0.2112632 0.06127124 0.06483082 0.032060854 -0.22859998 -0.25984985 -0.107884124 0.17151971 -0.42693013 -0.08206093 0.34733203 0.129832 -0.20079572 -0.7408689 0.31600583 0.07776315 0.20130219 -0.4124641 -0.7027275 -0.05937758 -0.14913768 0.06420305 -0.07577067 0.11439068 -0.13093248 -0.14836912 -0.29404733 -0.40519637 0.07838659 -0.36436886 0.011029874 0.51140726 0.0099254735 -0.15548109 0.3148418 0.18134215 0.45523617 -0.2486482 -0.011308234 -0.19404002 -0.58768994 -0.42569283 0.18764223 0.033592995 0.44376633 -0.35548642 0.15561108 -0.064548746 0.43601236 -0.21950042 0.39332518 0.38129744 0.3655981 -0.040723708 -0.60822666 0.16449766 0.82986474 0.20585907 0.13336143 0.0024178575 0.0671064 0.07426272 -0.02705974 0.113990426 -0.22551605 -0.24802975 0.012282419 0.06429298 0.055733193 -0.032418415 -0.37909997 0.21748665 -0.15984462 -0.14963885 -0.5081502
دوربين -0.3726443 0.07652422 0.07079083 0.04209931 0.1569209 -0.053493638 -0.40996894 0.12079442 -0.06795329 -0.11370449 0.28274497 0.041738793 0.3803764 -0.021625867 -0.2710069 -0.39318052 0.20185196 0.075834006 -0.6146231 0.30343983 -0.099244826 -0.25916955 0.23010741 0.25663522 0.2008712 -0.19824499 0.051713545 0.06441107 0.014588596 -0.23042159 -0.2486986 -0.088470414 0.16936955 -0.40851232 -0.096347876 0.33466682 0.11152043 -0.19733159 -0.72245556 0.32039794 0.074715264 0.20167504 -0.40503013 -0.6864922 -0.06790274 -0.14113164 0.08299491 -0.0660508 0.122014165 -0.13694356 -0.1434856 -0.28589714 -0.4011253 0.075757764 -0.35902834 0.016105909 0.49449033 0.006404587 -0.14501868 0.30378377 0.16955449 0.43450132 -0.24879691 -0.02692785 -0.18801677 -0.5672887 -0.40895763 0.17764996 0.033855285 0.43127477 -0.3447601 0.15286484 -0.07334139 0.42268625 -0.20800336 0.38447496 0.3789786 0.35703784 -0.027082566 -0.58771896 0.16916096 0.80262417 0.19615382 0.1318281 -0.015405919 0.07597602 0.06653242 -0.023370646 0.113609776 -0.22071458 -0.22660881 0.025929732 0.05926081 0.062892035 -0.02414632 -0.37384188 0.20367903 -0.15646817 -0.14816682 -0.49616495
گوشی -0.33873656 0.074247725 0.035241656 0.055899512 0.13608338 -0.1585571 -0.39054802 0.23096284 -0.04047734 -0.15128951 0.21015698 -0.020852797 0.37487614 -0.07392733 -0.34683254 -0.44638073 0.18575743 -0.0138776405 -0.66176987 0.34108788 -0.16720591 -0.23768076 0.26225737 0.2216078 0.040135976 -0.3250142 0.031263545 0.13826215 0.14577894 -0.20078169 -0.33610582 -0.20071241 0.20809925 -0.43064234 0.0060135736 0.3616199 0.23854958 -0.17488654 -0.7638168 0.28010947 0.06355261 0.18498011 -0.40513712 -0.6809169 0.061821163 -0.18425632 0.02306079 -0.111710936 0.053225745 -0.091652356 -0.09141989 -0.36252943 -0.31698674 0.124027826 -0.35454342 -0.033440843 0.485479 0.074680634 -0.18937977 0.2862592 0.21436939 0.4811844 -0.24418315 0.032528393 -0.21752028 -0.6173918 -0.43925864 0.15050592 0.07314201 0.43845704 -0.4327987 0.16376479 -0.029315773 0.45097488 -0.17194133 0.41998932 0.24585661 0.41615692 -0.086369865 -0.57856107 0.16282414 0.8843702 0.21387888 0.10120467 0.01929634 -0.027186753 0.10850824 -0.044651613 0.10193444 -0.2782175 -0.29446077 -0.07556157 0.03387477 -0.0023362644 -0.10717278 -0.2702276 0.268681 -0.17619255 -0.087277286 -0.4705209
براي -0.38603026 0.07518236 0.064384 0.047829695 0.16128169 -0.08390968 -0.41770202 0.13367766 -0.074036784 -0.12665491 0.28922766 0.03257581 0.4024119 -0.0327188 -0.2781343 -0.4145008 0.20249757 0.08057772 -0.632277 0.32640913 -0.10181523 -0.26939884 0.2445442 0.25505456 0.1862475 -0.22755158 0.060094442 0.07227673 0.029532963 -0.23631857 -0.2715575 -0.10893786 0.17048612 -0.4388458 -0.08595542 0.34748825 0.14327613 -0.20346192 -0.7515756 0.31072804 0.0757746 0.20335901 -0.41140917 -0.71581167 -0.051997818 -0.15556717 0.07962113 -0.07895848 0.12224386 -0.14356355 -0.14568616 -0.303882 -0.4014181 0.076879784 -0.3647728 0.0038145282 0.5222821 0.013276087 -0.14918952 0.31558728 0.1887268 0.4727787 -0.24988474 -0.0127826445 -0.19805747 -0.5900464 -0.4367697 0.19409233 0.030639261 0.45054325 -0.3734073 0.16360715 -0.0646654 0.43629575 -0.22555386 0.38346946 0.379577 0.38588724 -0.037778754 -0.60995567 0.17352179 0.83456075 0.20648621 0.12198423 0.0045962543 0.059246212 0.076299146 -0.029468795 0.1155722 -0.22053693 -0.24628775 0.013373819 0.06697868 0.044539258 -0.029315723 -0.37837702 0.23022282 -0.15527608 -0.15371986 -0.51155454
بسیار -0.33963594 0.07521277 0.054653328 0.058715884 0.13062516 -0.14164858 -0.4073572 0.23757556 -0.025944207 -0.16084099 0.21858376 -0.024214603 0.4034523 -0.0801399 -0.36277387 -0.4614372 0.1788225 -0.025416214 -0.70168996 0.364924 -0.17805712 -0.25176015 0.27005342 0.21115975 0.054762132 -0.3343507 0.03083847 0.14808871 0.15977842 -0.22476347 -0.35488972 -0.20842493 0.22009799 -0.4607126 0.007147243 0.3821297 0.24708477 -0.18400364 -0.7810453 0.2856238 0.053698957 0.17730999 -0.4258358 -0.7064044 0.05536202 -0.17992926 0.01823344 -0.1139406 0.062446453 -0.09210077 -0.09375551 -0.37032357 -0.33778504 0.14037243 -0.36320552 -0.038929746 0.5049058 0.077135414 -0.20832686 0.30441102 0.22317463 0.49046874 -0.2526736 0.033160876 -0.20875429 -0.6583126 -0.4625066 0.1510908 0.0762858 0.47200105 -0.42995718 0.17849475 -0.033534367 0.47245577 -0.1711127 0.4392863 0.24671699 0.42380327 -0.09504952 -0.6080145 0.16403008 0.92704177 0.22282276 0.121453784 0.0137138115 -0.02548701 0.11675211 -0.05300754 0.10470563 -0.2950515 -0.28272712 -0.06673931 0.030285444 0.008989327 -0.12126456 -0.2819363 0.28177965 -0.18828885 -0.0884042 -0.48165095
ولي -0.3667787 0.0760587 0.05986131 0.03756118 0.15524256 -0.06176766 -0.40069804 0.10926642 -0.076268986 -0.11850716 0.28279817 0.04601114 0.3836242 -0.020346113 -0.24959382 -0.3822635 0.19523318 0.085733086 -0.59253913 0.30247092 -0.08318456 -0.25656942 0.2184881 0.2579432 0.19843103 -0.19610758 0.051737905 0.06506903 0.0064924583 -0.21919534 -0.24507913 -0.085150376 0.14762099 -0.39612532 -0.09304063 0.31767473 0.10750356 -0.19090234 -0.70839643 0.30195957 0.066966556 0.18911189 -0.39318788 -0.66856563 -0.07225047 -0.1387714 0.076919585 -0.06706067 0.11851874 -0.14198467 -0.14010076 -0.26974484 -0.39401978 0.06391093 -0.35639703 0.016848035 0.48622456 0.0050043184 -0.14303324 0.29816678 0.16807595 0.42436028 -0.23929097 -0.02769456 -0.18926077 -0.5479998 -0.40031832 0.18273427 0.02351734 0.4171451 -0.33438477 0.15591575 -0.073520645 0.4065549 -0.21223511 0.37466043 0.37297875 0.34108487 -0.026911251 -0.57980907 0.16518863 0.77050567 0.19118504 0.11883119 -0.0034310129 0.07022782 0.06270503 -0.027028315 0.10994275 -0.20992483 -0.21862255 0.03225619 0.058888663 0.06256538 -0.020705216 -0.3670715 0.2057612 -0.14859451 -0.14249676 -0.49197745
يک -0.39980978 0.07930742 0.05824683 0.03950616 0.16148612 -0.0865986 -0.42119932 0.1318246 -0.081312634 -0.12317322 0.29833114 0.038685586 0.3983056 -0.024900397 -0.28064397 -0.41218406 0.20737205 0.08236266 -0.64212346 0.3215467 -0.09867489 -0.2722635 0.24121226 0.2667681 0.18890126 -0.22643046 0.0633656 0.07329829 0.0293472 -0.2365817 -0.27666655 -0.10074589 0.18346767 -0.439809 -0.08507029 0.3475955 0.13693564 -0.20547248 -0.75884914 0.3151407 0.079344645 0.1997355 -0.41428408 -0.7230162 -0.061661273 -0.15761265 0.07761067 -0.078902304 0.118292026 -0.14300975 -0.14994608 -0.30596557 -0.40745065 0.071707435 -0.37045756 0.016578674 0.52247024 0.0151543515 -0.14970653 0.32427102 0.1863374 0.4748091 -0.25824913 -0.018378599 -0.20393255 -0.5960161 -0.44089228 0.19136979 0.03848338 0.44840494 -0.37922344 0.1583586 -0.07637657 0.43930408 -0.2264875 0.39562306 0.4007413 0.3785355 -0.03727616 -0.61587304 0.18038914 0.8406343 0.20210707 0.12790878 0.0030709682 0.06866118 0.06106687 -0.0265217 0.11911627 -0.2190835 -0.24971391 0.0069210655 0.06400053 0.055008728 -0.034194946 -0.3887849 0.22955759 -0.15187548 -0.14727 -0.5141803
کيفيت -0.35675237 0.0809483 0.07319566 0.031959977 0.15193148 -0.056619965 -0.4030675 0.111259475 -0.059601847 -0.10733932 0.2698283 0.043801967 0.37825885 -0.032585863 -0.26688603 -0.39178997 0.18787809 0.052074097 -0.59965974 0.29386035 -0.09624574 -0.2420564 0.21781178 0.24406627 0.17478536 -0.20470321 0.04375883 0.07320635 0.027809944 -0.2180337 -0.2504873 -0.105493285 0.16176453 -0.3885253 -0.07757517 0.33825082 0.118682615 -0.17407233 -0.6943539 0.30957362 0.065152936 0.18284613 -0.40153912 -0.66035676 -0.058280237 -0.13285379 0.06345944 -0.076991305 0.10419817 -0.1285415 -0.13062339 -0.28158897 -0.38727495 0.07676979 -0.34499273 0.0058965017 0.47708645 0.019534243 -0.17563275 0.29087687 0.16328418 0.4263375 -0.24544844 -0.005250728 -0.1826262 -0.55905473 -0.4015234 0.16801688 0.030998116 0.41376922 -0.33087564 0.15618005 -0.04905579 0.40773907 -0.18644331 0.3737221 0.3413953 0.3413295 -0.046642233 -0.577218 0.14929008 0.79390097 0.19540524 0.12409364 -0.025566585 0.07573698 0.08226615 -0.03842739 0.11895151 -0.21487622 -0.22937222 0.027774835 0.06004467 0.045271028 -0.05096817 -0.34552562 0.20344059 -0.16038752 -0.13966046 -0.48594007
کار -0.35324574 0.08109839 0.052823078 0.036317635 0.1485889 -0.1012903 -0.39967495 0.15409577 -0.06083571 -0.13080245 0.24898325 0.023566116 0.3801726 -0.040360563 -0.28790066 -0.399909 0.18298824 0.04948807 -0.62064147 0.31044024 -0.12130124 -0.2509651 0.23525508 0.22755757 0.12906508 -0.24862814 0.045324642 0.08664381 0.06051023 -0.21023507 -0.27403527 -0.13234793 0.17641963 -0.41294593 -0.058562085 0.33063686 0.16402993 -0.17975888 -0.71216476 0.27899024 0.07336201 0.18735427 -0.39573568 -0.6675589 -0.020463785 -0.15087493 0.051570825 -0.089770176 0.09235174 -0.11044235 -0.12119168 -0.30224815 -0.3531132 0.08470532 -0.3448488 -0.00632818 0.48317945 0.032374196 -0.17140917 0.28748202 0.18260556 0.45381102 -0.23750176 -0.0047931997 -0.19653346 -0.5803679 -0.41529664 0.17002717 0.04336857 0.42102563 -0.37439078 0.15809226 -0.056981727 0.4213567 -0.19732663 0.37756467 0.31994736 0.3732224 -0.050434645 -0.57705206 0.1556548 0.8117639 0.1948985 0.11440299 0.0013560961 0.030113364 0.07864816 -0.031721342 0.108321585 -0.22787523 -0.25325683 -0.0083893845 0.059284724 0.03919545 -0.058210496 -0.3320637 0.22481722 -0.14913838 -0.11669056 -0.48160383
! -0.36391464 0.079021595 0.053694878 0.047550622 0.14641608 -0.08556053 -0.40193275 0.13982776 -0.07048351 -0.12948169 0.26118463 0.026651744 0.37937012 -0.032736044 -0.28137037 -0.3980021 0.19289191 0.059768956 -0.61695004 0.30959165 -0.11109511 -0.24568698 0.23870592 0.2416465 0.15619971 -0.23761418 0.054128446 0.07838851 0.0493858 -0.2142245 -0.27022174 -0.116799265 0.16675775 -0.4174452 -0.062062673 0.33380032 0.14834909 -0.17972854 -0.71944505 0.2942781 0.06787682 0.18221898 -0.3907062 -0.67129856 -0.02615454 -0.14603841 0.06476771 -0.07890949 0.10155385 -0.11933227 -0.1308265 -0.30638865 -0.37321362 0.07843594 -0.35176712 -0.0039684037 0.48859742 0.024105791 -0.15338296 0.29272506 0.18606469 0.4442728 -0.23667999 -0.010935433 -0.1877141 -0.56847256 -0.41103625 0.16680224 0.04155768 0.4221892 -0.36113802 0.15184791 -0.062248215 0.4159451 -0.20191947 0.38259745 0.33649907 0.36428994 -0.049951665 -0.57646555 0.16028814 0.80130285 0.19307347 0.11240421 0.0044567394 0.042742595 0.07784862 -0.028539155 0.11596683 -0.22956772 -0.23988204 0.003125284 0.061654065 0.037067037 -0.050840277 -0.34037355 0.21728964 -0.15217102 -0.13153562 -0.4778419
قرار -0.3613547 0.080696315 0.0509756 0.053627696 0.14269038 -0.13308595 -0.4128662 0.20750174 -0.05191286 -0.13897751 0.241914 -0.004137052 0.40426525 -0.077113815 -0.33684543 -0.45450047 0.20522004 0.0063567683 -0.68664664 0.35605803 -0.1502432 -0.25286663 0.26752433 0.24042909 0.075868584 -0.32213002 0.038310412 0.12769414 0.11733121 -0.21919788 -0.33829138 -0.17704304 0.21225682 -0.45533922 -0.015242956 0.37304136 0.2228879 -0.18328379 -0.790313 0.3005191 0.06374941 0.19874763 -0.42068607 -0.71240854 0.032953322 -0.18359093 0.038604382 -0.10159403 0.07056087 -0.100367606 -0.11493662 -0.36987278 -0.3570904 0.11529972 -0.37950155 -0.024567595 0.509371 0.06339216 -0.19048133 0.30046996 0.21763648 0.4944795 -0.25119627 0.02114061 -0.21754365 -0.63833505 -0.45796487 0.16852999 0.06444249 0.46229511 -0.4299707 0.1652571 -0.04448406 0.4591076 -0.18235366 0.42600003 0.2892735 0.41970956 -0.07977254 -0.609704 0.17465276 0.90371114 0.21916635 0.1140027 0.025708238 -0.0015094244 0.107510515 -0.033732448 0.1077846 -0.27421787 -0.2892929 -0.04541051 0.04820118 0.015228097 -0.09605982 -0.3019353 0.27613315 -0.17120582 -0.11583796 -0.5027468
يه -0.39418113 0.080370046 0.06712331 0.03765315 0.15906657 -0.073044315 -0.4307708 0.128227 -0.075166784 -0.12638359 0.2931746 0.043645445 0.40965834 -0.022802606 -0.27799648 -0.4112511 0.20537964 0.07670772 -0.64345807 0.31829828 -0.1077066 -0.26742116 0.24127778 0.26843143 0.19410603 -0.21886326 0.0555832 0.06770484 0.024778042 -0.23692344 -0.26760626 -0.10332885 0.16827555 -0.4347528 -0.07714779 0.3404993 0.13952395 -0.20084272 -0.7542787 0.32133144 0.07532685 0.20451587 -0.4135441 -0.7123509 -0.06285367 -0.15049174 0.06707682 -0.08540101 0.109945536 -0.13367733 -0.14091414 -0.3044674 -0.40251237 0.07125471 -0.37561983 0.006387462 0.5197203 0.014651082 -0.1629605 0.3122227 0.18164107 0.46950415 -0.2477407 -0.017285261 -0.2001335 -0.5902131 -0.4358948 0.18570505 0.03353533 0.4423056 -0.36527103 0.1577817 -0.07076093 0.4376513 -0.22231415 0.39857382 0.38825226 0.37422544 -0.03421619 -0.6157209 0.1735492 0.8376725 0.20859204 0.12338858 -0.006602445 0.07376329 0.068376146 -0.028499726 0.12784527 -0.22372682 -0.24183911 0.02089488 0.06422711 0.057472214 -0.03651727 -0.37631044 0.21870767 -0.15812749 -0.14332308 -0.51798236
مدل -0.369812 0.07021221 0.04461866 0.05168455 0.14941102 -0.111602716 -0.42043722 0.17659496 -0.06514519 -0.14105617 0.25883627 0.008313693 0.39513424 -0.054954182 -0.30622616 -0.4396841 0.20155808 0.0418205 -0.66498715 0.3480345 -0.13854562 -0.26014933 0.26466146 0.24382772 0.12443233 -0.27326423 0.051148474 0.09192319 0.08771369 -0.2335897 -0.2955105 -0.14342788 0.19333966 -0.44185635 -0.036721732 0.35179615 0.18583913 -0.1931907 -0.7726483 0.2998754 0.06132148 0.1983149 -0.4196434 -0.70228624 -0.002349466 -0.16994612 0.052257907 -0.0816306 0.09056013 -0.10868694 -0.12854438 -0.3401961 -0.37055448 0.101116985 -0.37736034 -0.017034357 0.5121778 0.045304906 -0.16504864 0.31607988 0.20250167 0.4911783 -0.250839 -0.0020805388 -0.21141852 -0.6097966 -0.44454828 0.1693392 0.043579146 0.45802033 -0.40285596 0.17569609 -0.05686532 0.44866332 -0.19774754 0.4107603 0.3300164 0.4051069 -0.049395107 -0.6126209 0.17089872 0.8644741 0.21002486 0.11982644 0.015704075 0.026404923 0.0971391 -0.025341315 0.11013668 -0.25681362 -0.27977282 -0.018893702 0.051773872 0.02726428 -0.06364001 -0.3434261 0.25396562 -0.17553894 -0.1180767 -0.4882012
خوب -0.31115994 0.071320824 0.05643133 0.031897448 0.12775026 -0.08033965 -0.3507442 0.14859338 -0.046397965 -0.113686934 0.22505003 0.0153024355 0.33390045 -0.040313184 -0.26425397 -0.35686937 0.1565525 0.031000542 -0.5454141 0.27853066 -0.10778346 -0.22376461 0.20277812 0.20109743 0.11439778 -0.21175702 0.045431737 0.0870678 0.056756575 -0.18963043 -0.25047177 -0.11949953 0.1611701 -0.3714442 -0.050382968 0.3040375 0.13942307 -0.162408 -0.6362954 0.2611024 0.056665927 0.15961573 -0.35648265 -0.58290344 -0.00726119 -0.13052794 0.049982693 -0.08176251 0.074692376 -0.10154513 -0.10333487 -0.2738658 -0.32416466 0.07829215 -0.3069549 -0.008754192 0.42730454 0.0355253 -0.14722173 0.25669852 0.17171562 0.38973966 -0.213523 0.006273307 -0.1700437 -0.5100678 -0.37143418 0.13523816 0.03331291 0.37652975 -0.32445812 0.13332473 -0.042257365 0.3696749 -0.16851975 0.35166278 0.28620267 0.3316463 -0.04711906 -0.51339746 0.13302116 0.7244702 0.17278616 0.10840431 0.0018470812 0.037396856 0.0743667 -0.036571555 0.09812282 -0.21036063 -0.21219115 -0.012693622 0.037646335 0.030131184 -0.052023187 -0.2854632 0.20734799 -0.13604152 -0.10474674 -0.4205689
نسبت -0.35964847 0.07732444 0.061207123 0.041597847 0.15819441 -0.092519075 -0.4083125 0.1621566 -0.06869653 -0.12936412 0.25440887 0.027945243 0.38990742 -0.042008247 -0.29520294 -0.40997183 0.18991569 0.04518972 -0.6355327 0.33210522 -0.12130253 -0.25877303 0.2376774 0.24679528 0.14200857 -0.25185087 0.047266573 0.09099811 0.06646968 -0.2280836 -0.2817577 -0.14054205 0.1761958 -0.4253013 -0.049230635 0.33861575 0.15474398 -0.18526106 -0.741649 0.2960329 0.06896637 0.18950778 -0.41394535 -0.6831425 -0.0205796 -0.15391017 0.052062623 -0.0943168 0.09971289 -0.11858843 -0.1343487 -0.30798382 -0.36624005 0.08759728 -0.3562102 -0.013745885 0.4936383 0.037459936 -0.1587177 0.30222777 0.19261953 0.45703498 -0.25107884 -0.007866157 -0.20190059 -0.5814394 -0.42793575 0.16303036 0.035762567 0.4279584 -0.37046823 0.16399045 -0.059268482 0.43607086 -0.19136997 0.39942488 0.32450184 0.3702914 -0.053184662 -0.58350104 0.1633607 0.83019096 0.19142827 0.11512689 0.0031291458 0.04367853 0.085900165 -0.02690845 0.1173942 -0.23734331 -0.2529285 -0.016393742 0.04880127 0.032148484 -0.053860765 -0.34479466 0.22630574 -0.16073266 -0.12314383 -0.48242444
ميشه -0.3802086 0.077838205 0.05542838 0.035441853 0.15945427 -0.08603495 -0.4223653 0.13656355 -0.07657821 -0.1264605 0.28874472 0.036179285 0.40383723 -0.028741576 -0.28391176 -0.4151097 0.20238748 0.061998278 -0.64044034 0.31826514 -0.10763965 -0.26091123 0.241971 0.26053518 0.17814012 -0.23229392 0.060637068 0.07876652 0.03242167 -0.22708651 -0.27169952 -0.10807748 0.17731938 -0.43670404 -0.07079215 0.35086542 0.14402686 -0.19217756 -0.75545794 0.31641752 0.07558382 0.20171176 -0.41999155 -0.70797193 -0.05094357 -0.15883522 0.07194036 -0.08640395 0.116676345 -0.1374451 -0.13879362 -0.303821 -0.3968924 0.081508875 -0.36525062 0.0017800994 0.5144805 0.016397094 -0.16194294 0.30752754 0.18956295 0.4597599 -0.25531954 -0.016622297 -0.19971213 -0.5970171 -0.43615362 0.17863502 0.037206683 0.44754687 -0.37026784 0.16094725 -0.06709826 0.4415437 -0.21175465 0.40030298 0.37101117 0.37851986 -0.041866757 -0.60322165 0.1719761 0.84299195 0.19923538 0.12567683 -0.0014707102 0.06012378 0.07165165 -0.03356283 0.11900084 -0.23016134 -0.24751034 0.0071191774 0.058146685 0.050676774 -0.04675941 -0.37376902 0.22894846 -0.15197998 -0.14622857 -0.5126516
بازي -0.3678253 0.07844372 0.04854212 0.05046138 0.15380225 -0.0725338 -0.399216 0.1253532 -0.064990334 -0.13079911 0.28397053 0.02636336 0.37794593 -0.03579436 -0.26579764 -0.389896 0.19030608 0.08071598 -0.6086456 0.31066293 -0.09878977 -0.2544353 0.23396355 0.25005126 0.1747067 -0.23287755 0.04756245 0.06707644 0.036036078 -0.22322129 -0.25487536 -0.10589382 0.1557305 -0.41307262 -0.069691196 0.32913432 0.1344598 -0.18057208 -0.7232793 0.2953066 0.07623074 0.19406898 -0.38805673 -0.68581134 -0.044459123 -0.13697387 0.06506717 -0.06728562 0.112898625 -0.12830171 -0.13699535 -0.3036616 -0.37637562 0.07291369 -0.35654774 -0.006226055 0.5025066 0.005816706 -0.1490222 0.2993064 0.17339487 0.45425263 -0.24159683 -0.020665966 -0.19224653 -0.5670544 -0.41624445 0.19415389 0.0327759 0.43342203 -0.36120778 0.16542204 -0.07804311 0.4143684 -0.20986126 0.36087605 0.37037677 0.36529565 -0.028363766 -0.58135027 0.16718681 0.80277085 0.19798207 0.11699759 0.011712455 0.056933705 0.07475081 -0.023461059 0.11809043 -0.21416019 -0.23982431 0.018935291 0.06584177 0.04003367 -0.029357847 -0.35844842 0.22215873 -0.15978473 -0.1364212 -0.48947296
نمایش -0.29897448 0.078514524 0.061842114 0.039891697 0.10214896 -0.13437434 -0.35476556 0.19767125 -0.014619529 -0.11842457 0.17922044 -0.018142147 0.3424107 -0.08890162 -0.30587724 -0.4065329 0.17078246 -0.04088577 -0.5928806 0.2867092 -0.15843791 -0.2107732 0.21373838 0.18713462 0.042046625 -0.27823383 0.021702493 0.14655137 0.1490066 -0.19541487 -0.31571957 -0.19820748 0.20293204 -0.37338883 0.031203983 0.3436151 0.20347454 -0.14647251 -0.6552311 0.24812026 0.03624223 0.14743596 -0.39325032 -0.5955234 0.03521911 -0.14665864 -0.014971718 -0.118120894 0.047041696 -0.064875156 -0.11184052 -0.29383755 -0.29113948 0.13227794 -0.28384635 -0.034460064 0.43283528 0.08205369 -0.21245813 0.25130305 0.16328767 0.39579326 -0.24002759 0.046390068 -0.18058543 -0.5588271 -0.40666005 0.10358269 0.07010118 0.41095346 -0.37293696 0.14715 0.000795504 0.4047217 -0.12313217 0.37935534 0.19912404 0.3711289 -0.09110661 -0.53090674 0.13768195 0.80762595 0.17669442 0.09330302 -0.03151349 -0.009329252 0.119969346 -0.055551935 0.09014747 -0.23761494 -0.2553057 -0.06406517 0.025069265 0.013382752 -0.12723798 -0.2318568 0.20251822 -0.17213994 -0.06632654 -0.42315385
اي -0.3672213 0.075454846 0.036143366 0.020774677 0.14044943 -0.096028 -0.40110528 0.11961835 -0.06926817 -0.117455356 0.2599732 0.040207703 0.3751739 -0.02713372 -0.24003454 -0.39249077 0.20101851 0.07770083 -0.61023474 0.30232167 -0.10455442 -0.24945356 0.23067333 0.241491 0.16798733 -0.20128381 0.062254343 0.060435366 0.023666238 -0.2184408 -0.24931528 -0.098272644 0.16334152 -0.4129238 -0.059131544 0.31134754 0.14169881 -0.18339321 -0.7073191 0.29289716 0.07251059 0.17218079 -0.37632945 -0.66261226 -0.048720695 -0.12466338 0.05498785 -0.086944245 0.11420198 -0.11455367 -0.14063047 -0.2625763 -0.38171965 0.07197404 -0.34789497 0.018363219 0.48994687 0.026799275 -0.13183795 0.29232934 0.17292073 0.45152825 -0.24382992 -0.035900667 -0.18625325 -0.5479092 -0.41533765 0.1695674 0.01660513 0.427771 -0.3679505 0.14437489 -0.09486943 0.41154513 -0.20972468 0.36319858 0.36938578 0.36053142 -0.018710399 -0.55228305 0.17043142 0.799357 0.17947482 0.10941548 0.0013670655 0.05504885 0.066399984 0.01092635 0.118058406 -0.21255517 -0.25254023 -0.0015299161 0.07042672 0.06520723 -0.023330046 -0.37702182 0.20543389 -0.1625986 -0.13529934 -0.48158318
نيست -0.35802242 0.074883156 0.051255047 0.04212498 0.14669257 -0.075401016 -0.39556977 0.118582815 -0.06922948 -0.11708176 0.26209295 0.035455104 0.37401703 -0.024594123 -0.2655645 -0.38000137 0.18744874 0.06549678 -0.5976851 0.29529834 -0.10451968 -0.24293989 0.22697985 0.23786153 0.1685505 -0.21151489 0.054075614 0.06732827 0.030575287 -0.21970557 -0.2510641 -0.099558115 0.15772553 -0.39734447 -0.071198866 0.3207597 0.12686977 -0.18203917 -0.70307875 0.29337662 0.06390813 0.182566 -0.37957105 -0.6536046 -0.046996333 -0.13456163 0.05677216 -0.07529751 0.1012558 -0.11839718 -0.12580417 -0.28616673 -0.36966145 0.07111117 -0.3430568 0.00095780345 0.48429322 0.02191977 -0.15084259 0.29285732 0.17540315 0.4267118 -0.23324007 -0.017060155 -0.18399386 -0.55068415 -0.39699963 0.16664965 0.028913755 0.4206557 -0.34291026 0.15470956 -0.060666688 0.41270295 -0.19694221 0.365741 0.3394445 0.34950197 -0.04284674 -0.571922 0.15891229 0.7801746 0.19529434 0.113361634 0.0011848006 0.059537347 0.07514509 -0.030391475 0.11124436 -0.22164567 -0.22758137 0.016599633 0.053183936 0.049480315 -0.0372915 -0.3453094 0.2062245 -0.15217555 -0.13140462 -0.46869463
کیفیت -0.32415986 0.07729501 0.042705346 0.057925772 0.12465998 -0.12607472 -0.39025655 0.21744356 -0.027099209 -0.15719028 0.21974479 -0.01736436 0.37910965 -0.0794026 -0.34234226 -0.44023103 0.18608747 -0.024403214 -0.66535145 0.33309257 -0.1688313 -0.23075719 0.24687561 0.20599481 0.047477894 -0.3064194 0.037512247 0.13649009 0.143943 -0.21228655 -0.3219278 -0.201697 0.2006262 -0.43179247 -0.0023061559 0.35254765 0.23109289 -0.16760409 -0.7474076 0.28368568 0.05018098 0.17495346 -0.40717486 -0.6665646 0.056037437 -0.17395417 0.01991737 -0.10607552 0.0487046 -0.08275896 -0.09185883 -0.36511353 -0.32606503 0.12128724 -0.35245863 -0.042722855 0.487693 0.07844247 -0.19839329 0.2817952 0.21671775 0.47352841 -0.23724125 0.032482665 -0.19065702 -0.6153254 -0.43664217 0.13989654 0.05674476 0.44306725 -0.4107213 0.17285785 -0.021804828 0.44885597 -0.16121705 0.42067304 0.24034667 0.4078444 -0.079267755 -0.58245516 0.15369254 0.8705521 0.19718169 0.10853265 0.008847919 -0.013945056 0.1233165 -0.042417753 0.104881555 -0.27541712 -0.26698005 -0.053915117 0.033771712 0.01279393 -0.12211888 -0.26063755 0.26952758 -0.18451166 -0.088111185 -0.46046332
بسيار -0.36696166 0.07700832 0.07142738 0.034962047 0.15523928 -0.06497676 -0.40486422 0.1257967 -0.058799747 -0.12493525 0.27621317 0.034540012 0.38052464 -0.03560552 -0.28498563 -0.4014307 0.19406322 0.05654694 -0.615015 0.31990176 -0.09850749 -0.26171747 0.23726813 0.25086084 0.1730064 -0.21495314 0.051727194 0.072922945 0.04094123 -0.22491659 -0.2619383 -0.11148954 0.16633505 -0.4181358 -0.079901 0.34429947 0.13379069 -0.186522 -0.72299314 0.31001168 0.06769166 0.19306742 -0.41069946 -0.68609154 -0.04852354 -0.1385412 0.06774381 -0.08142741 0.10400462 -0.12828624 -0.13212943 -0.29052714 -0.39013198 0.07690843 -0.3601774 0.008056532 0.49583805 0.014829815 -0.16692737 0.29901543 0.17454952 0.44528466 -0.2427974 -0.0162619 -0.19501524 -0.57983285 -0.41364408 0.17754889 0.043408457 0.43295404 -0.35350987 0.15599386 -0.06173193 0.42835462 -0.20549287 0.38034448 0.36198494 0.36611584 -0.048695818 -0.5929511 0.15515324 0.8126086 0.19755092 0.12511396 -0.014476431 0.070454195 0.075518064 -0.033465695 0.12217434 -0.21970731 -0.2437626 0.018186798 0.05715428 0.05375225 -0.039281048 -0.3633294 0.20541313 -0.16037151 -0.14721636 -0.49908316
اپل -0.37285787 0.07709665 0.04057827 0.036997017 0.15043285 -0.106448255 -0.40820423 0.1538813 -0.0792576 -0.13523437 0.27012038 0.016724844 0.38046008 -0.03045599 -0.2790317 -0.40574178 0.20172197 0.061925225 -0.63459563 0.3175968 -0.11361177 -0.25314647 0.2393872 0.2399469 0.14484793 -0.250662 0.047365654 0.087267496 0.05773463 -0.20867161 -0.2796255 -0.12544054 0.18475431 -0.42060164 -0.05314805 0.32841307 0.16126777 -0.19249015 -0.73070323 0.28659922 0.06928617 0.18319322 -0.40362006 -0.6839658 -0.02686532 -0.15742251 0.06350405 -0.083441384 0.0956365 -0.115217924 -0.12653604 -0.31460977 -0.37396687 0.08404864 -0.36401767 -0.0018877962 0.49163958 0.019650597 -0.15352029 0.30021507 0.19148223 0.45755535 -0.24009243 -0.0030024704 -0.20100476 -0.59719753 -0.42529976 0.16868968 0.03923406 0.4405104 -0.374912 0.15791115 -0.0644563 0.42985588 -0.20874223 0.38406685 0.34533343 0.37476835 -0.051845666 -0.59274787 0.1574665 0.8243024 0.19995269 0.122372836 0.007627405 0.035818614 0.06824716 -0.025866916 0.11797126 -0.22035904 -0.25292295 -0.014818174 0.057860103 0.040453043 -0.055771206 -0.35459363 0.233071 -0.15243572 -0.12768532 -0.47743747
عکس -0.34242773 0.08033613 0.05545795 0.040201545 0.13294852 -0.09152393 -0.3823001 0.15334144 -0.046874344 -0.13129103 0.24448495 0.012733485 0.37555298 -0.049517404 -0.3035109 -0.41026434 0.18179649 0.037951406 -0.61533725 0.31855553 -0.1270517 -0.24073699 0.23364735 0.2370935 0.12994878 -0.24943316 0.037838332 0.096562326 0.07317817 -0.21128213 -0.27266 -0.13233288 0.17661344 -0.41162774 -0.047212455 0.3404583 0.1602234 -0.17680378 -0.7160298 0.28394666 0.06342059 0.1769325 -0.39174587 -0.6484675 -0.010701858 -0.14722137 0.051139414 -0.080212235 0.090424925 -0.10575296 -0.116297536 -0.31749162 -0.35004935 0.09086615 -0.34687266 -0.015715895 0.48484287 0.04631886 -0.17408296 0.27968648 0.19249171 0.44732025 -0.23982114 0.000133802 -0.18599357 -0.56324875 -0.4065124 0.17153421 0.051627114 0.4159494 -0.35657337 0.15776224 -0.054912277 0.425122 -0.1918648 0.38426328 0.30198273 0.3711311 -0.05367685 -0.5782413 0.15391295 0.81317633 0.19304454 0.11604555 0.00074298156 0.036694366 0.09307888 -0.03539008 0.10136211 -0.24395981 -0.2506542 -0.002962614 0.050658807 0.036394436 -0.06401584 -0.3163897 0.23134948 -0.1704872 -0.12959133 -0.46923155
سرعت -0.34601495 0.07741247 0.04726826 0.04812265 0.14101748 -0.10243687 -0.39595875 0.16543359 -0.05350593 -0.12982866 0.2513059 0.016550515 0.37846646 -0.04612296 -0.30621096 -0.4075513 0.18675937 0.035069555 -0.63078797 0.32700998 -0.11747011 -0.24565941 0.24225873 0.22841407 0.1246823 -0.2568463 0.046984047 0.09406289 0.08078265 -0.22003071 -0.2860506 -0.1435254 0.17874926 -0.4187258 -0.04315539 0.34386015 0.17297125 -0.18169342 -0.72263086 0.2979388 0.059489902 0.18471497 -0.4031207 -0.66722 -0.003977115 -0.15356925 0.051813673 -0.09578917 0.0839968 -0.10476511 -0.11293957 -0.31993487 -0.35260108 0.09698366 -0.36355206 -0.015503965 0.48934126 0.047659546 -0.17396654 0.29482004 0.19351004 0.45934492 -0.24488497 0.004700406 -0.19179165 -0.5717172 -0.4203867 0.17140846 0.053166144 0.43195206 -0.3767967 0.16532221 -0.048166476 0.4303108 -0.19200191 0.38672352 0.313545 0.37642062 -0.05419696 -0.58063465 0.15661366 0.8340512 0.19608502 0.11881734 -0.0002200272 0.02975055 0.09733427 -0.03721311 0.10715254 -0.24423057 -0.2586256 -0.013136155 0.040469382 0.033133667 -0.07595377 -0.31301028 0.2382849 -0.17395112 -0.1238723 -0.47937962
دستگاه -0.37140077 0.07155739 0.05980527 0.057384584 0.15570445 -0.12268002 -0.4239946 0.18923728 -0.05022983 -0.13713336 0.25724766 0.007356059 0.41324073 -0.056037165 -0.32827035 -0.4510493 0.2011027 0.030401561 -0.6792269 0.35367 -0.14573842 -0.25559396 0.2625068 0.24610221 0.12099657 -0.29701972 0.04118017 0.1113836 0.089754924 -0.23815295 -0.32107046 -0.1663733 0.19559664 -0.4592596 -0.040478468 0.3734957 0.19716308 -0.20010477 -0.79311436 0.3048968 0.074585065 0.20116185 -0.42048988 -0.71884805 0.010796405 -0.16785182 0.051287603 -0.09723881 0.08838517 -0.12107973 -0.11907131 -0.34866345 -0.37522987 0.11028614 -0.37893897 -0.022618366 0.5315589 0.05182543 -0.17705621 0.3211933 0.20624815 0.49903783 -0.25126687 0.01150631 -0.21130115 -0.6275921 -0.45904502 0.17905597 0.06451978 0.4679866 -0.4124212 0.17267562 -0.05092942 0.46807593 -0.1997775 0.41897234 0.32482865 0.4173297 -0.06858568 -0.62694645 0.17285739 0.90079767 0.21023518 0.11511462 0.020904709 0.019399896 0.102202885 -0.04211504 0.108713835 -0.26846606 -0.28492987 -0.024513582 0.05224622 0.029988432 -0.082949735 -0.33140585 0.25954536 -0.1719252 -0.12657996 -0.51532197
قيمت -0.36130816 0.06983103 0.05575158 0.038674474 0.1619428 -0.057724528 -0.38644484 0.11908747 -0.07868317 -0.11673031 0.2800394 0.038513113 0.3645282 -0.024382602 -0.25617942 -0.3742097 0.18507075 0.080222584 -0.5835286 0.28993616 -0.08754078 -0.2489412 0.22357859 0.2420572 0.1984194 -0.19636163 0.05274323 0.067496836 0.010247711 -0.21666877 -0.2343556 -0.0840429 0.16387028 -0.39694437 -0.083476596 0.31424204 0.11743373 -0.1888467 -0.707143 0.2968734 0.06665397 0.19285724 -0.38162196 -0.6583076 -0.061149735 -0.13611431 0.08218816 -0.060180206 0.114933744 -0.14258729 -0.13716616 -0.2791724 -0.38068002 0.0627034 -0.34156924 0.0031891407 0.4776784 0.011905974 -0.13228011 0.2977038 0.1768402 0.42807606 -0.23903236 -0.020378496 -0.1879881 -0.5444667 -0.40196398 0.16844808 0.03514274 0.41598997 -0.33290708 0.14469083 -0.06512489 0.40914634 -0.21051593 0.36320972 0.3779489 0.3491995 -0.028451886 -0.5706783 0.16902192 0.76049894 0.18453899 0.11408931 -0.002382125 0.06603306 0.06479178 -0.02945931 0.11586906 -0.19549982 -0.22516352 0.027807057 0.0605665 0.05011799 -0.028288329 -0.3656741 0.19936347 -0.14714801 -0.14079109 -0.4780812
بايد -0.377882 0.06927156 0.051908366 0.030484663 0.16137865 -0.07693411 -0.400302 0.12670869 -0.08139028 -0.11825255 0.2735557 0.029532459 0.39143977 -0.022406 -0.2614352 -0.40335956 0.1988149 0.07628688 -0.61438805 0.3066118 -0.10168395 -0.26450023 0.22911489 0.2520978 0.19500223 -0.21189122 0.05262633 0.07668262 0.021705665 -0.22734922 -0.25790983 -0.102179475 0.17275427 -0.4145469 -0.0854497 0.33510882 0.12946156 -0.19221005 -0.731606 0.3032695 0.07226115 0.19882861 -0.39230952 -0.6899166 -0.058417905 -0.14536141 0.06622036 -0.07860343 0.11455653 -0.13612531 -0.13502264 -0.2965733 -0.3914729 0.07502317 -0.36105937 0.012143614 0.50261307 0.020195829 -0.15277934 0.3018126 0.18096988 0.451759 -0.24320804 -0.021249233 -0.19408663 -0.5737908 -0.41209853 0.17943566 0.03356652 0.42728886 -0.3510966 0.15062317 -0.07693804 0.4159521 -0.1984022 0.38038045 0.36506137 0.35387823 -0.034992497 -0.58519536 0.17405428 0.80103546 0.19420153 0.12577797 0.004262027 0.062294103 0.072476484 -0.02024227 0.12061825 -0.21927671 -0.22969091 0.020390369 0.057630382 0.058263723 -0.04133788 -0.37117976 0.2211462 -0.14622344 -0.14684887 -0.48828116
نداره -0.3838017 0.07439861 0.05808583 0.035455786 0.15447383 -0.07050095 -0.41852927 0.12574326 -0.07973001 -0.12942715 0.28667125 0.046271436 0.39318806 -0.025054915 -0.27707478 -0.4017952 0.19666222 0.06483417 -0.62362164 0.3186797 -0.10345214 -0.25178927 0.23678608 0.2565448 0.18510137 -0.22280669 0.05388964 0.07454101 0.027616601 -0.22139373 -0.26954266 -0.09944338 0.15974607 -0.4099278 -0.07002699 0.34268376 0.12651132 -0.1909799 -0.73386663 0.31248164 0.07846288 0.19203654 -0.40751785 -0.683998 -0.047824036 -0.14032081 0.061173443 -0.08728856 0.114688426 -0.13063689 -0.14647731 -0.2967213 -0.39224324 0.076060146 -0.35652024 0.009479741 0.49585605 0.017377535 -0.16513188 0.29689962 0.1667382 0.45358068 -0.2463108 -0.014855437 -0.18329647 -0.5654486 -0.4218044 0.1825968 0.03202082 0.4283111 -0.35432875 0.15120047 -0.06452041 0.42577258 -0.19969581 0.38520703 0.35683995 0.36754438 -0.029347427 -0.5963733 0.16205624 0.8220813 0.19173603 0.13121851 -0.000101881444 0.06583119 0.07124894 -0.028589088 0.12607452 -0.22505474 -0.24143055 0.010743832 0.05745407 0.043499105 -0.03513749 -0.3697289 0.20971379 -0.15247567 -0.13152087 -0.49989417
عامل -0.38298246 0.12486843 -0.007781741 0.024808532 0.14995922 -0.17741574 -0.39543596 0.19414927 -0.12104095 -0.12331907 0.25805852 -0.036296196 0.31913748 -0.023866141 -0.2898943 -0.38324246 0.20061287 0.11433941 -0.6504363 0.36423236 -0.061709013 -0.2525806 0.28951505 0.23797409 0.059429474 -0.29761288 0.017145652 0.10262002 0.09784291 -0.16501269 -0.34451565 -0.13111213 0.22924916 -0.40759698 -0.07486191 0.30339557 0.22140466 -0.17431335 -0.7393923 0.22513464 0.08180917 0.16702993 -0.39714006 -0.6913689 -0.044299312 -0.1931879 0.079737455 -0.08016376 0.13887613 -0.1258848 -0.12152353 -0.3161297 -0.3461143 0.07711616 -0.3479161 0.05738946 0.48870248 0.0044407044 -0.1650608 0.30337733 0.18990386 0.4896741 -0.24944144 0.008229616 -0.23582283 -0.61319894 -0.47349715 0.15737514 0.06425416 0.4035282 -0.40231073 0.14835781 -0.064095445 0.4141228 -0.21333675 0.36320332 0.39509615 0.3735137 -0.093956165 -0.590275 0.16714486 0.8893259 0.23959523 0.12109984 0.06880289 0.0069503086 0.03147901 -0.036750004 0.09095345 -0.1910567 -0.29380777 -0.09420095 0.054816067 -0.024678273 -0.024425158 -0.36266795 0.29997748 -0.10462171 -0.13839757 -0.49045938
2 -0.38874736 0.08359431 0.05344786 0.040412724 0.14968097 -0.1137984 -0.42178544 0.16151802 -0.07575056 -0.1334683 0.2697297 0.02230148 0.40345246 -0.05423449 -0.3063152 -0.43872797 0.20395206 0.04590809 -0.6655563 0.3410253 -0.12932028 -0.26833862 0.25481036 0.26312423 0.14564627 -0.25945097 0.044112608 0.09055965 0.07185105 -0.22618079 -0.30346814 -0.13173376 0.18250662 -0.44146398 -0.054169524 0.36170778 0.17610694 -0.20652594 -0.7695957 0.31032938 0.068158075 0.18846117 -0.42437184 -0.7182036 -0.022407195 -0.16141441 0.04802322 -0.09608173 0.10857042 -0.13076355 -0.13718596 -0.3362464 -0.38904318 0.09276085 -0.38800454 -0.0053582555 0.51693034 0.044110157 -0.17140454 0.31489468 0.19111674 0.48015925 -0.25805128 -0.0049114227 -0.2133354 -0.61335903 -0.4555595 0.17297235 0.04965598 0.45950544 -0.39789084 0.16867596 -0.06978847 0.45923826 -0.20127995 0.41701967 0.3550365 0.3992106 -0.05245668 -0.620592 0.1719039 0.87983817 0.21054973 0.12597734 0.008064772 0.032334168 0.08721635 -0.021967985 0.11360012 -0.2546656 -0.27771676 -0.013482985 0.057382498 0.045805514 -0.06256483 -0.358598 0.24081165 -0.16832261 -0.12530954 -0.50429785
می‌باشد -0.34534493 0.0862197 0.042488046 0.05645887 0.13798803 -0.14174134 -0.39518666 0.20050293 -0.040301286 -0.14472298 0.22906259 -0.011982272 0.3913472 -0.07354462 -0.3443112 -0.45199665 0.18883905 0.0016778173 -0.6702315 0.35022897 -0.14712912 -0.23889472 0.25584882 0.23079742 0.074856445 -0.30959657 0.03990452 0.12485593 0.11826913 -0.22295433 -0.32336873 -0.177298 0.20554858 -0.44652957 -0.010917129 0.36521083 0.21459886 -0.18155263 -0.7659937 0.2888298 0.057240177 0.18714178 -0.4195918 -0.6973943 0.040413626 -0.17906319 0.03039179 -0.10055905 0.07436855 -0.09187759 -0.10937379 -0.35577047 -0.3369353 0.116045296 -0.36765578 -0.03463252 0.49487704 0.058971204 -0.18362892 0.2925954 0.21615319 0.48543775 -0.24737044 0.024793254 -0.20352402 -0.62708664 -0.4538244 0.15940231 0.06880824 0.454448 -0.4205323 0.17564486 -0.033721995 0.45454043 -0.17684412 0.4214041 0.28070882 0.41035706 -0.07777373 -0.59959847 0.17101248 0.890366 0.21371135 0.109277874 0.013886295 -0.0054812985 0.1130743 -0.035527278 0.10523823 -0.2725795 -0.27958205 -0.049492333 0.044777878 0.011181077 -0.100579 -0.29325658 0.2633786 -0.1836017 -0.10998997 -0.47793588
برنامه -0.33620256 0.08044019 0.041529514 0.051303893 0.13433602 -0.10537495 -0.37953314 0.15891345 -0.0655453 -0.12346958 0.2502598 0.011571446 0.35123643 -0.041499622 -0.2699772 -0.3917869 0.18352382 0.038591072 -0.5979103 0.30249816 -0.106411114 -0.2343317 0.22626506 0.2179046 0.11449229 -0.25311077 0.036371343 0.088501714 0.07017117 -0.20442192 -0.27543542 -0.12603186 0.17137882 -0.4006457 -0.045005206 0.31517047 0.1663159 -0.18023224 -0.6845019 0.26413554 0.07205505 0.18045725 -0.3720249 -0.6421342 -0.018347021 -0.14341083 0.049631156 -0.087838985 0.08415111 -0.11248167 -0.11328546 -0.30005777 -0.3415567 0.08366898 -0.3367379 -0.0045591686 0.4643105 0.031373058 -0.1480658 0.28256604 0.17775574 0.44222966 -0.22394499 0.006437671 -0.18895657 -0.54846144 -0.40742126 0.16312341 0.04470443 0.41657588 -0.35667282 0.15805162 -0.058540568 0.3972475 -0.18646732 0.37373713 0.30860755 0.3632831 -0.055571955 -0.54635364 0.15118016 0.78537524 0.19720076 0.104444124 0.011267766 0.024269937 0.08136532 -0.022798296 0.104805335 -0.22703442 -0.23907956 -0.022847148 0.05017169 0.030597704 -0.05437698 -0.31092075 0.23226327 -0.14834106 -0.1126589 -0.45793262
خريدم -0.339441 0.044431467 0.07223262 0.025946124 0.15186302 -0.044418726 -0.3598195 0.110123776 -0.06504218 -0.097319625 0.26393783 0.043052446 0.33617014 -0.011094597 -0.23608999 -0.33654335 0.18945208 0.073008664 -0.5368923 0.2656188 -0.080491334 -0.23993292 0.19648127 0.2363439 0.21638314 -0.1580459 0.06061813 0.06728255 -0.013737984 -0.22041176 -0.22166936 -0.05269713 0.15725692 -0.36774117 -0.11339513 0.30477127 0.08693036 -0.17059004 -0.66006917 0.29732913 0.059944127 0.17996866 -0.3645785 -0.60729575 -0.07195772 -0.11062809 0.084152974 -0.055922877 0.11935848 -0.13984501 -0.13181806 -0.24998733 -0.38789773 0.055595815 -0.30859107 0.026717873 0.43726274 -0.0060354993 -0.11613877 0.27855647 0.15284021 0.36780158 -0.2177401 -0.025426794 -0.16022727 -0.5040818 -0.34638488 0.16239485 0.03411593 0.38198313 -0.29693446 0.116681315 -0.058666326 0.36786464 -0.18303986 0.32893693 0.36293846 0.29036677 -0.018785752 -0.5216554 0.15217592 0.6850698 0.15410712 0.113712646 -0.015878312 0.09571609 0.043168996 -0.020049479 0.11358367 -0.17313147 -0.19217533 0.028652117 0.032711107 0.06440651 -0.009091335 -0.36064637 0.18946956 -0.12261964 -0.14173254 -0.4385674
ي -0.38426512 0.08642511 0.052543182 0.036713626 0.1569858 -0.10330311 -0.41780296 0.14116195 -0.068742 -0.13083448 0.2708788 0.029044807 0.38841593 -0.042271942 -0.2845304 -0.41168573 0.19834822 0.0565305 -0.647801 0.32226017 -0.11201175 -0.25925884 0.2370448 0.2487925 0.16853836 -0.22815965 0.052597307 0.07468477 0.056655344 -0.22315872 -0.28577754 -0.117959954 0.17495856 -0.43584564 -0.057035882 0.33937815 0.15349278 -0.18950622 -0.7500395 0.30871835 0.06995495 0.19742249 -0.4098175 -0.70492357 -0.040078282 -0.151446 0.052290697 -0.09425488 0.10810446 -0.11726694 -0.1406577 -0.29597524 -0.39027855 0.08328957 -0.36844885 0.00027330412 0.50939834 0.029932845 -0.16402338 0.30373475 0.18121211 0.46290645 -0.2581715 -0.017239403 -0.19825132 -0.59694946 -0.4330166 0.17104748 0.03087698 0.4445906 -0.38059926 0.15752992 -0.06441239 0.43652245 -0.20350309 0.39840078 0.363167 0.37932238 -0.04568005 -0.595304 0.16297308 0.8500753 0.20341444 0.12166829 -0.009989802 0.056078926 0.07968144 -0.018600443 0.11874184 -0.22820598 -0.25727162 -0.011345306 0.06815904 0.04935258 -0.044903405 -0.36279643 0.22507873 -0.16891758 -0.13366146 -0.50882787
نمايش -0.32113352 0.0833101 0.0685132 0.037007667 0.11806261 -0.07035931 -0.36111134 0.11730925 -0.042825613 -0.09639077 0.229495 0.02164541 0.33420736 -0.048619248 -0.24399585 -0.36804765 0.18015431 0.037706356 -0.5525282 0.27211538 -0.09965896 -0.22740749 0.19285387 0.21380404 0.13885471 -0.18979056 0.03534553 0.08472547 0.06588434 -0.20333572 -0.2524278 -0.12622131 0.15666933 -0.36733004 -0.0322716 0.31927785 0.12866654 -0.15210581 -0.6359066 0.2778466 0.05458697 0.16537258 -0.3793158 -0.59870046 -0.047545504 -0.1303353 0.025253963 -0.09613937 0.093011566 -0.10610082 -0.14207047 -0.24943021 -0.34859645 0.08114862 -0.29367805 0.00019791085 0.43733937 0.030252615 -0.18394111 0.26602054 0.13561873 0.37729824 -0.23607653 0.000635927 -0.16681671 -0.5177623 -0.38241246 0.13594884 0.045579363 0.3894033 -0.3266513 0.14959091 -0.042899434 0.39036593 -0.16205364 0.35392788 0.2882005 0.32738987 -0.062614344 -0.5292841 0.13387918 0.7537875 0.17691001 0.108765125 -0.037939075 0.058569748 0.09035318 -0.033019032 0.10873832 -0.19712497 -0.22830656 0.0015011019 0.048445366 0.033023156 -0.06999413 -0.29890156 0.17209993 -0.15275724 -0.10367916 -0.4483268
عالي -0.3402054 0.074769735 0.05976636 0.03773839 0.14377876 -0.059895594 -0.37180972 0.12006991 -0.057400722 -0.11344804 0.24553831 0.03842929 0.34878808 -0.021977223 -0.25331536 -0.3690227 0.17139407 0.06369579 -0.5635849 0.28532338 -0.08966696 -0.23225063 0.20788145 0.2332246 0.16317244 -0.18526888 0.046540655 0.06764019 0.03448416 -0.19771875 -0.23556581 -0.10212074 0.15211321 -0.37110087 -0.074264064 0.31457373 0.12357658 -0.17237863 -0.65317327 0.28517345 0.055910226 0.17150666 -0.375633 -0.6194943 -0.043986723 -0.12660061 0.06346223 -0.07802305 0.09454186 -0.11138398 -0.12888415 -0.2580271 -0.35977745 0.064082704 -0.32667658 0.0042745713 0.45182824 0.014063351 -0.14413762 0.27679732 0.15702382 0.39517263 -0.22359197 -0.012061357 -0.1719357 -0.52725893 -0.37957048 0.15713939 0.038080584 0.3905609 -0.3237028 0.13771725 -0.05766648 0.38716033 -0.17782742 0.35125354 0.33181384 0.3273151 -0.03923047 -0.53231686 0.13750538 0.744109 0.17945996 0.121195726 -0.0051358286 0.06711743 0.061505944 -0.030229304 0.10762961 -0.19432862 -0.22192408 0.0060196538 0.046868235 0.04318214 -0.043085176 -0.32775217 0.18841396 -0.14247464 -0.13181365 -0.44834965
دست -0.35413718 0.07284777 0.04719005 0.04539959 0.14590943 -0.107513234 -0.40867224 0.16585955 -0.0555116 -0.12859681 0.24916317 0.017560882 0.3860202 -0.046359368 -0.31018206 -0.41095293 0.18966304 0.032155152 -0.635363 0.31843257 -0.11953266 -0.24040979 0.24626304 0.2360061 0.1333283 -0.24834324 0.046605512 0.09206891 0.06857709 -0.21755658 -0.27927318 -0.13678503 0.17488655 -0.4173188 -0.045727063 0.34893253 0.1778179 -0.1889008 -0.73823404 0.29268786 0.07233693 0.19248667 -0.40690577 -0.66944623 -0.0017920887 -0.15884092 0.049721193 -0.096495904 0.08140525 -0.11931695 -0.11816552 -0.32303008 -0.36070144 0.10013275 -0.35565677 -0.0093472395 0.48228487 0.03204198 -0.17626001 0.29471755 0.18604434 0.46104458 -0.24236642 0.0014393678 -0.19474141 -0.5960763 -0.41331193 0.17277887 0.045065507 0.43671933 -0.3778811 0.15188488 -0.047606297 0.43309537 -0.18478653 0.395666 0.31062886 0.38636777 -0.06428481 -0.5822172 0.16201799 0.8293984 0.20295337 0.11219388 0.0035894152 0.039588477 0.083387695 -0.03691002 0.11088267 -0.2379179 -0.24817802 -0.014195377 0.043381497 0.036338303 -0.0614091 -0.32238203 0.22906573 -0.16030766 -0.11327932 -0.48828351
عاليه -0.3272301 0.06835076 0.05776895 0.040551305 0.14376202 -0.07192742 -0.36637816 0.1203435 -0.064357564 -0.10951595 0.24271324 0.03685517 0.35265833 -0.02948438 -0.24873067 -0.35908058 0.17023686 0.058854453 -0.5560587 0.28210247 -0.09898478 -0.23615927 0.20473593 0.23002352 0.14821723 -0.19822344 0.049098983 0.06940733 0.030870639 -0.20384713 -0.24311092 -0.097806714 0.15233026 -0.3701732 -0.06657059 0.3032051 0.121508844 -0.1775862 -0.6634197 0.27709544 0.061007746 0.1726912 -0.36689144 -0.6142814 -0.044170067 -0.12817755 0.06247432 -0.072086446 0.09115499 -0.1110161 -0.11624092 -0.27426404 -0.35266563 0.0764713 -0.32294562 0.0077175247 0.45003343 0.015603801 -0.13765618 0.26783234 0.16162835 0.40638408 -0.22210598 -0.008250632 -0.17565216 -0.51339746 -0.37758997 0.1560498 0.028825162 0.38623303 -0.32644185 0.13693802 -0.06097408 0.38929388 -0.18552244 0.3457698 0.3230772 0.32874805 -0.034873225 -0.5390875 0.14985915 0.7381662 0.17815182 0.117768556 -0.0050756047 0.047464147 0.0731559 -0.028947307 0.10298367 -0.20671992 -0.22158752 0.013592365 0.04671548 0.040358618 -0.04248207 -0.31560344 0.2026693 -0.14094046 -0.12409198 -0.4422263
سلام -0.31633916 0.06500058 0.053728163 0.03252582 0.13902158 -0.067644686 -0.3525235 0.1310935 -0.05501319 -0.1054401 0.2462518 0.036816653 0.32575035 -0.028908655 -0.25075385 -0.34860137 0.17287122 0.045135617 -0.551384 0.28274444 -0.106235236 -0.23049508 0.2154783 0.21360509 0.16786806 -0.19395567 0.045000177 0.07771978 0.025431978 -0.20929572 -0.23928364 -0.085467346 0.15865648 -0.36034998 -0.06903141 0.29127076 0.115113504 -0.1745075 -0.6485188 0.28034183 0.06797413 0.1712686 -0.36515653 -0.6011985 -0.031595368 -0.12866625 0.054545224 -0.0635377 0.09648108 -0.11281031 -0.12821226 -0.26195052 -0.34808496 0.06742064 -0.30864567 0.0047585038 0.4284847 0.028804025 -0.14118545 0.26789713 0.15384707 0.39461777 -0.20477633 -0.0046096817 -0.16654754 -0.50773036 -0.37783113 0.14564814 0.039860606 0.38097787 -0.31619537 0.13228492 -0.054314505 0.36952093 -0.1779736 0.3334781 0.3168893 0.32255793 -0.03558814 -0.5281166 0.1449605 0.72645867 0.16644311 0.10636418 -0.009991924 0.04505728 0.061760243 -0.021504352 0.10977914 -0.19095944 -0.2223202 0.010517156 0.04315164 0.033818584 -0.034823265 -0.32882977 0.19648698 -0.13718192 -0.116389774 -0.42053887
پردازنده -0.3662576 0.07748941 0.02701788 0.02481692 0.13362218 -0.12954623 -0.40983382 0.15334778 -0.06557083 -0.13457286 0.23179287 0.01886252 0.38628927 -0.048675504 -0.27521673 -0.42191783 0.19870242 0.04299486 -0.64550847 0.32988617 -0.13072644 -0.25111815 0.2377655 0.23320974 0.115116306 -0.24075314 0.04772331 0.07224728 0.07523153 -0.20515153 -0.30116612 -0.14290506 0.18592001 -0.43074167 -0.026250092 0.32987535 0.19044566 -0.1890705 -0.7329304 0.28363395 0.07341537 0.17924666 -0.39208478 -0.6695986 -0.010736097 -0.13594334 0.039051976 -0.09918056 0.08638445 -0.099926 -0.13251336 -0.29432952 -0.35231355 0.09388562 -0.3650315 0.0007432225 0.49208802 0.0517743 -0.14246541 0.30054337 0.18682171 0.47613508 -0.25569287 -0.003169834 -0.19896714 -0.58008647 -0.44887316 0.15217562 0.026449995 0.43870512 -0.40907723 0.16070355 -0.071789235 0.44049564 -0.19937974 0.3896801 0.3242236 0.3998349 -0.043330297 -0.57342476 0.17182133 0.8552861 0.20156954 0.10754975 0.00043784778 0.011360345 0.07447287 0.004978049 0.107159466 -0.24200842 -0.28618753 -0.038728762 0.07300994 0.049253464 -0.06598709 -0.34398916 0.22597457 -0.17621115 -0.12190015 -0.47064102
يا -0.4090712 0.088982336 0.050729685 0.0390399 0.16683725 -0.09771178 -0.43461618 0.1540812 -0.07750228 -0.13776737 0.30120024 0.032598186 0.41810602 -0.044423454 -0.29809612 -0.44308993 0.2128806 0.06870028 -0.68304706 0.34844545 -0.11601075 -0.2751497 0.26403862 0.26553482 0.17895484 -0.25606823 0.059256844 0.07734061 0.047656655 -0.24580024 -0.30353537 -0.12967327 0.1832666 -0.45813635 -0.07208797 0.35609934 0.16305995 -0.20831515 -0.7922892 0.325819 0.07931159 0.2085718 -0.4343011 -0.7467449 -0.040579304 -0.16126117 0.06588012 -0.09036561 0.1194655 -0.13813362 -0.14938523 -0.3307868 -0.40544528 0.09044592 -0.3994318 0.00031765355 0.5405755 0.028653309 -0.17460072 0.3294392 0.1997217 0.49968034 -0.2661741 -0.017764153 -0.20939605 -0.630611 -0.45528856 0.19156073 0.034969445 0.47300014 -0.39523318 0.18136832 -0.0755221 0.4643947 -0.22434501 0.41579804 0.3900746 0.40835458 -0.048969395 -0.63245755 0.18164104 0.8961617 0.211613 0.13283236 0.011801686 0.048994455 0.0796811 -0.026385944 0.122468576 -0.24439855 -0.26940575 0.0015007079 0.067655236 0.04600847 -0.04799079 -0.37988207 0.25046512 -0.16444914 -0.1526515 -0.5375804
کنيد -0.4068952 0.08976097 0.051946502 0.04253417 0.17421293 -0.095837675 -0.4380557 0.1545639 -0.07469933 -0.13916172 0.30423802 0.025106747 0.41939697 -0.04007982 -0.29826248 -0.4393861 0.21342558 0.075401336 -0.6745081 0.3462491 -0.11261417 -0.28081387 0.26508692 0.26776117 0.1859271 -0.26217666 0.055162106 0.08865478 0.04138897 -0.24047036 -0.30145842 -0.12742978 0.18274327 -0.46603417 -0.073203534 0.37100956 0.156309 -0.20818414 -0.798933 0.3286498 0.08472828 0.21634744 -0.4335577 -0.7466417 -0.048393376 -0.16284809 0.077124365 -0.080282256 0.113369584 -0.14562273 -0.15031987 -0.33715388 -0.41329312 0.08032196 -0.3883322 -0.0038757399 0.5484933 0.023678994 -0.16452137 0.3364823 0.20203534 0.4972484 -0.26039267 -0.014332755 -0.21759753 -0.6279831 -0.46105024 0.19763412 0.0401892 0.474548 -0.40098903 0.1678392 -0.07740989 0.46795812 -0.2314313 0.41551954 0.3877862 0.4145847 -0.042301007 -0.64465946 0.18391909 0.8874159 0.21591282 0.124221794 0.0030808707 0.051633008 0.08152538 -0.03302213 0.12635982 -0.24293698 -0.27189934 0.007421074 0.06419553 0.041489083 -0.042207986 -0.38099405 0.25202635 -0.17118771 -0.14360373 -0.53848445
بهتر -0.35024127 0.07384162 0.043969903 0.038707517 0.14571436 -0.086615935 -0.38915196 0.14748643 -0.05760378 -0.12740068 0.25665563 0.026588844 0.3717348 -0.04088 -0.27774262 -0.38882026 0.17852415 0.054134216 -0.59701073 0.3122681 -0.10878346 -0.2403178 0.2300426 0.23501557 0.13878284 -0.23123194 0.043506056 0.079161145 0.059976645 -0.20890824 -0.27359435 -0.12316759 0.1718535 -0.40950453 -0.05758745 0.32310042 0.14863212 -0.18344297 -0.7071425 0.28097457 0.06696897 0.18345733 -0.3849034 -0.6556805 -0.031085595 -0.1479316 0.051407233 -0.07640342 0.098106794 -0.113828585 -0.12902981 -0.3045334 -0.35920924 0.07876003 -0.340882 -0.002100242 0.47500005 0.03454904 -0.15668869 0.29010293 0.1836854 0.43719307 -0.23349665 0.00093486015 -0.19441053 -0.5649576 -0.41349977 0.15925741 0.03464352 0.42158717 -0.3555902 0.15021448 -0.054010656 0.41540667 -0.18784961 0.37418705 0.32245076 0.36672926 -0.050908905 -0.57078046 0.16196826 0.79996866 0.19024847 0.11575438 0.007001036 0.043699533 0.085114285 -0.022953643 0.11235252 -0.22742476 -0.24619703 -0.0020432344 0.05797428 0.032054067 -0.05008455 -0.32362938 0.22210279 -0.15373482 -0.12410613 -0.46584746
مشکل -0.37191302 0.07294324 0.0557482 0.03530805 0.15658249 -0.077772476 -0.3998761 0.13335109 -0.07235677 -0.12639901 0.27895656 0.035301257 0.38699183 -0.03177076 -0.2686935 -0.4056694 0.19890258 0.0629415 -0.6185785 0.31828624 -0.10359359 -0.25213656 0.23776147 0.25105467 0.17431909 -0.22930077 0.051848643 0.08187298 0.038199507 -0.21955083 -0.26474172 -0.10552967 0.1703102 -0.42526478 -0.07461148 0.3304101 0.14426003 -0.18448722 -0.7315437 0.2951845 0.076993555 0.19259118 -0.39671013 -0.68149936 -0.03745953 -0.15255779 0.07456159 -0.07356517 0.109161496 -0.13785602 -0.13017353 -0.29664755 -0.38054925 0.074234754 -0.36044976 -0.0052593583 0.50234973 0.015192283 -0.15389101 0.3052307 0.1769699 0.44728035 -0.23625572 -0.0068430984 -0.19293399 -0.5736736 -0.4212245 0.18079366 0.040959887 0.43496048 -0.36224067 0.16130684 -0.06540114 0.42487955 -0.21037976 0.38251352 0.36267042 0.37092078 -0.038693614 -0.5924185 0.17401016 0.81058943 0.19896466 0.11878621 0.0038367135 0.058422003 0.07580235 -0.031655487 0.11505162 -0.21695937 -0.24270457 0.015734859 0.058352586 0.04766245 -0.041018758 -0.36365968 0.21994929 -0.14792809 -0.13847145 -0.4903362
خوبي -0.31526372 0.074602164 0.0561545 0.03362997 0.13845843 -0.05873566 -0.3492077 0.098802105 -0.05860706 -0.1033513 0.24479285 0.04116853 0.32845736 -0.015083135 -0.23823018 -0.34130266 0.16709778 0.06856392 -0.52897894 0.26831353 -0.08342917 -0.2253223 0.19352224 0.2250877 0.16738829 -0.17675334 0.04602912 0.057797927 0.023380924 -0.19208118 -0.2162708 -0.08723074 0.13012327 -0.35076493 -0.07457797 0.28126216 0.09808705 -0.16112633 -0.6166499 0.26414806 0.056071654 0.1663656 -0.33929992 -0.5863184 -0.055059064 -0.117882974 0.061074767 -0.06951916 0.09402837 -0.11890685 -0.11751091 -0.24321884 -0.34485462 0.060943533 -0.314173 0.010597563 0.43573713 0.007003627 -0.14441839 0.25867498 0.14427824 0.37512678 -0.2103497 -0.022733191 -0.16756435 -0.48053524 -0.35022828 0.16218469 0.023018602 0.36534467 -0.29293928 0.13863385 -0.05655515 0.36840206 -0.1798278 0.33055732 0.32075468 0.3011614 -0.032703504 -0.5179811 0.13357078 0.6870946 0.16538233 0.11522544 -0.0076428037 0.063659795 0.06509743 -0.026330164 0.09799755 -0.19417141 -0.20106283 0.026989887 0.049817085 0.05012467 -0.022184636 -0.31196228 0.17950052 -0.14068025 -0.11902955 -0.43276063
افزار -0.3427807 0.09191743 0.04706771 0.039376374 0.1318869 -0.123751685 -0.35870466 0.14841793 -0.0776479 -0.13941309 0.26042125 -0.0027243274 0.35441545 -0.02876559 -0.25837192 -0.39825812 0.18326575 0.06805263 -0.6075505 0.31408346 -0.10952367 -0.25292996 0.23268667 0.22932199 0.108199485 -0.2576533 0.042776868 0.09023531 0.073685296 -0.20394872 -0.29759434 -0.1421291 0.18573906 -0.40795586 -0.057526812 0.3387555 0.19021231 -0.18037051 -0.6908165 0.26583356 0.06571078 0.17481121 -0.38002998 -0.67132103 -0.030748786 -0.16691501 0.030056462 -0.07249129 0.09958042 -0.117118865 -0.13025914 -0.31361306 -0.35313937 0.08495787 -0.34426212 0.015153376 0.4630899 0.034918226 -0.14100334 0.29488313 0.19639032 0.46037725 -0.22904278 0.008454882 -0.22060977 -0.5807752 -0.44010705 0.1687835 0.047847472 0.441069 -0.3753644 0.16066957 -0.05681229 0.41372883 -0.17835292 0.36429954 0.32411575 0.3888331 -0.07043728 -0.56723946 0.14282608 0.822158 0.21918738 0.112472735 0.0016540777 0.023290906 0.081621304 -0.018565683 0.102585256 -0.21129087 -0.24736127 -0.043712504 0.038218185 0.024848709 -0.056485265 -0.33947033 0.23842914 -0.1522298 -0.12085218 -0.46151757
کارت -0.40395102 0.063310556 0.05409802 0.057809304 0.16034085 -0.12113423 -0.42500967 0.18588784 -0.064697646 -0.12782344 0.28324336 0.017225161 0.42403853 -0.06652471 -0.32972127 -0.46075723 0.20349233 0.058134016 -0.7055738 0.3522553 -0.13820705 -0.2610787 0.26714897 0.26308665 0.12302836 -0.31474853 0.045998994 0.10001938 0.102764204 -0.24312492 -0.32575318 -0.14446895 0.21673833 -0.46564975 -0.03625927 0.38941625 0.20565447 -0.22183417 -0.8078393 0.32733482 0.06292066 0.21100903 -0.42763454 -0.7319547 0.019513253 -0.17357697 0.06389759 -0.10229438 0.09719784 -0.13472842 -0.1112444 -0.3769333 -0.36391494 0.115348876 -0.3884744 -0.024899999 0.5313026 0.06541863 -0.18091132 0.33791515 0.21715468 0.5060932 -0.24777532 0.002921877 -0.2185543 -0.6318914 -0.46358335 0.19833715 0.053211592 0.46997455 -0.4227884 0.18733889 -0.052210175 0.4595161 -0.23373762 0.41269517 0.30939564 0.44156718 -0.073313154 -0.63204384 0.20630543 0.902456 0.21757177 0.102627695 0.03978385 -0.0042127008 0.098079756 -0.04263836 0.11465883 -0.26443028 -0.3067905 -0.031673834 0.05260336 0.033257857 -0.066208094 -0.3230964 0.25988922 -0.18850687 -0.14518929 -0.518205
باشه -0.36688986 0.07445511 0.054095395 0.04407827 0.15124162 -0.07938115 -0.39155754 0.13028285 -0.07291816 -0.117920876 0.27094105 0.026551025 0.37966117 -0.032279823 -0.2700241 -0.3929827 0.18510915 0.06553517 -0.60179967 0.3083854 -0.09664864 -0.2476847 0.22732152 0.2484019 0.16749093 -0.2188494 0.04992598 0.07718124 0.03577221 -0.21270221 -0.265548 -0.114500806 0.16093585 -0.40752703 -0.0764276 0.3270524 0.14189927 -0.1808144 -0.7172341 0.29334003 0.072343685 0.19267894 -0.3915471 -0.6724548 -0.045440413 -0.15094173 0.059041113 -0.07659968 0.10571741 -0.12572865 -0.12672848 -0.29611462 -0.37110084 0.07781417 -0.35284245 0.0068844645 0.48386517 0.02514117 -0.1560772 0.29430225 0.18065442 0.43992424 -0.23316522 -0.012213549 -0.18453287 -0.567796 -0.41357774 0.17649323 0.03911749 0.41568297 -0.346976 0.1595456 -0.06248535 0.41370732 -0.2081986 0.38031775 0.3539338 0.364469 -0.03948586 -0.5805139 0.16156444 0.78855884 0.19200164 0.11802668 0.0037154735 0.053691093 0.07727171 -0.032436673 0.1093752 -0.2236148 -0.23275991 0.010495324 0.06012677 0.04648499 -0.036289632 -0.34342366 0.21469435 -0.14615993 -0.13510346 -0.48244098
سامسونگ -0.36560565 0.085318 0.048475906 0.051033024 0.15142325 -0.11265538 -0.41013533 0.16917476 -0.06951119 -0.1381714 0.26666212 0.010811459 0.3910928 -0.042883445 -0.30650386 -0.42156848 0.19720234 0.043791708 -0.6545259 0.3333073 -0.121692345 -0.26288 0.2570133 0.24478641 0.12411175 -0.26546285 0.048458148 0.09528521 0.076448955 -0.21902038 -0.29866245 -0.15136258 0.18591572 -0.43026978 -0.04744104 0.35428336 0.18189314 -0.18789425 -0.7586515 0.2978821 0.07826182 0.18621898 -0.41102532 -0.7069054 -0.018090416 -0.16939345 0.053318977 -0.08918227 0.08833218 -0.123173855 -0.12989233 -0.3281184 -0.36730102 0.09080995 -0.36857492 -0.007863995 0.49864778 0.037704937 -0.17112346 0.3036484 0.19538105 0.47956553 -0.24815592 0.0060503045 -0.21149325 -0.6106264 -0.4403082 0.1752636 0.040833335 0.45539606 -0.3986293 0.16080445 -0.0560397 0.4451282 -0.20821697 0.40975514 0.3305347 0.39765397 -0.061063603 -0.61034495 0.16402888 0.8617938 0.20539787 0.12290585 0.007412356 0.02554155 0.08178816 -0.025608048 0.11396312 -0.23944342 -0.2630968 -0.02123268 0.056935392 0.032100864 -0.06604808 -0.33919322 0.25019914 -0.16617881 -0.12221517 -0.49894074
5 -0.37306973 0.07835131 0.047598 0.046734672 0.14315712 -0.11746902 -0.41152158 0.17358051 -0.06645019 -0.13637812 0.26323086 0.007321592 0.40260717 -0.05632785 -0.31132868 -0.4345946 0.20579639 0.036438312 -0.6598915 0.34443527 -0.13771111 -0.26239946 0.25676265 0.24086937 0.1213724 -0.26008576 0.046660967 0.10002579 0.08793839 -0.22910617 -0.29692826 -0.15321228 0.19658083 -0.42953694 -0.040223543 0.35022348 0.17508137 -0.19870238 -0.7610224 0.31133986 0.064746074 0.18684551 -0.4236513 -0.7046667 0.0028312071 -0.15471269 0.055622183 -0.0945716 0.08560753 -0.10951307 -0.12544136 -0.3220064 -0.3783067 0.092446245 -0.3709891 -0.009258134 0.50733054 0.03722295 -0.16881582 0.30589393 0.1904474 0.47842422 -0.25781795 0.0032390663 -0.20515701 -0.6011908 -0.44733822 0.16491109 0.039773963 0.45983088 -0.4018701 0.16905774 -0.062754184 0.43779746 -0.18937398 0.40944576 0.31693527 0.38888994 -0.05484588 -0.596687 0.17529005 0.8627266 0.2012176 0.11260872 0.0039367788 0.021485984 0.09454167 -0.02280888 0.11530048 -0.24956909 -0.26287833 -0.023095 0.051842768 0.02587896 -0.07762458 -0.34055516 0.23405775 -0.16876425 -0.11930484 -0.49838644
مناسب -0.3459787 0.074447 0.045314904 0.0478757 0.13323873 -0.106315985 -0.3827476 0.17917031 -0.047866754 -0.1288831 0.2370341 0.009518462 0.37569755 -0.05048129 -0.3087335 -0.41280395 0.18135944 0.020451913 -0.6277679 0.32254106 -0.1347934 -0.23887148 0.24372143 0.23131698 0.10236865 -0.2642421 0.04522547 0.09987831 0.09928726 -0.20810942 -0.2973159 -0.15982094 0.185848 -0.42241734 -0.0372078 0.34212157 0.18687752 -0.1834911 -0.7183074 0.2824407 0.061856396 0.18013163 -0.4003486 -0.66802466 0.008107253 -0.1601882 0.043990444 -0.09353613 0.07972551 -0.10561207 -0.10740802 -0.3248599 -0.34010276 0.10315884 -0.34664783 -0.016388297 0.483748 0.04778571 -0.1656172 0.29324272 0.197893 0.45565644 -0.23163964 0.01899769 -0.20081916 -0.59347796 -0.42425036 0.15267786 0.047647197 0.4264995 -0.37841997 0.16370718 -0.042317666 0.4282568 -0.17936157 0.39299625 0.2884788 0.3787138 -0.061096866 -0.5681785 0.15416948 0.8324182 0.20158416 0.115605466 0.00434243 0.024061395 0.09692497 -0.0352282 0.108412765 -0.24257861 -0.2509025 -0.034545004 0.03930729 0.026093079 -0.07263644 -0.3026134 0.24180014 -0.15846662 -0.111074746 -0.4647743
بازار -0.38109177 0.08691859 0.05167674 0.05536661 0.15899292 -0.12392315 -0.42462122 0.18056141 -0.059545565 -0.14034684 0.26267824 0.013583436 0.40057036 -0.04820126 -0.32237706 -0.44336683 0.20909616 0.040145118 -0.6676209 0.33902282 -0.13040014 -0.2708502 0.2613333 0.2530916 0.12750688 -0.27792153 0.05554005 0.08996924 0.08468195 -0.22214656 -0.3069031 -0.15196978 0.20075168 -0.44849917 -0.055366766 0.36800632 0.17486845 -0.1910855 -0.79090637 0.31173417 0.08014246 0.19877332 -0.43198913 -0.72644734 -0.0073450287 -0.16437851 0.06107543 -0.08639844 0.10020196 -0.12657338 -0.1285532 -0.34053794 -0.38689515 0.09558134 -0.38461676 -0.010910088 0.5264202 0.033610713 -0.1646802 0.31811225 0.20241942 0.49688742 -0.2519564 -0.0030646343 -0.21462823 -0.635324 -0.45189393 0.16798769 0.058594875 0.4569967 -0.41106904 0.16676806 -0.05570957 0.46267545 -0.21428683 0.4212664 0.34184137 0.41378474 -0.06503068 -0.6316078 0.17138025 0.8849419 0.21007529 0.12821068 0.012857855 0.03582119 0.09395623 -0.040195074 0.116336815 -0.2557325 -0.27741772 -0.02284184 0.053947005 0.02675355 -0.07127756 -0.35801414 0.24660671 -0.16590789 -0.1326949 -0.5182233
حافظه -0.37030685 0.073452786 0.054806583 0.041069835 0.15447947 -0.13704956 -0.38584945 0.16659087 -0.07054225 -0.12207996 0.25706303 0.0121635655 0.38627085 -0.05408584 -0.30552426 -0.43418247 0.20722263 0.044042762 -0.65758395 0.34719935 -0.13995017 -0.2409415 0.24140431 0.25129968 0.0910517 -0.28464347 0.045444805 0.08354382 0.10239639 -0.22917703 -0.32541144 -0.1406666 0.18542089 -0.44674003 -0.012386038 0.35021776 0.1901143 -0.19981737 -0.7427858 0.2917523 0.05914911 0.19602306 -0.3846111 -0.69604367 0.008236571 -0.1643069 0.027314214 -0.07715288 0.0852739 -0.113079615 -0.11830049 -0.33405593 -0.34564477 0.08557923 -0.3703853 -0.014688646 0.49188697 0.06600102 -0.16137888 0.31125265 0.18618965 0.48279765 -0.2339904 0.006196708 -0.20099065 -0.58858204 -0.4512775 0.18084036 0.06362309 0.44256365 -0.41263074 0.1872429 -0.058382273 0.44047824 -0.21593767 0.39278328 0.2904755 0.39294982 -0.053791028 -0.5933481 0.18572173 0.8454678 0.208878 0.11616038 0.03593026 0.006928275 0.072658926 -0.03100969 0.0951503 -0.25826645 -0.27723074 -0.031132938 0.058124565 0.014030675 -0.07453195 -0.30169347 0.24694343 -0.16096857 -0.14682704 -0.48196825
روي -0.37876433 0.076642886 0.053307276 0.05037959 0.15151754 -0.09551303 -0.41778174 0.14507286 -0.06789706 -0.12851422 0.28098354 0.026598787 0.3956632 -0.04083388 -0.284195 -0.42119375 0.20222223 0.06343053 -0.63632184 0.32383785 -0.105440855 -0.2637206 0.23668809 0.25581792 0.1676174 -0.24459942 0.046344284 0.07665894 0.045304406 -0.2305751 -0.2809606 -0.1179997 0.17662272 -0.43266705 -0.06484596 0.34325907 0.15011089 -0.19001009 -0.748785 0.3006259 0.07029838 0.19729652 -0.4099299 -0.7046725 -0.039227054 -0.15703274 0.063468896 -0.08017915 0.10168525 -0.12835573 -0.14230956 -0.3119654 -0.38733223 0.0810135 -0.37210682 -0.0020382751 0.5089172 0.030292924 -0.16130784 0.31338868 0.18939938 0.4668925 -0.24229881 -0.0039573475 -0.19988364 -0.5881797 -0.4251374 0.18611747 0.041188963 0.44517297 -0.37907988 0.17074677 -0.061532103 0.43798542 -0.21087043 0.39385456 0.35132405 0.38611078 -0.04820903 -0.6062172 0.17046212 0.8380136 0.20481315 0.11420968 0.00780892 0.053666376 0.08465271 -0.028916568 0.1100571 -0.22714628 -0.25906533 0.0015352347 0.06367763 0.034555454 -0.051512685 -0.3508108 0.22694486 -0.1573375 -0.14661118 -0.50433666
رزولوشن -0.35978785 0.08898423 0.04574485 0.046034772 0.1355617 -0.11398376 -0.4081498 0.1857661 -0.044078864 -0.13981266 0.24302618 0.0012771842 0.39940464 -0.07316091 -0.3296804 -0.45159417 0.1928088 0.008674165 -0.6644094 0.33678597 -0.14915085 -0.2412615 0.25687325 0.23666112 0.1007507 -0.2875347 0.041426662 0.11865474 0.10999579 -0.22738281 -0.3158603 -0.17512976 0.2020851 -0.4441712 -0.025012564 0.3704647 0.1878708 -0.17780682 -0.7585453 0.29636303 0.053887088 0.18721299 -0.4295625 -0.69668144 0.010831327 -0.16137618 0.04266168 -0.09949621 0.075058855 -0.10319169 -0.122655295 -0.34142536 -0.3593282 0.11914 -0.3624503 -0.02979541 0.5105966 0.053994305 -0.1943212 0.30190194 0.19992949 0.47159666 -0.259029 0.010590054 -0.19726066 -0.6253683 -0.45138004 0.17015834 0.06162271 0.46014825 -0.4147089 0.17574899 -0.03782009 0.46013853 -0.17701739 0.4216213 0.2919964 0.4107322 -0.062113117 -0.60942805 0.16992915 0.88479465 0.20049796 0.11688326 -0.00023586262 0.005791369 0.1064191 -0.038222793 0.10971322 -0.26597083 -0.27739036 -0.033597484 0.03860528 0.030999 -0.09960261 -0.31299642 0.24811317 -0.19160087 -0.106356576 -0.49620682
هيچ -0.38757038 0.079215065 0.054552615 0.03900416 0.15920812 -0.07768009 -0.4200997 0.14059766 -0.075452514 -0.1351913 0.27482188 0.039617814 0.39946657 -0.029127736 -0.27512622 -0.4039798 0.1941732 0.065507054 -0.6301998 0.3228693 -0.1028437 -0.26001093 0.24405108 0.25445014 0.17305835 -0.22592546 0.058001515 0.07248722 0.041521065 -0.23368153 -0.2644527 -0.11163007 0.16793042 -0.42622828 -0.06904833 0.34449676 0.13824199 -0.18633753 -0.74461555 0.3138185 0.07195024 0.18932086 -0.40828145 -0.6962389 -0.03843428 -0.14677854 0.07070124 -0.07920354 0.10952623 -0.13594472 -0.1423146 -0.30709824 -0.3897902 0.079363644 -0.36276147 -0.0040143295 0.5074983 0.019271316 -0.16139036 0.3162208 0.1796369 0.46287316 -0.2536278 -0.02251508 -0.19375794 -0.59126186 -0.42693406 0.18904732 0.032643534 0.44421303 -0.36413512 0.15773907 -0.07560559 0.42701775 -0.21229304 0.3817794 0.3692039 0.37355208 -0.03606343 -0.6082293 0.17454448 0.8344016 0.20051646 0.120759495 0.0010098553 0.060090877 0.075528495 -0.03017866 0.11762937 -0.22435668 -0.24908431 0.013122108 0.062062595 0.05709641 -0.041529458 -0.37061414 0.22490504 -0.16241285 -0.13162334 -0.49265227
سيستم -0.37029982 0.08900091 0.00023960661 0.025764545 0.13794732 -0.10969193 -0.32345808 0.13812542 -0.102499925 -0.14528053 0.24815185 0.02241574 0.293729 -0.009314307 -0.2063308 -0.3642616 0.1927866 0.11276899 -0.5337149 0.2786335 -0.075483 -0.26641688 0.22389898 0.24341641 0.10876209 -0.21646443 0.044899825 0.055176552 0.041986205 -0.17768174 -0.25101882 -0.09688681 0.14306745 -0.37275952 -0.052940413 0.25569084 0.15418956 -0.18032216 -0.63978714 0.2279569 0.077908516 0.17768271 -0.3213151 -0.6239631 -0.031987205 -0.1673131 0.043918863 -0.069973126 0.10261229 -0.096074075 -0.14806907 -0.28694028 -0.328014 0.046887863 -0.33050248 0.025879825 0.41264707 -0.018203327 -0.106850676 0.30175838 0.16944845 0.44035652 -0.21851182 0.032715786 -0.22597367 -0.5532349 -0.39602494 0.15165327 0.017254962 0.39261642 -0.31380257 0.15386955 -0.07373931 0.36112326 -0.20753805 0.33481735 0.35996744 0.34568775 -0.08833503 -0.5059328 0.14821477 0.7635867 0.2066838 0.10621866 0.04240254 0.013255528 0.05239867 0.02298403 0.11329798 -0.16650428 -0.20176274 -0.05633011 0.05086418 0.010190184 -0.03447787 -0.316922 0.22301067 -0.08878633 -0.09982802 -0.40000495
ديگه -0.3623217 0.078017935 0.042494077 0.04334447 0.15382531 -0.07508946 -0.38884115 0.11503592 -0.07112121 -0.12105414 0.26714376 0.03669854 0.36843503 -0.023424167 -0.2526295 -0.37308356 0.18501003 0.06684876 -0.58194894 0.28974643 -0.092880405 -0.24579138 0.22146668 0.24026093 0.17833935 -0.20285366 0.06127621 0.067260645 0.024875438 -0.20564915 -0.2412695 -0.09422817 0.16047965 -0.39232337 -0.06577413 0.31225404 0.1185828 -0.18540984 -0.6926443 0.28826192 0.06660633 0.18376844 -0.37705427 -0.6542712 -0.05240588 -0.13826402 0.06988541 -0.07219554 0.10989147 -0.12988484 -0.13215835 -0.27556583 -0.36930487 0.06513805 -0.34378424 0.00036332794 0.47141433 0.012918218 -0.13584119 0.2943878 0.16409911 0.42741832 -0.23679233 -0.018949335 -0.18455687 -0.54384446 -0.39634883 0.171823 0.025451375 0.4107716 -0.3345507 0.14985721 -0.07183028 0.40203923 -0.2000364 0.35897535 0.35308644 0.35168096 -0.030076506 -0.560424 0.16648807 0.7643188 0.1871444 0.11200254 -0.003658923 0.06451815 0.06823194 -0.024910217 0.117326066 -0.204052 -0.22847116 0.0093015265 0.066702746 0.053100336 -0.027339196 -0.34814095 0.2035949 -0.14699654 -0.13025835 -0.4675005
طراحی -0.34207344 0.07059276 0.050614174 0.05566874 0.13930646 -0.13166995 -0.40884945 0.19768366 -0.05345429 -0.14762223 0.22788158 0.003387638 0.3844799 -0.05683629 -0.32088405 -0.4347892 0.1906646 -0.0049694665 -0.6642458 0.33413845 -0.1524876 -0.25532347 0.25525105 0.22110358 0.075338356 -0.29669803 0.04825331 0.11410527 0.11979491 -0.20756374 -0.3129557 -0.18522552 0.20276052 -0.42364877 -0.02843667 0.35085648 0.20965478 -0.17745124 -0.7634245 0.29667735 0.066672795 0.17598183 -0.40379176 -0.69265145 0.026834061 -0.1734581 0.044416003 -0.09183302 0.065397866 -0.10379796 -0.105386436 -0.34904507 -0.33882576 0.11093017 -0.3622408 -0.028666295 0.48780718 0.05377768 -0.17914507 0.29718804 0.21318522 0.47527763 -0.23503646 0.01916585 -0.21439315 -0.61924285 -0.43413275 0.14690198 0.054922417 0.4507483 -0.41306996 0.16101706 -0.038101923 0.44935808 -0.18628623 0.41925898 0.27944311 0.400258 -0.085240796 -0.596646 0.1541958 0.8791295 0.20714861 0.122619815 0.005917505 0.0035697757 0.096705474 -0.03987703 0.1101328 -0.26176125 -0.27003056 -0.055212807 0.039204955 0.0140025485 -0.09882689 -0.30669346 0.25971785 -0.17471175 -0.09399592 -0.47382244
بهترين -0.32752666 0.06774494 0.05289936 0.03446307 0.14441788 -0.07630658 -0.3566567 0.12855199 -0.07177797 -0.107372835 0.24034132 0.02845913 0.33864623 -0.026035089 -0.24044572 -0.3576565 0.1717608 0.061444253 -0.54395825 0.27785903 -0.091061875 -0.23803182 0.20810446 0.22325213 0.15641809 -0.2053594 0.049736798 0.063637055 0.02410136 -0.19769205 -0.24220929 -0.098903954 0.15138899 -0.36696652 -0.06475099 0.29469487 0.120474555 -0.16457307 -0.6638772 0.26597503 0.0644554 0.16828735 -0.35631496 -0.6189421 -0.04924458 -0.13826717 0.066632465 -0.060307786 0.104476385 -0.11276964 -0.12436898 -0.2696385 -0.34366676 0.06909869 -0.3157793 0.0076992246 0.44315884 0.011718229 -0.13757686 0.28064114 0.163741 0.40554115 -0.21292324 -0.0062122312 -0.17005248 -0.5173156 -0.378211 0.15804619 0.038983174 0.38183635 -0.32389632 0.13853014 -0.055234455 0.37277758 -0.18849058 0.33332285 0.3343499 0.33074299 -0.035567928 -0.535253 0.15022205 0.72919565 0.17227884 0.108139105 0.008050785 0.049159423 0.055437997 -0.021611912 0.105204865 -0.19437437 -0.21783456 0.010138109 0.05761197 0.04172412 -0.03024261 -0.32211274 0.19486319 -0.13903747 -0.12672096 -0.43220806
همراه -0.39358544 0.08808998 0.05037846 0.046884783 0.15571764 -0.13573015 -0.43370298 0.19960527 -0.06704041 -0.15214783 0.26107267 0.0050765127 0.42567348 -0.069028884 -0.34356484 -0.47787663 0.20920017 0.028126413 -0.7166847 0.36897543 -0.147315 -0.26467517 0.28276467 0.25746816 0.105530225 -0.3092642 0.040179573 0.11134775 0.10527474 -0.23318386 -0.3463359 -0.17278984 0.21349865 -0.47625807 -0.024922926 0.38330445 0.21019028 -0.20507818 -0.823982 0.3187845 0.079094745 0.2035051 -0.44587713 -0.753688 0.01471824 -0.17628996 0.04477445 -0.096362345 0.08487299 -0.11865309 -0.12095382 -0.37568313 -0.37754503 0.11886917 -0.40850633 -0.01826873 0.5387004 0.06028076 -0.18673034 0.32218516 0.22049783 0.5211717 -0.25876287 0.009104846 -0.22270866 -0.652477 -0.47606978 0.17892535 0.05960773 0.4741133 -0.44979757 0.17549458 -0.056995004 0.48475096 -0.21212125 0.4379269 0.32110983 0.43069574 -0.068240635 -0.6416478 0.18960018 0.9368403 0.2282699 0.122169316 0.02587178 0.0026527504 0.10550445 -0.036248144 0.11768438 -0.2831857 -0.3072779 -0.04198957 0.061365463 0.027047805 -0.079538986 -0.34239337 0.27734825 -0.1862675 -0.13331518 -0.5309495
HD -0.37077597 0.08778762 0.05275769 0.061269302 0.14002761 -0.12125637 -0.42017123 0.17790306 -0.035239633 -0.15547429 0.2635572 0.009534254 0.40939552 -0.074809045 -0.34088317 -0.4596876 0.20671993 0.026896698 -0.6966195 0.36233768 -0.13974614 -0.25417426 0.27173457 0.2562974 0.12108731 -0.28415033 0.03198031 0.108797185 0.09992344 -0.22879453 -0.31687948 -0.1698621 0.20156647 -0.46369234 -0.024552515 0.3644548 0.19600943 -0.17135425 -0.80829567 0.310878 0.05568878 0.18550716 -0.4419078 -0.7278785 0.004690868 -0.16066949 0.053198285 -0.09185493 0.084165365 -0.11287263 -0.13286637 -0.36852095 -0.37300354 0.10795314 -0.39023116 -0.02329756 0.5319911 0.053942755 -0.19980466 0.3236936 0.22032653 0.49379143 -0.2661108 0.01264978 -0.20110592 -0.6320085 -0.4695551 0.18377729 0.044438254 0.4789388 -0.41432178 0.18732576 -0.057229772 0.4856063 -0.20374036 0.42644036 0.32011178 0.4190545 -0.054553453 -0.64751214 0.18411322 0.9176168 0.22556797 0.12886769 0.020955915 0.015455386 0.11231578 -0.03565772 0.12056954 -0.27230078 -0.28857583 -0.018900312 0.042781603 0.023276502 -0.097599864 -0.3252332 0.25914472 -0.20152372 -0.1293012 -0.5090083
هسته -0.35575533 0.07146583 0.018059194 0.030270034 0.14405872 -0.13410464 -0.39051434 0.13631392 -0.074375466 -0.1352216 0.22230129 0.016079603 0.38180557 -0.048353128 -0.2506791 -0.40334985 0.18130906 0.040699482 -0.6243872 0.32977867 -0.11504164 -0.23716207 0.22815955 0.23824786 0.12635303 -0.20767002 0.038574204 0.054400932 0.08268871 -0.18942282 -0.2923546 -0.115819424 0.1699367 -0.42002305 -0.031111522 0.3049999 0.16360153 -0.1795179 -0.6922554 0.28573844 0.07257364 0.1726439 -0.38694823 -0.6591108 -0.0051120734 -0.13053787 0.03930057 -0.101504736 0.085953414 -0.08133034 -0.14205748 -0.2725667 -0.34128895 0.08634104 -0.35688147 0.0040506716 0.46836972 0.04338687 -0.12797071 0.29391095 0.16328458 0.44508442 -0.25544477 -0.024051871 -0.21299554 -0.54823273 -0.4360817 0.15715025 0.024932353 0.4262475 -0.3904884 0.14771606 -0.07924961 0.41440946 -0.18697526 0.36123177 0.34184206 0.38344502 -0.03085865 -0.54974645 0.15821339 0.8187636 0.18478078 0.1071818 0.0028623107 0.014241122 0.06350983 0.007692385 0.11414444 -0.21402878 -0.27239108 -0.053931277 0.08029583 0.058252178 -0.05339275 -0.33753255 0.22745006 -0.16590455 -0.11668994 -0.44573784
کالا -0.37532195 0.047417026 0.10103492 0.010008775 0.18175508 -0.044547155 -0.45777455 0.19160683 -0.040268846 -0.096508816 0.3187671 0.03660195 0.3841671 0.007325952 -0.29820114 -0.42864126 0.21206604 0.05519447 -0.6367625 0.3632706 -0.12963568 -0.29935285 0.21855278 0.2731893 0.26926318 -0.18891804 0.08174501 0.0941193 -0.0014445096 -0.26743057 -0.25869247 -0.06979921 0.19888088 -0.45249015 -0.13040051 0.39828622 0.13023928 -0.21069445 -0.80432594 0.34049428 0.0468724 0.21124718 -0.43808502 -0.75179935 -0.039825708 -0.118333556 0.12781966 -0.074850984 0.15023257 -0.1827603 -0.16738237 -0.3516066 -0.4822167 0.095082276 -0.3548505 0.022300452 0.5171079 0.017973077 -0.11960817 0.35717225 0.23274139 0.4316794 -0.24275635 -0.023642763 -0.21373522 -0.6441835 -0.4122285 0.18217783 0.06957786 0.4940692 -0.37171057 0.13545893 -0.07101693 0.41135243 -0.18969586 0.3738382 0.40583238 0.36426586 -0.014373089 -0.6223032 0.18720594 0.82373035 0.19272728 0.16066827 -0.011826831 0.113727264 0.04707012 -0.036030304 0.13127783 -0.21356116 -0.22963998 0.023252534 0.032989707 0.086034544 -0.024293944 -0.43411854 0.2326183 -0.15352787 -0.132714 -0.49204585
ميکنه -0.36899614 0.07985567 0.054027718 0.048575874 0.15774117 -0.086816326 -0.41735715 0.13947256 -0.06171205 -0.13016923 0.28041872 0.027226599 0.3968038 -0.03258823 -0.28509665 -0.4147621 0.20157968 0.058281753 -0.64321595 0.3199986 -0.107701 -0.25644913 0.24274881 0.25062945 0.16548014 -0.23776127 0.052377902 0.0857591 0.049351826 -0.22578177 -0.2810823 -0.1181287 0.16968407 -0.42585844 -0.06466277 0.3498719 0.15299729 -0.18616161 -0.74131095 0.30887055 0.075012594 0.18817234 -0.4141861 -0.6908004 -0.03090631 -0.14804596 0.06346467 -0.08387827 0.101662464 -0.1232917 -0.13445514 -0.30654272 -0.38432288 0.08888457 -0.36860323 -0.008530585 0.50637305 0.024772314 -0.16446976 0.30423638 0.18925871 0.45971453 -0.24500927 -0.013508076 -0.19356309 -0.5873768 -0.43050712 0.18421754 0.04074307 0.44759074 -0.37727204 0.16059141 -0.065330274 0.43725458 -0.20195892 0.39950225 0.3524366 0.3836829 -0.041625157 -0.59622574 0.17228149 0.8384798 0.20372064 0.12668781 0.00797977 0.056129698 0.08392253 -0.028816674 0.11921813 -0.24010748 -0.25033626 0.007824336 0.063672274 0.0487374 -0.047711093 -0.35102892 0.22821109 -0.1603781 -0.1398168 -0.49624816
کنسول -0.34279677 0.06050365 0.05615834 0.0507427 0.15040109 -0.086102895 -0.39961672 0.13763805 -0.055744726 -0.118446015 0.25810677 0.01790969 0.36284995 -0.04379059 -0.28148684 -0.40069264 0.17914517 0.064153254 -0.60461706 0.30901316 -0.112371765 -0.24450842 0.23780657 0.24017754 0.1480635 -0.24964242 0.0452764 0.06131848 0.042859618 -0.22911906 -0.26777 -0.12538394 0.1573153 -0.42046085 -0.057909805 0.3258143 0.14040333 -0.17477863 -0.71842784 0.28458756 0.073530085 0.19485188 -0.37772682 -0.6709561 -0.03218179 -0.14903875 0.07061389 -0.0660993 0.094817616 -0.12941515 -0.12885284 -0.30170086 -0.3709731 0.079101354 -0.3454714 -0.013579557 0.4885994 0.017189525 -0.13179405 0.30007052 0.17893147 0.45177382 -0.22202699 -0.008445776 -0.18314384 -0.55090064 -0.40239614 0.17653216 0.051669396 0.42602116 -0.36253887 0.15317464 -0.059893318 0.4132411 -0.19572227 0.35798615 0.3286887 0.37110215 -0.0427616 -0.5739806 0.16139066 0.78291595 0.19048154 0.10489032 0.018680286 0.038235582 0.07764844 -0.03215143 0.10402589 -0.22244488 -0.2495248 -0.0030908524 0.056991287 0.039089806 -0.038333308 -0.33055854 0.23522542 -0.16253872 -0.124005325 -0.4671592
موجود -0.32142186 0.07454135 0.042183284 0.039251737 0.1257924 -0.11253632 -0.35566613 0.17521709 -0.058163617 -0.12412819 0.21657023 -0.007936984 0.3354362 -0.054743707 -0.27487323 -0.37965134 0.16822964 0.020720813 -0.57476676 0.29278624 -0.116899066 -0.22188301 0.22346811 0.20321055 0.08039427 -0.26202485 0.03768776 0.08694381 0.085421026 -0.18600364 -0.28530622 -0.15075953 0.16925843 -0.38421726 -0.020923404 0.31158286 0.17697828 -0.16658683 -0.6704576 0.25177363 0.06514199 0.15491042 -0.3607676 -0.6056728 0.010912032 -0.14311215 0.030644434 -0.07625682 0.07925385 -0.096164644 -0.09965984 -0.30526108 -0.31559953 0.08191791 -0.32442853 -0.018073814 0.4428154 0.04297394 -0.15567324 0.26194692 0.18613085 0.41740602 -0.21247321 0.012900806 -0.18661746 -0.54747343 -0.387595 0.14142644 0.054280426 0.3917258 -0.36677176 0.13908195 -0.04078828 0.3904673 -0.16503955 0.3495971 0.27443504 0.35073417 -0.061890967 -0.5210093 0.1456871 0.76982796 0.18612586 0.09283882 0.011508904 0.0032749595 0.08079734 -0.033440147 0.0903679 -0.22670078 -0.2365872 -0.0467604 0.035571307 0.009631177 -0.07408509 -0.28027987 0.22063833 -0.14892024 -0.09068531 -0.42088318
خريد -0.35461488 0.074094236 0.055159815 0.038412698 0.15417916 -0.07743224 -0.3892853 0.1362193 -0.065605424 -0.12387018 0.2666118 0.035808396 0.36795264 -0.024308443 -0.26248938 -0.3839291 0.18343635 0.06541316 -0.5918774 0.30523777 -0.09502974 -0.24806285 0.22223996 0.23532991 0.16546765 -0.21316144 0.059536017 0.07583029 0.022693949 -0.2210084 -0.25988021 -0.09887379 0.16343129 -0.40287417 -0.07696248 0.31721476 0.13616401 -0.18340765 -0.7098186 0.2889529 0.06700242 0.19239506 -0.38616374 -0.66249007 -0.044843584 -0.14620525 0.06430478 -0.06587059 0.10883162 -0.12475766 -0.13196354 -0.2959245 -0.3689791 0.07044651 -0.3369385 0.00618305 0.47214618 0.012914453 -0.14818658 0.29211268 0.18184528 0.43356138 -0.22839011 -0.016762586 -0.18469961 -0.5570874 -0.3937281 0.1647114 0.037728276 0.41816917 -0.3441982 0.14256944 -0.06123939 0.40969464 -0.20580356 0.36272818 0.35306114 0.35267594 -0.036286507 -0.56727904 0.1645567 0.77183235 0.18239568 0.11940762 0.008182653 0.060858063 0.063166514 -0.021241112 0.107177965 -0.20430377 -0.2232693 0.008483248 0.050127313 0.046138372 -0.031992886 -0.3533297 0.20942973 -0.14931971 -0.13593891 -0.46709028
دوستان -0.32365268 0.055741925 0.06375102 0.042671192 0.13376565 -0.056110937 -0.3635653 0.11451756 -0.071857184 -0.112004235 0.23085995 0.03168468 0.33777913 -0.03789226 -0.24414852 -0.34791157 0.17426299 0.06885267 -0.5500733 0.2772951 -0.08375576 -0.23246284 0.19269694 0.21328561 0.17309728 -0.18970281 0.056079738 0.06939832 0.017921872 -0.19171286 -0.22623843 -0.085822225 0.16658477 -0.37970376 -0.08464644 0.30073056 0.10519996 -0.16885985 -0.6433668 0.28116775 0.069004565 0.1733786 -0.35406095 -0.6067926 -0.036728326 -0.13538067 0.05975778 -0.062853575 0.10354532 -0.12475039 -0.12269392 -0.25625327 -0.35999408 0.06732591 -0.29995075 0.005739038 0.44198152 -0.00054205937 -0.13085802 0.27170452 0.15682536 0.38892326 -0.21620502 -0.011568289 -0.1693087 -0.519242 -0.35633537 0.14438139 0.02204056 0.38748282 -0.30767116 0.12716383 -0.054219794 0.3668192 -0.18240677 0.3267235 0.31775776 0.31303212 -0.021262845 -0.5284015 0.1561792 0.7093167 0.17278303 0.11547393 -0.017377311 0.049480654 0.044119436 -0.02137549 0.105140716 -0.19405484 -0.2041947 0.015644835 0.039902333 0.051007114 -0.027236806 -0.32297647 0.1899188 -0.13641712 -0.12624072 -0.42043296
4 -0.35756865 0.08202501 0.034367986 0.03733258 0.13778457 -0.11169478 -0.39429668 0.15373424 -0.06836523 -0.12782209 0.2401059 0.01739773 0.37081054 -0.050315782 -0.27408546 -0.40370253 0.18622367 0.056585636 -0.62335116 0.32096037 -0.11160954 -0.2438246 0.23007481 0.23679265 0.12417172 -0.23558731 0.04201537 0.07609078 0.06870583 -0.20758148 -0.29152015 -0.124782994 0.18418097 -0.40851012 -0.043078896 0.3256248 0.16951707 -0.18062797 -0.70361495 0.27845645 0.06486015 0.17904684 -0.3802213 -0.6596623 -0.0129288845 -0.14483845 0.046758242 -0.09546635 0.096004546 -0.101042904 -0.13210724 -0.3000998 -0.35552043 0.08899261 -0.3532475 0.00050365797 0.47987306 0.033226237 -0.1504382 0.28840074 0.17605779 0.45586726 -0.24533518 -0.0012987866 -0.19820073 -0.56538355 -0.4223558 0.15431333 0.042978693 0.42216292 -0.37459356 0.14998192 -0.0655621 0.41577405 -0.18735917 0.3806599 0.32758173 0.37088916 -0.055113163 -0.55603015 0.16533704 0.82493883 0.19162717 0.11164052 0.0074174646 0.018908711 0.06975902 -0.008204714 0.10829305 -0.21915421 -0.2613353 -0.033864234 0.061655086 0.029305639 -0.05038997 -0.33790976 0.2239862 -0.14902914 -0.113334574 -0.4585084
امکانات -0.33771276 0.06950748 0.049326003 0.041895803 0.14381748 -0.09310564 -0.3811152 0.14727828 -0.06939007 -0.12910135 0.24809693 0.023086917 0.3571291 -0.030481376 -0.2715232 -0.38368437 0.17965248 0.04655065 -0.58987993 0.306361 -0.112958744 -0.24068774 0.2284751 0.22557823 0.1399094 -0.23475325 0.043586105 0.074462034 0.058935434 -0.20986365 -0.2647318 -0.12118185 0.16338728 -0.39707118 -0.05705246 0.32182297 0.15713166 -0.18179585 -0.6942218 0.2780872 0.06555193 0.17959577 -0.3845568 -0.64454895 -0.029679416 -0.14292803 0.05671049 -0.07523389 0.0967183 -0.1116757 -0.123513915 -0.29240164 -0.35373044 0.075435214 -0.33840224 -0.007818626 0.46640995 0.027010899 -0.14484568 0.28445765 0.18442303 0.43685418 -0.22423527 -0.0020884576 -0.18937202 -0.5482234 -0.40336132 0.16286409 0.03715445 0.41140303 -0.34748554 0.15346642 -0.060335442 0.40161556 -0.18642934 0.36610252 0.31544408 0.3572732 -0.046871115 -0.55348074 0.15333119 0.7759209 0.1859161 0.10602017 0.0003599931 0.038208798 0.07276849 -0.024999224 0.10487948 -0.21564172 -0.2356811 -0.0071157543 0.054029465 0.031527054 -0.04673065 -0.32353848 0.2139007 -0.15150176 -0.12318782 -0.4586723
عکاسی -0.35160777 0.07680491 0.054905184 0.05496532 0.12785043 -0.120865814 -0.4030619 0.19354028 -0.039722763 -0.15179482 0.22725698 0.000409131 0.3972487 -0.06272283 -0.34203073 -0.4372817 0.19047308 -0.0020596546 -0.66535777 0.34545532 -0.14497189 -0.24498941 0.26339862 0.22986315 0.08509824 -0.3055797 0.042542785 0.117139466 0.121799886 -0.21908501 -0.32560077 -0.17423785 0.19785342 -0.44671768 -0.023296801 0.35740638 0.20426759 -0.18415174 -0.7579245 0.29151878 0.055814058 0.1824075 -0.41859087 -0.68809587 0.032878887 -0.181938 0.0388685 -0.09996839 0.061181456 -0.097547375 -0.110664375 -0.36340138 -0.3455512 0.12018624 -0.37411252 -0.03367691 0.50351655 0.059956796 -0.18013163 0.29730442 0.21639465 0.48320663 -0.24171531 0.022382159 -0.19327632 -0.6083848 -0.44016165 0.16491795 0.062014278 0.4544848 -0.40486017 0.17888924 -0.048278406 0.46040088 -0.18289396 0.42242882 0.27782914 0.4121537 -0.07626453 -0.5878734 0.16097973 0.8698665 0.20542552 0.12361661 0.0101810545 -0.0061346646 0.10747936 -0.03491226 0.0925377 -0.2829421 -0.27820373 -0.03593688 0.043673635 0.01701111 -0.10099602 -0.29485962 0.274693 -0.18273942 -0.11974745 -0.47846106
ساخت -0.30728415 0.06919901 0.04333867 0.038656417 0.13100886 -0.095966496 -0.35730052 0.15740904 -0.05335196 -0.12161776 0.21786538 0.011082602 0.33558196 -0.045327175 -0.27425817 -0.36647516 0.16210683 0.010062765 -0.5688227 0.29181486 -0.11178302 -0.22945508 0.21958034 0.19378333 0.08619243 -0.22975332 0.04138563 0.09490219 0.08753788 -0.18396695 -0.26186803 -0.1430415 0.17119864 -0.36719042 -0.036678746 0.31469357 0.17008996 -0.15893953 -0.6664448 0.26826832 0.066931896 0.15529263 -0.36964273 -0.6084095 0.0026764546 -0.13907221 0.046849273 -0.08132226 0.062251396 -0.08989509 -0.09514358 -0.29802662 -0.3181504 0.08203678 -0.31380984 -0.01013335 0.42578048 0.044464488 -0.15608312 0.27132395 0.17981473 0.41061506 -0.21877904 0.015096662 -0.17445847 -0.5451154 -0.37778878 0.13961972 0.036547206 0.39646062 -0.34784046 0.1336239 -0.04475079 0.38677603 -0.16613132 0.36715806 0.26218015 0.33714134 -0.06595121 -0.5260694 0.13408823 0.7619057 0.17312476 0.11370451 0.0071787057 0.012559317 0.07722474 -0.030870302 0.093426116 -0.2203101 -0.22554983 -0.023760702 0.043137547 0.022244573 -0.071391836 -0.2801989 0.2248666 -0.14375018 -0.09377345 -0.42951888
توجه -0.36241636 0.08183327 0.056805234 0.049415268 0.15264456 -0.09573103 -0.40600634 0.15397021 -0.062009186 -0.13386741 0.25615734 0.022127425 0.3856344 -0.046279248 -0.3010507 -0.41403747 0.19704175 0.04932133 -0.64106214 0.32934877 -0.11792993 -0.2542642 0.24002191 0.24711995 0.14562257 -0.25065786 0.049952425 0.08955132 0.06884023 -0.22554092 -0.2834389 -0.13845153 0.17731628 -0.42796114 -0.058918037 0.34011242 0.16279542 -0.18623821 -0.74773246 0.30168155 0.07219006 0.1855819 -0.40814742 -0.6867568 -0.019038258 -0.16029494 0.056015402 -0.07808349 0.09923812 -0.115697406 -0.12626341 -0.3124095 -0.37279275 0.09203961 -0.3539679 -0.009439343 0.49233687 0.037564103 -0.16553624 0.29995653 0.18907551 0.46268186 -0.24140319 -0.0031736216 -0.19494325 -0.5937199 -0.42629474 0.16495572 0.046261467 0.43616787 -0.3805236 0.16617544 -0.053728286 0.43678358 -0.19360104 0.39122176 0.32907614 0.37796617 -0.05577532 -0.59368455 0.17061844 0.83076876 0.19525813 0.112390526 0.0102662435 0.032828007 0.07736526 -0.030356873 0.1164096 -0.23653223 -0.259743 -0.013568406 0.049700063 0.036201447 -0.057931967 -0.33859304 0.23041132 -0.16348626 -0.1285678 -0.4832342
يکي -0.3517151 0.07008313 0.05555181 0.041124634 0.14993013 -0.07661862 -0.37818843 0.12982915 -0.06999197 -0.12392732 0.26057008 0.02837343 0.3588816 -0.025903879 -0.2686101 -0.38140512 0.1841282 0.055356245 -0.58731467 0.29861072 -0.09716757 -0.23933122 0.22538634 0.23449273 0.16341971 -0.21738511 0.047111105 0.071090475 0.029633982 -0.21546952 -0.256426 -0.10445982 0.15800822 -0.39848968 -0.07043655 0.3112796 0.1382237 -0.18578905 -0.6994699 0.28571934 0.06651443 0.18000476 -0.3839245 -0.644018 -0.034800638 -0.1444335 0.06160942 -0.073433496 0.099586256 -0.12524325 -0.12996373 -0.2926355 -0.3652952 0.075644135 -0.34241912 0.0020315347 0.469036 0.02050409 -0.14838555 0.29118514 0.17797074 0.42839655 -0.23206557 -0.0056229522 -0.1817223 -0.5528756 -0.40001583 0.16879906 0.038263522 0.40769547 -0.35086012 0.15214336 -0.059488147 0.40259886 -0.20319268 0.36510527 0.3406712 0.3542059 -0.043581884 -0.56648463 0.15273716 0.76688147 0.17949162 0.10946648 0.004092643 0.053535156 0.06504058 -0.027775452 0.11558496 -0.21123543 -0.223883 0.005617713 0.05432785 0.035647277 -0.040266205 -0.34429535 0.2035829 -0.14178762 -0.1285694 -0.46786565
اينکه -0.38411674 0.08165935 0.055138744 0.044629857 0.15679145 -0.0845965 -0.42636946 0.14735007 -0.06884783 -0.13487254 0.28735226 0.032786958 0.3996021 -0.03837405 -0.29169774 -0.4266713 0.19722643 0.0683412 -0.6566439 0.325873 -0.10982353 -0.2680171 0.24989475 0.26136717 0.17253448 -0.24843165 0.05763743 0.08051101 0.04644201 -0.23828939 -0.28719264 -0.12321327 0.17837554 -0.44210884 -0.06730776 0.35301614 0.1467347 -0.20069636 -0.7647458 0.31639105 0.07368145 0.20184131 -0.41372854 -0.71040684 -0.043254513 -0.16023988 0.06278462 -0.08840552 0.1110571 -0.13625422 -0.14399111 -0.31727374 -0.40178066 0.08315835 -0.37878606 -0.0026980187 0.521765 0.02489259 -0.16856274 0.31003878 0.19185813 0.47402254 -0.25169957 -0.014562879 -0.20173754 -0.6010103 -0.4380169 0.18901893 0.04544897 0.4507041 -0.3837128 0.17049128 -0.065616414 0.44789794 -0.21371326 0.40236655 0.3683522 0.39038515 -0.04779014 -0.6209876 0.17103708 0.85621333 0.20730723 0.13143487 -0.00043387062 0.051142313 0.07720904 -0.02692236 0.1215116 -0.23384233 -0.2618477 0.002551578 0.055892896 0.04171229 -0.04207853 -0.36843902 0.23470569 -0.16551436 -0.14127706 -0.51648027
